#ifndef MINIROCKET_MODEL_CONSTANTS_H
#define MINIROCKET_MODEL_CONSTANTS_H

#include "minirocket_inference_hls.h"

// Auto-generated model constants from training

const int_t MODEL_NUM_FEATURES = 420;
const int_t MODEL_NUM_CLASSES = 4;
const int_t MODEL_NUM_DILATIONS = 5;

const int_t MODEL_DILATIONS[MAX_DILATIONS] = {
    1, 2, 4, 8, 16
};

const int_t MODEL_FEATURES_PER_DILATION[MAX_DILATIONS] = {
    84, 84, 84, 84, 84
};

const data_t MODEL_BIASES[420] = {
    0.198582f, 0.227731f, 0.262976f, 0.302587f, 0.345308f, 0.392608f, 0.439834f, 0.227731f, 
    0.262976f, 0.302587f, 0.345308f, 0.392608f, 0.439834f, 0.262976f, 0.302587f, 0.345308f, 
    0.392608f, 0.439834f, 0.302587f, 0.345308f, 0.392608f, 0.439834f, 0.345308f, 0.392608f, 
    0.439834f, 0.392608f, 0.439834f, 0.439834f, 0.196475f, 0.225623f, 0.259932f, 0.298906f, 
    0.339927f, 0.385952f, 0.225623f, 0.259932f, 0.298906f, 0.339927f, 0.385952f, 0.259932f, 
    0.298906f, 0.339927f, 0.385952f, 0.298906f, 0.339927f, 0.385952f, 0.339927f, 0.385952f, 
    0.385952f, 0.196475f, 0.225459f, 0.259668f, 0.298705f, 0.339863f, 0.225459f, 0.259668f, 
    0.298705f, 0.339863f, 0.259668f, 0.298705f, 0.339863f, 0.298705f, 0.339863f, 0.339863f, 
    0.196449f, 0.225837f, 0.259994f, 0.298907f, 0.225837f, 0.259994f, 0.298907f, 0.259994f, 
    0.298907f, 0.298907f, 0.196356f, 0.225938f, 0.260102f, 0.225938f, 0.260102f, 0.260102f, 
    0.196518f, 0.226393f, 0.226393f, 0.196933f, 0.258158f, 0.331044f, 0.411099f, 0.492325f, 
    0.579889f, 0.677201f, 0.779797f, 0.331044f, 0.411099f, 0.492325f, 0.579889f, 0.677201f, 
    0.779797f, 0.411099f, 0.492325f, 0.579889f, 0.677201f, 0.779797f, 0.492325f, 0.579889f, 
    0.677201f, 0.779797f, 0.579889f, 0.677201f, 0.779797f, 0.677201f, 0.779797f, 0.779797f, 
    0.251230f, 0.317685f, 0.394521f, 0.473079f, 0.563146f, 0.661559f, 0.317685f, 0.394521f, 
    0.473079f, 0.563146f, 0.661559f, 0.394521f, 0.473079f, 0.563146f, 0.661559f, 0.473079f, 
    0.563146f, 0.661559f, 0.563146f, 0.661559f, 0.661559f, 0.248656f, 0.315305f, 0.393322f, 
    0.473693f, 0.566530f, 0.315305f, 0.393322f, 0.473693f, 0.566530f, 0.393322f, 0.473693f, 
    0.566530f, 0.473693f, 0.566530f, 0.566530f, 0.248907f, 0.315901f, 0.395639f, 0.480511f, 
    0.315901f, 0.395639f, 0.480511f, 0.395639f, 0.480511f, 0.480511f, 0.249908f, 0.319128f, 
    0.402879f, 0.319128f, 0.402879f, 0.402879f, 0.252564f, 0.325936f, 0.325936f, 0.256495f, 
    0.457380f, 0.660246f, 0.863643f, 1.078401f, 1.404714f, 1.677163f, 1.789654f, 0.660246f, 
    0.863643f, 1.078401f, 1.404714f, 1.677163f, 1.789654f, 0.863643f, 1.078401f, 1.404714f, 
    1.677163f, 1.789654f, 1.078401f, 1.404714f, 1.677163f, 1.789654f, 1.404714f, 1.677163f, 
    1.789654f, 1.677163f, 1.789654f, 1.789654f, 0.409515f, 0.574524f, 0.780061f, 1.062965f, 
    1.404714f, 1.676754f, 0.574524f, 0.780061f, 1.062965f, 1.404714f, 1.676754f, 0.780061f, 
    1.062965f, 1.404714f, 1.676754f, 1.062965f, 1.404714f, 1.676754f, 1.404714f, 1.676754f, 
    1.676754f, 0.383653f, 0.554035f, 0.780566f, 1.065674f, 1.405430f, 0.554035f, 0.780566f, 
    1.065674f, 1.405430f, 0.780566f, 1.065674f, 1.405430f, 1.065674f, 1.405430f, 1.405430f, 
    0.379821f, 0.557563f, 0.783767f, 1.076623f, 0.557563f, 0.783767f, 1.076623f, 0.783767f, 
    1.076623f, 1.076623f, 0.385245f, 0.579914f, 0.846006f, 0.579914f, 0.846006f, 0.846006f, 
    0.412512f, 0.647396f, 0.647396f, 0.451948f, 1.244249f, 1.820788f, 1.943402f, 1.812969f, 
    1.253014f, 0.692275f, 0.303941f, 1.820788f, 1.943402f, 1.812969f, 1.253014f, 0.692275f, 
    0.303941f, 1.943402f, 1.812969f, 1.253014f, 0.692275f, 0.303941f, 1.812969f, 1.253014f, 
    0.692275f, 0.303941f, 1.253014f, 0.692275f, 0.303941f, 0.692275f, 0.303941f, 0.303941f, 
    1.240769f, 1.820788f, 1.943402f, 1.813594f, 1.255148f, 0.692739f, 1.820788f, 1.943402f, 
    1.813594f, 1.255148f, 0.692739f, 1.943402f, 1.813594f, 1.255148f, 0.692739f, 1.813594f, 
    1.255148f, 0.692739f, 1.255148f, 0.692739f, 0.692739f, 1.240672f, 1.820788f, 1.943402f, 
    1.813754f, 1.257198f, 1.820788f, 1.943402f, 1.813754f, 1.257198f, 1.943402f, 1.813754f, 
    1.257198f, 1.813754f, 1.257198f, 1.257198f, 1.240672f, 1.820788f, 1.943402f, 1.814597f, 
    1.820788f, 1.943402f, 1.814597f, 1.943402f, 1.814597f, 1.814597f, 1.239484f, 1.820788f, 
    1.943402f, 1.820788f, 1.943402f, 1.943402f, 1.239484f, 1.820788f, 1.820788f, 1.241661f, 
    0.000000f, 0.000000f, 0.000000f, 0.000000f, 0.000000f, 0.000000f, 0.000000f, 0.000000f, 
    0.000000f, 0.000000f, 0.000000f, 0.000000f, 0.000000f, 0.000000f, 0.000000f, 0.000000f, 
    0.000000f, 0.000000f, 0.000000f, 0.000000f, 0.000000f, 0.000000f, 0.000000f, 0.000000f, 
    0.000000f, 0.000000f, 0.000000f, 0.000000f, 0.000000f, 0.000000f, 0.000000f, 0.000000f, 
    0.000000f, 0.000000f, 0.000000f, 0.000000f, 0.000000f, 0.000000f, 0.000000f, 0.000000f, 
    0.000000f, 0.000000f, 0.000000f, 0.000000f, 0.000000f, 0.000000f, 0.000000f, 0.000000f, 
    0.000000f, 0.000000f, 0.000000f, 0.000000f, 0.000000f, 0.000000f, 0.000000f, 0.000000f, 
    0.000000f, 0.000000f, 0.000000f, 0.000000f, 0.000000f, 0.000000f, 0.000000f, 0.000000f, 
    0.000000f, 0.000000f, 0.000000f, 0.000000f, 0.000000f, 0.000000f, 0.000000f, 0.000000f, 
    0.000000f, 0.000000f, 0.000000f, 0.000000f, 0.000000f, 0.000000f, 0.000000f, 0.000000f, 
    0.000000f, 0.000000f, 0.000000f, 0.000000f
};

const data_t MODEL_SCALER_MEAN[420] = {
    0.100000f, 0.100000f, 0.100000f, 0.100000f, 0.100000f, 0.100000f, 0.100000f, 0.100000f, 
    0.100000f, 0.100000f, 0.100000f, 0.100000f, 0.100000f, 0.100000f, 0.100000f, 0.100000f, 
    0.100000f, 0.100000f, 0.100000f, 0.100000f, 0.100000f, 0.100000f, 0.100000f, 0.100000f, 
    0.100000f, 0.100000f, 0.100000f, 0.100000f, 0.100000f, 0.100000f, 0.100000f, 0.100000f, 
    0.100000f, 0.100000f, 0.100000f, 0.100000f, 0.100000f, 0.100000f, 0.100000f, 0.100000f, 
    0.100000f, 0.100000f, 0.100000f, 0.100000f, 0.100000f, 0.100000f, 0.100000f, 0.100000f, 
    0.100000f, 0.100000f, 0.100000f, 0.100000f, 0.100000f, 0.100000f, 0.100000f, 0.100000f, 
    0.100000f, 0.100000f, 0.100000f, 0.100000f, 0.100000f, 0.100000f, 0.100000f, 0.100000f, 
    0.100000f, 0.100000f, 0.100000f, 0.100000f, 0.100000f, 0.100000f, 0.100000f, 0.100000f, 
    0.100000f, 0.100000f, 0.100000f, 0.100000f, 0.100000f, 0.100000f, 0.100000f, 0.100000f, 
    0.100000f, 0.100000f, 0.100000f, 0.100000f, 0.100000f, 0.100000f, 0.100000f, 0.100000f, 
    0.100000f, 0.100000f, 0.100000f, 0.100000f, 0.100000f, 0.100000f, 0.100000f, 0.100000f, 
    0.100000f, 0.100000f, 0.100000f, 0.100000f, 0.100000f, 0.100000f, 0.100000f, 0.100000f, 
    0.100000f, 0.100000f, 0.100000f, 0.100000f, 0.100000f, 0.100000f, 0.100000f, 0.100000f, 
    0.100000f, 0.100000f, 0.100000f, 0.100000f, 0.100000f, 0.100000f, 0.100000f, 0.100000f, 
    0.100000f, 0.100000f, 0.100000f, 0.100000f, 0.100000f, 0.100000f, 0.100000f, 0.100000f, 
    0.100000f, 0.100000f, 0.100000f, 0.100000f, 0.100000f, 0.100000f, 0.100000f, 0.100000f, 
    0.100000f, 0.100000f, 0.100000f, 0.100000f, 0.100000f, 0.100000f, 0.100000f, 0.100000f, 
    0.100000f, 0.100000f, 0.100000f, 0.100000f, 0.100000f, 0.100000f, 0.100000f, 0.100000f, 
    0.100000f, 0.100000f, 0.100000f, 0.100000f, 0.100000f, 0.100000f, 0.100000f, 0.100000f, 
    0.100000f, 0.100000f, 0.100000f, 0.100000f, 0.100000f, 0.100000f, 0.100000f, 0.100000f, 
    0.100000f, 0.100000f, 0.100000f, 0.100000f, 0.100000f, 0.100000f, 0.100000f, 0.100000f, 
    0.100000f, 0.100000f, 0.100000f, 0.100000f, 0.100000f, 0.100000f, 0.100000f, 0.100000f, 
    0.100000f, 0.100000f, 0.100000f, 0.100000f, 0.100000f, 0.100000f, 0.100000f, 0.100000f, 
    0.100000f, 0.100000f, 0.100000f, 0.100000f, 0.100000f, 0.100000f, 0.100000f, 0.100000f, 
    0.100000f, 0.100000f, 0.100000f, 0.100000f, 0.100000f, 0.100000f, 0.100000f, 0.100000f, 
    0.100000f, 0.100000f, 0.100000f, 0.100000f, 0.100000f, 0.100000f, 0.100000f, 0.100000f, 
    0.100000f, 0.100000f, 0.100000f, 0.100000f, 0.100000f, 0.100000f, 0.100000f, 0.100000f, 
    0.100000f, 0.100000f, 0.100000f, 0.100000f, 0.100000f, 0.100000f, 0.100000f, 0.100000f, 
    0.100000f, 0.100000f, 0.100000f, 0.100000f, 0.100000f, 0.100000f, 0.100000f, 0.100000f, 
    0.100000f, 0.100000f, 0.100000f, 0.100000f, 0.100000f, 0.100000f, 0.100000f, 0.100000f, 
    0.100000f, 0.100000f, 0.100000f, 0.100000f, 0.100000f, 0.100000f, 0.100000f, 0.100000f, 
    0.100000f, 0.100000f, 0.100000f, 0.100000f, 0.100000f, 0.100000f, 0.100000f, 0.100000f, 
    0.100000f, 0.100000f, 0.100000f, 0.100000f, 0.100000f, 0.100000f, 0.100000f, 0.100000f, 
    0.100000f, 0.100000f, 0.100000f, 0.100000f, 0.100000f, 0.100000f, 0.100000f, 0.100000f, 
    0.100000f, 0.100000f, 0.100000f, 0.100000f, 0.100000f, 0.100000f, 0.100000f, 0.100000f, 
    0.100000f, 0.100000f, 0.100000f, 0.100000f, 0.100000f, 0.100000f, 0.100000f, 0.100000f, 
    0.100000f, 0.100000f, 0.100000f, 0.100000f, 0.100000f, 0.100000f, 0.100000f, 0.100000f, 
    0.100000f, 0.100000f, 0.100000f, 0.100000f, 0.100000f, 0.100000f, 0.100000f, 0.100000f, 
    0.100000f, 0.100000f, 0.100000f, 0.100000f, 0.100000f, 0.100000f, 0.100000f, 0.100000f, 
    0.100000f, 0.100000f, 0.100000f, 0.100000f, 0.100000f, 0.100000f, 0.100000f, 0.100000f, 
    0.100000f, 0.100000f, 0.100000f, 0.100000f, 0.100000f, 0.100000f, 0.100000f, 0.100000f, 
    0.000000f, 0.000000f, 0.000000f, 0.000000f, 0.000000f, 0.000000f, 0.000000f, 0.000000f, 
    0.000000f, 0.000000f, 0.000000f, 0.000000f, 0.000000f, 0.000000f, 0.000000f, 0.000000f, 
    0.000000f, 0.000000f, 0.000000f, 0.000000f, 0.000000f, 0.000000f, 0.000000f, 0.000000f, 
    0.000000f, 0.000000f, 0.000000f, 0.000000f, 0.000000f, 0.000000f, 0.000000f, 0.000000f, 
    0.000000f, 0.000000f, 0.000000f, 0.000000f, 0.000000f, 0.000000f, 0.000000f, 0.000000f, 
    0.000000f, 0.000000f, 0.000000f, 0.000000f, 0.000000f, 0.000000f, 0.000000f, 0.000000f, 
    0.000000f, 0.000000f, 0.000000f, 0.000000f, 0.000000f, 0.000000f, 0.000000f, 0.000000f, 
    0.000000f, 0.000000f, 0.000000f, 0.000000f, 0.000000f, 0.000000f, 0.000000f, 0.000000f, 
    0.000000f, 0.000000f, 0.000000f, 0.000000f, 0.000000f, 0.000000f, 0.000000f, 0.000000f, 
    0.000000f, 0.000000f, 0.000000f, 0.000000f, 0.000000f, 0.000000f, 0.000000f, 0.000000f, 
    0.000000f, 0.000000f, 0.000000f, 0.000000f
};

const data_t MODEL_SCALER_SCALE[420] = {
    0.039626f, 0.057658f, 0.074884f, 0.086193f, 0.093932f, 0.097519f, 0.100006f, 0.057658f, 
    0.074884f, 0.086193f, 0.093932f, 0.097519f, 0.100006f, 0.074884f, 0.086193f, 0.093932f, 
    0.097519f, 0.100006f, 0.086193f, 0.093932f, 0.097519f, 0.100006f, 0.093932f, 0.097519f, 
    0.100006f, 0.097519f, 0.100006f, 0.100006f, 0.039564f, 0.058710f, 0.076628f, 0.088224f, 
    0.096283f, 0.099760f, 0.058710f, 0.076628f, 0.088224f, 0.096283f, 0.099760f, 0.076628f, 
    0.088224f, 0.096283f, 0.099760f, 0.088224f, 0.096283f, 0.099760f, 0.096283f, 0.099760f, 
    0.099760f, 0.039468f, 0.058330f, 0.076431f, 0.088175f, 0.096368f, 0.058330f, 0.076431f, 
    0.088175f, 0.096368f, 0.076431f, 0.088175f, 0.096368f, 0.088175f, 0.096368f, 0.096368f, 
    0.039405f, 0.058517f, 0.076630f, 0.088518f, 0.058517f, 0.076630f, 0.088518f, 0.076630f, 
    0.088518f, 0.088518f, 0.039284f, 0.058525f, 0.076841f, 0.058525f, 0.076841f, 0.076841f, 
    0.039320f, 0.058679f, 0.058679f, 0.039551f, 0.071170f, 0.087733f, 0.091524f, 0.092210f, 
    0.092413f, 0.092824f, 0.093378f, 0.087733f, 0.091524f, 0.092210f, 0.092413f, 0.092824f, 
    0.093378f, 0.091524f, 0.092210f, 0.092413f, 0.092824f, 0.093378f, 0.092210f, 0.092413f, 
    0.092824f, 0.093378f, 0.092413f, 0.092824f, 0.093378f, 0.092824f, 0.093378f, 0.093378f, 
    0.069551f, 0.086898f, 0.092092f, 0.092535f, 0.093322f, 0.093872f, 0.086898f, 0.092092f, 
    0.092535f, 0.093322f, 0.093872f, 0.092092f, 0.092535f, 0.093322f, 0.093872f, 0.092535f, 
    0.093322f, 0.093872f, 0.093322f, 0.093872f, 0.093872f, 0.067692f, 0.085782f, 0.091698f, 
    0.092570f, 0.093673f, 0.085782f, 0.091698f, 0.092570f, 0.093673f, 0.091698f, 0.092570f, 
    0.093673f, 0.092570f, 0.093673f, 0.093673f, 0.067026f, 0.085666f, 0.092190f, 0.093507f, 
    0.085666f, 0.092190f, 0.093507f, 0.092190f, 0.093507f, 0.093507f, 0.067630f, 0.087254f, 
    0.093838f, 0.087254f, 0.093838f, 0.093838f, 0.069577f, 0.090001f, 0.090001f, 0.072243f, 
    0.096885f, 0.096124f, 0.095592f, 0.098135f, 0.105823f, 0.118015f, 0.126815f, 0.096124f, 
    0.095592f, 0.098135f, 0.105823f, 0.118015f, 0.126815f, 0.095592f, 0.098135f, 0.105823f, 
    0.118015f, 0.126815f, 0.098135f, 0.105823f, 0.118015f, 0.126815f, 0.105823f, 0.118015f, 
    0.126815f, 0.118015f, 0.126815f, 0.126815f, 0.091609f, 0.090311f, 0.091374f, 0.097625f, 
    0.105816f, 0.118031f, 0.090311f, 0.091374f, 0.097625f, 0.105816f, 0.118031f, 0.091374f, 
    0.097625f, 0.105816f, 0.118031f, 0.097625f, 0.105816f, 0.118031f, 0.105816f, 0.118031f, 
    0.118031f, 0.085670f, 0.087198f, 0.091083f, 0.097468f, 0.105723f, 0.087198f, 0.091083f, 
    0.097468f, 0.105723f, 0.091083f, 0.097468f, 0.105723f, 0.097468f, 0.105723f, 0.105723f, 
    0.083908f, 0.086785f, 0.090940f, 0.097557f, 0.086785f, 0.090940f, 0.097557f, 0.090940f, 
    0.097557f, 0.097557f, 0.084845f, 0.089436f, 0.094757f, 0.089436f, 0.094757f, 0.094757f, 
    0.091064f, 0.096296f, 0.096296f, 0.098250f, 0.106601f, 0.139677f, 0.135708f, 0.141342f, 
    0.105244f, 0.135443f, 0.219587f, 0.139677f, 0.135708f, 0.141342f, 0.105244f, 0.135443f, 
    0.219587f, 0.135708f, 0.141342f, 0.105244f, 0.135443f, 0.219587f, 0.141342f, 0.105244f, 
    0.135443f, 0.219587f, 0.105244f, 0.135443f, 0.219587f, 0.135443f, 0.219587f, 0.219587f, 
    0.106489f, 0.139677f, 0.135708f, 0.141357f, 0.105836f, 0.136280f, 0.139677f, 0.135708f, 
    0.141357f, 0.105836f, 0.136280f, 0.135708f, 0.141357f, 0.105836f, 0.136280f, 0.141357f, 
    0.105836f, 0.136280f, 0.105836f, 0.136280f, 0.136280f, 0.106555f, 0.139677f, 0.135708f, 
    0.141335f, 0.106427f, 0.139677f, 0.135708f, 0.141335f, 0.106427f, 0.135708f, 0.141335f, 
    0.106427f, 0.141335f, 0.106427f, 0.106427f, 0.106555f, 0.139677f, 0.135708f, 0.141182f, 
    0.139677f, 0.135708f, 0.141182f, 0.135708f, 0.141182f, 0.141182f, 0.106630f, 0.139677f, 
    0.135708f, 0.139677f, 0.135708f, 0.135708f, 0.106630f, 0.139677f, 0.139677f, 0.106597f, 
    1.000000f, 1.000000f, 1.000000f, 1.000000f, 1.000000f, 1.000000f, 1.000000f, 1.000000f, 
    1.000000f, 1.000000f, 1.000000f, 1.000000f, 1.000000f, 1.000000f, 1.000000f, 1.000000f, 
    1.000000f, 1.000000f, 1.000000f, 1.000000f, 1.000000f, 1.000000f, 1.000000f, 1.000000f, 
    1.000000f, 1.000000f, 1.000000f, 1.000000f, 1.000000f, 1.000000f, 1.000000f, 1.000000f, 
    1.000000f, 1.000000f, 1.000000f, 1.000000f, 1.000000f, 1.000000f, 1.000000f, 1.000000f, 
    1.000000f, 1.000000f, 1.000000f, 1.000000f, 1.000000f, 1.000000f, 1.000000f, 1.000000f, 
    1.000000f, 1.000000f, 1.000000f, 1.000000f, 1.000000f, 1.000000f, 1.000000f, 1.000000f, 
    1.000000f, 1.000000f, 1.000000f, 1.000000f, 1.000000f, 1.000000f, 1.000000f, 1.000000f, 
    1.000000f, 1.000000f, 1.000000f, 1.000000f, 1.000000f, 1.000000f, 1.000000f, 1.000000f, 
    1.000000f, 1.000000f, 1.000000f, 1.000000f, 1.000000f, 1.000000f, 1.000000f, 1.000000f, 
    1.000000f, 1.000000f, 1.000000f, 1.000000f
};

const data_t MODEL_INTERCEPT[MAX_CLASSES] = {
    -0.500000f, -0.500000f, -0.500000f, -0.500000f
};

// WARNING: Large coefficient array - 4 x 420 elements
// Consider using external memory or tiling for large models
const data_t MODEL_COEFFICIENTS[4][420] = {
    { // Class 0
        0.006535f, -0.000015f, 0.009745f, 0.007510f, 0.009510f, 0.009070f, 0.010959f, -0.000015f, 
        0.009745f, 0.007510f, 0.009510f, 0.009070f, 0.010959f, 0.009745f, 0.007510f, 0.009510f, 
        0.009070f, 0.010959f, 0.007510f, 0.009510f, 0.009070f, 0.010959f, 0.009510f, 0.009070f, 
        0.010959f, 0.009070f, 0.010959f, 0.010959f, 0.009560f, 0.000920f, 0.006199f, 0.003924f, 
        0.009999f, 0.017073f, 0.000920f, 0.006199f, 0.003924f, 0.009999f, 0.017073f, 0.006199f, 
        0.003924f, 0.009999f, 0.017073f, 0.003924f, 0.009999f, 0.017073f, 0.009999f, 0.017073f, 
        0.017073f, 0.003275f, -0.005465f, -0.000178f, 0.003208f, 0.012080f, -0.005465f, -0.000178f, 
        0.003208f, 0.012080f, -0.000178f, 0.003208f, 0.012080f, 0.003208f, 0.012080f, 0.012080f, 
        0.003327f, -0.002750f, -0.000604f, 0.007267f, -0.002750f, -0.000604f, 0.007267f, -0.000604f, 
        0.007267f, 0.007267f, -0.007918f, -0.002984f, 0.009711f, -0.002984f, 0.009711f, 0.009711f, 
        -0.003900f, 0.005833f, 0.005833f, 0.009295f, 0.002719f, 0.002774f, 0.001704f, 0.000310f, 
        0.008508f, -0.001125f, 0.011985f, 0.002774f, 0.001704f, 0.000310f, 0.008508f, -0.001125f, 
        0.011985f, 0.001704f, 0.000310f, 0.008508f, -0.001125f, 0.011985f, 0.000310f, 0.008508f, 
        -0.001125f, 0.011985f, 0.008508f, -0.001125f, 0.011985f, -0.001125f, 0.011985f, 0.011985f, 
        -0.007561f, -0.007943f, -0.003186f, -0.000955f, 0.003507f, -0.000876f, -0.007943f, -0.003186f, 
        -0.000955f, 0.003507f, -0.000876f, -0.003186f, -0.000955f, 0.003507f, -0.000876f, -0.000955f, 
        0.003507f, -0.000876f, 0.003507f, -0.000876f, -0.000876f, -0.011747f, -0.020669f, -0.011377f, 
        -0.004199f, 0.000691f, -0.020669f, -0.011377f, -0.004199f, 0.000691f, -0.011377f, -0.004199f, 
        0.000691f, -0.004199f, 0.000691f, 0.000691f, -0.014463f, -0.024931f, -0.011697f, -0.000193f, 
        -0.024931f, -0.011697f, -0.000193f, -0.011697f, -0.000193f, -0.000193f, -0.011821f, -0.018786f, 
        -0.004751f, -0.018786f, -0.004751f, -0.004751f, -0.014612f, -0.005371f, -0.005371f, -0.007593f, 
        0.051762f, 0.050672f, 0.033339f, 0.025251f, 0.016528f, -0.009979f, -0.016483f, 0.050672f, 
        0.033339f, 0.025251f, 0.016528f, -0.009979f, -0.016483f, 0.033339f, 0.025251f, 0.016528f, 
        -0.009979f, -0.016483f, 0.025251f, 0.016528f, -0.009979f, -0.016483f, 0.016528f, -0.009979f, 
        -0.016483f, -0.009979f, -0.016483f, -0.016483f, 0.014240f, -0.004886f, -0.008790f, 0.016701f, 
        0.013296f, -0.009529f, -0.004886f, -0.008790f, 0.016701f, 0.013296f, -0.009529f, -0.008790f, 
        0.016701f, 0.013296f, -0.009529f, 0.016701f, 0.013296f, -0.009529f, 0.013296f, -0.009529f, 
        -0.009529f, -0.017762f, -0.010793f, -0.006818f, 0.014226f, 0.009632f, -0.010793f, -0.006818f, 
        0.014226f, 0.009632f, -0.006818f, 0.014226f, 0.009632f, 0.014226f, 0.009632f, 0.009632f, 
        -0.027877f, -0.013863f, -0.008497f, 0.014637f, -0.013863f, -0.008497f, 0.014637f, -0.008497f, 
        0.014637f, 0.014637f, -0.012261f, -0.008531f, 0.033029f, -0.008531f, 0.033029f, 0.033029f, 
        -0.009826f, 0.028759f, 0.028759f, 0.011126f, 0.012931f, -0.022566f, -0.000422f, -0.011548f, 
        0.004272f, 0.000836f, -0.012647f, -0.022566f, -0.000422f, -0.011548f, 0.004272f, 0.000836f, 
        -0.012647f, -0.000422f, -0.011548f, 0.004272f, 0.000836f, -0.012647f, -0.011548f, 0.004272f, 
        0.000836f, -0.012647f, 0.004272f, 0.000836f, -0.012647f, 0.000836f, -0.012647f, -0.012647f, 
        0.015700f, -0.022566f, -0.000422f, -0.011470f, -0.000652f, 0.002040f, -0.022566f, -0.000422f, 
        -0.011470f, -0.000652f, 0.002040f, -0.000422f, -0.011470f, -0.000652f, 0.002040f, -0.011470f, 
        -0.000652f, 0.002040f, -0.000652f, 0.002040f, 0.002040f, 0.018311f, -0.022566f, -0.000422f, 
        -0.016690f, -0.012194f, -0.022566f, -0.000422f, -0.016690f, -0.012194f, -0.000422f, -0.016690f, 
        -0.012194f, -0.016690f, -0.012194f, -0.012194f, 0.018311f, -0.022566f, -0.000422f, -0.032066f, 
        -0.022566f, -0.000422f, -0.032066f, -0.000422f, -0.032066f, -0.032066f, 0.023786f, -0.022566f, 
        -0.000422f, -0.022566f, -0.000422f, -0.000422f, 0.023786f, -0.022566f, -0.022566f, 0.024530f, 
        0.000000f, 0.000000f, 0.000000f, 0.000000f, 0.000000f, 0.000000f, 0.000000f, 0.000000f, 
        0.000000f, 0.000000f, 0.000000f, 0.000000f, 0.000000f, 0.000000f, 0.000000f, 0.000000f, 
        0.000000f, 0.000000f, 0.000000f, 0.000000f, 0.000000f, 0.000000f, 0.000000f, 0.000000f, 
        0.000000f, 0.000000f, 0.000000f, 0.000000f, 0.000000f, 0.000000f, 0.000000f, 0.000000f, 
        0.000000f, 0.000000f, 0.000000f, 0.000000f, 0.000000f, 0.000000f, 0.000000f, 0.000000f, 
        0.000000f, 0.000000f, 0.000000f, 0.000000f, 0.000000f, 0.000000f, 0.000000f, 0.000000f, 
        0.000000f, 0.000000f, 0.000000f, 0.000000f, 0.000000f, 0.000000f, 0.000000f, 0.000000f, 
        0.000000f, 0.000000f, 0.000000f, 0.000000f, 0.000000f, 0.000000f, 0.000000f, 0.000000f, 
        0.000000f, 0.000000f, 0.000000f, 0.000000f, 0.000000f, 0.000000f, 0.000000f, 0.000000f, 
        0.000000f, 0.000000f, 0.000000f, 0.000000f, 0.000000f, 0.000000f, 0.000000f, 0.000000f, 
        0.000000f, 0.000000f, 0.000000f, 0.000000f
    },
    { // Class 1
        -0.006295f, -0.003653f, -0.004275f, -0.002912f, -0.002517f, -0.001557f, -0.005294f, -0.003653f, 
        -0.004275f, -0.002912f, -0.002517f, -0.001557f, -0.005294f, -0.004275f, -0.002912f, -0.002517f, 
        -0.001557f, -0.005294f, -0.002912f, -0.002517f, -0.001557f, -0.005294f, -0.002517f, -0.001557f, 
        -0.005294f, -0.001557f, -0.005294f, -0.005294f, -0.008627f, -0.003769f, -0.004857f, -0.003521f, 
        -0.004638f, -0.006124f, -0.003769f, -0.004857f, -0.003521f, -0.004638f, -0.006124f, -0.004857f, 
        -0.003521f, -0.004638f, -0.006124f, -0.003521f, -0.004638f, -0.006124f, -0.004638f, -0.006124f, 
        -0.006124f, -0.002117f, 0.002324f, 0.000791f, -0.002159f, -0.005744f, 0.002324f, 0.000791f, 
        -0.002159f, -0.005744f, 0.000791f, -0.002159f, -0.005744f, -0.002159f, -0.005744f, -0.005744f, 
        0.002720f, 0.003680f, 0.001570f, -0.003095f, 0.003680f, 0.001570f, -0.003095f, 0.001570f, 
        -0.003095f, -0.003095f, 0.006841f, 0.002308f, -0.002350f, 0.002308f, -0.002350f, -0.002350f, 
        0.002856f, -0.002038f, -0.002038f, -0.003136f, 0.002198f, 0.002505f, 0.001010f, 0.004165f, 
        -0.001430f, 0.002188f, -0.006630f, 0.002505f, 0.001010f, 0.004165f, -0.001430f, 0.002188f, 
        -0.006630f, 0.001010f, 0.004165f, -0.001430f, 0.002188f, -0.006630f, 0.004165f, -0.001430f, 
        0.002188f, -0.006630f, -0.001430f, 0.002188f, -0.006630f, 0.002188f, -0.006630f, -0.006630f, 
        0.005585f, 0.004485f, -0.000368f, 0.001756f, -0.003603f, 0.001072f, 0.004485f, -0.000368f, 
        0.001756f, -0.003603f, 0.001072f, -0.000368f, 0.001756f, -0.003603f, 0.001072f, 0.001756f, 
        -0.003603f, 0.001072f, -0.003603f, 0.001072f, 0.001072f, 0.007256f, 0.009240f, 0.002386f, 
        0.001560f, -0.002367f, 0.009240f, 0.002386f, 0.001560f, -0.002367f, 0.002386f, 0.001560f, 
        -0.002367f, 0.001560f, -0.002367f, -0.002367f, 0.007013f, 0.010340f, 0.001764f, -0.001460f, 
        0.010340f, 0.001764f, -0.001460f, 0.001764f, -0.001460f, -0.001460f, 0.003681f, 0.004090f, 
        -0.000161f, 0.004090f, -0.000161f, -0.000161f, 0.004587f, -0.000701f, -0.000701f, 0.003307f, 
        -0.020604f, -0.016411f, -0.013152f, -0.006506f, 0.009413f, 0.019306f, 0.021747f, -0.016411f, 
        -0.013152f, -0.006506f, 0.009413f, 0.019306f, 0.021747f, -0.013152f, -0.006506f, 0.009413f, 
        0.019306f, 0.021747f, -0.006506f, 0.009413f, 0.019306f, 0.021747f, 0.009413f, 0.019306f, 
        0.021747f, 0.019306f, 0.021747f, 0.021747f, -0.002761f, -0.001603f, 0.001139f, -0.004389f, 
        0.009514f, 0.019136f, -0.001603f, 0.001139f, -0.004389f, 0.009514f, 0.019136f, 0.001139f, 
        -0.004389f, 0.009514f, 0.019136f, -0.004389f, 0.009514f, 0.019136f, 0.009514f, 0.019136f, 
        0.019136f, 0.007443f, 0.002033f, 0.001160f, -0.003128f, 0.010763f, 0.002033f, 0.001160f, 
        -0.003128f, 0.010763f, 0.001160f, -0.003128f, 0.010763f, -0.003128f, 0.010763f, 0.010763f, 
        0.013397f, 0.004127f, 0.002620f, -0.002006f, 0.004127f, 0.002620f, -0.002006f, 0.002620f, 
        -0.002006f, -0.002006f, 0.006217f, 0.002251f, -0.010641f, 0.002251f, -0.010641f, -0.010641f, 
        -0.000081f, -0.010768f, -0.010768f, -0.009348f, 0.005742f, 0.018179f, -0.000078f, 0.012887f, 
        0.002762f, -0.000492f, 0.004938f, 0.018179f, -0.000078f, 0.012887f, 0.002762f, -0.000492f, 
        0.004938f, -0.000078f, 0.012887f, 0.002762f, -0.000492f, 0.004938f, 0.012887f, 0.002762f, 
        -0.000492f, 0.004938f, 0.002762f, -0.000492f, 0.004938f, -0.000492f, 0.004938f, 0.004938f, 
        0.003349f, 0.018179f, -0.000078f, 0.012078f, 0.000583f, 0.000012f, 0.018179f, -0.000078f, 
        0.012078f, 0.000583f, 0.000012f, -0.000078f, 0.012078f, 0.000583f, 0.000012f, 0.012078f, 
        0.000583f, 0.000012f, 0.000583f, 0.000012f, 0.000012f, 0.002564f, 0.018179f, -0.000078f, 
        0.012898f, 0.001211f, 0.018179f, -0.000078f, 0.012898f, 0.001211f, -0.000078f, 0.012898f, 
        0.001211f, 0.012898f, 0.001211f, 0.001211f, 0.002564f, 0.018179f, -0.000078f, 0.013367f, 
        0.018179f, -0.000078f, 0.013367f, -0.000078f, 0.013367f, 0.013367f, 0.002406f, 0.018179f, 
        -0.000078f, 0.018179f, -0.000078f, -0.000078f, 0.002406f, 0.018179f, 0.018179f, 0.003382f, 
        0.000000f, 0.000000f, 0.000000f, 0.000000f, 0.000000f, 0.000000f, 0.000000f, 0.000000f, 
        0.000000f, 0.000000f, 0.000000f, 0.000000f, 0.000000f, 0.000000f, 0.000000f, 0.000000f, 
        0.000000f, 0.000000f, 0.000000f, 0.000000f, 0.000000f, 0.000000f, 0.000000f, 0.000000f, 
        0.000000f, 0.000000f, 0.000000f, 0.000000f, 0.000000f, 0.000000f, 0.000000f, 0.000000f, 
        0.000000f, 0.000000f, 0.000000f, 0.000000f, 0.000000f, 0.000000f, 0.000000f, 0.000000f, 
        0.000000f, 0.000000f, 0.000000f, 0.000000f, 0.000000f, 0.000000f, 0.000000f, 0.000000f, 
        0.000000f, 0.000000f, 0.000000f, 0.000000f, 0.000000f, 0.000000f, 0.000000f, 0.000000f, 
        0.000000f, 0.000000f, 0.000000f, 0.000000f, 0.000000f, 0.000000f, 0.000000f, 0.000000f, 
        0.000000f, 0.000000f, 0.000000f, 0.000000f, 0.000000f, 0.000000f, 0.000000f, 0.000000f, 
        0.000000f, 0.000000f, 0.000000f, 0.000000f, 0.000000f, 0.000000f, 0.000000f, 0.000000f, 
        0.000000f, 0.000000f, 0.000000f, 0.000000f
    },
    { // Class 2
        -0.057279f, 0.040610f, 0.012114f, 0.005292f, 0.011489f, -0.010270f, -0.028991f, 0.040610f, 
        0.012114f, 0.005292f, 0.011489f, -0.010270f, -0.028991f, 0.012114f, 0.005292f, 0.011489f, 
        -0.010270f, -0.028991f, 0.005292f, 0.011489f, -0.010270f, -0.028991f, 0.011489f, -0.010270f, 
        -0.028991f, -0.010270f, -0.028991f, -0.028991f, -0.011067f, 0.007623f, 0.007895f, 0.018411f, 
        -0.004528f, 0.000543f, 0.007623f, 0.007895f, 0.018411f, -0.004528f, 0.000543f, 0.007895f, 
        0.018411f, -0.004528f, 0.000543f, 0.018411f, -0.004528f, 0.000543f, -0.004528f, 0.000543f, 
        0.000543f, -0.017399f, 0.014293f, 0.008986f, 0.013503f, -0.011019f, 0.014293f, 0.008986f, 
        0.013503f, -0.011019f, 0.008986f, 0.013503f, -0.011019f, 0.013503f, -0.011019f, -0.011019f, 
        -0.029657f, 0.009353f, 0.010936f, 0.010590f, 0.009353f, 0.010936f, 0.010590f, 0.010936f, 
        0.010590f, 0.010590f, -0.021656f, 0.008888f, 0.002022f, 0.008888f, 0.002022f, 0.002022f, 
        -0.026179f, 0.002283f, 0.002283f, -0.063602f, 0.026953f, 0.019505f, 0.019968f, -0.011685f, 
        -0.019833f, -0.010606f, -0.015302f, 0.019505f, 0.019968f, -0.011685f, -0.019833f, -0.010606f, 
        -0.015302f, 0.019968f, -0.011685f, -0.019833f, -0.010606f, -0.015302f, -0.011685f, -0.019833f, 
        -0.010606f, -0.015302f, -0.019833f, -0.010606f, -0.015302f, -0.010606f, -0.015302f, -0.015302f, 
        0.034660f, 0.048137f, 0.025868f, 0.001388f, -0.001332f, -0.008663f, 0.048137f, 0.025868f, 
        0.001388f, -0.001332f, -0.008663f, 0.025868f, 0.001388f, -0.001332f, -0.008663f, 0.001388f, 
        -0.001332f, -0.008663f, -0.001332f, -0.008663f, -0.008663f, 0.060074f, 0.068760f, 0.027992f, 
        0.001979f, 0.001966f, 0.068760f, 0.027992f, 0.001979f, 0.001966f, 0.027992f, 0.001979f, 
        0.001966f, 0.001979f, 0.001966f, 0.001966f, 0.071298f, 0.055796f, 0.021960f, -0.000986f, 
        0.055796f, 0.021960f, -0.000986f, 0.021960f, -0.000986f, -0.000986f, 0.023661f, 0.041251f, 
        0.012254f, 0.041251f, 0.012254f, 0.012254f, -0.003621f, -0.000462f, -0.000462f, -0.012625f, 
        -0.099241f, -0.079647f, -0.044709f, -0.036330f, -0.015773f, 0.014401f, 0.010866f, -0.079647f, 
        -0.044709f, -0.036330f, -0.015773f, 0.014401f, 0.010866f, -0.044709f, -0.036330f, -0.015773f, 
        0.014401f, 0.010866f, -0.036330f, -0.015773f, 0.014401f, 0.010866f, -0.015773f, 0.014401f, 
        0.010866f, 0.014401f, 0.010866f, 0.010866f, -0.020328f, -0.018227f, -0.008526f, -0.024505f, 
        -0.015714f, 0.014501f, -0.018227f, -0.008526f, -0.024505f, -0.015714f, 0.014501f, -0.008526f, 
        -0.024505f, -0.015714f, 0.014501f, -0.024505f, -0.015714f, 0.014501f, -0.015714f, 0.014501f, 
        0.014501f, 0.034529f, 0.002209f, -0.004410f, -0.019712f, -0.010344f, 0.002209f, -0.004410f, 
        -0.019712f, -0.010344f, -0.004410f, -0.019712f, -0.010344f, -0.019712f, -0.010344f, -0.010344f, 
        0.072413f, 0.034662f, 0.001013f, -0.020219f, 0.034662f, 0.001013f, -0.020219f, 0.001013f, 
        -0.020219f, -0.020219f, 0.067568f, 0.011998f, -0.029158f, 0.011998f, -0.029158f, -0.029158f, 
        0.005756f, -0.049440f, -0.049440f, -0.039718f, -0.025359f, 0.030152f, -0.002897f, 0.021975f, 
        -0.001673f, -0.007828f, 0.040037f, 0.030152f, -0.002897f, 0.021975f, -0.001673f, -0.007828f, 
        0.040037f, -0.002897f, 0.021975f, -0.001673f, -0.007828f, 0.040037f, 0.021975f, -0.001673f, 
        -0.007828f, 0.040037f, -0.001673f, -0.007828f, 0.040037f, -0.007828f, 0.040037f, 0.040037f, 
        -0.026068f, 0.030152f, -0.002897f, 0.019909f, -0.000272f, -0.022399f, 0.030152f, -0.002897f, 
        0.019909f, -0.000272f, -0.022399f, -0.002897f, 0.019909f, -0.000272f, -0.022399f, 0.019909f, 
        -0.000272f, -0.022399f, -0.000272f, -0.022399f, -0.022399f, -0.032962f, 0.030152f, -0.002897f, 
        0.020468f, 0.009106f, 0.030152f, -0.002897f, 0.020468f, 0.009106f, -0.002897f, 0.020468f, 
        0.009106f, 0.020468f, 0.009106f, 0.009106f, -0.032962f, 0.030152f, -0.002897f, 0.020586f, 
        0.030152f, -0.002897f, 0.020586f, -0.002897f, 0.020586f, 0.020586f, -0.042285f, 0.030152f, 
        -0.002897f, 0.030152f, -0.002897f, -0.002897f, -0.042285f, 0.030152f, 0.030152f, -0.038775f, 
        0.000000f, 0.000000f, 0.000000f, 0.000000f, 0.000000f, 0.000000f, 0.000000f, 0.000000f, 
        0.000000f, 0.000000f, 0.000000f, 0.000000f, 0.000000f, 0.000000f, 0.000000f, 0.000000f, 
        0.000000f, 0.000000f, 0.000000f, 0.000000f, 0.000000f, 0.000000f, 0.000000f, 0.000000f, 
        0.000000f, 0.000000f, 0.000000f, 0.000000f, 0.000000f, 0.000000f, 0.000000f, 0.000000f, 
        0.000000f, 0.000000f, 0.000000f, 0.000000f, 0.000000f, 0.000000f, 0.000000f, 0.000000f, 
        0.000000f, 0.000000f, 0.000000f, 0.000000f, 0.000000f, 0.000000f, 0.000000f, 0.000000f, 
        0.000000f, 0.000000f, 0.000000f, 0.000000f, 0.000000f, 0.000000f, 0.000000f, 0.000000f, 
        0.000000f, 0.000000f, 0.000000f, 0.000000f, 0.000000f, 0.000000f, 0.000000f, 0.000000f, 
        0.000000f, 0.000000f, 0.000000f, 0.000000f, 0.000000f, 0.000000f, 0.000000f, 0.000000f, 
        0.000000f, 0.000000f, 0.000000f, 0.000000f, 0.000000f, 0.000000f, 0.000000f, 0.000000f, 
        0.000000f, 0.000000f, 0.000000f, 0.000000f
    },
    { // Class 3
        0.057039f, -0.036942f, -0.017584f, -0.009890f, -0.018482f, 0.002757f, 0.023327f, -0.036942f, 
        -0.017584f, -0.009890f, -0.018482f, 0.002757f, 0.023327f, -0.017584f, -0.009890f, -0.018482f, 
        0.002757f, 0.023327f, -0.009890f, -0.018482f, 0.002757f, 0.023327f, -0.018482f, 0.002757f, 
        0.023327f, 0.002757f, 0.023327f, 0.023327f, 0.010134f, -0.004774f, -0.009236f, -0.018814f, 
        -0.000833f, -0.011493f, -0.004774f, -0.009236f, -0.018814f, -0.000833f, -0.011493f, -0.009236f, 
        -0.018814f, -0.000833f, -0.011493f, -0.018814f, -0.000833f, -0.011493f, -0.000833f, -0.011493f, 
        -0.011493f, 0.016240f, -0.011152f, -0.009599f, -0.014552f, 0.004683f, -0.011152f, -0.009599f, 
        -0.014552f, 0.004683f, -0.009599f, -0.014552f, 0.004683f, -0.014552f, 0.004683f, 0.004683f, 
        0.023611f, -0.010282f, -0.011902f, -0.014763f, -0.010282f, -0.011902f, -0.014763f, -0.011902f, 
        -0.014763f, -0.014763f, 0.022733f, -0.008212f, -0.009383f, -0.008212f, -0.009383f, -0.009383f, 
        0.027224f, -0.006078f, -0.006078f, 0.057443f, -0.031870f, -0.024784f, -0.022682f, 0.007210f, 
        0.012756f, 0.009543f, 0.009947f, -0.024784f, -0.022682f, 0.007210f, 0.012756f, 0.009543f, 
        0.009947f, -0.022682f, 0.007210f, 0.012756f, 0.009543f, 0.009947f, 0.007210f, 0.012756f, 
        0.009543f, 0.009947f, 0.012756f, 0.009543f, 0.009947f, 0.009543f, 0.009947f, 0.009947f, 
        -0.032684f, -0.044679f, -0.022314f, -0.002189f, 0.001428f, 0.008466f, -0.044679f, -0.022314f, 
        -0.002189f, 0.001428f, 0.008466f, -0.022314f, -0.002189f, 0.001428f, 0.008466f, -0.002189f, 
        0.001428f, 0.008466f, 0.001428f, 0.008466f, 0.008466f, -0.055584f, -0.057331f, -0.019001f, 
        0.000660f, -0.000290f, -0.057331f, -0.019001f, 0.000660f, -0.000290f, -0.019001f, 0.000660f, 
        -0.000290f, 0.000660f, -0.000290f, -0.000290f, -0.063847f, -0.041205f, -0.012027f, 0.002639f, 
        -0.041205f, -0.012027f, 0.002639f, -0.012027f, 0.002639f, 0.002639f, -0.015521f, -0.026555f, 
        -0.007342f, -0.026555f, -0.007342f, -0.007342f, 0.013646f, 0.006534f, 0.006534f, 0.016910f, 
        0.068082f, 0.045386f, 0.024522f, 0.017585f, -0.010168f, -0.023728f, -0.016129f, 0.045386f, 
        0.024522f, 0.017585f, -0.010168f, -0.023728f, -0.016129f, 0.024522f, 0.017585f, -0.010168f, 
        -0.023728f, -0.016129f, 0.017585f, -0.010168f, -0.023728f, -0.016129f, -0.010168f, -0.023728f, 
        -0.016129f, -0.023728f, -0.016129f, -0.016129f, 0.008848f, 0.024715f, 0.016177f, 0.012193f, 
        -0.007096f, -0.024107f, 0.024715f, 0.016177f, 0.012193f, -0.007096f, -0.024107f, 0.016177f, 
        0.012193f, -0.007096f, -0.024107f, 0.012193f, -0.007096f, -0.024107f, -0.007096f, -0.024107f, 
        -0.024107f, -0.024210f, 0.006551f, 0.010069f, 0.008615f, -0.010051f, 0.006551f, 0.010069f, 
        0.008615f, -0.010051f, 0.010069f, 0.008615f, -0.010051f, 0.008615f, -0.010051f, -0.010051f, 
        -0.057932f, -0.024927f, 0.004864f, 0.007588f, -0.024927f, 0.004864f, 0.007588f, 0.004864f, 
        0.007588f, 0.007588f, -0.061524f, -0.005718f, 0.006770f, -0.005718f, 0.006770f, 0.006770f, 
        0.004152f, 0.031449f, 0.031449f, 0.037940f, 0.006687f, -0.025765f, 0.003397f, -0.023314f, 
        -0.005360f, 0.007484f, -0.032327f, -0.025765f, 0.003397f, -0.023314f, -0.005360f, 0.007484f, 
        -0.032327f, 0.003397f, -0.023314f, -0.005360f, 0.007484f, -0.032327f, -0.023314f, -0.005360f, 
        0.007484f, -0.032327f, -0.005360f, 0.007484f, -0.032327f, 0.007484f, -0.032327f, -0.032327f, 
        0.007020f, -0.025765f, 0.003397f, -0.020517f, 0.000340f, 0.020347f, -0.025765f, 0.003397f, 
        -0.020517f, 0.000340f, 0.020347f, 0.003397f, -0.020517f, 0.000340f, 0.020347f, -0.020517f, 
        0.000340f, 0.020347f, 0.000340f, 0.020347f, 0.020347f, 0.012087f, -0.025765f, 0.003397f, 
        -0.016676f, 0.001877f, -0.025765f, 0.003397f, -0.016676f, 0.001877f, 0.003397f, -0.016676f, 
        0.001877f, -0.016676f, 0.001877f, 0.001877f, 0.012087f, -0.025765f, 0.003397f, -0.001887f, 
        -0.025765f, 0.003397f, -0.001887f, 0.003397f, -0.001887f, -0.001887f, 0.016094f, -0.025765f, 
        0.003397f, -0.025765f, 0.003397f, 0.003397f, 0.016094f, -0.025765f, -0.025765f, 0.010862f, 
        0.000000f, 0.000000f, 0.000000f, 0.000000f, 0.000000f, 0.000000f, 0.000000f, 0.000000f, 
        0.000000f, 0.000000f, 0.000000f, 0.000000f, 0.000000f, 0.000000f, 0.000000f, 0.000000f, 
        0.000000f, 0.000000f, 0.000000f, 0.000000f, 0.000000f, 0.000000f, 0.000000f, 0.000000f, 
        0.000000f, 0.000000f, 0.000000f, 0.000000f, 0.000000f, 0.000000f, 0.000000f, 0.000000f, 
        0.000000f, 0.000000f, 0.000000f, 0.000000f, 0.000000f, 0.000000f, 0.000000f, 0.000000f, 
        0.000000f, 0.000000f, 0.000000f, 0.000000f, 0.000000f, 0.000000f, 0.000000f, 0.000000f, 
        0.000000f, 0.000000f, 0.000000f, 0.000000f, 0.000000f, 0.000000f, 0.000000f, 0.000000f, 
        0.000000f, 0.000000f, 0.000000f, 0.000000f, 0.000000f, 0.000000f, 0.000000f, 0.000000f, 
        0.000000f, 0.000000f, 0.000000f, 0.000000f, 0.000000f, 0.000000f, 0.000000f, 0.000000f, 
        0.000000f, 0.000000f, 0.000000f, 0.000000f, 0.000000f, 0.000000f, 0.000000f, 0.000000f, 
        0.000000f, 0.000000f, 0.000000f, 0.000000f
    }
};

#endif // MINIROCKET_MODEL_CONSTANTS_H
