{
  "num_kernels": 84,
  "num_dilations": 10,
  "num_features": 840,
  "num_classes": 3,
  "time_series_length": 5000,
  "kernel_indices": [
    [
      0,
      1,
      2
    ],
    [
      0,
      1,
      3
    ],
    [
      0,
      1,
      4
    ],
    [
      0,
      1,
      5
    ],
    [
      0,
      1,
      6
    ],
    [
      0,
      1,
      7
    ],
    [
      0,
      1,
      8
    ],
    [
      0,
      2,
      3
    ],
    [
      0,
      2,
      4
    ],
    [
      0,
      2,
      5
    ],
    [
      0,
      2,
      6
    ],
    [
      0,
      2,
      7
    ],
    [
      0,
      2,
      8
    ],
    [
      0,
      3,
      4
    ],
    [
      0,
      3,
      5
    ],
    [
      0,
      3,
      6
    ],
    [
      0,
      3,
      7
    ],
    [
      0,
      3,
      8
    ],
    [
      0,
      4,
      5
    ],
    [
      0,
      4,
      6
    ],
    [
      0,
      4,
      7
    ],
    [
      0,
      4,
      8
    ],
    [
      0,
      5,
      6
    ],
    [
      0,
      5,
      7
    ],
    [
      0,
      5,
      8
    ],
    [
      0,
      6,
      7
    ],
    [
      0,
      6,
      8
    ],
    [
      0,
      7,
      8
    ],
    [
      1,
      2,
      3
    ],
    [
      1,
      2,
      4
    ],
    [
      1,
      2,
      5
    ],
    [
      1,
      2,
      6
    ],
    [
      1,
      2,
      7
    ],
    [
      1,
      2,
      8
    ],
    [
      1,
      3,
      4
    ],
    [
      1,
      3,
      5
    ],
    [
      1,
      3,
      6
    ],
    [
      1,
      3,
      7
    ],
    [
      1,
      3,
      8
    ],
    [
      1,
      4,
      5
    ],
    [
      1,
      4,
      6
    ],
    [
      1,
      4,
      7
    ],
    [
      1,
      4,
      8
    ],
    [
      1,
      5,
      6
    ],
    [
      1,
      5,
      7
    ],
    [
      1,
      5,
      8
    ],
    [
      1,
      6,
      7
    ],
    [
      1,
      6,
      8
    ],
    [
      1,
      7,
      8
    ],
    [
      2,
      3,
      4
    ],
    [
      2,
      3,
      5
    ],
    [
      2,
      3,
      6
    ],
    [
      2,
      3,
      7
    ],
    [
      2,
      3,
      8
    ],
    [
      2,
      4,
      5
    ],
    [
      2,
      4,
      6
    ],
    [
      2,
      4,
      7
    ],
    [
      2,
      4,
      8
    ],
    [
      2,
      5,
      6
    ],
    [
      2,
      5,
      7
    ],
    [
      2,
      5,
      8
    ],
    [
      2,
      6,
      7
    ],
    [
      2,
      6,
      8
    ],
    [
      2,
      7,
      8
    ],
    [
      3,
      4,
      5
    ],
    [
      3,
      4,
      6
    ],
    [
      3,
      4,
      7
    ],
    [
      3,
      4,
      8
    ],
    [
      3,
      5,
      6
    ],
    [
      3,
      5,
      7
    ],
    [
      3,
      5,
      8
    ],
    [
      3,
      6,
      7
    ],
    [
      3,
      6,
      8
    ],
    [
      3,
      7,
      8
    ],
    [
      4,
      5,
      6
    ],
    [
      4,
      5,
      7
    ],
    [
      4,
      5,
      8
    ],
    [
      4,
      6,
      7
    ],
    [
      4,
      6,
      8
    ],
    [
      4,
      7,
      8
    ],
    [
      5,
      6,
      7
    ],
    [
      5,
      6,
      8
    ],
    [
      5,
      7,
      8
    ],
    [
      6,
      7,
      8
    ]
  ],
  "dilations": [
    1,
    2,
    4,
    8,
    17,
    35,
    73,
    149,
    305,
    624
  ],
  "num_features_per_dilation": [
    1,
    1,
    1,
    1,
    1,
    1,
    1,
    1,
    1,
    1
  ],
  "biases": [
    0.003082276089116931,
    -0.032012939453125,
    0.016133291646838188,
    -0.0005187973147258162,
    -0.06097412109375,
    0.00360107421875,
    -0.004638671409338713,
    0.20044143497943878,
    0.004852296784520149,
    -0.006347655318677425,
    0.005279541015625,
    -0.0016289429040625691,
    -0.13116690516471863,
    0.003936770837754011,
    -0.005615236237645149,
    0.08516837656497955,
    -6.103493433329277e-05,
    -0.0751647800207138,
    0.020873188972473145,
    -0.0018005376914516091,
    0.03280329704284668,
    0.002410888671875,
    -0.005035400390625,
    0.03794834390282631,
    -0.0005798349739052355,
    -0.10761117190122604,
    0.00543212890625,
    -0.005343415308743715,
    0.01141374185681343,
    0.0006408690242096782,
    -0.02657746523618698,
    0.009877350181341171,
    -0.004730224143713713,
    -0.08457858115434647,
    0.010742192156612873,
    -0.01580810546875,
    0.010498037561774254,
    0.0004577635263558477,
    -0.017408039420843124,
    0.003936770372092724,
    -0.0029907210264354944,
    0.009216309525072575,
    0.0009155271691270173,
    -0.01918688789010048,
    0.02190663106739521,
    -0.001434326171875,
    -0.04271434247493744,
    0.0038757342845201492,
    -0.011746606789529324,
    0.014898387715220451,
    0.00030517723644152284,
    -0.013885494321584702,
    0.0052185021340847015,
    -0.005590726155787706,
    0.3266247510910034,
    0.006009124685078859,
    -0.0068054297007620335,
    0.00531005859375,
    -0.0016784662147983909,
    -0.01772722415626049,
    0.006347654853016138,
    -0.00396062433719635,
    0.011657720431685448,
    0.0008239742019213736,
    -0.016605401411652565,
    0.01928710751235485,
    -0.002044677035883069,
    -0.026975717395544052,
    0.005584716796875,
    -0.00860595889389515,
    0.12583528459072113,
    9.155397128779441e-05,
    -0.06875614076852798,
    0.03193739056587219,
    -0.003692626953125,
    0.09126399457454681,
    0.025817684829235077,
    -0.006620820611715317,
    0.007617206312716007,
    -0.0018005382735282183,
    -0.02504778653383255,
    0.003173828125,
    -0.00836181640625,
    0.13562506437301636,
    0.0007629429455846548,
    -0.06449999660253525,
    0.07571461796760559,
    -0.0031127932015806437,
    -0.12228886038064957,
    0.0039062497671693563,
    -0.01857154443860054,
    0.006866456009447575,
    -0.0008850094745866954,
    -0.03918822854757309,
    0.0037841799203306437,
    -0.0028381356969475746,
    0.011810301803052425,
    0.00131492898799479,
    -0.0068664574064314365,
    0.015380868688225746,
    -0.003326412523165345,
    -0.11046622693538666,
    0.009307864122092724,
    -0.00808716006577015,
    0.015135211870074272,
    0.0005646455101668835,
    -0.00836181826889515,
    0.010058784857392311,
    -0.004211427643895149,
    0.03020751103758812,
    0.007781981490552425,
    -0.00552936177700758,
    0.08104946464300156,
    -0.0025354749523103237,
    -0.10381203144788742,
    0.02087402530014515,
    -0.01434325147420168,
    0.017284438014030457,
    0.0010070806602016091,
    -0.006469727028161287,
    0.006835937034338713,
    -0.0028991643339395523,
    -0.08113328367471695,
    0.005615232978016138,
    -0.005462644621729851,
    0.010925295762717724,
    -0.00012206940300529823,
    -0.013255477882921696,
    0.00848388671875,
    -0.004150381777435541,
    0.06481631845235825,
    0.0011246430221945047,
    -0.006378178484737873,
    0.12004535645246506,
    -0.007781982421875,
    -0.023764105513691902,
    0.004394532646983862,
    -0.004119874909520149,
    0.05434311181306839,
    0.0005493159405887127,
    -0.011932370252907276,
    0.021514885127544403,
    -0.0020141613204032183,
    0.22468489408493042,
    0.0037536616437137127,
    -0.004608154296875,
    0.008121669292449951,
    -0.0008031499455682933,
    -0.0084228515625,
    0.0030452446080744267,
    -0.023559560999274254,
    0.04244326055049896,
    0.0010070796124637127,
    -0.03765906020998955,
    0.05601926147937775,
    -0.004394528456032276,
    -0.05358126387000084,
    0.017279107123613358,
    -0.01022338680922985,
    0.0737677812576294,
    6.1033260863041505e-05,
    -0.0177473034709692,
    0.0057373046875,
    -0.004119869787245989,
    0.020466744899749756,
    0.012214179150760174,
    -0.020075412467122078,
    0.10009407252073288,
    -0.004852306097745895,
    -0.01807175576686859,
    0.03513722121715546,
    -0.008333481848239899,
    0.2167912870645523,
    0.0018310528248548508,
    -0.051879871636629105,
    0.0066833472810685635,
    -0.011352543719112873,
    -0.026599140837788582,
    0.00778197729960084,
    -0.07108496874570847,
    0.017239242792129517,
    -6.103804480517283e-05,
    -0.04180912300944328,
    0.00415038364008069,
    -0.0025024409405887127,
    0.08569230884313583,
    0.0028381352312862873,
    -0.005737305618822575,
    0.08526407927274704,
    -0.0025024411734193563,
    -0.056063756346702576,
    0.004302979446947575,
    -0.03921506181359291,
    0.22891665995121002,
    0.0031127945985645056,
    -0.006561280228197575,
    0.04516599699854851,
    -0.04762095585465431,
    0.33555102348327637,
    0.005981444381177425,
    -0.00863646436482668,
    0.10259836167097092,
    -0.0028076176531612873,
    -0.06833749264478683,
    0.012677762657403946,
    -0.006927489768713713,
    0.022552499547600746,
    0.008904946967959404,
    -0.021463070064783096,
    0.008267220109701157,
    -0.0015258791390806437,
    -0.1464187502861023,
    0.012084969319403172,
    -0.005004883278161287,
    0.0896301344037056,
    6.103329360485077e-05,
    -0.06705428659915924,
    0.006195065565407276,
    -0.02163696102797985,
    0.16982848942279816,
    0.02205819822847843,
    -0.010421018116176128,
    0.021151015534996986,
    -0.0009155278094112873,
    -0.07806845009326935,
    0.006530752405524254,
    -0.013122554868459702,
    0.11641956120729446,
    0.0012512215180322528,
    -0.06684090942144394,
    0.017790645360946655,
    -0.0019226070726290345,
    -0.1460246741771698,
    0.0017700189491733909,
    -0.08486351370811462,
    0.007667556405067444,
    -0.0037536618765443563,
    -0.012795745395123959,
    0.00799560360610485,
    -0.0036621096078306437,
    0.038575172424316406,
    0.004001588560640812,
    -0.018402108922600746,
    0.0070393700152635574,
    -0.01309204287827015,
    -0.0991116464138031,
    0.004119871649891138,
    -0.0059814490377902985,
    0.14609147608280182,
    3.051780731766485e-05,
    -0.07548434287309647,
    0.008272744715213776,
    -0.002879848936572671,
    0.03563660755753517,
    0.0025329594500362873,
    -0.004577638115733862,
    0.006652830168604851,
    -0.0024108875077217817,
    -0.01092529296875,
    0.0043181441724300385,
    -0.039672862738370895,
    0.18433232605457306,
    0.0007065556128509343,
    -0.16257146000862122,
    0.007843002676963806,
    -0.0023803722579032183,
    -0.11190073937177658,
    0.0025939960032701492,
    -0.02189747616648674,
    0.011810302734375,
    -0.0005493155913427472,
    -0.08359993994235992,
    0.006744383834302425,
    -0.0033569345250725746,
    0.08351286500692368,
    0.005533670540899038,
    -0.00833499152213335,
    0.01043701171875,
    -0.01168876327574253,
    -0.01835526153445244,
    0.0037231442984193563,
    -0.005706785712391138,
    0.04718017578125,
    0.0011518023675307631,
    -0.024527153000235558,
    0.006312445271760225,
    -0.0025634760968387127,
    0.23507270216941833,
    0.004196212626993656,
    -0.010437012650072575,
    0.09468403458595276,
    -0.0014343269867822528,
    -0.01876438409090042,
    0.024846920743584633,
    -0.03262900933623314,
    0.01360261533409357,
    0.0019836421124637127,
    -0.006896971259266138,
    0.08548105508089066,
    -0.0017700194148346782,
    -0.12241747230291367,
    0.005981448106467724,
    -0.039421722292900085,
    0.052171654999256134,
    0.0028991762083023787,
    -0.01261080987751484,
    0.008985480293631554,
    -0.0032962616533041,
    0.20767346024513245,
    0.013094850815832615,
    -0.006195068825036287,
    0.19080784916877747,
    -0.0009460458531975746,
    -0.031106669455766678,
    0.027003517374396324,
    -0.010656525380909443,
    0.06157633662223816,
    3.052085594390519e-05,
    -0.02266732230782509,
    0.02968173287808895,
    -0.0042724609375,
    -0.0485839806497097,
    0.001953125698491931,
    -0.009435463696718216,
    0.00915527157485485,
    -0.00015258751227520406,
    -0.010864256881177425,
    0.09076087176799774,
    -0.0032653789967298508,
    0.026462720707058907,
    0.0016784670297056437,
    -0.04953911900520325,
    0.009460455738008022,
    -0.007293701637536287,
    -0.026706242933869362,
    0.0169677771627903,
    -0.00390625,
    0.034609708935022354,
    3.0516737751895562e-05,
    -0.012675496749579906,
    0.007110596634447575,
    -0.010322469286620617,
    0.4377746284008026,
    0.001953125,
    -0.019384227693080902,
    0.040036678314208984,
    -0.014037302695214748,
    -0.03624699264764786,
    0.009662369266152382,
    -0.0032348642125725746,
    0.08228029310703278,
    0.0024108870420604944,
    -0.03612913191318512,
    0.006744384299963713,
    -0.0020468805450946093,
    -0.1274513155221939,
    0.0024108877405524254,
    -0.005157471168786287,
    0.02784034237265587,
    -0.0008945470326580107,
    -0.048341136425733566,
    0.004113501403480768,
    -0.03366956487298012,
    0.01416015625,
    0.004194553475826979,
    -0.06024189665913582,
    0.009477272629737854,
    -0.001831052009947598,
    -0.06592842936515808,
    0.0030517596751451492,
    -0.014373773708939552,
    0.10564768314361572,
    0.004882812965661287,
    -0.08018841594457626,
    0.026580817997455597,
    -0.011534526944160461,
    0.06692010909318924,
    0.016784658655524254,
    -0.004633370321244001,
    0.00781250186264515,
    -0.0017056178767234087,
    -0.03571595251560211,
    0.0038452143780887127,
    -0.0037841796875,
    0.048079099506139755,
    0.0008850102312862873,
    -0.04334207996726036,
    0.020751919597387314,
    -0.0017700197640806437,
    -0.0848388671875,
    0.0027465824969112873,
    -0.01660016179084778,
    0.01736450381577015,
    0.00015259144129231572,
    -0.019317373633384705,
    0.00900268740952015,
    -0.004272459540516138,
    0.019185185432434082,
    0.001983641181141138,
    -0.030295036733150482,
    0.010406493209302425,
    -0.0007324221078306437,
    -0.10160773992538452,
    0.0029602055437862873,
    -0.012709853239357471,
    0.017803220078349113,
    0.0040283203125,
    -0.034629691392183304,
    0.007071865256875753,
    -0.012420657090842724,
    -0.16734212636947632,
    0.013261349871754646,
    -0.023322923108935356,
    0.03082275204360485,
    -0.0010057814652100205,
    -0.03474138304591179,
    0.025395065546035767,
    -0.01402309536933899,
    0.02756502293050289,
    0.0038146949373185635,
    -0.0374755859375,
    0.12483490258455276,
    -0.003997803200036287,
    -0.25082099437713623,
    0.007829640060663223,
    -0.015804633498191833,
    0.019521040841937065,
    0.0010986319975927472,
    -0.1349557787179947,
    0.005136758554726839,
    -0.0067138695158064365,
    0.16005469858646393,
    0.009796146303415298,
    -0.007049560081213713,
    0.0803065299987793,
    -0.0007324227481149137,
    -0.13849112391471863,
    0.0033264157827943563,
    -0.007847138680517673,
    0.13156740367412567,
    0.0010375981219112873,
    -0.01000976748764515,
    0.010711677372455597,
    -0.008941654115915298,
    -0.2424255609512329,
    0.003906248603016138,
    -0.005624275654554367,
    0.06096566841006279,
    -0.0002746586687862873,
    -0.02568245306611061,
    0.0040283203125,
    -0.008209225721657276,
    0.036133747547864914,
    0.00863647274672985,
    -0.023853857070207596,
    0.014119590632617474,
    -0.0021057166159152985,
    -0.018310546875,
    0.027414746582508087,
    -0.004669187590479851,
    0.019592618569731712,
    0.0003356951929163188,
    -0.11489660292863846,
    0.005099093541502953,
    -0.005340577568858862,
    -0.0917087271809578,
    0.0050048683770000935,
    -0.005828857887536287,
    0.0416870191693306,
    -0.0017700198804959655,
    -0.023716768249869347,
    0.026336682960391045,
    -0.0029890844598412514,
    0.08897797763347626,
    0.000615144323091954,
    -0.0675009936094284,
    0.009010661393404007,
    -0.0013732939260080457,
    -0.018390968441963196,
    0.0028076171875,
    -0.005523681640625,
    0.00958251953125,
    -0.0017394962487742305,
    -0.0638122409582138,
    0.009216309525072575,
    -0.0036010760813951492,
    0.04340340942144394,
    0.0034179699141532183,
    -0.02572631649672985,
    0.03355211019515991,
    -0.0017395020695403218,
    -0.02799866907298565,
    0.009676855988800526,
    -0.006561279762536287,
    0.01562500186264515,
    0.00048828008584678173,
    -0.018249506130814552,
    0.005310058128088713,
    -0.0013915114104747772,
    -0.10006139427423477,
    0.010971293784677982,
    -0.02145206741988659,
    0.010932032018899918,
    -0.00545769277960062,
    -0.0145263671875,
    0.028358958661556244,
    -0.0045221480540931225,
    0.25966253876686096,
    0.0034179678186774254,
    -0.006317138206213713,
    0.061309803277254105,
    -0.001434326171875,
    -0.3330609202384949,
    0.0027063419111073017,
    -0.004913331009447575,
    0.06660453975200653,
    4.0816590626491234e-05,
    -0.064670130610466,
    0.005645752418786287,
    -0.005615232512354851,
    0.09688214957714081,
    0.001678466796875,
    -0.013346897438168526,
    0.00897216983139515,
    -0.0005187998758628964,
    -0.018820054829120636,
    0.01870289072394371,
    -0.02976582758128643,
    0.2825683057308197,
    0.0012668524868786335,
    -0.008939692750573158,
    0.0402526780962944,
    -0.01781713217496872,
    -0.17834264039993286,
    0.0035400381311774254,
    -0.005223889835178852,
    0.01560980174690485,
    -0.00033569431980140507,
    -0.024139404296875,
    0.03347873315215111,
    -0.004620877560228109,
    0.37376880645751953,
    0.006490680854767561,
    -0.007049561478197575,
    0.029693603515625,
    -0.0010681170970201492,
    -0.3031022250652313,
    0.0039672828279435635,
    -0.0059509240090847015,
    0.07051240652799606,
    0.005340577568858862,
    -0.011424127034842968,
    0.01287841610610485,
    -0.002197264228016138,
    -0.21948455274105072,
    0.0036315899342298508,
    -0.0875244066119194,
    0.03594651818275452,
    -0.0024561292957514524,
    -0.025292716920375824,
    0.004272460006177425,
    -0.014643147587776184,
    0.11296392232179642,
    0.0046386742033064365,
    -0.01409911084920168,
    0.0534595288336277,
    -0.002593994140625,
    -0.12182441353797913,
    0.0037242635153234005,
    -0.07320087403059006,
    0.21590282022953033,
    0.003448486328125,
    -0.02075195498764515,
    0.03542468696832657,
    -0.0045166015625,
    0.1072295680642128,
    0.002502440009266138,
    -0.01257324405014515,
    0.017578119412064552,
    -0.0004577621875796467,
    -0.03242199867963791,
    0.020764868706464767,
    -0.004211426246911287,
    0.14036957919597626,
    0.0014953607460483909,
    -0.012041652575135231,
    0.018431730568408966,
    -0.0024414074141532183,
    -0.19370587170124054,
    0.002685546875,
    -0.0698133185505867,
    0.12205971032381058,
    0.00018310642917640507,
    -0.09606920182704926,
    0.0787353515625,
    -0.014955499209463596,
    0.11007392406463623,
    0.002442688448354602,
    -0.1195068359375,
    0.02206866629421711,
    -0.010119776241481304,
    -0.25316646695137024,
    0.011224417947232723,
    -0.029022222384810448,
    0.0630493238568306,
    0.003354331012815237,
    -0.07739146053791046,
    0.024631451815366745,
    -0.017913831397891045,
    -0.3901393413543701,
    0.02122957445681095,
    -0.027381323277950287,
    0.05314088985323906,
    -0.0027465804014354944,
    -0.27140840888023376,
    0.11425275355577469,
    -0.003570555942133069,
    0.26495361328125,
    -0.00033568922663107514,
    -0.0164794921875,
    0.02090454287827015,
    -6.103308987803757e-05,
    -0.0603027381002903,
    0.0072140987031161785,
    -0.016877956688404083,
    0.05667006969451904,
    0.00018310594896320254,
    -0.06818850338459015,
    0.004669188056141138,
    -0.0025115020107477903,
    0.05453551188111305,
    0.0025024416390806437,
    -0.006702913902699947,
    0.015106205828487873,
    -0.003021240932866931,
    -0.10744480788707733,
    0.00671386020258069,
    -0.009365280158817768,
    0.02850376069545746,
    0.002807617885991931,
    -0.10898908227682114,
    0.011138918809592724,
    -0.002716064453125,
    -0.0526861809194088,
    0.0037231449969112873,
    -0.04066159576177597,
    0.11807768046855927,
    0.0002746578538790345,
    -0.0750674456357956,
    0.004821778275072575,
    -0.0944734662771225,
    0.25533074140548706,
    0.0061461469158530235,
    -0.09378207474946976,
    0.03179937228560448,
    -0.006374951917678118,
    -0.14977174997329712,
    0.02937227115035057,
    -0.03663889318704605,
    0.090606689453125,
    0.0034122325014322996,
    -0.06706652045249939,
    0.06615956127643585,
    -0.006439208518713713,
    0.06219908967614174,
    0.0029296858701854944,
    -0.03417591005563736,
    0.06033327057957649,
    -0.0005798347410745919,
    -0.06834903359413147,
    0.025919537991285324,
    -0.0322876051068306,
    0.024640977382659912,
    0.007903652265667915,
    -0.05465221032500267,
    0.12399568408727646,
    -0.005828856024891138,
    -0.08045186847448349,
    -0.00286864978261292,
    -0.022634927183389664,
    0.09684910625219345,
    0.0004212884232401848,
    -0.13137955963611603,
    0.02301025390625,
    -0.013181816786527634,
    0.12337517738342285,
    0.00401264475658536,
    -0.030853262171149254,
    0.02310372330248356,
    -0.023626208305358887,
    -0.08417545258998871,
    0.0245971642434597,
    -0.010666701942682266,
    0.04910588636994362,
    0.0103020453825593,
    -0.08961831778287888,
    0.07239875197410583,
    -0.0027770991437137127,
    -0.31548652052879333,
    0.0029602055437862873,
    -0.0363193154335022,
    0.0708339512348175,
    -0.007202601060271263,
    -0.12357958406209946,
    0.014495849609375,
    -0.004180908203125,
    0.17882081866264343,
    0.00872802920639515,
    -0.01242065615952015,
    0.009063725359737873,
    -0.021490009501576424,
    -0.17422978579998016,
    0.00407445291057229,
    -0.09115409106016159,
    0.06377702951431274,
    0.0007985774427652359,
    -0.06077762693166733,
    0.012764629907906055,
    -0.05589386820793152,
    0.05006026476621628,
    0.009092001244425774,
    -0.018067697063088417,
    0.03704928234219551,
    -0.0034917357843369246,
    -0.0866352990269661,
    0.012166943401098251,
    -0.027641652151942253,
    0.09344484657049179,
    0.00448607886210084,
    -0.05316486582159996,
    0.04200250655412674,
    -0.020263671875,
    -0.12032778561115265,
    0.06585693359375,
    -0.018076973035931587,
    0.054822973906993866,
    0.0014343253569677472,
    -0.013744544237852097,
    0.02862124890089035,
    -0.010149742476642132,
    0.10360294580459595,
    0.011689282953739166,
    -0.04322867467999458,
    0.07408511638641357,
    -0.013849684037268162,
    -0.09255450963973999,
    0.012154435738921165,
    -0.005126949865370989,
    0.09268619120121002,
    0.002530905185267329,
    -0.053284648805856705,
    0.1214393675327301,
    -0.003356934292241931,
    0.052490223199129105,
    0.0029602046124637127,
    -0.053429584950208664,
    0.013116330839693546,
    -0.0020141645800322294,
    -0.016333039849996567,
    0.061401356011629105,
    -0.029022216796875,
    0.08030868321657181,
    0.003662110073491931,
    -0.0651550367474556,
    0.12525226175785065,
    -0.00726318359375,
    -0.05030427128076553,
    0.04168701171875,
    -0.055735040456056595,
    0.0312194786965847,
    0.007553791627287865,
    -0.07923146337270737,
    0.04180537909269333,
    -0.02868652157485485,
    0.15926146507263184,
    0.009124758653342724,
    -0.045043934136629105,
    0.02366289496421814,
    -0.004974367097020149,
    -0.0531310997903347,
    0.0384216271340847,
    -0.006134033668786287,
    0.13809648156166077,
    0.015411381609737873,
    -0.026702886447310448,
    0.040002480149269104,
    -0.008473118767142296,
    -0.17529860138893127,
    0.006256100255995989,
    -0.004760743118822575,
    0.034431226551532745,
    -0.002288821619004011,
    -0.4548249840736389,
    0.012908935546875,
    -0.04482809826731682,
    0.10984133929014206,
    0.0008850094745866954,
    -0.11060033738613129,
    0.052062250673770905,
    -0.003936767112463713,
    -0.08721437305212021,
    0.020874014124274254,
    -0.04612017050385475,
    0.01259568426758051,
    0.0035705568734556437,
    -0.0432630330324173,
    0.02590942196547985,
    -0.033877983689308167,
    0.28135666251182556,
    0.018586639314889908,
    -0.157073974609375,
    0.04663544520735741,
    -0.005523684434592724,
    -0.07232610136270523,
    0.017907921224832535,
    -0.03146132454276085,
    0.037961121648550034,
    0.0028991703875362873,
    -0.09741167724132538,
    0.0196533203125,
    -0.004974365234375,
    -0.09308869391679764,
    0.029083251953125,
    -0.049689535051584244,
    0.09116523712873459,
    0.005733560770750046,
    -0.02348543331027031,
    0.061828047037124634,
    -0.0193176306784153,
    0.11117096245288849,
    0.020660394802689552,
    -0.015472413040697575,
    0.014862059615552425,
    -0.013135209679603577,
    -0.046752918511629105,
    0.017175093293190002,
    -0.0067138671875,
    0.027877824380993843,
    -0.007719349581748247,
    -0.016216911375522614
  ],
  "scaler_mean": [
    0.41067942526091966,
    0.8359959744617625,
    0.20590882437482058,
    0.5201013783734715,
    0.921606686483205,
    0.3785327862488643,
    0.6539443651669353,
    0.02125711818928059,
    0.3253807288790586,
    0.7172360066981724,
    0.3016681615799602,
    0.5727282549305913,
    0.9808487052940689,
    0.37172031015705087,
    0.7089410970806972,
    0.013657984674080963,
    0.50543481097885,
    0.9718158938626549,
    0.12901578313143783,
    0.5861735809021321,
    0.036105336402061754,
    0.39918194391842243,
    0.6923308072643959,
    0.05793913633831785,
    0.5238641173509134,
    0.9777811017046937,
    0.30242455528684364,
    0.6667969291366551,
    0.24236324232530743,
    0.4799162523706706,
    0.861291685728563,
    0.21483210267299324,
    0.678931954435888,
    0.9656134909443551,
    0.22433434153436835,
    0.8377764927732398,
    0.17592023875983295,
    0.47660609490246064,
    0.8893648416185526,
    0.3532158669490749,
    0.6472220985871062,
    0.10480015029084645,
    0.4544227707513107,
    0.9014555859247319,
    0.07389418861672499,
    0.5615353069055936,
    0.9380922304036077,
    0.33967956705039926,
    0.7829271801305167,
    0.1931872617024774,
    0.4902741409299879,
    0.8369162723441909,
    0.2889909265161742,
    0.7081126896715764,
    0.0019570079432944813,
    0.24678722294203423,
    0.7800369894226883,
    0.2750041644895703,
    0.559687930926766,
    0.8785010300655687,
    0.26413654328062564,
    0.6410662994886082,
    0.19001604963161556,
    0.4686844801269392,
    0.8216834695720198,
    0.1418408046911475,
    0.578650315718314,
    0.8924798711308102,
    0.3030521930191344,
    0.7797050980912679,
    0.013852077216673973,
    0.4931886963374894,
    0.9400856713892528,
    0.13904317712107572,
    0.6167001331541144,
    0.05166954189765581,
    0.14482638634666245,
    0.6994416861612445,
    0.26004124220042557,
    0.5558444587150643,
    0.8228573610276473,
    0.39385551215081527,
    0.7169474938565896,
    0.06568424773573779,
    0.4747025350187419,
    0.8961057534388578,
    0.07274693353912755,
    0.6091939510555379,
    0.9638879644966767,
    0.3738654150128247,
    0.7924778491225812,
    0.3036122949957654,
    0.5287605548427834,
    0.9057196940426148,
    0.37129383581118014,
    0.6020226780899541,
    0.22870556421901053,
    0.4571669621282895,
    0.7209934529893347,
    0.15588475587068254,
    0.6216289137255738,
    0.9683169595052376,
    0.23928121056594828,
    0.7518876179533863,
    0.16356882260325384,
    0.47766431399931725,
    0.7369163453344109,
    0.230177322017203,
    0.6482108645121698,
    0.15278802947787992,
    0.2841361433326304,
    0.6636973519826435,
    0.09976904360875234,
    0.586151642616409,
    0.9591109885754456,
    0.15357194515168332,
    0.809578227586891,
    0.19394327609120707,
    0.46656112230157676,
    0.7003875426199947,
    0.2754411660538425,
    0.612037314000498,
    0.9479362874250988,
    0.3213620254776073,
    0.6941799132456764,
    0.179351816554335,
    0.5021142344467471,
    0.8113236454797307,
    0.23444949093373144,
    0.6476177181987043,
    0.07657822139442029,
    0.45810028386562224,
    0.6859855471200798,
    0.06613295100146589,
    0.719923815508832,
    0.8477364852994265,
    0.34209927170907534,
    0.6497948665032209,
    0.10928098131740972,
    0.4844624831071561,
    0.8135209332160197,
    0.13232819990240144,
    0.5764517723819846,
    0.0015779477390077071,
    0.36170249705629876,
    0.657739556198691,
    0.25631624298421996,
    0.5247445390214649,
    0.7245110306221638,
    0.39851672738899296,
    0.8415101217507999,
    0.09585685161272348,
    0.4655152123599072,
    0.8874010544738016,
    0.06152667270505269,
    0.6474692159303681,
    0.9305718736373934,
    0.18155832908587713,
    0.7424444821399059,
    0.09017788986079318,
    0.49430781798157175,
    0.803600231709738,
    0.3277354561078658,
    0.6357197869147947,
    0.19833602527631922,
    0.23628655191887785,
    0.806383439921457,
    0.08600603749656086,
    0.6418849875279226,
    0.8158139434596521,
    0.1466342546633059,
    0.7114945000179038,
    0.012054336889132539,
    0.44083352527769537,
    0.8781436237242318,
    0.3044952205038822,
    0.7767174341385897,
    0.8560664492394158,
    0.2774674199494345,
    0.9359840057292538,
    0.1866911409148123,
    0.5051559715611792,
    0.8984493541357671,
    0.3483909863338209,
    0.5845505763135591,
    0.07064854675490355,
    0.4101961063678367,
    0.6804367813573485,
    0.05430231187941974,
    0.5791267598878537,
    0.8954363288384295,
    0.3550666441371553,
    0.8690621473986896,
    0.008428669716560084,
    0.39256647540876616,
    0.6814035809781199,
    0.132814357805895,
    0.8970095558489479,
    0.005272924285112359,
    0.32198946533458206,
    0.7349728257011391,
    0.04591488776042622,
    0.5923445505137598,
    0.9304774852394125,
    0.20167290119116896,
    0.7157538590418643,
    0.15743789337340297,
    0.26524838635370845,
    0.8489240627122634,
    0.2349075102698686,
    0.5504091548780845,
    0.9535523558783292,
    0.20795383284607596,
    0.6659170168304273,
    0.06618764707831157,
    0.4986305541038734,
    0.9252376265815639,
    0.32295135473609626,
    0.829813198891249,
    0.03182083858416372,
    0.1807742744202383,
    0.759668576866915,
    0.16851633352901432,
    0.5346049353859365,
    0.9476126776287789,
    0.30049349274243475,
    0.7793314213896828,
    0.029121950334220187,
    0.4485364504803014,
    0.8924596416082696,
    0.1706601078555502,
    0.5624406187992548,
    0.9661340866527328,
    0.43900448350318166,
    0.9226633871172869,
    0.2865934191332423,
    0.6196283447734864,
    0.7885166496527113,
    0.2634719741114187,
    0.6149768042007682,
    0.1100878151212985,
    0.3736070302461886,
    0.7960023639172279,
    0.2961470940803741,
    0.7747019988335369,
    0.95627027779025,
    0.36661664071589495,
    0.6756678280489726,
    0.03637378764217138,
    0.5033047706367063,
    0.9401429168311447,
    0.2868671683752476,
    0.5909305489248373,
    0.1322976998311301,
    0.41823093888311896,
    0.631492960255491,
    0.30455837389313406,
    0.5797792456332264,
    0.7684473667814624,
    0.3522684280567674,
    0.847761199146801,
    0.017380624623406365,
    0.4800689454319455,
    0.9711651197140942,
    0.28321281746673077,
    0.5779434496861592,
    0.9523671108965346,
    0.40135054172442597,
    0.8183220334791821,
    0.22586700272811625,
    0.5154487080736075,
    0.9199372964680586,
    0.30585025611504446,
    0.6068886379956909,
    0.04639588366442037,
    0.3298298163667906,
    0.7273744054199529,
    0.23285448757570157,
    0.7706912574741681,
    0.8224168260370748,
    0.37960054052097786,
    0.680080838833425,
    0.10867605260940671,
    0.45910170913136317,
    0.8389655037953767,
    0.2957861059519547,
    0.5822141935788878,
    0.023776360188198863,
    0.36652174660657233,
    0.7561707633351442,
    0.06878039487933323,
    0.5518087606174077,
    0.8189704628779235,
    0.12239253733831369,
    0.8521100326839842,
    0.2191713193272418,
    0.4330426034472744,
    0.702130285768646,
    0.05349722171296741,
    0.5558586824160613,
    0.9706057453149992,
    0.31480746286252026,
    0.8839632608767035,
    0.09614340352378048,
    0.40163808785285254,
    0.7865244104126057,
    0.24433411663832322,
    0.606810035307166,
    0.012446704095734883,
    0.22482084721734022,
    0.6862446653365647,
    0.01811108409145012,
    0.536643907287056,
    0.8369232051476411,
    0.1697848926932345,
    0.7622097223518801,
    0.07073932391124481,
    0.5037438089891494,
    0.8308158086797262,
    0.1564422157396621,
    0.6355386138880983,
    0.8635822472103889,
    0.434757420688814,
    0.7411589894377486,
    0.26752495086007805,
    0.5029704966183313,
    0.7728126345562683,
    0.046082299153129544,
    0.6088771903764898,
    0.14322770742611537,
    0.4465669521821167,
    0.8964655542713486,
    0.2597423390031476,
    0.7152281011979214,
    0.8415791544592929,
    0.19515813209690583,
    0.5968077873495019,
    0.15734684862472642,
    0.49069934526678655,
    0.758379840893654,
    0.28508491806711395,
    0.7382498493828098,
    0.0014490990252969537,
    0.4269608762796235,
    0.7818862161967064,
    0.12032557009055808,
    0.7703328927029905,
    0.871612584487651,
    0.2642591112214573,
    0.5939118624669429,
    0.056012283534411816,
    0.4054607355747972,
    0.8848397705879457,
    0.28558942410747173,
    0.5681916563810248,
    0.9665650461894127,
    0.4112863665184062,
    0.6600207967490599,
    0.10735574488055481,
    0.5326797459819542,
    0.9307478649866692,
    0.36366820474911193,
    0.8505558029436224,
    0.2129972091172123,
    0.36475482937810844,
    0.913080710993905,
    0.25055480620741943,
    0.5585789669395094,
    0.9424570024348513,
    0.3909445914852501,
    0.7768885449815705,
    0.06516067800555565,
    0.34145504385500575,
    0.9253376762707697,
    0.154014844512253,
    0.774058528883832,
    0.05404322389730214,
    0.15493313369012676,
    0.6597081985352897,
    0.267544729230084,
    0.5557028566038659,
    0.8811599366741141,
    0.3756522626294288,
    0.6231478722196747,
    0.106316901434633,
    0.460525636836257,
    0.8938886613435959,
    0.1385797998627854,
    0.5645158120966143,
    0.9684945079140498,
    0.39671197639803835,
    0.7864066822133478,
    0.17033738924538916,
    0.4944535756647825,
    0.8548895299030598,
    0.2620205447575061,
    0.6582115878062285,
    0.16461723782734666,
    0.4401145489210049,
    0.8654101806248082,
    0.23982314152018316,
    0.5289214093699379,
    0.9688107191849794,
    0.4015736879731352,
    0.7833526857403202,
    0.21822594805856543,
    0.37956318443830905,
    0.8738923826377343,
    0.3063698127965944,
    0.7678917070564841,
    0.9773893738733713,
    0.2305973419383556,
    0.844931525704109,
    0.1492645856837106,
    0.5354560634975079,
    0.8601521021490668,
    0.18300568981554427,
    0.7774401193208272,
    0.1832160380422187,
    0.4069534255000336,
    0.8092712619999647,
    0.05655053023019702,
    0.5944255069006125,
    0.9904272093047092,
    0.29949499465090434,
    0.7760703516773846,
    0.2071692759667556,
    0.45973515268120585,
    0.9688388709674132,
    0.34459842403474195,
    0.6778404611609158,
    0.016438936231204734,
    0.26142319763421723,
    0.6750426328353516,
    0.05449280455779972,
    0.519828286851445,
    0.9829189120787266,
    0.3848036155721957,
    0.7069155150907148,
    0.01903607395761859,
    0.45307450721973797,
    0.7723245263631515,
    0.2285189943193735,
    0.7610958226655807,
    0.9942248768094752,
    0.37942207544252904,
    0.6690430614115831,
    0.10195522349047402,
    0.4989518480634101,
    0.8161804854966541,
    0.3750447198110547,
    0.7184118085070125,
    0.1184567055709141,
    0.2651862681125274,
    0.8108842377452959,
    0.2019091836795536,
    0.572021622525229,
    0.8623888405537756,
    0.1254911464477216,
    0.6449795007546826,
    0.13513988278243977,
    0.48489227634197635,
    0.9775944115513411,
    0.3206311373688806,
    0.6922463814293194,
    0.9681623620239316,
    0.35012050943283046,
    0.683317515482127,
    0.13408849085689487,
    0.5468799816224893,
    0.8291003173054753,
    0.13754538513509104,
    0.6082065510158571,
    0.0482115882329452,
    0.47229366159962644,
    0.9473706707492185,
    0.23462192664504936,
    0.5564300361918204,
    0.8237871592684702,
    0.40199311666682325,
    0.6792025115655868,
    0.2599350021227921,
    0.5620667696865984,
    0.9066898084590275,
    0.2777727611617201,
    0.622461799918324,
    0.10196030126136338,
    0.3955332754952889,
    0.8335968170176238,
    0.12230406171440263,
    0.5654272369095442,
    0.8417608318599477,
    0.27945128859422946,
    0.6767635670972386,
    0.2345398274600458,
    0.49624212279167257,
    0.790193804465327,
    0.36273499024505584,
    0.5500311183742261,
    0.9334046817701684,
    0.2927997649512769,
    0.7937161017385638,
    0.2993812734393685,
    0.6394304305261488,
    0.6979880755331972,
    0.22470585609311094,
    0.5958466074358817,
    0.01085026473403624,
    0.40345704850875475,
    0.6253893158842511,
    0.12351089876046416,
    0.5208171423509724,
    0.995632551302673,
    0.42739981652304226,
    0.6213886784757093,
    0.0955214581565535,
    0.49371040012622475,
    0.8881423504888973,
    0.3464652645718465,
    0.6360841008780957,
    0.046813152644411424,
    0.4516361607389203,
    0.7446980938514833,
    0.2920173552929595,
    0.5157467874606768,
    0.7829023883004849,
    0.2122101049684387,
    0.8323182675520606,
    0.006120458910975884,
    0.4725617583653515,
    0.7022195493465601,
    0.18128645439010924,
    0.736928582186287,
    0.9734894013624491,
    0.39659149428478047,
    0.6173885018505457,
    0.22149607737943,
    0.5025501946642761,
    0.7874799814804576,
    0.16314067609720387,
    0.6301668809966532,
    0.0021560374705003123,
    0.3196534560708936,
    0.6602364336603714,
    0.13978268740636618,
    0.5394656120939944,
    0.9958336058991334,
    0.38918533674572675,
    0.6835684569059224,
    0.07134323851281224,
    0.35954668303841864,
    0.7320274141546376,
    0.2736963787833475,
    0.5446217252813904,
    0.9860283797237189,
    0.400089685070887,
    0.9394107888765632,
    0.15764585331035627,
    0.567700457856818,
    0.8167368017292028,
    0.37316948832811614,
    0.76419505912961,
    0.04364473034750404,
    0.38277441722174305,
    0.7758813834223522,
    0.11410027044158683,
    0.5815021381558311,
    0.9453086753012829,
    0.4020659829789859,
    0.9047785060756196,
    0.0132820325955976,
    0.4219266559635752,
    0.7865083029765548,
    0.15675582724745038,
    0.62881242258813,
    0.05472238126695956,
    0.44091683185071545,
    0.7135607048509102,
    0.24940223665478983,
    0.521431517225268,
    0.8219935109765347,
    0.24986624809510122,
    0.6106374875678892,
    0.04453506352262228,
    0.4727926646611859,
    0.7012929902256858,
    0.2686581610402893,
    0.5554160829269773,
    0.9671834379139308,
    0.4477477952370853,
    0.8690125776253098,
    0.05470385315877407,
    0.4930185767968689,
    0.9222866564279387,
    0.1284225384705416,
    0.6888710704309251,
    0.0689382589480627,
    0.4419141202358653,
    0.9469961263025696,
    0.2330873979838976,
    0.639277823283613,
    0.9891558958167749,
    0.3275889032851408,
    0.8065215019142582,
    0.12294509546449763,
    0.41971561492000536,
    0.8886027247571843,
    0.2183461498628805,
    0.7227021154218936,
    0.998086042272664,
    0.2749809683468982,
    0.7900095602556924,
    0.15530540393032632,
    0.5646798656429391,
    0.9906835840809172,
    0.06717565335990114,
    0.5508158482437208,
    0.009513946365233346,
    0.5036268069639951,
    0.7280734920910608,
    0.26623793531766277,
    0.49738567734111383,
    0.852558718536342,
    0.3452575004353253,
    0.723802746751299,
    0.11522162361017159,
    0.4916593266846483,
    0.8939797554426946,
    0.4012862337477217,
    0.5690731676295939,
    0.13756367106827383,
    0.4364860885627052,
    0.6346044760931062,
    0.26352880249418914,
    0.5653350054319822,
    0.9406647082966237,
    0.38820045650781526,
    0.659857535123604,
    0.24353741143196148,
    0.43260050983961906,
    0.9313280128598302,
    0.31037357905085844,
    0.5559910499791957,
    0.8717825135120173,
    0.4307643077441747,
    0.8373325105282307,
    0.05869883813215936,
    0.49933227876832514,
    0.9013578682262421,
    0.40073605656824146,
    0.9204462069757526,
    0.010642632854416885,
    0.40213793896393796,
    0.9193028566582993,
    0.22585687546513952,
    0.6335525466141595,
    0.9550073982300435,
    0.20119863262623694,
    0.8010265227765306,
    0.07523047690519806,
    0.44512508626010855,
    0.8790239757800532,
    0.15158012200018614,
    0.631664545803069,
    0.1437895209022043,
    0.4456840257799648,
    0.7826224267569096,
    0.13246404776980106,
    0.515569029601578,
    0.873946393383662,
    0.27927639214010075,
    0.7744327600063485,
    0.2612340344461112,
    0.4313274506049752,
    0.8485123821268132,
    0.06757873609605113,
    0.5764536531763493,
    0.8765435561488529,
    0.5400390290127506,
    0.6797632078398793,
    0.07108271638576641,
    0.4908235379366784,
    0.9577262414462514,
    0.303649612894669,
    0.6560666547709707,
    0.07174320735732392,
    0.43328080410455605,
    0.7327709003632823,
    0.26954809666906887,
    0.6972247720320729,
    0.9016152153327889,
    0.2906341438025672,
    0.6409183847641046,
    0.19819238339099035,
    0.3570200012408288,
    0.8996903560923994,
    0.11398323199946078,
    0.53502414056307,
    0.9964339650169751,
    0.4641606824717424,
    0.7896156671999145,
    0.14166159675660706,
    0.6074031520548767,
    0.9330333084018255,
    0.3247882612776442,
    0.5580694312236768,
    0.023696784320671592,
    0.3907381201553508,
    0.6673825947512024,
    0.39236899502771816,
    0.7234107077836618,
    0.9677155758222663,
    0.4268077638722687,
    0.9050854353330331,
    0.12833268442259108,
    0.485288653990037,
    0.8666101282134283,
    0.35290711096510763,
    0.8468266298371814,
    0.1820665803080808,
    0.36225994559880914,
    0.6618901278064483,
    0.20722408018524827,
    0.5503583727896065,
    0.904679564485766,
    0.38114262853875747,
    0.7520922650670776,
    0.0912170371551846,
    0.42906144050780576,
    0.8219202885957767,
    0.19093996182242354,
    0.6896347559177348,
    0.9488531897543092,
    0.14483360584746433,
    0.706031415655754,
    0.17438962993062462,
    0.48185989907866894,
    0.6430704633805848,
    0.24926769802673526,
    0.6166003967251505,
    0.06785838121696561,
    0.37133282376516685,
    0.8162150414232874,
    0.12424887467386651,
    0.6758772930165653,
    0.9008947548691385,
    0.3573668924762998,
    0.5608704607199667,
    0.08235057660072699,
    0.4694053873204347,
    0.8496848484291332,
    0.05820380399374429,
    0.555103667614406,
    0.17171833355509783,
    0.45347403668398595,
    0.8267246208974043,
    0.44621646677096005,
    0.5275400777139796,
    0.6292876180543484,
    0.1316407904024741,
    0.7419607161480967,
    0.08068044504726728,
    0.44534735500318673,
    0.8814802133744848,
    0.055130656469088594,
    0.5809960136515661,
    0.8244539081059158,
    0.18914200131840483,
    0.8450156440118199,
    0.2450783938251361,
    0.3975027521872646,
    0.9019990384188454,
    0.20429196361318733,
    0.7480282289151334,
    0.028463410394576744,
    0.3980349151320374,
    0.795338663885509,
    0.2839476911633761,
    0.5437670201054522,
    0.845498766066944,
    0.19675966162581843,
    0.5755632424801441,
    0.030360971087548524,
    0.32360826241460267,
    0.7186757633698361,
    0.20270155866210313,
    0.6196404774320644,
    0.9827404023632749,
    0.5040486123182107,
    0.5690846051959272,
    0.23217596616258185,
    0.5332992177682608,
    0.9995944145083725,
    0.35910227708602144,
    0.761602642099774,
    0.05770213809901092,
    0.47649052668173125,
    0.9442724493358162,
    0.15299264152036618,
    0.5536725418828331,
    0.9157975548988934,
    0.30116427366627585,
    0.8207601830928791,
    0.35448092002619874,
    0.45353149081638566,
    0.8104890317987046,
    0.3250622863433571,
    0.763917897812868,
    0.005902717422793905,
    0.3125411205730622,
    0.9654455646329452,
    0.1835069935113606,
    0.5868025378063619,
    0.8895749581689678,
    0.4064473607972652,
    0.7549336346219123,
    0.2880960658207312,
    0.45990522033843334,
    0.9163986905382698,
    0.2956466770772878,
    0.5024624833420245,
    0.9222011939662448,
    0.2515933715742511,
    0.8342357959011849,
    0.09085839272263746,
    0.4312138593588328,
    0.6563314792282288,
    0.126464754680844,
    0.6310258415898952,
    0.04672833889789362,
    0.2904064546033953,
    0.67052450316434,
    0.33231936960426445,
    0.6507222666128588,
    0.8066153890723681,
    0.3146244858323003,
    0.5735703111420128,
    0.23876232686702512,
    0.582138304652645,
    0.6973528246975862
  ],
  "scaler_scale": [
    0.05733076946598577,
    0.11888085321908883,
    0.12395121042095582,
    0.018451203825445513,
    0.0845794596331605,
    0.0661629281129495,
    0.07208928702408202,
    0.042468875862070106,
    0.09444267289507649,
    0.09643208460866205,
    0.08535734199267803,
    0.03998531896608877,
    0.03540861181278165,
    0.06553084915808303,
    0.08859885941596042,
    0.030180441501963414,
    0.016697194540733738,
    0.042855989195940296,
    0.10041608716480342,
    0.03656169746556717,
    0.046580159124974,
    0.04516121988395015,
    0.06690828249150178,
    0.06811026649672133,
    0.02534725769912092,
    0.03853769325862,
    0.09480785968075488,
    0.08666775744507822,
    0.12133111958423937,
    0.030002034017667146,
    0.11144464070818089,
    0.104260631347035,
    0.07674857172881212,
    0.04902865874723066,
    0.11837861635491824,
    0.1191248971636439,
    0.10860884809011322,
    0.0315298137678507,
    0.08769531767570775,
    0.06787808582694212,
    0.06317917716781278,
    0.05990219476434685,
    0.0344131434211003,
    0.08994364764441931,
    0.07562136830501426,
    0.03282058584690529,
    0.06643524640557834,
    0.07585254267309259,
    0.1187626514086476,
    0.1175739538627929,
    0.03670639859241653,
    0.11371626442655951,
    0.06441171687616004,
    0.07189400159033033,
    0.008879270287624884,
    0.09173102144535546,
    0.09118111857592048,
    0.08122598125722172,
    0.037471106161477495,
    0.09925200959173326,
    0.08470870810964858,
    0.06590213696859841,
    0.11519992778412069,
    0.02435140548463894,
    0.11985883935904187,
    0.10343881396765525,
    0.04422819521893557,
    0.09165547225673212,
    0.0813507163821938,
    0.11820252689223398,
    0.031305062668255314,
    0.01756043042933755,
    0.07259731692586038,
    0.10767114534376829,
    0.06499815833298551,
    0.06774147863022324,
    0.11222405920197705,
    0.10180970775407319,
    0.11491817971054281,
    0.03670685787886566,
    0.12017641125879913,
    0.05948198645676866,
    0.11437903847526698,
    0.07801531302597393,
    0.022300544673241756,
    0.0896857819297081,
    0.07330106801239004,
    0.05775521005543425,
    0.05265724245108235,
    0.06797477677266309,
    0.12840240857131832,
    0.09770466125784799,
    0.023779758897690434,
    0.08381903891319407,
    0.06096472521570544,
    0.046632858687995736,
    0.1189381040203402,
    0.032659007896362745,
    0.08781401723625581,
    0.10731913461485434,
    0.054605982280392686,
    0.050684699014577166,
    0.11062960941460379,
    0.09739491566026325,
    0.11026120759646654,
    0.018338412986779202,
    0.11380832660784536,
    0.11106434452105153,
    0.07051130330037864,
    0.11181982475432059,
    0.10683151788877175,
    0.0936660042157737,
    0.09012080628272094,
    0.04825954886542709,
    0.055438948604852975,
    0.1082028570223185,
    0.11819780115110229,
    0.12172664238020847,
    0.02223076752827114,
    0.08802207413375879,
    0.08831209015511009,
    0.044604761278846064,
    0.06668152554793702,
    0.08951971590934589,
    0.07353059040322442,
    0.10124221576501967,
    0.01469040313337401,
    0.11510345076312911,
    0.09737429525818798,
    0.06461564786993212,
    0.08160259153802862,
    0.0240326557302355,
    0.09935319302698721,
    0.07571941296937977,
    0.10615309845277575,
    0.1118430778579153,
    0.06926040752932065,
    0.07175132106189729,
    0.09641978936215406,
    0.017179490791017545,
    0.10552226593100063,
    0.10350995206104983,
    0.041885736058776386,
    0.0070346914517116005,
    0.05775159165843395,
    0.07504489153408957,
    0.09814638450320454,
    0.026350538628667947,
    0.11735318324700575,
    0.05510832137370293,
    0.11429083752250091,
    0.08533283611005657,
    0.02516989962994459,
    0.09367783502300439,
    0.06897561946175716,
    0.07252402652546681,
    0.07213026634059533,
    0.11345299412799112,
    0.1244117325435362,
    0.08973525769051577,
    0.01692548937941187,
    0.12108926746139922,
    0.08668677639094655,
    0.0684414418857569,
    0.12093418960334751,
    0.12189587160214667,
    0.11827398531057935,
    0.08230333481899095,
    0.08437050024127986,
    0.110485405136255,
    0.10965692860901255,
    0.11447621995008544,
    0.026428242499081326,
    0.0378820553938517,
    0.09784203932103143,
    0.0925982280926591,
    0.11149793739893982,
    0.10787758258134694,
    0.10518233859407197,
    0.06971041549444545,
    0.11553224413659322,
    0.017388199835200197,
    0.0897464588685104,
    0.06697481396087694,
    0.05347059500183208,
    0.0746062052294129,
    0.051243135397659983,
    0.09244657218422096,
    0.06790080219618,
    0.05202402493345161,
    0.09241139947305207,
    0.07188322049099471,
    0.10440888098451005,
    0.022615877179454236,
    0.054735500002850906,
    0.10022009121974677,
    0.1035025859677227,
    0.08886824200234222,
    0.018567692942248262,
    0.08849201612452119,
    0.10752059706995278,
    0.06147935214025333,
    0.053461673862613766,
    0.07536641851548229,
    0.1162500115621693,
    0.09769783612230952,
    0.1093350572608822,
    0.11074068801444557,
    0.10838761210461162,
    0.09870865734539162,
    0.03620875443519111,
    0.06393171224225963,
    0.11584244855574166,
    0.08244694086753912,
    0.07381000909719444,
    0.023633749362344022,
    0.07492167963647073,
    0.09382018549664237,
    0.11189953909284427,
    0.05577171491778664,
    0.11772206644271319,
    0.1144268641598228,
    0.1100444847078754,
    0.02347190218713256,
    0.06380657640364283,
    0.0989332749506084,
    0.12264542579531577,
    0.0495911438635166,
    0.026339928764390085,
    0.09835305542017826,
    0.11059879776520605,
    0.03858585645993171,
    0.05092204273578237,
    0.03702510145555615,
    0.083029406649925,
    0.10403042020519467,
    0.06559581347389007,
    0.11818423479491706,
    0.1010120626433821,
    0.0665794117196406,
    0.09438304646687044,
    0.06836390719639446,
    0.1227785994095972,
    0.09879192474069431,
    0.12101160331584689,
    0.058337482106948044,
    0.06946680109253099,
    0.09091644707485025,
    0.052924683293423945,
    0.02039907541688837,
    0.066923412437441,
    0.106765112463951,
    0.051389716354529345,
    0.1014381563336921,
    0.04760036240711936,
    0.08085338686221215,
    0.09116800123820389,
    0.047839616323931765,
    0.11012785914088624,
    0.06653467795723174,
    0.11373380216781516,
    0.034256809681115885,
    0.02279410132906197,
    0.04806513186710349,
    0.10693516890496607,
    0.04634899731621677,
    0.061978097658644815,
    0.0460761243540466,
    0.11895763695558693,
    0.11583559493485865,
    0.0319139794340144,
    0.08647506549520959,
    0.09887191016068256,
    0.0637330886022111,
    0.05638211466334682,
    0.08614256442205637,
    0.10705240182068862,
    0.11622013288682874,
    0.11999787414105194,
    0.11194146934263013,
    0.06259398992694323,
    0.08136517105120515,
    0.09146968232116696,
    0.031378867869898436,
    0.1093767644716986,
    0.08674743858295594,
    0.05246147198830279,
    0.04796031273711048,
    0.06854191033369163,
    0.11608195760870366,
    0.07636738289443312,
    0.03286025990208657,
    0.11630911493152027,
    0.10002636352276878,
    0.10932164019727705,
    0.119487118564406,
    0.03823334420660489,
    0.09598672111865769,
    0.06338767848216238,
    0.037233256754512126,
    0.047395429988371034,
    0.0868393148329768,
    0.09825170766805355,
    0.08633618720572642,
    0.05195012881790218,
    0.11524681283307163,
    0.10494012703023768,
    0.05932959862668128,
    0.029417128278785783,
    0.12239399558494303,
    0.09235864517156693,
    0.035351717679328876,
    0.025136386999394498,
    0.11140335531128304,
    0.11592582565969899,
    0.10886080942105578,
    0.07383078192096074,
    0.02312725740098564,
    0.11236905263007706,
    0.10761928538293646,
    0.07419108931264083,
    0.11101544711915319,
    0.03923524835565349,
    0.11022220823032701,
    0.1109369042780694,
    0.025025654851867668,
    0.10961213958112519,
    0.061222968580707283,
    0.05519808937128402,
    0.10284767835095422,
    0.036642614069384134,
    0.08695890405425227,
    0.10921256978572723,
    0.0966198709579034,
    0.11014531436241635,
    0.11024387289039539,
    0.07752102603570106,
    0.10393725185941305,
    0.03246222500600254,
    0.11503037430642467,
    0.08983006574676333,
    0.11459937086460541,
    0.007805203734687864,
    0.041190793071014864,
    0.11901548753763375,
    0.09394908069448503,
    0.1171393593702098,
    0.09851065702036006,
    0.10917236777339917,
    0.06518430941824313,
    0.06320276507678571,
    0.04355189063287751,
    0.09253168964476698,
    0.09256320948062129,
    0.04202775518321944,
    0.05105847599788616,
    0.04090123724602217,
    0.07925633938133654,
    0.09514488585735782,
    0.024761708997095067,
    0.07513070396046072,
    0.0677453193226173,
    0.10570299541306899,
    0.11887707809314703,
    0.06448345043542911,
    0.08588632886566676,
    0.10544505651105048,
    0.03971138572724208,
    0.06987233260871066,
    0.05031829592032558,
    0.11974822017486966,
    0.07114625747772767,
    0.07414826060671266,
    0.07735781502443562,
    0.10833772366472938,
    0.11541864473979642,
    0.06388950119280375,
    0.1045271344968601,
    0.07084228741641986,
    0.09876428924156275,
    0.03148264431235536,
    0.09465859292257445,
    0.06843995882058775,
    0.0629515617227349,
    0.09208486193606688,
    0.02838450501589952,
    0.09225187031479418,
    0.10342843699590569,
    0.032732887619402316,
    0.054611591391499945,
    0.04415328268860404,
    0.12081790796072263,
    0.10871650081051724,
    0.017886642831404904,
    0.10576947302627404,
    0.10637716264699097,
    0.06491996976166274,
    0.10659297515642534,
    0.041606478753119354,
    0.09995704179662628,
    0.10912228547020421,
    0.02276405347431749,
    0.04810019979921822,
    0.05344466622769469,
    0.11268669650620528,
    0.12088126770095595,
    0.07118148169555051,
    0.0973350677245924,
    0.09617699554930882,
    0.11351294921812097,
    0.043342075731549023,
    0.11763617933193153,
    0.1035366810420714,
    0.10607766927351936,
    0.031360433335086944,
    0.10111197713727745,
    0.1137974155351355,
    0.11262868723230011,
    0.11189389481886212,
    0.07604273937565317,
    0.10804716730597635,
    0.06092479229126581,
    0.07590459732631956,
    0.02403739439136797,
    0.09797176281840239,
    0.11344179337422348,
    0.11236571805677584,
    0.04196026609493973,
    0.0472055860630331,
    0.07680921885239585,
    0.09357172644169712,
    0.032807785746446994,
    0.10637812077137605,
    0.09735743166257127,
    0.0661541012073438,
    0.029513229022222937,
    0.04048382686300337,
    0.05495615496314853,
    0.10037994616772632,
    0.03989211427616023,
    0.025282290752887192,
    0.10520008937948397,
    0.11299658587750905,
    0.10149708359729154,
    0.01851378634535904,
    0.06500631257260017,
    0.08286923395498254,
    0.08716448583583615,
    0.04367388084663322,
    0.10675219361384203,
    0.06639577718456734,
    0.10075468146057368,
    0.09826545021841816,
    0.10091049092165726,
    0.11299987872541536,
    0.10931548785820926,
    0.04173303188390788,
    0.10554615960983743,
    0.10253537130589994,
    0.07629420515498046,
    0.10448257278059774,
    0.012513102330666069,
    0.046858764755521976,
    0.0756805571425923,
    0.08053492147438332,
    0.056493330703978786,
    0.08015587698085444,
    0.08424401112902472,
    0.10049348388241515,
    0.044771906815746845,
    0.10876125157705764,
    0.10359465655363453,
    0.05241094722121182,
    0.06703144024717887,
    0.021808393951625225,
    0.06678965816533203,
    0.10334622985324485,
    0.033967327584215896,
    0.1147150355423131,
    0.04829460581853739,
    0.08245062290109371,
    0.10500357042946595,
    0.042008439602068154,
    0.08456314109340886,
    0.10627290113285981,
    0.05666804080279183,
    0.09380370418599228,
    0.06004693777328163,
    0.11035557444462324,
    0.09296182984718293,
    0.041885730443364556,
    0.1053571420789927,
    0.1066650658737027,
    0.08944695464337347,
    0.11673563485611531,
    0.03417443263724824,
    0.11588611367709038,
    0.08400625370933633,
    0.043570908214778624,
    0.06925104124539225,
    0.1166149526124256,
    0.11014964656129397,
    0.11624090316728672,
    0.08017850593252958,
    0.11751179746686281,
    0.11504914690253212,
    0.08291729695108499,
    0.024522559030598003,
    0.061177145227161125,
    0.09434165895576016,
    0.08785645554351712,
    0.0669664161916699,
    0.01484927331449825,
    0.057642863688575297,
    0.07981286802320865,
    0.08669402459737732,
    0.02764026863163885,
    0.09095375083093003,
    0.0807659558353252,
    0.08584917130255776,
    0.06468010728940946,
    0.034284758945358075,
    0.11172366731156178,
    0.1081199757528897,
    0.020340436482135228,
    0.11707880754678048,
    0.11195812885115582,
    0.11044982460222505,
    0.017840640531028195,
    0.03348772174825177,
    0.10155101054405552,
    0.10614956902083013,
    0.11703449544589013,
    0.04371867203226851,
    0.0620322581745747,
    0.0870653363282078,
    0.11127448897387412,
    0.028621321656530314,
    0.11040378873914093,
    0.10760415639254146,
    0.07404522020731706,
    0.010135771729819658,
    0.08791207729901979,
    0.1002935041163385,
    0.10457821297258141,
    0.02402759267563994,
    0.014513447903197104,
    0.06427460270035805,
    0.08445191252714729,
    0.08323714999583004,
    0.08220621435670054,
    0.11783332693716929,
    0.11572423619278743,
    0.05784197693920739,
    0.02891812840495117,
    0.0595485081477659,
    0.07059434120075604,
    0.10758204896164426,
    0.04642221151963599,
    0.11188607502011076,
    0.06581523940840787,
    0.12097398718251394,
    0.05909176891168599,
    0.07506994569817226,
    0.11365314962228729,
    0.09454282622558144,
    0.05163781164594325,
    0.06379696426736009,
    0.059401404352268754,
    0.08519079298439725,
    0.029299075843773663,
    0.06561621274903325,
    0.10965458978154335,
    0.102716202084002,
    0.07083064730749603,
    0.06685131453876884,
    0.06018643763489918,
    0.11780635378287936,
    0.11137420357135525,
    0.04565434727416705,
    0.10597855603405366,
    0.11722015647087382,
    0.07047184298142786,
    0.05786407948811353,
    0.059545676172747114,
    0.11612625785415452,
    0.11660074530025194,
    0.06826254566646868,
    0.051307203493782115,
    0.06653677592936369,
    0.09995716948532905,
    0.06222895941970732,
    0.0661367891398809,
    0.07382638097541044,
    0.10033770720375028,
    0.11453222320962218,
    0.07517181122074308,
    0.054448950250287724,
    0.07015772222288146,
    0.11192135213524808,
    0.11365395778224642,
    0.02526734014121283,
    0.11501072842627122,
    0.10937953349528273,
    0.10246871431778144,
    0.056118685177303514,
    0.09689703664968392,
    0.1104743068332576,
    0.12262709845987488,
    0.008671023042155633,
    0.12212459255692258,
    0.10805333088884889,
    0.11088396219677837,
    0.04881085933168973,
    0.02423593424661716,
    0.06953453337679305,
    0.09568117031929027,
    0.02220571193191526,
    0.06520210414089411,
    0.11181908652701919,
    0.12351151513377508,
    0.04146121691033185,
    0.10554505115565883,
    0.09075025960892356,
    0.12802799251266384,
    0.0936808952887249,
    0.027759743617911673,
    0.08698918018210196,
    0.07501776265908468,
    0.04327400607692756,
    0.11026028415384888,
    0.042985915647694196,
    0.09597163226902838,
    0.11304239997517974,
    0.05624036028847898,
    0.06741779850188426,
    0.10652400302821692,
    0.10322909932364226,
    0.12109616637008866,
    0.04611305689542096,
    0.07760433771609337,
    0.10525289018244006,
    0.05577803021325212,
    0.09669070297725606,
    0.06461150140835263,
    0.10554650275060397,
    0.07059766185650125,
    0.032609768839252026,
    0.0949997239224232,
    0.07702252129542805,
    0.0835444706023969,
    0.025577214154999313,
    0.08958802549830928,
    0.07675687062092452,
    0.11911903240611801,
    0.08229636598576161,
    0.06163637190409583,
    0.10785142287289866,
    0.12021997477774353,
    0.07475524679634145,
    0.08006708699216654,
    0.09369285851354145,
    0.10549596531660842,
    0.08304468159435482,
    0.1063165442895288,
    0.06957899960625206,
    0.12422015130205485,
    0.09463712208948673,
    0.0663835937572292,
    0.09403496848788123,
    0.13186779546906546,
    0.11525775406579178,
    0.11736261748906221,
    0.09643215650823095,
    0.103489304170673,
    0.08115381054311337,
    0.08678973420947264,
    0.108959479382851,
    0.07707027031824788,
    0.1282748110391447,
    0.07508679427693501,
    0.07223447201487503,
    0.05982232521113557,
    0.12647157636872583,
    0.11055397368996069,
    0.08411650289268227,
    0.0589133839525856,
    0.12949136795698865,
    0.11339457989108062,
    0.12584530415150172,
    0.08778325237476932,
    0.13055708360927099,
    0.09988007906062937,
    0.12583783924820657,
    0.09808873107713506,
    0.09921772665032373,
    0.09690569040822761,
    0.06628664488515291,
    0.013013740632170014,
    0.07413073788384997,
    0.11338155561288409,
    0.11516807355240338,
    0.09155119366318293,
    0.08128215535978944,
    0.10788642326658669,
    0.09037789227108135,
    0.04017379447262754,
    0.09889060186416508,
    0.10598578199701143,
    0.10271346574760225,
    0.1153549980411592,
    0.05288109877809318,
    0.05768710893405276,
    0.09847217765753415,
    0.10184254354795305,
    0.04303076895821618,
    0.10320848747980857,
    0.11789435713621481,
    0.10648552325097613,
    0.12222348569814638,
    0.10275173527806995,
    0.12730831418872582,
    0.11075441723732929,
    0.06873310748240745,
    0.08787205072576247,
    0.12246246566485298,
    0.11618712390750793,
    0.09980108280896954,
    0.06610296822755307,
    0.125334180831914,
    0.10957208910261498,
    0.1329549614376447,
    0.06599233751871099,
    0.11550538593148711,
    0.11462250177857024,
    0.12370057388007251,
    0.04458172105210799,
    0.12404072071012819,
    0.11441487893693827,
    0.11128603027404482,
    0.0726213729727924,
    0.11478218222232682,
    0.11338116059256984,
    0.11056295138915583,
    0.1093406941214268,
    0.10475213603430128,
    0.10633481951831755,
    0.08747549888126993,
    0.08278146784672269,
    0.08647776206184184,
    0.10853502759010024,
    0.08025071488814947,
    0.06271950440542708,
    0.131370229866431,
    0.06869290795824756,
    0.14569546772161204,
    0.3732890501308301,
    0.04978486051513711,
    0.3614389096652658,
    0.10474406474550305,
    0.32654758398352934,
    0.08628147323302206,
    0.3562175994971059,
    0.09997011902425407,
    0.16206780413425334,
    0.08096103971037086,
    0.2921803001159743,
    0.11908400769551669,
    0.2775483817687841,
    0.11881085411550289,
    0.37328037210991116,
    0.09461354709468843,
    0.3075511182755906,
    0.12445505012287413,
    0.11669228600786483,
    0.0872956009764532,
    0.3048816278014008,
    0.12138077566692242,
    0.36857156756385456,
    0.11483438502668658,
    0.2953010828575808,
    0.07828781364897969,
    0.11888550021674553,
    0.11756615485013115,
    0.32652342186151967,
    0.11661103521502017,
    0.36959338023135657,
    0.036515845384328144,
    0.3824343402197203,
    0.07270729892551205,
    0.3261473755609196,
    0.04371743300526035,
    0.01448691976534089,
    0.10192126037689048,
    0.3291937893616377,
    0.07141284945627237,
    0.3706637803395142,
    0.07316393636633506,
    0.26741563263686213,
    0.05744479113138304,
    0.20422280161732745,
    0.12042505604344872,
    0.2906930603261047,
    0.10911475938366341,
    0.3627380214692194,
    0.11980450641455939,
    0.3480206343029169,
    0.12329202770595062,
    0.0502445123189197,
    0.12021936459601038,
    0.13186960341916998,
    0.11948007391983406,
    0.37221012140204895,
    0.10076770210683415,
    0.38058190469688274,
    0.1262826971464091,
    0.35131717144536573,
    0.05366901915005552,
    0.21028674708138062,
    0.12526186337833112,
    0.38197766700140656,
    0.08319358223990898,
    0.3368167413501096,
    0.12016322508883612,
    0.21572603645871563,
    0.06974138645166893,
    0.36841746718855545,
    0.1073268561841359,
    0.37237732761567455,
    0.06640184919116908,
    0.3380996227018718,
    0.11916010558119754,
    0.34969762588812736,
    0.11049878681625068,
    0.29953288110921383,
    0.12127416008884286,
    0.36484152711198237,
    0.12900247895857903,
    0.3635630605728142,
    0.12931492946152337
  ],
  "classifier_coef": [
    [
      0.14179572188642886,
      0.3424441871849227,
      0.26635833596412695,
      0.030758246166186,
      -0.042443925596699045,
      0.15268542811850755,
      -0.2612544871670696,
      0.07203077768081934,
      -0.42056579467431787,
      -0.16054752033721081,
      -0.18046419279296172,
      0.00381514717466358,
      0.09864250642635157,
      -0.21411645620680908,
      -0.2082176292897251,
      0.03747392130486071,
      -0.01104478204218029,
      -0.04549302402299893,
      0.03656059905101941,
      -0.11396279767182654,
      0.07273628696535783,
      -0.1995907452207451,
      0.11807159456776523,
      -0.07474129261314827,
      0.049696279484003125,
      0.01893526150190379,
      -0.05136661122677194,
      0.015589722277112084,
      0.2669762152476602,
      -0.07710038845707637,
      -0.011072992724774022,
      -0.0654505880568152,
      -0.1122261705320956,
      0.21317636427343317,
      0.101317551607711,
      -0.12370590546514515,
      -0.1999427911990096,
      0.04390091119501016,
      -0.09558396880859543,
      -0.0139206172052031,
      0.19685888696958742,
      0.23195460403117293,
      -0.016644469722407684,
      -0.3781770545120273,
      0.007881893288202518,
      0.10521981508423947,
      0.18009982276004927,
      -0.09829766296432146,
      0.029440875123302235,
      0.3381429177362512,
      0.03703751183520994,
      0.04737689028172054,
      -0.0775903555675026,
      -0.06452368586260487,
      0.04677937924599609,
      -0.06299984548050908,
      0.028362595555345316,
      -0.23165892071737693,
      -0.1780096280197327,
      -0.07468272370303702,
      -0.17818163111587781,
      -0.03850682993479368,
      -0.04261434612293413,
      0.019642219777468273,
      -0.7595999296267768,
      0.5392866922799899,
      -0.27588111837974805,
      -0.04462084047058065,
      -0.07389833955004094,
      0.37425912662171246,
      -0.0981605776549379,
      -0.029512552409270254,
      -0.1715677630005583,
      0.36288526916780117,
      0.01677155454943513,
      -0.06401517062566832,
      -0.20081661079826008,
      -0.1061212238370764,
      -0.209904611364925,
      0.13243343026669524,
      -0.07928862583067675,
      0.015124039560491853,
      -0.39064547561379154,
      -0.1419941596703828,
      0.03930990861081338,
      0.11839391146923746,
      0.06643738842350223,
      0.07505784482735711,
      -0.14407843378914817,
      0.011896284202157936,
      -0.1573870482397154,
      -0.024485705034806404,
      0.05077133365073133,
      -0.2232183030321884,
      -0.08735258478516617,
      0.01983384308390651,
      0.20391432470690468,
      -0.053378747384695224,
      -0.0168683958864162,
      -0.138314455834616,
      0.02692916835184478,
      0.11062114770228755,
      -0.08445254986574008,
      0.13231040644444092,
      -0.3684104549802162,
      -0.0217348114733813,
      0.22912502945909585,
      -0.01752361032525729,
      -0.014809937017421837,
      0.36464236136424194,
      -0.08627887569445902,
      0.13439543284716626,
      -0.1262404547870637,
      -0.01766698603574629,
      0.05913904404987313,
      0.07677112872582115,
      0.05154220322117564,
      0.21268661590334376,
      0.015624373231413358,
      0.1024424829213133,
      -0.0742866770640167,
      0.037632657794069324,
      -0.13410590370891182,
      -0.2776761162447984,
      -0.1644761678716582,
      -0.018114616260956395,
      0.0368066834666412,
      -0.04042432658564299,
      -0.3010976489905242,
      -0.043555966277345204,
      -0.06760585240864184,
      -0.014549847553623318,
      0.04025674490511505,
      0.10479565803063601,
      0.174279452226418,
      0.2968067365026291,
      0.1390438679240602,
      0.24506231692565628,
      -0.03450244886446209,
      0.023503800005398645,
      0.12664790423447514,
      -0.02463168600054791,
      -0.004689361821208493,
      -0.04789418342272692,
      -0.027633483964057293,
      0.09073519223163817,
      0.05906073708313209,
      -0.04739582075871057,
      -0.39909505998201067,
      0.05811772496464601,
      -0.2528009970267456,
      -0.13853719510168622,
      -0.11809185881197126,
      0.07090450290262679,
      0.11395108337868357,
      0.02617137491218624,
      -0.05827976949094757,
      0.07881556617965402,
      0.2639528496868744,
      -0.0533700261458441,
      0.03414285893137958,
      -0.0316241803132748,
      -0.034693911554084744,
      0.027104833914659787,
      -0.20133804524861065,
      0.33592781711413794,
      0.13927338364822905,
      0.10840964183686876,
      0.038160647742936815,
      0.04101541463645508,
      0.03273216380112498,
      0.08055696173683224,
      0.06187304980550429,
      0.060539894562772034,
      0.06189243513062487,
      -0.06687692433972092,
      -0.02477254733093215,
      -0.02657319458757501,
      0.11194630887665291,
      0.08806973313417604,
      -0.10697936455666074,
      0.00015645981768415418,
      -0.0026909842257420713,
      -0.035327413660872165,
      0.0674883577259131,
      0.04860310189958761,
      0.09045446549267988,
      0.008719894316377264,
      -0.07000462593885665,
      -0.04372294046718572,
      0.020924190771273277,
      -0.09398595917036279,
      0.16667302294933223,
      -0.002603997110052334,
      -0.0999810068996958,
      0.061049851166847025,
      -0.21749312516296881,
      0.014440276000307117,
      0.0248541395786042,
      0.059373629028210306,
      0.17647500859771337,
      0.03969040675533155,
      -0.05217374292962995,
      0.047233572251727696,
      0.01827023654351373,
      -0.04213706788381272,
      0.0015886315835836884,
      -0.2598570507003506,
      -0.036887883267351984,
      0.18624138614352387,
      -0.06998335372088454,
      0.06035987512636049,
      -0.12053943578186699,
      0.1406965284627451,
      0.056781683730651594,
      -0.014269714690467783,
      -0.01021657049007263,
      0.024684503103420963,
      0.0947041866954012,
      -0.0011167193538408199,
      0.03963487130593357,
      -0.02151435077634456,
      -0.05262105402426487,
      -0.07081313284341967,
      -0.05726492325259457,
      -0.11679376770079847,
      0.09474402234228185,
      -0.0011258200167289859,
      0.03913237974847167,
      0.04428529838065037,
      -0.2163757828069497,
      0.014338882141460785,
      0.05937923994000139,
      -0.005082459519161975,
      0.1340879076698084,
      -0.21624860659179646,
      -0.017793219084738965,
      -0.012492209170873958,
      0.25792753842561156,
      0.014697038563001918,
      0.03293855559326217,
      -0.036545792116033704,
      0.04960593256520407,
      -0.013917760267003643,
      -0.025036323268689875,
      -0.01701043215270004,
      0.05943103990679954,
      -0.017905068489204812,
      -0.08856979628170857,
      0.02978020109157209,
      -0.08552772782560919,
      -0.08059833461459637,
      -0.045616179125321565,
      0.15638794340640033,
      0.030911838670657,
      -0.001989303771330886,
      0.04642305314183198,
      0.013693417307753863,
      -0.10380632974841164,
      -0.040335436387711365,
      -0.06448748993407108,
      0.07210962829662583,
      -0.01921274654886107,
      -0.019408218166646174,
      -0.12384171517631848,
      -0.004256389413440642,
      0.13726852628520933,
      -0.029293701740499667,
      -0.1754847145374882,
      -0.05554697644240325,
      0.05301103721575784,
      0.0019920331262536783,
      0.07571602144359191,
      -0.08953326734632883,
      0.07862474577534286,
      0.053457070898651926,
      -0.04229974242567497,
      -0.09634246119069989,
      -0.06677024866706777,
      0.18892489636671134,
      0.10078644242704682,
      -0.13434879239690106,
      0.06299140030782935,
      0.006063900987358969,
      -0.10368578137560391,
      -0.030025749298189464,
      -0.026193451035552096,
      0.11456902926187457,
      0.021279075525010793,
      -0.23398428438515642,
      0.02092914586634649,
      0.062460049007807494,
      0.09062896197537001,
      -0.06611833961355149,
      0.03237894632823107,
      0.11162884932878131,
      0.007314962152451976,
      -0.08352169095844153,
      -0.034279367054858,
      -0.011257894443489957,
      0.06594183796237188,
      -0.06567669064556991,
      0.20526724038108463,
      -0.06580010982803933,
      -0.04535935095379645,
      -0.020270210366749364,
      0.04891726633682275,
      0.025392570073681897,
      -0.020247403256693608,
      0.13797156884036854,
      0.066499812887434,
      -0.010104660570709786,
      -0.00089858073402177,
      -0.09106839925310317,
      0.04038720101017751,
      0.02843340112033993,
      0.10095028173274195,
      0.019586226431116446,
      -0.002914264901697494,
      -0.014048702082709807,
      -0.05487550367594396,
      0.015418037066699447,
      -0.020823495928991687,
      0.02928499363388115,
      -0.038193479328317514,
      -0.037705036652110974,
      -0.026586308713673845,
      0.042488510249370885,
      -0.013592057934195101,
      0.20244674462170031,
      -0.00516688468252513,
      -0.04813820071647884,
      0.09756570273153153,
      -0.018567653464081735,
      -0.012135583409303874,
      -0.044700785249184194,
      -0.01291501631191505,
      -0.029916974231389948,
      -0.06645279309724259,
      -0.1359001491953089,
      0.0792925308613106,
      0.0357664681700518,
      0.01878741796759293,
      0.004227773422797121,
      0.021994784576696347,
      0.2063844337958271,
      -0.04562268094877808,
      -0.0031212602226029507,
      -0.00016179301677954339,
      0.01803888484224736,
      -0.08178576358235734,
      0.030982812576642926,
      -0.008414787098293519,
      -0.04725384842392133,
      -0.06187314223494933,
      0.002723352992323569,
      -0.06782522375404576,
      -0.012134908252893761,
      0.0041388919910425315,
      -0.012518212971801668,
      0.10308833326042384,
      -0.03754290027718965,
      0.03105902149919959,
      -0.053449603096816234,
      0.0917231054717621,
      -0.004749292360144958,
      0.11707056726294696,
      0.053716683357838524,
      0.019577235356756255,
      0.0019016294867251204,
      -0.18049520465455987,
      -0.06877387417124178,
      0.05922296630958601,
      0.04807166484214967,
      0.011834511294713912,
      -0.027542366390614526,
      -0.022663579650279264,
      0.11333814616642346,
      -0.04819430665655383,
      0.008471175821926635,
      -0.027095259857799536,
      0.0257964154688316,
      -0.0594944012022704,
      -0.05912114629875509,
      0.07504590187789612,
      -0.03717812738537335,
      0.06420163408731577,
      0.006703382520513612,
      -0.0009676146193718926,
      0.005161447832635814,
      -0.0360417597128353,
      0.006740119265808198,
      -0.02951158524274128,
      -0.0038978588796066416,
      -0.05829708458621741,
      0.0890893021169461,
      -0.05085630654655676,
      -0.08422207135926923,
      -0.03802502571519306,
      0.03837413857468802,
      0.12010320197700147,
      -0.04879876638823802,
      -0.09236958509466602,
      -0.08420314775610938,
      0.19176520445470358,
      0.08388545048345925,
      -0.048818284689388536,
      -0.023670209652074947,
      0.03701360022660416,
      0.16601641156688368,
      0.0032584808108537533,
      0.15176616467686505,
      0.11473188158383751,
      -0.01121234909033797,
      0.021344699019382518,
      -0.004514990831242571,
      -0.16589636884162906,
      0.07160673342614648,
      -0.04050081848652204,
      -0.049196429247871265,
      0.11807304647823857,
      -0.07173432170585131,
      -0.03242053743768991,
      0.018877052602304753,
      0.07974612597912362,
      -0.09155514281570282,
      0.054573660367637444,
      -0.00853664304001936,
      -0.07657086353840097,
      -0.089666904056244,
      0.04927885945866095,
      -0.019340136096883388,
      0.02046954120338723,
      0.07959277530602127,
      -0.0006614515054815251,
      0.008123502956969952,
      -0.014896461593377229,
      -0.008418868229162713,
      0.01948070276040592,
      0.0017660160423379964,
      -0.0012872293817122737,
      -0.016750898740943876,
      -0.05933809505829046,
      -0.09029268377697086,
      0.0035669176782666054,
      0.009138011321516204,
      0.011472220720746218,
      -0.01605211033560011,
      -0.024548868183318334,
      -0.06803284419085687,
      -0.014405335225838478,
      -0.058740156274118716,
      -0.1416383273647534,
      -0.024857160492577413,
      0.04457514056807399,
      -0.09229817577389698,
      0.006806038887872234,
      -0.07943063917081561,
      0.04448208168094184,
      0.02858492360360637,
      0.00044165915631699804,
      0.0014147584616252956,
      0.0548573602104833,
      -0.078799990635878,
      0.01563458893545,
      -0.07289241397638127,
      -0.03768720825213506,
      -0.07681259972225968,
      -0.03650171991153356,
      -0.03561542920369576,
      -0.020910728475043106,
      0.15868637652580814,
      0.007144502454196844,
      0.056933678880870434,
      0.005452134931081459,
      0.06604638282197602,
      0.05455855431421769,
      -0.030369216679430766,
      -0.08728579469390019,
      -0.01657398130023724,
      0.06213162810883055,
      0.05654530335652541,
      -0.023937745399517707,
      -0.03474473884829911,
      0.024536866916010147,
      -0.05222779252630272,
      -0.11225793218646721,
      0.06976076584637547,
      0.12373747599752327,
      0.03496547607033945,
      -0.030601287532029064,
      0.018468459562107187,
      0.06858140952961722,
      -0.01063558107074003,
      0.04001963090443417,
      0.050388457851443275,
      -0.001254754730246832,
      0.013552296515012108,
      0.016473605442078265,
      0.006764106724485033,
      -0.006464767808033178,
      0.04983337746873889,
      -0.13097616638643084,
      -0.07254050023115077,
      0.03708664753511859,
      -0.040292862718556255,
      0.010554910423311359,
      -0.006357511806194947,
      0.04242029994893576,
      0.13809688016927302,
      -0.03367620860299758,
      0.08327214608925537,
      -0.028526340894963424,
      -0.01148902096598875,
      0.05583411547006967,
      -0.0050090481409431065,
      0.014094192516621057,
      0.00202542980494691,
      0.06815837136640235,
      -0.022837537511054995,
      -0.029178005596393775,
      -0.0022255276547594183,
      -0.015913785358802057,
      -0.053419880032767264,
      0.00800081462040464,
      0.04093163577746772,
      0.016036133194720914,
      -0.006090849559614475,
      0.019838256868199216,
      0.019457779075437887,
      -0.055521516056640685,
      0.0129312419638275,
      -0.07126846533239561,
      0.02401853936305578,
      -0.07108525998722165,
      -0.05212607469156327,
      -0.07092906941674881,
      -0.061770836033154294,
      -0.0627969381258417,
      0.031020864093406653,
      -0.007393000171360575,
      -0.018731709578768088,
      0.034838819155986245,
      0.019097572058918266,
      -0.14660879820109418,
      0.004711701742961094,
      -0.013887330258799867,
      0.020158253953871497,
      -0.12856000256184597,
      -0.01521034301079284,
      -0.011611720164383166,
      -0.10590943010806808,
      -0.030625013909545196,
      -0.02777509171842696,
      0.009037339170714545,
      0.009024422979039992,
      0.006071322260027018,
      0.015549267881826645,
      0.011185421335749623,
      -0.027642374841526984,
      -0.0167201777591397,
      0.04400292014396534,
      0.02609632420717556,
      -0.007232869724986379,
      0.01337408522227701,
      0.03459390658418671,
      0.05812982718138904,
      -0.027388042592123824,
      -0.02657054924224922,
      -0.04625497233612563,
      -0.06535888048467589,
      -0.010056101942568008,
      0.0691258117720347,
      0.022720185412115512,
      0.05137323384346337,
      0.0839597552413733,
      0.006607060793320296,
      -0.04010018671755111,
      -0.057975153742599095,
      0.0352985419566121,
      0.0788439638925903,
      0.08334023103684896,
      0.016614275232546216,
      0.011022368433768734,
      0.05349908753406912,
      -0.05734336280549979,
      -0.05901670925168012,
      0.044037129066095304,
      -0.002191454382873291,
      0.03624827186789517,
      -0.014956741657445316,
      0.015548531613109096,
      -0.005588976975791554,
      -0.03250363116648958,
      -0.019846143234751423,
      -0.030430202512127802,
      -0.016165744738250415,
      0.02718461206459205,
      -0.03111227863734474,
      -0.03839598851151982,
      -0.008716354036607865,
      0.03660457871510508,
      0.14717353612662476,
      0.006320090467793971,
      -0.08722146646097251,
      -0.0004197038727100644,
      -0.02921080006659943,
      -0.03574458407382458,
      -0.060435894144887925,
      -0.028745993629806423,
      -0.09360107810557017,
      -0.03768824012134575,
      -0.05267321109638723,
      0.04894826187583112,
      0.002155059094765141,
      -0.037303238882170214,
      -0.047457915022969144,
      0.022574868817961502,
      -0.03680136671954046,
      0.09359886606209944,
      0.0699449707797195,
      -0.02189685446207825,
      0.01286571153445093,
      0.02551304470853144,
      -0.03343282253947588,
      0.013801451377331242,
      -0.013156570016507746,
      0.041300503125864196,
      -0.05568471515149187,
      -0.025659179042764158,
      0.06963292669312143,
      0.015021587625116684,
      0.046916176711252144,
      0.005740302175420542,
      0.012903107535416125,
      0.013846923164032354,
      0.024517877345944128,
      0.1055239257412317,
      -0.0011399618555594238,
      -0.0148143104673088,
      0.03758596372065613,
      0.07131966500801623,
      -0.021169970402046046,
      -0.06033699406722626,
      0.02041457380408096,
      -0.001904690878960058,
      0.053769898081612075,
      0.008450099235268488,
      0.025501370840350535,
      -0.015621037012249372,
      -0.025577472217195474,
      -0.03884544880349,
      -0.02682374369207563,
      -0.05489721045464119,
      0.029233404834598575,
      0.04891007412960158,
      0.046786515517171764,
      0.03873978506547693,
      0.043293061033732594,
      -0.0750877623009159,
      -8.008954970373239e-05,
      -0.08698240439422755,
      0.03493216037109331,
      -0.09388651919904656,
      -0.022995525204561384,
      0.010581434641369514,
      -0.007027315802605183,
      0.03140287106459294,
      -0.012371142206747301,
      0.0003110502431180606,
      0.07794337242374272,
      0.025395638500900097,
      -0.024921206746697178,
      0.0020620623652573,
      0.028467086972374767,
      0.014402831605962944,
      0.05419911502928043,
      0.013397803434269107,
      -0.10194960774782802,
      0.019687098178206464,
      -0.028925602863518585,
      -0.012352677457742517,
      0.029311041030103936,
      0.02112956004633526,
      0.10900860874399398,
      0.00299612511489962,
      -0.07100356577500566,
      -0.03496132280048447,
      0.0042298987136221156,
      -0.005668446708017916,
      0.043021501482391034,
      0.00984162999614513,
      0.03328175139379841,
      -0.026412925599055892,
      0.04607976846666939,
      -0.011020326713413603,
      -0.03739982591857893,
      -0.015386098876925602,
      -0.0026432337195291013,
      0.020281643288177054,
      -0.006825729196191732,
      0.03773329738989972,
      0.07402657757749087,
      -0.01266309719694074,
      -0.0022795906154519097,
      -0.02215611544720686,
      0.015148941275318191,
      -0.009036754688646287,
      0.012262432985585825,
      -0.022303352095850215,
      -0.013719453434131168,
      -0.01958532466661566,
      0.01598970720731574,
      0.015891114227337633,
      0.030339924072114277,
      0.010145183999020965,
      -0.06957605297378455,
      -0.0018182793526055896,
      -0.023858930405831202,
      -0.006644568585868593,
      0.07417527252300948,
      0.08540579236395218,
      -0.0244409054946354,
      -0.04876358111283907,
      -0.03491236247230778,
      -0.029083543360950204,
      0.026623251120960145,
      -0.025608641705215596,
      0.0023359642182646523,
      0.018125713998635495,
      -0.03779808636567683,
      0.07075193259730461,
      0.02031743820352841,
      0.011736952587739324,
      -0.007095956295493089,
      0.010175699591768728,
      -0.009615167461884622,
      0.010781984787717747,
      0.018403774497917413,
      -0.021864552113981528,
      0.01502983807446348,
      -0.010258762372714059,
      0.019698576828707348,
      0.01371776354133375,
      -0.06930239612548672,
      0.010604011895229054,
      -0.007530815741898955,
      -0.03362755257719552,
      -0.04816894691789017,
      -0.0028509212518761373,
      0.07801587450739123,
      -0.021425237123237427,
      -0.01899881441840101,
      0.021073229140482375,
      0.031425594011166735,
      0.006693056329365787,
      -0.005776023824715926,
      -0.08371479765969203,
      0.009382080528249653,
      -0.03206366810926825,
      0.001457502039191455,
      0.0449355589945481,
      -0.00908455287990012,
      0.05937477439746108,
      -0.00034398030194615625,
      0.01739724137085119,
      -0.00021288170319294641,
      0.05588163995231432,
      0.0023525214140588113,
      0.06242526334171661,
      -0.009522476193802185,
      -0.04977399382158171,
      0.00032352863153167766,
      0.0424671961588845,
      -0.0003653143587150076,
      -0.011976034931245438,
      -0.004357715098320281,
      0.04608274175131033,
      0.008171052281784275,
      -0.0699720918788942,
      4.321363783438281e-05,
      -0.012089609983154226,
      0.0008580705805400698,
      0.006889387055391216,
      0.01119333122558297,
      0.051094816781870334,
      -0.006275950412983608,
      -0.03404411519942058,
      -0.0010833172077769626,
      -0.01327113538304553,
      0.007355872171147353,
      0.03300714533233029,
      -0.0034673422147378256,
      0.10597147520670136,
      0.00029228031700156976,
      -0.018738317753175388,
      -0.011321170944351922,
      0.045572407239266303,
      0.0009222921318455535,
      6.30424685323927e-05,
      0.006668237731163623,
      -0.06426845396618219,
      -0.004962499554793984,
      0.03306639826997482,
      0.006131934165156061,
      -0.03403520633818391,
      0.005203549585386658,
      -0.021083825461125416,
      0.0003047336408880854,
      0.06309840268373879,
      0.004332241053464227,
      -0.018979346979084155,
      -0.00037528744891057036,
      0.06780367614275207,
      0.0004989685277932421,
      0.09452839201941521,
      -0.015957639625126252,
      0.023777445496835692,
      -0.0057423125505787695,
      -0.06307553046968728,
      -0.0004565678502169157,
      -0.014272725073847053,
      -0.01492299801424507,
      -0.032387236866645686,
      0.009674495133523489,
      -0.05878958525782274,
      -0.008763439508208515,
      -0.019893903950083613,
      0.007053794907929567,
      -0.05266411277833791,
      -0.01251882866194931,
      0.07979430810130084,
      0.014906360723607973,
      -0.04155078830485337,
      0.00968613009093422,
      -0.04433533350233754,
      -0.004474591511133094,
      -0.0726674264173437,
      0.003435663419353349,
      0.013416074250936716
    ],
    [
      -0.08693965525476494,
      -0.258073823095923,
      -0.11893638452350769,
      -0.03606208848870579,
      0.027200796669083593,
      -0.1109923435268346,
      0.1154918041549996,
      -0.08818307659985031,
      0.28122167084366495,
      -0.08893530948283075,
      0.1531250208573593,
      0.035692202835431286,
      -0.104003994179975,
      0.15907332143026778,
      0.021308746114744093,
      -0.06717066852877893,
      0.0211561903530475,
      0.008817513028226143,
      0.0703190494614846,
      0.2002529119703732,
      -0.10559293803851241,
      0.12705636169885604,
      -0.3461027665046918,
      0.09616415130958722,
      -0.026256876429272547,
      -0.03120062657005239,
      0.05184819322207332,
      -0.036609948666133374,
      -0.29071035312028476,
      0.06025800356792271,
      0.04885870198031955,
      -0.012750080869479097,
      0.15239433708668068,
      -0.24999332426375842,
      -0.017428288291174238,
      0.18037164171153786,
      0.37336030992594305,
      -0.017471982153184684,
      -0.02661622652224993,
      -0.016493288333692124,
      -0.30111108164974476,
      -0.21109470799037927,
      0.07808225814716269,
      0.34923885792856557,
      -0.0023747030533611824,
      -0.08477512348217475,
      -0.22469606125552913,
      0.19820926090358926,
      0.10787625314420429,
      -0.4225982138397829,
      -0.03128713773141145,
      -0.07486753616569675,
      -0.18330033116019906,
      0.11771921486609993,
      -0.04921059003097894,
      0.01771877837988703,
      -0.24561905036177728,
      0.2733068722163928,
      0.06411017541684949,
      0.21695023057789908,
      0.12433805599854783,
      -0.1260899202799608,
      -0.11855299214660173,
      -0.04536319200303279,
      0.963278018126315,
      -0.5102653134761185,
      0.285569732183316,
      0.12442139003890129,
      0.06779939671669284,
      -0.40231074638196124,
      0.07886947422866236,
      0.03762839188927147,
      0.25338851095765025,
      -0.4402554252164867,
      0.08604630840997946,
      0.07349698962490694,
      0.3133875782125767,
      0.11330832857323653,
      -0.0353261940359625,
      -0.12722762170271532,
      0.0979258092579171,
      -0.06951955877840632,
      0.47461792061251096,
      0.06386657139164498,
      -0.04002984645622887,
      -0.13958232111038876,
      0.01177077330338655,
      -0.05731775057674959,
      0.13636104714595687,
      -0.02721337797954021,
      0.05125573696776255,
      -0.017349493772402108,
      -0.04340270918974537,
      0.1924572905129778,
      0.04576530320402994,
      -0.05100220276397102,
      -0.20682776367372813,
      0.021173204425273096,
      0.08820276877190625,
      0.22004535855201918,
      -0.028209848950280586,
      -0.06741141299016615,
      0.2129452310655052,
      -0.06396571378741142,
      0.25377737485004526,
      0.0008640754091255864,
      -0.12525221410987336,
      -0.044748332373400326,
      -0.11863655568934427,
      -0.25848763794013707,
      -0.06599125864370148,
      -0.09544981303736261,
      0.08298319854849057,
      0.003879594475691972,
      -0.04574504293718665,
      -0.06154455384919444,
      -0.017611885953926737,
      -0.1174076569154349,
      -0.006590378119373852,
      -0.08255955018383052,
      0.05636114189457091,
      -0.041462148864345,
      0.15901008819422086,
      0.18717481094814478,
      -0.0022191732469148406,
      0.030072145854645654,
      -0.04947165207431259,
      0.1462171933179505,
      0.13006587233534667,
      -0.006541394187962388,
      -0.023179981545046024,
      -0.007486037979538507,
      0.09114893914553013,
      -0.005912640566192895,
      -0.22910887696871024,
      -0.3940276434045528,
      -0.09958274618461901,
      -0.25966805301519313,
      0.11152338097968839,
      0.00021695301666746492,
      -0.026561089167557783,
      0.14109703535432233,
      -0.01249734232256472,
      0.050168753336166064,
      -0.04757701257432656,
      -0.12084021819256321,
      -0.04077227085581091,
      0.037767204006296795,
      0.4809037331094187,
      0.05872688790764899,
      0.2925074190822715,
      0.17797494467262642,
      0.0768602888227905,
      -0.04903581665725004,
      -0.06785674826755184,
      -0.08758063185147916,
      0.13748112106508015,
      -0.06193549686347456,
      -0.15245537134198295,
      0.04369185391623681,
      -0.06012228939608161,
      0.03178730397303059,
      0.010105675513866902,
      0.043590977413312526,
      0.2328408781918237,
      -0.3138249551348826,
      -0.14741652514616743,
      -0.07169669717685001,
      0.15361405060581867,
      -0.08616631811212098,
      -0.06857775485233572,
      -0.017445060389574718,
      -0.03547305049633931,
      -0.051888804860326654,
      -0.028921992328517002,
      0.1372181190677349,
      0.15200781952468356,
      0.07400841510251499,
      0.015566215092222363,
      -0.09055070480604563,
      0.056706191461217206,
      -0.02150464524189022,
      -0.051479552899430125,
      0.014482311555992833,
      -0.10653968082962903,
      -0.021267734885575817,
      -0.1281906239258177,
      -0.06349244822838655,
      0.11915714044617153,
      0.035434409846795245,
      -0.007540587285264744,
      0.09931324729103624,
      -0.19363258044163062,
      0.01049779516604979,
      0.11805566293807046,
      0.014369106385029029,
      0.2475160419352718,
      -0.003190771806752188,
      -0.00761921130958515,
      -0.08935266125886755,
      -0.24379906272195295,
      -0.05275391224073192,
      0.03708602178815418,
      -0.04309455050741909,
      -0.004639464927540318,
      0.08492556351274722,
      -0.036668957063724125,
      0.2791597689070191,
      0.06326126548542119,
      -0.21277113016432117,
      0.09062713862412575,
      -0.08166982554022506,
      0.04614991608892685,
      -0.17501803520687648,
      -0.05576548892553579,
      -0.013064120166611903,
      -0.010603173962909676,
      -0.08425851942972498,
      -0.07768014979572152,
      0.013941476613441639,
      0.10850679213514162,
      0.0902035288459234,
      0.0940801513266635,
      0.02929661953461643,
      0.07789474341316732,
      0.020000845851393945,
      -0.12561200500456593,
      0.0101257953648268,
      -0.04179090574904884,
      0.08225219063407685,
      0.25853634090228655,
      -2.70301782554494e-05,
      -0.0662304517513495,
      0.0244659914603525,
      -0.13160921790356758,
      0.17220762054014932,
      0.003265831218107154,
      -0.019639101240747164,
      -0.24808218054300152,
      -0.03559871972601007,
      -0.02317665735717961,
      0.046468642722549,
      -0.08575924885093378,
      0.014915205823797184,
      -0.019163992592737655,
      -0.007699616309408706,
      -0.0356591891229005,
      0.04821561433389182,
      0.11263244309465502,
      -0.04489362613094788,
      0.08613564120322686,
      0.04344173057664798,
      0.020332146460154993,
      -0.12630361319916505,
      -0.02474464595535418,
      0.03171594904130709,
      -0.10013879303610171,
      0.005797402418869252,
      0.04808608768161293,
      0.1460997706418969,
      0.028352374566739058,
      -0.08364336288624774,
      0.031129736221430837,
      0.026959937952724666,
      0.10412869865775268,
      -0.01126535355252356,
      -0.1543632106296522,
      0.0376151529371537,
      0.01234060547172472,
      0.019612429674522397,
      -0.0634466997042562,
      0.02448267626047551,
      -0.08873991391640165,
      0.07260951213814879,
      -0.08713500061340101,
      -0.10893216258457458,
      0.1203922124381596,
      0.108397772047482,
      0.005655071690007438,
      -0.18392656163542795,
      -0.0769002562259953,
      0.11549399807485401,
      -0.0822417962941382,
      -0.03806164603713211,
      0.0984865327122481,
      0.033639145485482136,
      0.0608553804985244,
      -0.1291754134275374,
      -0.0296854185377758,
      0.1855278582347492,
      -0.002239679159002028,
      -0.05564793125259482,
      -0.04868340695128549,
      0.031088579106366476,
      0.04438495986244406,
      -0.0376309230291373,
      -0.0008219608581321314,
      0.12998229124161406,
      0.04310477667605231,
      -0.01580884426579468,
      -0.08631832343573367,
      -0.002189016312768674,
      -0.23979166333879426,
      0.0050089817450560264,
      0.03635330886355978,
      0.04765181739387671,
      -0.01710919527224314,
      0.032705194894436906,
      0.005905734881802349,
      -0.23994542893998733,
      -0.09950659345113819,
      -0.003940678365640937,
      0.0021279083458597414,
      0.02615751431093344,
      -0.03769360277732198,
      0.04722667730803129,
      -0.10659637685844137,
      -0.023924269737261625,
      -0.005200056121567506,
      0.09141369361576301,
      -0.037360122127915674,
      0.02613377683561674,
      0.007294644038262188,
      -0.037317579569077636,
      0.01935184714521003,
      0.026410818547009607,
      -0.009476089762091466,
      -0.05976535157797869,
      -0.023170577253592145,
      -0.1923816018525794,
      0.00878581605263326,
      0.06729208718766073,
      0.030043227971556327,
      0.006676852246139606,
      0.026041443131498865,
      0.07008616298774911,
      -0.04160202439108539,
      -0.0027993441982839262,
      0.05047186424439108,
      0.20578908077855987,
      -0.025604071814441604,
      -0.032918952563638096,
      -0.014352527780071567,
      0.05690928643096793,
      0.007196979044073168,
      -0.2168702384546438,
      0.09494947607102551,
      0.013284551718588979,
      -0.002857845060351777,
      -0.0278314527150771,
      0.10881883649906565,
      -0.00690382830682415,
