{
  "num_kernels": 84,
  "num_dilations": 9,
  "num_features": 840,
  "num_classes": 10,
  "time_series_length": 600,
  "kernel_indices": [
    [
      0,
      1,
      2
    ],
    [
      0,
      1,
      3
    ],
    [
      0,
      1,
      4
    ],
    [
      0,
      1,
      5
    ],
    [
      0,
      1,
      6
    ],
    [
      0,
      1,
      7
    ],
    [
      0,
      1,
      8
    ],
    [
      0,
      2,
      3
    ],
    [
      0,
      2,
      4
    ],
    [
      0,
      2,
      5
    ],
    [
      0,
      2,
      6
    ],
    [
      0,
      2,
      7
    ],
    [
      0,
      2,
      8
    ],
    [
      0,
      3,
      4
    ],
    [
      0,
      3,
      5
    ],
    [
      0,
      3,
      6
    ],
    [
      0,
      3,
      7
    ],
    [
      0,
      3,
      8
    ],
    [
      0,
      4,
      5
    ],
    [
      0,
      4,
      6
    ],
    [
      0,
      4,
      7
    ],
    [
      0,
      4,
      8
    ],
    [
      0,
      5,
      6
    ],
    [
      0,
      5,
      7
    ],
    [
      0,
      5,
      8
    ],
    [
      0,
      6,
      7
    ],
    [
      0,
      6,
      8
    ],
    [
      0,
      7,
      8
    ],
    [
      1,
      2,
      3
    ],
    [
      1,
      2,
      4
    ],
    [
      1,
      2,
      5
    ],
    [
      1,
      2,
      6
    ],
    [
      1,
      2,
      7
    ],
    [
      1,
      2,
      8
    ],
    [
      1,
      3,
      4
    ],
    [
      1,
      3,
      5
    ],
    [
      1,
      3,
      6
    ],
    [
      1,
      3,
      7
    ],
    [
      1,
      3,
      8
    ],
    [
      1,
      4,
      5
    ],
    [
      1,
      4,
      6
    ],
    [
      1,
      4,
      7
    ],
    [
      1,
      4,
      8
    ],
    [
      1,
      5,
      6
    ],
    [
      1,
      5,
      7
    ],
    [
      1,
      5,
      8
    ],
    [
      1,
      6,
      7
    ],
    [
      1,
      6,
      8
    ],
    [
      1,
      7,
      8
    ],
    [
      2,
      3,
      4
    ],
    [
      2,
      3,
      5
    ],
    [
      2,
      3,
      6
    ],
    [
      2,
      3,
      7
    ],
    [
      2,
      3,
      8
    ],
    [
      2,
      4,
      5
    ],
    [
      2,
      4,
      6
    ],
    [
      2,
      4,
      7
    ],
    [
      2,
      4,
      8
    ],
    [
      2,
      5,
      6
    ],
    [
      2,
      5,
      7
    ],
    [
      2,
      5,
      8
    ],
    [
      2,
      6,
      7
    ],
    [
      2,
      6,
      8
    ],
    [
      2,
      7,
      8
    ],
    [
      3,
      4,
      5
    ],
    [
      3,
      4,
      6
    ],
    [
      3,
      4,
      7
    ],
    [
      3,
      4,
      8
    ],
    [
      3,
      5,
      6
    ],
    [
      3,
      5,
      7
    ],
    [
      3,
      5,
      8
    ],
    [
      3,
      6,
      7
    ],
    [
      3,
      6,
      8
    ],
    [
      3,
      7,
      8
    ],
    [
      4,
      5,
      6
    ],
    [
      4,
      5,
      7
    ],
    [
      4,
      5,
      8
    ],
    [
      4,
      6,
      7
    ],
    [
      4,
      6,
      8
    ],
    [
      4,
      7,
      8
    ],
    [
      5,
      6,
      7
    ],
    [
      5,
      6,
      8
    ],
    [
      5,
      7,
      8
    ],
    [
      6,
      7,
      8
    ]
  ],
  "dilations": [
    1,
    2,
    4,
    6,
    10,
    17,
    28,
    46,
    74
  ],
  "num_features_per_dilation": [
    2,
    1,
    1,
    1,
    1,
    1,
    1,
    1,
    1
  ],
  "biases": [
    0.06898026168346405,
    -0.23685693740844727,
    0.3554561138153076,
    9.020937432069331e-05,
    -0.17740324139595032,
    0.01835540123283863,
    -0.34577858448028564,
    1.232234239578247,
    0.00338810496032238,
    -0.2049599289894104,
    0.012535542249679565,
    -2.0001658413093537e-05,
    -1.341301679611206,
    1.022131345962407e-05,
    -0.0075634741224348545,
    0.21326741576194763,
    0.0,
    -0.3105374872684479,
    0.0,
    0.0,
    0.4818668067455292,
    0.008345406502485275,
    -0.21459470689296722,
    0.308427095413208,
    1.0972694326483179e-05,
    -0.1982162594795227,
    0.09599652141332626,
    -0.11575929075479507,
    0.19249291718006134,
    4.374560830910923e-06,
    -0.030278926715254784,
    0.01041354425251484,
    -0.00014904321869835258,
    -0.25768324732780457,
    0.00046213201130740345,
    -0.0011003714753314853,
    0.6540942788124084,
    -0.012881013564765453,
    -0.7545098066329956,
    0.34126099944114685,
    -0.0011250614188611507,
    0.10913437604904175,
    0.0007643349817954004,
    -0.017657069489359856,
    0.1712484508752823,
    -0.015853647142648697,
    -0.03812350332736969,
    0.0014390789438039064,
    -0.21858900785446167,
    0.7385926246643066,
    -0.0003168010734952986,
    -0.20696985721588135,
    0.31063899397850037,
    -0.06775878369808197,
    0.0730351135134697,
    0.0,
    -0.017986033111810684,
    0.1623484045267105,
    -0.0009208981646224856,
    -0.22960025072097778,
    0.010148601606488228,
    -0.0054488712921738625,
    0.36994507908821106,
    0.0004923507221974432,
    -0.10033879429101944,
    0.07342233508825302,
    -0.16021743416786194,
    -1.199988603591919,
    0.0004355863784439862,
    -0.0026941837277263403,
    0.7630299925804138,
    0.005200717132538557,
    -0.039062608033418655,
    0.0028597875498235226,
    -0.0005089201149530709,
    0.5537508726119995,
    0.03628837317228317,
    -0.2711334824562073,
    0.10735563188791275,
    -0.0005363405216485262,
    -0.28200992941856384,
    4.873479701927863e-05,
    -0.014620443806052208,
    0.20393818616867065,
    4.879655534750782e-05,
    -0.029513316228985786,
    0.024401802569627762,
    0.0,
    -0.7800602316856384,
    0.0018394095823168755,
    -0.09080643951892853,
    0.21182435750961304,
    -1.3291286450112239e-05,
    -0.2683495581150055,
    0.009035812690854073,
    -0.004603445529937744,
    1.1361619234085083,
    -3.238664066884667e-05,
    -0.46039527654647827,
    0.31109729409217834,
    0.0,
    -0.14051347970962524,
    0.0011862182291224599,
    -0.0018157735466957092,
    0.0734025090932846,
    -1.8403246940579265e-05,
    -0.2635275721549988,
    0.05795320123434067,
    -0.0004798445734195411,
    0.9237760305404663,
    0.0007545033586211503,
    -0.013106475584208965,
    0.08164752274751663,
    -8.375685865757987e-05,
    -0.08045800775289536,
    0.001358846086077392,
    -0.0027956271078437567,
    0.22249814867973328,
    0.0,
    -0.10054638981819153,
    0.06396324932575226,
    -0.0015779560199007392,
    -0.7708520293235779,
    0.003635189263150096,
    -0.01866789720952511,
    0.05086640268564224,
    -9.94406727841124e-05,
    -0.031831495463848114,
    0.056356336921453476,
    -0.04592830315232277,
    1.2510623931884766,
    0.001409331802278757,
    -0.011578240431845188,
    0.012919883243739605,
    -0.0037339834962040186,
    -0.46626874804496765,
    0.0242562685161829,
    -0.04306461662054062,
    0.16933280229568481,
    0.0007214592187665403,
    -0.04224943369626999,
    0.006885823793709278,
    -0.001506653381511569,
    1.5447642803192139,
    0.0,
    -0.01593584008514881,
    0.06411457806825638,
    -0.00027313263854011893,
    -0.10715905576944351,
    1.980038905458059e-05,
    -0.0035997878294438124,
    0.47274962067604065,
    4.969260771758854e-06,
    -0.020899532362818718,
    0.09120923280715942,
    -0.005182646680623293,
    -0.20719052851200104,
    0.00024204688088502735,
    -0.007990534417331219,
    0.11318188160657883,
    2.4221233616117388e-05,
    -0.32585349678993225,
    0.2895885705947876,
    -0.09201747179031372,
    1.4645313024520874,
    0.05307924747467041,
    -0.10614796727895737,
    0.13150005042552948,
    -0.007123579736799002,
    -0.38891270756721497,
    0.013496910221874714,
    -2.117062649631407e-05,
    0.2199263721704483,
    0.0,
    -0.19188538193702698,
    0.10861995071172714,
    -0.06469868868589401,
    -0.5185359716415405,
    3.895680038112914e-06,
    -0.012444723397493362,
    0.11913629621267319,
    0.0,
    -0.20802365243434906,
    0.028380708768963814,
    -0.002420359756797552,
    0.44482946395874023,
    0.018556002527475357,
    -0.029907071962952614,
    0.0035873251035809517,
    -0.0004960178630426526,
    -0.6512460708618164,
    0.002275890903547406,
    -0.0015189212281256914,
    0.3394063413143158,
    -0.0001394803257426247,
    -0.018420115113258362,
    0.014371917583048344,
    -0.012111063115298748,
    0.6818185448646545,
    0.0003246692067477852,
    -0.308855265378952,
    0.0039545465260744095,
    0.0001032642467180267,
    -0.5332767367362976,
    0.01907699927687645,
    -0.001298508490435779,
    0.508837878704071,
    0.01887744478881359,
    -0.0047014206647872925,
    0.0055228667333722115,
    -0.02383003942668438,
    -1.3698662519454956,
    0.027897115796804428,
    -0.1269005388021469,
    0.0008384603424929082,
    0.00016594791668467224,
    -0.016599755734205246,
    0.009717682376503944,
    -2.3509237507823855e-05,
    0.3813630938529968,
    0.0002226357173640281,
    -0.6926411986351013,
    0.06137571483850479,
    -0.0003843515587504953,
    -0.7204613089561462,
    0.0094632962718606,
    -0.004674829076975584,
    0.17052900791168213,
    0.004056576639413834,
    -0.022050632163882256,
    0.007535717450082302,
    -0.0005719894543290138,
    -1.1048177480697632,
    0.020068176090717316,
    -0.0037226842250674963,
    0.6109564900398254,
    -0.00031410777592100203,
    -0.12472540885210037,
    1.4856765119475313e-05,
    -1.3768756616627797e-05,
    0.8094949126243591,
    0.0002366363041801378,
    -0.11845788359642029,
    0.01605919376015663,
    -0.008915521204471588,
    -1.3737397193908691,
    0.026097139343619347,
    -0.06618257611989975,
    0.06939604878425598,
    0.0,
    -0.06276176869869232,
    0.1396305114030838,
    -0.0005706599331460893,
    2.12304949760437,
    0.0,
    -0.00498525146394968,
    0.14168286323547363,
    -0.004925536457449198,
    -0.3636718690395355,
    4.381255712360144e-05,
    -0.0062846592627465725,
    0.2117699235677719,
    0.005360771436244249,
    -0.011274460703134537,
    0.31434887647628784,
    0.0,
    -0.7088026404380798,
    0.0010375494603067636,
    -0.008682524785399437,
    0.08005710691213608,
    -0.014597480185329914,
    -0.3815559446811676,
    0.12794889509677887,
    -0.004286583978682756,
    1.0209060907363892,
    0.010084069333970547,
    -0.04551928490400314,
    0.25937557220458984,
    0.0,
    -0.30821067094802856,
    0.00012366025475785136,
    -0.5029342770576477,
    0.40964117646217346,
    0.019133079797029495,
    -0.21611151099205017,
    0.04438384249806404,
    -2.1221712813712656e-05,
    0.8362019062042236,
    0.00544169032946229,
    -0.0205218605697155,
    0.11205785721540451,
    -1.0041095777069131e-07,
    -0.14320741593837738,
    0.09657826274633408,
    -0.006350496783852577,
    0.2748028039932251,
    0.07246256619691849,
    -0.04999178275465965,
    0.04612381383776665,
    -0.005583341233432293,
    -0.3858852982521057,
    0.0023276263382285833,
    -0.09139161556959152,
    0.00519082834944129,
    3.5701958722711424e-07,
    -0.07644259929656982,
    0.0013945965329185128,
    -0.0003616273170337081,
    0.29077208042144775,
    2.479309273439867e-07,
    -0.07907283306121826,
    0.18167804181575775,
    -0.00017596424731891602,
    -0.4092433750629425,
    0.006279009394347668,
    -0.0028344830498099327,
    0.25495997071266174,
    0.0,
    -0.025636637583374977,
    0.044441841542720795,
    -2.3561024136142805e-05,
    -1.6514756679534912,
    3.706194775077165e-06,
    -0.12336017936468124,
    0.0037951942067593336,
    -1.2293856343603693e-05,
    -0.011801732704043388,
    0.003267943626269698,
    -0.058445870876312256,
    0.3320412039756775,
    1.216236523760017e-05,
    -0.35484325885772705,
    0.1983061134815216,
    -0.0014239838346838951,
    -0.08771000057458878,
    5.9792531828861684e-05,
    -0.06257360428571701,
    0.0102327149361372,
    0.0008513822685927153,
    -0.2845449149608612,
    0.09484511613845825,
    -0.0026427670381963253,
    0.01085839606821537,
    0.002422558842226863,
    -0.01816481165587902,
    0.1527935415506363,
    -0.0028038627933710814,
    -0.6658646464347839,
    0.004704441409558058,
    -0.051614321768283844,
    0.5674451589584351,
    1.5070789231685922e-05,
    -0.022868936881422997,
    0.05401028320193291,
    -0.040720198303461075,
    -1.1574231386184692,
    0.00011787016410380602,
    -0.004690784029662609,
    0.15716315805912018,
    2.514256448193919e-05,
    -1.6449732780456543,
    0.024464856833219528,
    -5.5416705436073244e-05,
    0.48146185278892517,
    0.0187459047883749,
    -0.5096034407615662,
    0.0761692151427269,
    -0.0009455395629629493,
    -0.5979887247085571,
    0.005838628858327866,
    -0.01847752183675766,
    0.32939448952674866,
    0.010182174853980541,
    -0.3702835142612457,
    0.004405239596962929,
    -0.0012556619476526976,
    0.9458191990852356,
    0.20459850132465363,
    -0.011764520779252052,
    0.5649930834770203,
    -0.00015736231580376625,
    -0.08318766206502914,
    0.12000411003828049,
    -0.008355358615517616,
    0.6418308615684509,
    0.0037754978984594345,
    -0.24001950025558472,
    0.20880423486232758,
    -0.005551803857088089,
    -0.610863208770752,
    0.0005168283823877573,
    -0.18058070540428162,
    0.2939227223396301,
    0.001089325174689293,
    -0.10558060556650162,
    0.1797519475221634,
    -0.023922214284539223,
    1.0064256191253662,
    0.0036217644810676575,
    -0.0468175932765007,
    0.10980066657066345,
    -0.000323086220305413,
    -0.39518076181411743,
    0.007166694849729538,
    -0.010554973036050797,
    0.2509605288505554,
    0.01153592485934496,
    -0.6157113909721375,
    0.04841349646449089,
    -1.0550264050834812e-05,
    -1.9945461750030518,
    0.002308180555701256,
    -0.050432778894901276,
    0.18712587654590607,
    0.014309592545032501,
    -0.17751885950565338,
    0.00036228695535100996,
    -0.0013146819546818733,
    0.19892294704914093,
    0.01882757805287838,
    -0.08408485352993011,
    0.3404146432876587,
    -6.0550542002602015e-06,
    -0.5068994164466858,
    0.038648173213005066,
    -0.4851568639278412,
    0.04350101947784424,
    0.0,
    -0.08884690701961517,
    0.08378259092569351,
    -0.000810207799077034,
    1.6155848503112793,
    0.00023497729853261262,
    -0.9776168465614319,
    0.33664020895957947,
    -8.781761607679073e-06,
    -0.5278441309928894,
    0.001199369435198605,
    -0.0030945241451263428,
    1.3357412815093994,
    0.0,
    -0.03927478939294815,
    0.00018771481700241566,
    -0.006174544338136911,
    -0.5564295649528503,
    0.05470474809408188,
    -0.22310946881771088,
    0.4686562120914459,
    0.001218619872815907,
    -0.5020137429237366,
    0.08156921714544296,
    -0.0770195722579956,
    0.7777166962623596,
    0.02621258608996868,
    -0.20918263494968414,
    0.13971561193466187,
    -6.719954399159178e-05,
    -0.993939995765686,
    0.001678438507951796,
    -0.006490673404186964,
    0.2243170142173767,
    0.02126231975853443,
    -0.5640824437141418,
    0.008239765651524067,
    -0.012271159328520298,
    -0.08828098326921463,
    0.1817411482334137,
    -0.05897035449743271,
    0.5622527599334717,
    -0.03399096801877022,
    -0.44001007080078125,
    0.005010845139622688,
    -0.017246054485440254,
    1.590327501296997,
    0.00345203117467463,
    -0.15203961730003357,
    0.1407139152288437,
    -0.04988744854927063,
    -1.1662997007369995,
    0.0027576335705816746,
    -0.002752532484009862,
    0.36946824193000793,
    4.20361038777628e-06,
    -0.20670464634895325,
    0.00031464698258787394,
    -0.03186506778001785,
    2.055800199508667,
    0.0003612496657297015,
    -0.07862329483032227,
    0.3276483416557312,
    -1.545046529827232e-06,
    -0.3652796149253845,
    0.016395987942814827,
    -0.0387965627014637,
    0.3263629972934723,
    3.41643753927201e-05,
    -0.03306245431303978,
    0.19311213493347168,
    -0.00012848615006078035,
    -0.518341064453125,
    0.025768719613552094,
    -0.02617933228611946,
    0.19074256718158722,
    0.0,
    -0.39009979367256165,
    0.0006603012443520129,
    -0.04994579404592514,
    1.2376796007156372,
    0.004462847486138344,
    -0.09137970954179764,
    0.22478848695755005,
    -0.0007460442720912397,
    -0.8226409554481506,
    0.049237675964832306,
    -0.03399810940027237,
    0.2858387529850006,
    0.0003059263399336487,
    -0.12126840651035309,
    0.0677453801035881,
    0.0011151620419695973,
    0.8686784505844116,
    0.001996569335460663,
    -0.2702043354511261,
    0.010365991853177547,
    -0.000691023247782141,
    -0.6618905663490295,
    0.008430122397840023,
    -0.07057026773691177,
    0.3319845199584961,
    0.0761963278055191,
    -0.3360992968082428,
    0.09029226750135422,
    -0.018265685066580772,
    -0.3514016270637512,
    0.046883635222911835,
    -0.03745308145880699,
    0.17754708230495453,
    -0.000144095640280284,
    -0.2529977858066559,
    0.17399819195270538,
    -0.0031165408436208963,
    1.106256127357483,
    0.009312933310866356,
    -0.02672814577817917,
    0.2170204073190689,
    -0.006431869231164455,
    -1.021609902381897,
    0.29336002469062805,
    -0.15287290513515472,
    0.6229568719863892,
    -0.0001266167964786291,
    -0.21442387998104095,
    0.16729502379894257,
    -0.002554756822064519,
    -0.4114324450492859,
    1.8141133750759764e-06,
    -0.04342932999134064,
    0.19007574021816254,
    0.0004430510743986815,
    -0.32448041439056396,
    0.018991008400917053,
    -0.0077927084639668465,
    0.08254298567771912,
    0.015653323382139206,
    -0.08523483574390411,
    0.1458960324525833,
    -0.0009728525765240192,
    -0.2631646990776062,
    0.16406165063381195,
    -0.03904931992292404,
    0.27534154057502747,
    0.0,
    -0.21590305864810944,
    0.42596468329429626,
    -0.05363573133945465,
    1.2501169443130493,
    0.0,
    -0.01215226761996746,
    0.15512773394584656,
    -0.035568688064813614,
    -1.9217768907546997,
    0.15059848129749298,
    -0.09279339760541916,
    0.26796895265579224,
    1.3060158380540088e-05,
    -0.4780343174934387,
    0.08666753768920898,
    0.0,
    -0.8883213400840759,
    0.0,
    -0.23388774693012238,
    0.4547608196735382,
    -0.0005087009049020708,
    -0.6609196662902832,
    0.13628266751766205,
    -0.05027423053979874,
    0.913463830947876,
    0.043298397213220596,
    -0.06197059899568558,
    0.21536538004875183,
    -0.01626856066286564,
    -0.7951314449310303,
    0.13058173656463623,
    -0.029384242370724678,
    0.6592485904693604,
    3.824183295364492e-06,
    -0.04731959104537964,
    0.013697084970772266,
    0.0014471049653366208,
    -0.710163950920105,
    0.030946750193834305,
    -0.2509516179561615,
    0.2824214696884155,
    0.01383712887763977,
    -0.20265917479991913,
    0.48429447412490845,
    -0.013139252550899982,
    0.23400011658668518,
    0.00060927530284971,
    -0.3168386220932007,
    0.032806359231472015,
    -0.0017458728980273008,
    -0.704991340637207,
    0.017266515642404556,
    -0.00016072190192062408,
    1.5431866645812988,
    -0.008239000104367733,
    -0.459668904542923,
    0.20185337960720062,
    -0.00017919485981110483,
    1.2554453611373901,
    0.05337675288319588,
    -0.41973230242729187,
    0.5090500712394714,
    -0.0007701290305703878,
    -0.08102298527956009,
    0.24022461473941803,
    -0.03372484818100929,
    0.6664343476295471,
    0.0007710747886449099,
    -0.5189977884292603,
    0.0565912202000618,
    -0.021501274779438972,
    -0.6248522996902466,
    0.02275839075446129,
    -0.17810696363449097,
    0.27242419123649597,
    -2.043420317932032e-05,
    -0.4482221007347107,
    0.20124101638793945,
    -0.02713223174214363,
    0.03589480742812157,
    0.12473531812429428,
    -0.06002603843808174,
    0.28961193561553955,
    -0.0018531399546191096,
    -0.9307540655136108,
    0.18037983775138855,
    -0.07079225778579712,
    0.43756669759750366,
    0.0010924177477136254,
    -0.5407845973968506,
    0.0701836496591568,
    -0.06008415296673775,
    1.335506558418274,
    0.046795040369033813,
    -0.23418104648590088,
    0.29025784134864807,
    -0.00246818526647985,
    -0.5852655172348022,
    0.018937764689326286,
    -0.009773180820047855,
    0.4005124866962433,
    0.002479890128597617,
    -0.8279473185539246,
    0.19234302639961243,
    -0.009165258146822453,
    -0.7413936257362366,
    0.10108614712953568,
    -0.44940805435180664,
    0.2638499438762665,
    -0.0018280425574630499,
    -0.7413127422332764,
    0.2308996468782425,
    -0.017705053091049194,
    0.8321841359138489,
    0.056230828166007996,
    -0.018052125349640846,
    0.6829174160957336,
    -0.002794391242787242,
    -0.520014226436615,
    0.15904800593852997,
    -0.1199348121881485,
    0.3541601002216339,
    -0.002058698795735836,
    -0.2982340455055237,
    0.16227814555168152,
    -0.05864748731255531,
    -0.011942093260586262,
    0.006610272452235222,
    -0.12542985379695892,
    0.14222176373004913,
    -0.0006903188186697662,
    -0.45165392756462097,
    0.03770264610648155,
    -0.26407390832901,
    0.23930497467517853,
    0.0055642640218138695,
    -0.08203969895839691,
    0.05448319762945175,
    -0.09373612701892853,
    -0.9437531232833862,
    0.08916077762842178,
    -0.21445997059345245,
    0.6330685615539551,
    0.00030903288279660046,
    -0.36269885301589966,
    0.3913063108921051,
    -0.017207225784659386,
    1.1698291301727295,
    6.229327118489891e-05,
    -0.14823828637599945,
    0.041810303926467896,
    -0.00689849816262722,
    -0.5395027995109558,
    0.10481874644756317,
    -0.09159731864929199,
    0.3045603930950165,
    0.004878513980656862,
    -0.18897457420825958,
    0.2255285382270813,
    -0.04917795956134796,
    -0.30149975419044495,
    0.038869887590408325,
    -0.17884261906147003,
    0.46037793159484863,
    -6.366445177263813e-06,
    -0.45748451352119446,
    9.181381756206974e-05,
    -0.1600475311279297,
    0.8373863101005554,
    0.08364621549844742,
    -0.17774111032485962,
    0.24822354316711426,
    -0.015364491380751133,
    -0.6857246160507202,
    0.16242311894893646,
    -0.5038657188415527,
    0.5195356011390686,
    -0.01698320545256138,
    -0.04649629071354866,
    0.07231075316667557,
    -0.045860860496759415,
    1.3668060302734375,
    0.07842341810464859,
    -0.00527476891875267,
    0.24271880090236664,
    -0.02930244617164135,
    -0.736677348613739,
    0.1467197686433792,
    -0.08362375944852829,
    0.7592102885246277,
    0.02766951359808445,
    -0.20473641157150269,
    0.11999529600143433,
    -0.10623607784509659,
    -0.7707639932632446,
    0.09202738106250763,
    -0.133571594953537,
    0.3921723961830139,
    0.02066165953874588,
    -0.28525909781455994,
    0.0411582812666893,
    -0.01911337487399578,
    0.6237097382545471,
    0.02943628653883934,
    -0.31322604417800903,
    0.20062971115112305,
    -0.02724151872098446,
    -0.28691568970680237,
    0.13715170323848724,
    -0.17161627113819122,
    0.593522310256958,
    0.03309169411659241,
    -0.08780652284622192,
    0.31535467505455017,
    -0.06419814378023148,
    -0.5348877310752869,
    0.09918560087680817,
    -0.2906802296638489,
    0.35326912999153137,
    -0.03477448597550392,
    -0.18526919186115265,
    0.025980651378631592,
    -0.14983497560024261,
    0.7454407811164856,
    0.04793510213494301,
    -0.5517241358757019,
    0.4488925337791443,
    -0.03455723449587822,
    -0.1791967898607254,
    0.124425508081913,
    -0.18021832406520844,
    0.7366629838943481,
    0.006863344926387072,
    -0.4782172739505768,
    0.219953715801239,
    -0.11233273148536682,
    0.16547486186027527,
    0.0812007337808609,
    -0.024779904633760452,
    0.5146908760070801,
    -0.03345412388443947,
    -0.8236304521560669,
    0.3002318739891052,
    -0.33619797229766846,
    0.46651434898376465,
    0.1969173550605774,
    -0.6864076256752014,
    0.25595054030418396,
    4.829001409234479e-05,
    -1.567960262298584,
    0.13115599751472473,
    -0.20463520288467407,
    0.3826499581336975,
    0.00024217891041189432,
    -0.39780086278915405,
    0.2672980725765228,
    -0.11799797415733337,
    0.5530226826667786,
    0.07182542234659195,
    -0.6295909881591797,
    0.6344015002250671,
    -0.13855449855327606,
    -0.21133407950401306,
    0.006447619292885065,
    -0.05421264097094536,
    0.22273655235767365,
    0.03666875511407852,
    -0.40913620591163635
  ],
  "scaler_mean": [
    0.21371419987455942,
    0.8528314672362804,
    0.1048900000018254,
    0.4423156756961718,
    0.8591085336089134,
    0.27237266649900005,
    0.906803040266037,
    0.016899932390889154,
    0.3408049331524409,
    0.8728276003456116,
    0.2790910810797289,
    0.5392868920099735,
    0.9772930708456039,
    0.46409373255342246,
    0.6723212161791324,
    0.13370405407342595,
    0.47727819896891716,
    0.9063496664690971,
    0.47819736500129106,
    0.47819736500129106,
    0.04430300007740967,
    0.29056033314017576,
    0.8963816215848923,
    0.08112594592742622,
    0.46780786571517585,
    0.8792244667482376,
    0.1668629730489105,
    0.8401475675261021,
    0.10401453341376037,
    0.47337739917218685,
    0.8017959460258484,
    0.2606619594449596,
    0.5793160656201839,
    0.9381576669931412,
    0.39873310825604946,
    0.6371545945882797,
    0.03849613341802731,
    0.72847399985075,
    0.9860173637723922,
    0.05501567563373595,
    0.649967999792099,
    0.10818066670086235,
    0.3673048648795998,
    0.7711716891431808,
    0.11648000001982786,
    0.7590324665164947,
    0.8119491214525699,
    0.34344567567718215,
    0.9022687332749367,
    0.02546320007763803,
    0.5917687163257599,
    0.8813181755447388,
    0.09578766667148099,
    0.8200784669911861,
    0.1949800675925985,
    0.46986729739278554,
    0.7106121333503723,
    0.1537353332953155,
    0.6082758784043789,
    0.8763653377449513,
    0.2831463331291638,
    0.6763157334053517,
    0.06916263508751523,
    0.3949641892746603,
    0.8486759338390827,
    0.1616252666223608,
    0.8660927703559399,
    0.9820241888999939,
    0.4064071993980743,
    0.6451522663748265,
    0.025051554011171685,
    0.3133488513493957,
    0.8167623333930969,
    0.32096419983910396,
    0.6178360135388374,
    0.020328243200248106,
    0.19311619984979742,
    0.9183560667300225,
    0.14083560810071882,
    0.6012173650574684,
    0.946915334277153,
    0.4417617991454713,
    0.8221089189076424,
    0.0302299999585934,
    0.43975179919295015,
    0.8197161336350441,
    0.20232439193709753,
    0.4669321624748409,
    0.9915776040506363,
    0.33396239980638026,
    0.8747885135746002,
    0.07534114861220587,
    0.5355209319555759,
    0.9104022000455856,
    0.2932614864834258,
    0.6853760136950016,
    0.024154733399264515,
    0.5461287987995148,
    0.909432567332983,
    0.11186939189460128,
    0.47285819872751833,
    0.856487666926384,
    0.35578114868715405,
    0.6501846621572971,
    0.1478817332854215,
    0.5405881317722797,
    0.9065020269417763,
    0.17487993244103156,
    0.6046635991954803,
    0.02947540008718148,
    0.37160851352953816,
    0.756844797180891,
    0.1290839999667462,
    0.5694730654740333,
    0.8573525001132488,
    0.35863932439941915,
    0.6711265998697281,
    0.09680660002050921,
    0.47170425673812627,
    0.877482905203104,
    0.14723166660855525,
    0.6452289994084836,
    0.975175608112812,
    0.3268612838183809,
    0.755738400028944,
    0.18982439992920497,
    0.5573880407214165,
    0.764131418761015,
    0.19534453327041118,
    0.7863069998919964,
    0.01515858104203362,
    0.35967060817824675,
    0.7362067332792283,
    0.26147559989108704,
    0.6717118918728828,
    0.9409902701258659,
    0.23696906646749005,
    0.7942981332373619,
    0.1180781756949611,
    0.3910649324753787,
    0.8037116666603088,
    0.3065522664780263,
    0.6261010811018943,
    0.00363520268864464,
    0.4707619988517463,
    0.7390324667167664,
    0.19795452706763056,
    0.5731262838256359,
    0.8274890669858456,
    0.44910046587456015,
    0.6586826349067688,
    0.07309993240741547,
    0.4650741325265169,
    0.7445873333001137,
    0.18007716218588407,
    0.6690639189052582,
    0.8805187335896492,
    0.42075793281972407,
    0.6794279730069638,
    0.16976824331694748,
    0.4501469991455972,
    0.8865984000396728,
    0.11638824329865165,
    0.8143862837374211,
    0.019702600061325355,
    0.22629653316160664,
    0.8066937161040306,
    0.18224655407140963,
    0.6534233560419083,
    0.9196142662978173,
    0.31072794509682805,
    0.5419062656915188,
    0.1328149313602224,
    0.4755519323308766,
    0.8584481508481503,
    0.1734758665820863,
    0.7934772602641582,
    0.9472969337964058,
    0.474820616401881,
    0.7062047998464107,
    0.1582936300283298,
    0.476148065687567,
    0.8795897948241234,
    0.22889373323155568,
    0.6438927398908139,
    0.0738406667592749,
    0.27171842460330575,
    0.769435866689682,
    0.3243200684120879,
    0.5989857989132404,
    0.9405673284602165,
    0.33884019974736496,
    0.6199515069079399,
    0.09603253339956515,
    0.5576872602331638,
    0.7167810000443459,
    0.3072367122868076,
    0.6967555331897736,
    0.04602561642892659,
    0.41859479941833766,
    0.8941137671780586,
    0.3332783997786697,
    0.4455895889621228,
    0.955114534854889,
    0.2553171917577088,
    0.6359552661049366,
    0.06267958897460252,
    0.26175506653720515,
    0.6808922603487968,
    0.2726595332131721,
    0.7628692464518547,
    0.9851085375785827,
    0.22398136983234435,
    0.8607310669445991,
    0.3885623972255364,
    0.4204217327704653,
    0.7100298630464077,
    0.3116321332233958,
    0.5449669177985191,
    0.08272846672305838,
    0.41407691766168925,
    0.9456136672163009,
    0.20014657531000674,
    0.5987036657071113,
    0.9687428764939309,
    0.2890935331167467,
    0.6694963014054298,
    0.12146880002693274,
    0.3355323970906809,
    0.7355679334044456,
    0.31926506843078883,
    0.583400065946579,
    0.9664671916103363,
    0.2622949331075046,
    0.6513967805719375,
    0.06464053341840394,
    0.5739989725887775,
    0.8586328670597076,
    0.46033465744737534,
    0.5312803987443447,
    0.02636993150733411,
    0.42013519933789967,
    0.824618630168438,
    0.2874696665473375,
    0.6720300684535503,
    0.9899759370303154,
    0.2659910957678035,
    0.786429466779232,
    0.21780801359910518,
    0.47019959905549885,
    0.7822709587800503,
    0.1713611999161821,
    0.5842627995538712,
    0.0010507042169198395,
    0.4793584659099579,
    0.6340278873693943,
    0.16111226661304942,
    0.6364038730335235,
    0.9090168002271652,
    0.46657077443517747,
    0.6533346661639213,
    0.13910901398209854,
    0.34765719974955545,
    0.676570774409771,
    0.10453000001851469,
    0.4844732392090559,
    0.9538610011672973,
    0.4096251408333145,
    0.6812646664679051,
    0.20192499990167095,
    0.7015684664726257,
    0.9060057043004036,
    0.15834806663909928,
    0.641986830996275,
    0.021493333398215474,
    0.30949852115564047,
    0.7661547334158421,
    0.11587359141394496,
    0.47230506551340223,
    0.8931505634379386,
    0.4498790660007298,
    0.9301051406478882,
    0.08471546673070639,
    0.29094985914504157,
    0.8719608005797863,
    0.23903563374742864,
    0.5404141993367672,
    0.03714028158815578,
    0.34027966634423473,
    0.7235709861266613,
    0.1672076666624751,
    0.5180987319886684,
    0.8491984004724026,
    0.17102732380952687,
    0.673783733139038,
    0.11173359138866887,
    0.19112853325145318,
    0.7683687323641777,
    0.23249653321371413,
    0.6409038027477264,
    0.9151625995254516,
    0.3912477463574707,
    0.8128068667757511,
    0.3469368309978023,
    0.47078346529215576,
    0.802757746500969,
    0.38721486622542145,
    0.5681228167438507,
    0.10581473334516399,
    0.4721399995328486,
    0.8070655999553203,
    0.14771373226754367,
    0.5591007328486443,
    0.9132963380169868,
    0.3344080664070323,
    0.6085011266708374,
    0.09653080004133284,
    0.4774681686113775,
    0.7329567333018779,
    0.2365888731708564,
    0.5318827323639392,
    0.9915397896075249,
    0.4696373989765346,
    0.8216064086210728,
    0.3592793330566492,
    0.517240352178812,
    0.685406666430235,
    0.3753749998810515,
    0.7735873997497559,
    0.10354042239245027,
    0.4613444658389315,
    0.8990690847587586,
    0.13566766664393246,
    0.5879502816975116,
    0.7942233997750282,
    0.45531443650027736,
    0.7529378260052204,
    0.3470505997278728,
    0.4338041328577511,
    0.8846111336183548,
    0.21286137642269953,
    0.6167687330949306,
    0.34706594262523577,
    0.39558173286978154,
    0.6793605080616474,
    0.16750419996943325,
    0.608408769915104,
    0.9476798672175407,
    0.37782065339596943,
    0.7541848000609874,
    0.07360789828376844,
    0.4729073325389251,
    0.7038777540493012,
    0.22908226653056218,
    0.7369808696520328,
    0.9801479377865792,
    0.45544935144010934,
    0.6408942663049698,
    0.15871463723868132,
    0.4627077322539687,
    0.9914276037549973,
    0.27807846661722285,
    0.5283322505426407,
    0.06657300007198005,
    0.32432615973901,
    0.9286417327952385,
    0.22424637644130738,
    0.5942844662213326,
    0.9342702876448631,
    0.3514287997895386,
    0.6840016671836376,
    0.09221533336698078,
    0.33512369607249276,
    0.9065369332838058,
    0.36398753706950693,
    0.6052301997697354,
    0.03855594188462943,
    0.13065793336120435,
    0.6760300008165836,
    0.05856573339231312,
    0.5413913080453873,
    0.7987134667134285,
    0.18871565175522118,
    0.6539759998559952,
    0.053585941834263504,
    0.3724459329855815,
    0.867538913552761,
    0.1273485999992583,
    0.6416244940650463,
    0.9470010005307198,
    0.4289371040817909,
    0.8586234671282769,
    0.12141717352667823,
    0.3956706662898511,
    0.8119460867500305,
    0.14846466668587177,
    0.7038773915958405,
    0.02420800007068552,
    0.38066623329728844,
    0.7417095332276821,
    0.17470123153783382,
    0.5620822659802437,
    0.9075523908877373,
    0.3390639997449517,
    0.656447392398119,
    0.11408746668133884,
    0.33578507287979126,
    0.9470304001998902,
    0.26098079678220676,
    0.5179901322865487,
    0.9984028237891197,
    0.3827772662750538,
    0.7392335507655143,
    0.15290819990338758,
    0.331535652519539,
    0.8419988668477535,
    0.4404684809922799,
    0.5871799993741512,
    0.1621226082426496,
    0.31275106642913075,
    0.7625793333339691,
    0.1305206164947478,
    0.5207306655907631,
    0.9215203841471672,
    0.287257599907415,
    0.9070928457975388,
    0.2834877331416868,
    0.4990161541596055,
    0.7799047333049774,
    0.2426026926617138,
    0.5795005994331837,
    0.00538061549406033,
    0.45860886591278016,
    0.9707023056101799,
    0.10143766671895049,
    0.5129353850597144,
    0.9372581345701217,
    0.4419690000517014,
    0.6138808660185338,
    0.01012953868589364,
    0.48831966535925864,
    0.7056650768411159,
    0.450956199099645,
    0.6152252309906483,
    0.937190467467308,
    0.27423430792203174,
    0.8486206667613984,
    0.09601330898018554,
    0.42612959937717765,
    0.9106919227409362,
    0.22623966654038988,
    0.7590112307763099,
    0.039499800085937606,
    0.3241491540164175,
    0.8466556003618241,
    0.18233730845720042,
    0.5400867987400293,
    0.9781546133923531,
    0.402460666277837,
    0.6203316925430298,
    0.12229160001188516,
    0.29090161555060184,
    0.9420978013038636,
    0.35957384617740756,
    0.6759703998625278,
    0.7758356921470165,
    0.1552443332939595,
    0.7325956154298783,
    0.07066200006670319,
    0.6980434616839886,
    0.9127334000396728,
    0.390929153866088,
    0.694984399986267,
    0.006695153984655626,
    0.38104099959796295,
    0.8238507689273358,
    0.1600523999456875,
    0.7313664615869522,
    0.9836778697061539,
    0.4016119231337728,
    0.5929021326959133,
    0.10164946273710113,
    0.4762014657840133,
    0.8315173076510429,
    0.4325367326585948,
    0.6912146924233437,
    0.0015768666799552738,
    0.4489803077248856,
    0.7720869332420826,
    0.10491084739680402,
    0.504889732157588,
    0.8901196923565865,
    0.32354986644213085,
    0.6880521538186073,
    0.11004193338388576,
    0.47504784622780977,
    0.7013186664676666,
    0.1811296161931753,
    0.5347503988933563,
    0.9151996918821335,
    0.3102733331715968,
    0.657151153806448,
    0.17385213323527948,
    0.490768000254035,
    0.8664782756698132,
    0.45745066610269247,
    0.6701489655220508,
    0.01253080005330965,
    0.4411181037720945,
    0.7505873998916149,
    0.20202500008943491,
    0.5568249326193333,
    0.956250775206089,
    0.29050153317275457,
    0.6503839656305314,
    0.1343503333198931,
    0.4865489658564702,
    0.7822587999725342,
    0.296382500051409,
    0.44180319941651075,
    0.032572241313671695,
    0.43752906607892367,
    0.8333576723361016,
    0.37208766648625025,
    0.5346896555554866,
    0.9496574009227753,
    0.4102709484773502,
    0.737582933305502,
    0.1408159483759571,
    0.2588077998936549,
    0.8500012068152427,
    0.25505933324560526,
    0.6213425000667572,
    0.8829093338465691,
    0.3305707759842277,
    0.7008063332664967,
    0.20827155183152296,
    0.5383221324050427,
    0.8261537933516503,
    0.174634666576609,
    0.5665488795065879,
    0.015922800053199754,
    0.41201318982592783,
    0.685160533246994,
    0.16688258622006513,
    0.6271225329244137,
    0.9790382745456696,
    0.12473246665325947,
    0.7900577586388587,
    0.051274733409546316,
    0.5104373280024529,
    0.8366493333089352,
    0.22552775866840036,
    0.5779933994877339,
    0.8815457755684852,
    0.48325613216251134,
    0.6789566380679607,
    0.17542313321729192,
    0.4636857762032375,
    0.8868261339282989,
    0.36732827594536355,
    0.6101013996267318,
    0.2741094828028884,
    0.3420745331338979,
    0.7340304311358928,
    0.1950985332624521,
    0.5275768106234073,
    0.8532228667390347,
    0.22571060348442756,
    0.6954239998531342,
    0.15711275875066408,
    0.48614293221518395,
    0.8102454309868813,
    0.08948540006562136,
    0.6771593103206157,
    0.00983540004200302,
    0.4910342244004458,
    0.6179525995993614,
    0.2319540517943725,
    0.6843625331568718,
    0.9982495681333542,
    0.20074606656899677,
    0.7194993103373051,
    0.1473864665634185,
    0.48989948288552465,
    0.9129568005418778,
    0.29137732768830843,
    0.4903827991503477,
    0.9696847359728813,
    0.5009075529564172,
    0.8186102669596672,
    0.1329954255896993,
    0.5338847989243269,
    0.9189361696124076,
    0.25351113316200674,
    0.6206129787743092,
    0.025480733393309637,
    0.3874971275037527,
    0.6893876667380333,
    0.24099563915970734,
    0.605395333122015,
    0.9449635094165802,
    0.23997766656864433,
    0.5890543620300293,
    0.05648586671950295,
    0.49953872319251297,
    0.6690005998802185,
    0.4390324461834785,
    0.46070893235849214,
    0.9328847861504554,
    0.36263613323260097,
    0.7773993613862992,
    0.1628121999586001,
    0.4436620206651092,
    0.7943179332208633,
    0.12845638308349067,
    0.610592866307497,
    0.22671425624872557,
    0.4676607989446074,
    0.8108625528347492,
    0.3538723998916242,
    0.5266927660548687,
    0.9484092001986504,
    0.427572020574538,
    0.5132620653641224,
    0.005678723380435258,
    0.5860775995492935,
    0.8708652122497559,
    0.18542473322047853,
    0.5079658509469033,
    0.009427733364459127,
    0.3732351063636877,
    0.8955930670809745,
    0.11394553194177337,
    0.5339065989518166,
    0.6493574469470977,
    0.1808045999468211,
    0.6020598937284947,
    0.05648406676282175,
    0.4788557443426922,
    0.9156726007223129,
    0.3804537233276665,
    0.6235573329198361,
    0.9214834034061432,
    0.3625008664940018,
    0.7323130850231647,
    0.15741879995090888,
    0.4998623402220011,
    0.9049241339957714,
    0.25097521343256346,
    0.6297386664640904,
    0.40700404221323316,
    0.24585719983610324,
    0.6338517019498349,
    0.1522855999073107,
    0.5221377659779787,
    0.9722538698410987,
    0.25581042627906425,
    0.6984678666722774,
    0.13792053204822355,
    0.4559253327619843,
    0.8923532975196838,
    0.29696399984306654,
    0.6349731917119026,
    0.007770466705486178,
    0.38662808497225865,
    0.8280962667751313,
    0.20327191575715317,
    0.5436159325695038,
    0.908068404033184,
    0.3828859996442031,
    0.5502032980442048,
    0.13271413788419217,
    0.4762358654463757,
    0.9587093089437485,
    0.2340698664847575,
    0.5336882766032219,
    0.9584832016205788,
    0.36074965527681635,
    0.8959841338062287,
    0.22975568976253272,
    0.5261511320483685,
    0.9420782748794556,
    0.20918953325202688,
    0.5519094835023582,
    0.03114306673440151,
    0.40794034511165694,
    0.573971266103983,
    0.06672620678028092,
    0.5294373321950435,
    0.8784199996328353,
    0.26114133310016246,
    0.655480862108469,
    0.14956333333510904,
    0.5147465528899431,
    0.8275920002484322,
    0.30842775867860767,
    0.6375527333021164,
    0.5389724145203829,
    0.4657281325605512,
    0.6740091379144788,
    0.2695205331251398,
    0.5078096561282873,
    0.8922235335969925,
    0.4347936210884154,
    0.8100685336124896,
    0.24857534492660313,
    0.4579308658359386,
    0.6194798278796673,
    0.36476273314829916,
    0.6405867240953446,
    0.9772704701161384,
    0.3705341380050592,
    0.784899200130701,
    0.07682775853071362,
    0.48904166528534143,
    0.8216686205756665,
    0.1301437332477141,
    0.5449786217337846,
    0.008115600033178925,
    0.5071668974055722,
    0.7433366668891906,
    0.4237891382806748,
    0.5454515988206864,
    0.8866894824743271,
    0.3131992665716447,
    0.6241391381144523,
    0.16328493325940333,
    0.4767708629219234,
    0.7616862001001835,
    0.2686167241188698,
    0.6301247333800792,
    0.7938432756102085,
    0.3889877998808492,
    0.7115584484231472,
    0.10206480001098477,
    0.4920563801817223,
    0.8967359338665009,
    0.48905086287070065,
    0.7417889333415032,
    0.052359999852050094,
    0.3257394666398596,
    0.7037984481084347,
    0.19591186650387943,
    0.535458966549635,
    0.9500945343828201,
    0.30879793112481013,
    0.9120998004508019,
    0.11892827578727155,
    0.5715366660094261,
    0.5794234488219022,
    0.34524713330286555,
    0.5808860352748633,
    0.004401200025314465,
    0.3836658622665331,
    0.5373513987636566,
    0.18876453317457811,
    0.55193,
    0.9669991359448433,
    0.303855,
    0.6480231333243847,
    0.02027,
    0.4396467328213155,
    0.760755,
    0.3168393999223411,
    0.627795,
    0.9707570695638656,
    0.35977,
    0.704029200078249,
    0.16993,
    0.4549225993608125,
    0.819015,
    0.4212555330538843,
    0.53828,
    0.05036740007338114,
    0.46487,
    0.8381901334691048,
    0.283655,
    0.5681437993860244,
    0.78531,
    0.29872726656010373,
    0.74354,
    0.051205133387856185,
    0.44259,
    0.6507633332657814,
    0.213665,
    0.6163913333511353,
    0.931915,
    0.33929939990042707,
    0.83596,
    0.14223893324449657,
    0.537785,
    0.7406342669463157,
    0.45871,
    0.7122686666882038,
    0.06934,
    0.4088000665643811,
    0.895075,
    0.10096780000736937,
    0.54783,
    0.736776933581829,
    0.33015,
    0.7427553335893154,
    0.028815,
    0.4774299319673702,
    0.86718,
    0.2295462665835116,
    0.671245,
    0.27458373324146496,
    0.37669,
    0.5585605329346657,
    0.13093,
    0.5722155997049808,
    0.95809,
    0.1750207999214623,
    0.81165,
    0.09580780002644286,
    0.26378,
    0.9580090686488152,
    0.195505,
    0.5000167308706045,
    0.9971,
    0.3097635332226753,
    0.71928,
    0.13141213327582926,
    0.48814,
    0.8755160002875328,
    0.207415,
    0.6811089331758022,
    0.06031,
    0.37544786648754963,
    0.898555,
    0.04972920005208813,
    0.671675,
    0.767608400156498,
    0.49504,
    0.6101270667362213,
    0.245315,
    0.4236841330808494,
    0.90351
  ],
  "scaler_scale": [
    0.10988786266752316,
    0.09597879739012496,
    0.07921030194189861,
    0.08399651780797901,
    0.09168270804865439,
    0.11142135429616545,
    0.07288323615272643,
    0.022477573928622332,
    0.10590160765766621,
    0.08927295508253319,
    0.11126996935108698,
    0.0710546125095817,
    0.028223890267417513,
    0.06560080236425642,
    0.11125221258036364,
    0.09074753866797311,
    0.06666228703827821,
    0.07271101091582992,
    0.06455358470046663,
    0.06455358470046663,
    0.04225901702699773,
    0.11187654857968429,
    0.07877481029845736,
    0.06677229826819533,
    0.06584972302885911,
    0.08764827189509727,
    0.10034234084292552,
    0.09881056358846504,
    0.07761145073261126,
    0.0674775789830586,
    0.1051012918014967,
    0.11124172213674077,
    0.089294224969809,
    0.054778682212584424,
    0.09545026465034344,
    0.10183393228989049,
    0.04277558420458376,
    0.11443613285152907,
    0.02441809642028705,
    0.055874634303716156,
    0.10541298854292545,
    0.0826092865589279,
    0.10092284128147094,
    0.11479583258378098,
    0.08897237787458571,
    0.11671621349509698,
    0.1115364833707444,
    0.10819774392067878,
    0.07529548055078096,
    0.02926043026396537,
    0.0913206423961157,
    0.08847425463124382,
    0.07637065392003256,
    0.10771272279207421,
    0.11028683441927722,
    0.060734383673882716,
    0.11560797667733612,
    0.09832774976046192,
    0.10161346977100462,
    0.0879299363011189,
    0.11117409375244312,
    0.11184318495965141,
    0.05939632266262911,
    0.09473891093852213,
    0.09920762912952644,
    0.10157328131512196,
    0.09509130713535688,
    0.02495265758709204,
    0.09256006526531098,
    0.10858370456873316,
    0.02871120965627252,
    0.11144191054122396,
    0.10488069132196914,
    0.10850044838185367,
    0.09910151974066068,
    0.02641845785407735,
    0.11175906938797252,
    0.07059222863835382,
    0.0945397170392844,
    0.10045360260977887,
    0.04992911948994669,
    0.07759431443188798,
    0.10966310488313244,
    0.04069648844263484,
    0.07855927523999132,
    0.10668624340160661,
    0.11362314876983846,
    0.056564336638079436,
    0.014493502401971186,
    0.10971517673706525,
    0.08680305228590617,
    0.06319933991756392,
    0.06723086905007154,
    0.07297814385855579,
    0.11452546991133092,
    0.10908680243677284,
    0.028689403230871654,
    0.07551547800594392,
    0.07461340737215227,
    0.08438995548809675,
    0.06348076383449944,
    0.0972580262854672,
    0.10299642908947988,
    0.109560446086431,
    0.10029632663352876,
    0.06722449042967425,
    0.07900221744516098,
    0.10860609494839876,
    0.09794269876866858,
    0.033891670812913964,
    0.10174593951876468,
    0.11568312324300127,
    0.08965614327836843,
    0.08144248941735797,
    0.09625760593717236,
    0.10613974302991415,
    0.11087686994851825,
    0.07617644761895632,
    0.0598395559484396,
    0.08537955000025814,
    0.09325651698091576,
    0.10447905491541809,
    0.029440894102116366,
    0.10900058024995149,
    0.11071615303439213,
    0.10459320796065778,
    0.08551352240910672,
    0.11223996384639526,
    0.1127733831247259,
    0.11588788125645556,
    0.021793876600841974,
    0.10420255090060705,
    0.11353405818201784,
    0.1136989012511287,
    0.10843918349061438,
    0.05625875300025293,
    0.11382838182056533,
    0.11121364136886051,
    0.0851551606051592,
    0.10208551849303363,
    0.10666097750525536,
    0.11290711223565662,
    0.10175851635193844,
    0.007847159914770472,
    0.0633827835605682,
    0.1110362464565606,
    0.10607674561758948,
    0.09207921798521185,
    0.10553812655930264,
    0.07058741286117422,
    0.10638887561010128,
    0.062392585086451395,
    0.06653062611726508,
    0.1124383728397672,
    0.10462684061741132,
    0.10801760035842933,
    0.0849367592028383,
    0.09384962690624432,
    0.11026149222823912,
    0.09985960276030441,
    0.07319695021805725,
    0.08290645448173113,
    0.08416848746841435,
    0.1050203306406576,
    0.026475311315131863,
    0.1092756183274762,
    0.10702742781933149,
    0.10443351969062413,
    0.11081336404565215,
    0.06577279142129412,
    0.11088073701377855,
    0.07064794089508468,
    0.08978302589425227,
    0.06441072614985655,
    0.09629997976848562,
    0.09908300048953916,
    0.10340840457935048,
    0.04842014058278152,
    0.06441111326864295,
    0.11251171238408023,
    0.09938596216348974,
    0.06449194261473185,
    0.0825468375084049,
    0.11046039787356302,
    0.10763537055158813,
    0.06173144117227522,
    0.11367062378454737,
    0.11195247078853104,
    0.10864778160861117,
    0.09701110028813759,
    0.056711748739419136,
    0.1055478903659454,
    0.10348244731699414,
    0.0773991650375415,
    0.08505159672315948,
    0.11452140870768021,
    0.11234900627223178,
    0.11034492200773455,
    0.047557618486811365,
    0.09136079747242348,
    0.07970989640659641,
    0.10756428072772195,
    0.08323541331946827,
    0.04384473054527368,
    0.1148317301700381,
    0.10368021086094507,
    0.055937068159000625,
    0.11339444698932759,
    0.1110023762125009,
    0.11603335768740855,
    0.11736791117177967,
    0.022575779474749612,
    0.11243390223447731,
    0.09587737684026511,
    0.09941825920491176,
    0.0868770667697081,
    0.11332569246610118,
    0.11116977571077535,
    0.06686228285497353,
    0.07009394336896858,
    0.08726985325263067,
    0.05297763987333084,
    0.10964859306684836,
    0.09074443809110092,
    0.036294189112235226,
    0.11171687314022065,
    0.1093664181806495,
    0.08563087157835504,
    0.10888644774782473,
    0.11393240425398327,
    0.11028169989133106,
    0.09590035763452409,
    0.04075822932603068,
    0.11259407978965585,
    0.10815090634335928,
    0.057813582583870766,
    0.08842261172193148,
    0.09115260843202834,
    0.06662798736164559,
    0.06898491099813696,
    0.031198893611976388,
    0.08920980675794019,
    0.10476364091905467,
    0.11092635369045156,
    0.11223444194961153,
    0.017605932643020513,
    0.11054879628663611,
    0.10674550726853636,
    0.10738155891505681,
    0.06459878990484122,
    0.106295239092848,
    0.09685174466728357,
    0.09549468156671198,
    0.0038018018772306966,
    0.0641274863222797,
    0.10988547866616567,
    0.09442775812411745,
    0.10724464830505734,
    0.06908984967324817,
    0.07671300462463362,
    0.10932446860160308,
    0.09032307959029505,
    0.1059350310344619,
    0.11008316047893843,
    0.07642615295526654,
    0.06079822924928905,
    0.044570676329256015,
    0.09856745545867886,
    0.11129344929867904,
    0.10788173127539377,
    0.11038741721768522,
    0.07494977532353292,
    0.09784004454296033,
    0.11004725283372621,
    0.029448579698575082,
    0.1111649474576318,
    0.10809821689120377,
    0.08128019155168836,
    0.055726942600787775,
    0.0776740090828868,
    0.08624794089847176,
    0.058150343037392506,
    0.07083885881792705,
    0.11208588627950732,
    0.08448936966440672,
    0.11009783636731821,
    0.06832046352885496,
    0.048100598392402286,
    0.10940005606337565,
    0.11531681572746447,
    0.09880734386098308,
    0.05618287712666076,
    0.09452940611394565,
    0.10611295624731833,
    0.11035640002802825,
    0.08325397927657475,
    0.10602830729095811,
    0.11559166131004697,
    0.10935345740995232,
    0.10793392285881956,
    0.06643689772355801,
    0.10365645074599353,
    0.10045403398060085,
    0.10706963289117617,
    0.05260295586435585,
    0.10570435432127101,
    0.09818672314523207,
    0.08697238397261182,
    0.07804052416041678,
    0.055716173797147876,
    0.10636389733946444,
    0.09578118000042864,
    0.08673115539996581,
    0.07171749045414577,
    0.10741423610204584,
    0.10362895629244052,
    0.07882783192540178,
    0.05228058304084922,
    0.11185625061950501,
    0.10801502646821197,
    0.06811329734823064,
    0.020883809380352676,
    0.06339156535555823,
    0.10443068759453758,
    0.10699771506904288,
    0.06804092272387104,
    0.1077576479293546,
    0.10600642871611606,
    0.10754563376157997,
    0.07390890425783457,
    0.0662135300023333,
    0.07598358612069953,
    0.08691235741952237,
    0.10017017667331522,
    0.10276757016511973,
    0.08006971065157242,
    0.11094890068601845,
    0.11052835629501373,
    0.09644876967750883,
    0.08102082338397802,
    0.10615552019915231,
    0.10257255881089256,
    0.10749330979385166,
    0.1039482123594286,
    0.1123140673096281,
    0.09689784407708807,
    0.10306748398288997,
    0.04988590748645607,
    0.10282279563973902,
    0.10748350020011202,
    0.060848841685710586,
    0.06509433697355012,
    0.1123457572182709,
    0.105950938143376,
    0.11195593832772659,
    0.029354031952136574,
    0.07373642721161014,
    0.10497724700765176,
    0.09632647887326237,
    0.05952661472179573,
    0.01787154319971008,
    0.10825458283720091,
    0.0682151913251613,
    0.05408818311799707,
    0.11369137288173625,
    0.057813691161046045,
    0.10875466984597146,
    0.09697032425862967,
    0.058245908903379114,
    0.10333843666115089,
    0.11323588090180621,
    0.0747641896714054,
    0.11032921162171096,
    0.0712779195125605,
    0.10292413911961981,
    0.09832313783836144,
    0.04304483137270254,
    0.08893734308936346,
    0.11236298777847899,
    0.05519186108848847,
    0.07773767323909364,
    0.10484716888481109,
    0.10194694614774116,
    0.10830297084036003,
    0.048949404234052606,
    0.10513374191544025,
    0.08533923656722389,
    0.08446534040323332,
    0.10700084924104011,
    0.05284208960236522,
    0.08823611259575553,
    0.08894152826801488,
    0.08485223852706689,
    0.09657742740772735,
    0.10335884029037996,
    0.09112820561625194,
    0.11447311752183617,
    0.032480443077480006,
    0.10525705133320507,
    0.11018778538568576,
    0.1051789818793417,
    0.08521542809522206,
    0.07079995608804253,
    0.10547755574015985,
    0.10964990099904465,
    0.08151497707335222,
    0.1101235671119157,
    0.04994167530672132,
    0.11058325117689245,
    0.06611731184394608,
    0.0059292783020473165,
    0.10315461182155738,
    0.11182523669349043,
    0.08868007547100354,
    0.111749629983433,
    0.09265348955288806,
    0.08979250537578887,
    0.09908498217281202,
    0.09309972231546078,
    0.1112290951164599,
    0.10450774223434188,
    0.08498800964267683,
    0.06048914607879218,
    0.06552020365838435,
    0.10811752718684707,
    0.06978628953991965,
    0.10605198171612762,
    0.06179206736777196,
    0.1013165146949553,
    0.11173451606111774,
    0.09055664255923274,
    0.016176253461674346,
    0.07811768834839973,
    0.036259598311440315,
    0.07471010410820371,
    0.05688702171078731,
    0.06365182432066277,
    0.08844203935075874,
    0.09989065453336882,
    0.020366759501008243,
    0.0486030255253617,
    0.11220379435985617,
    0.07360303837992682,
    0.10529415109081294,
    0.059747854174565344,
    0.11214907930676726,
    0.08892503428333665,
    0.07058455565301268,
    0.09619063331250705,
    0.06789925329408429,
    0.10460245161147795,
    0.11039347880458361,
    0.04315843318853633,
    0.11092187450950397,
    0.08936356692009283,
    0.09993277643826244,
    0.06894712350358305,
    0.03307613344784209,
    0.09069955860568685,
    0.1081473820641261,
    0.08898927586597193,
    0.11650203134229506,
    0.06084826605846147,
    0.10712798289428402,
    0.10723320041100629,
    0.11386918867203263,
    0.09187884023951595,
    0.11389791407251738,
    0.0568643470655752,
    0.11250438081028616,
    0.06591827393637806,
    0.10337293191385445,
    0.10696690556335167,
    0.017405898723552984,
    0.10162276284441041,
    0.09938931852962253,
    0.09740586404505523,
    0.11253572125563166,
    0.02689181241516749,
    0.10111859747588658,
    0.09935195990140505,
    0.07710910651471818,
    0.05848062708109668,
    0.09919730172358626,
    0.08545740142285484,
    0.1129299863692416,
    0.005553981821148664,
    0.08370547768529632,
    0.10448472536863093,
    0.07606874792248819,
    0.05871507695862339,
    0.07980008961236933,
    0.10635529017077529,
    0.1146736897368976,
    0.07733026797054308,
    0.06672613222069121,
    0.1093850600682409,
    0.09908830437067503,
    0.07935629019276624,
    0.06650965837731862,
    0.10950395189583396,
    0.11482046655843532,
    0.09241453918547435,
    0.06288941013724843,
    0.09392342970591487,
    0.08578404247810878,
    0.11413925401197313,
    0.02025334945493156,
    0.09791589492482736,
    0.10270588973661007,
    0.10500503994539483,
    0.08516671699186941,
    0.05246890900272675,
    0.10496788884275465,
    0.11058143534002998,
    0.08315833108680475,
    0.07207044868536952,
    0.09903637197183877,
    0.11319529029253853,
    0.08536868768461173,
    0.04346081557729284,
    0.08698331750479586,
    0.09575403247944189,
    0.09741298307951277,
    0.07893185020443955,
    0.051296666376866654,
    0.09912046458791177,
    0.10353507423344768,
    0.08869607687618832,
    0.10293727914247594,
    0.09236603975576953,
    0.1037901024667582,
    0.11211295638501277,
    0.07599112466288703,
    0.11428481345300837,
    0.10436486616889601,
    0.1050521057429073,
    0.06697216125762698,
    0.09825570166624226,
    0.09336389180633765,
    0.09425858363343431,
    0.028843743737451206,
    0.10123893011390692,
    0.10509262708023462,
    0.10050756993927486,
    0.09681495916716769,
    0.033349631862701706,
    0.0787557932123359,
    0.10924148307019874,
    0.051767605136115134,
    0.06564173775585878,
    0.09087336963868177,
    0.10731305575100691,
    0.0907687121328531,
    0.08052041661091179,
    0.04863280073270723,
    0.11202903028879985,
    0.09158724404640015,
    0.08093383682514634,
    0.07635404245050467,
    0.10731318873965803,
    0.09588481132246175,
    0.11083443339635209,
    0.10168738405840538,
    0.11087154632756334,
    0.09465518035822106,
    0.0841282485688939,
    0.08502667678352727,
    0.11076855324356165,
    0.10532174305398467,
    0.0919322907648979,
    0.04954503095833601,
    0.1023352021801441,
    0.06814319530970891,
    0.11333955187358641,
    0.01797140062454217,
    0.05791187229799528,
    0.10211413505688847,
    0.11113077019856472,
    0.10646135798909397,
    0.006521243968932861,
    0.09680334211415736,
    0.1159888804254094,
    0.08440850788080406,
    0.06154761156037899,
    0.06495418752276341,
    0.11600916405982344,
    0.05857871150836984,
    0.03993381717147403,
    0.05613277016176165,
    0.09233593633655215,
    0.09038566146283886,
    0.06888972480966173,
    0.06928149668286451,
    0.1050567214142192,
    0.11349198100156747,
    0.036864914169803246,
    0.10942937150613524,
    0.10148932755868778,
    0.11619078755197283,
    0.09437020258386726,
    0.056738146058666034,
    0.10012204688248252,
    0.10845602470905946,
    0.057649644638672934,
    0.05276220459877762,
    0.10002186984572743,
    0.0944189414521945,
    0.07294296255487494,
    0.0702694768741553,
    0.0978195089873953,
    0.11503709180700218,
    0.090232724189335,
    0.09523333736776413,
    0.09876077080258913,
    0.09162484470441579,
    0.09483306183986771,
    0.11281254933310089,
    0.07078548235389225,
    0.1069068921387985,
    0.09888300642298112,
    0.07853469525596428,
    0.04728858321067942,
    0.10211559424520825,
    0.05725130342067456,
    0.019718086005164476,
    0.08870319433047422,
    0.08949445092291108,
    0.09564953691986731,
    0.054335534029343754,
    0.02130917537508366,
    0.11481822613705568,
    0.07851396435012878,
    0.09117637301639153,
    0.0687248507296508,
    0.11941540844997184,
    0.09292850807177921,
    0.10918679635598183,
    0.05054783313196029,
    0.07385177774179852,
    0.06518491642414036,
    0.1157496780568394,
    0.09697462401421653,
    0.07590527888465776,
    0.09543790168277215,
    0.12065957164415562,
    0.08771622717017008,
    0.04904762247601559,
    0.0762629187709271,
    0.11778845679710329,
    0.0977475808424424,
    0.11162109722910513,
    0.101823966199941,
    0.11469370709878934,
    0.08523343116570545,
    0.07488547567020817,
    0.032739164471564955,
    0.11780958973035856,
    0.10303192045387034,
    0.09266825844384957,
    0.07589168990911783,
    0.08223515800765277,
    0.10272064724447066,
    0.11514000681909717,
    0.016352905432190583,
    0.11581980786761133,
    0.09132510964046157,
    0.10987861215562564,
    0.0830090577444233,
    0.0747348448803861,
    0.09627792677908732,
    0.09461119170774765,
    0.10940957433685508,
    0.06462773651129321,
    0.057033495827542774,
    0.10534547795917514,
    0.08066443670807932,
    0.04598051665968161,
    0.1269353796499152,
    0.07469135616380838,
    0.11992340172805387,
    0.06254338200943439,
    0.06905367909025098,
    0.10309855328439974,
    0.09159729483911795,
    0.03952288870736028,
    0.10669936905775886,
    0.08318933644043387,
    0.07432828648280564,
    0.06777704064672654,
    0.09634353802093028,
    0.10583928285121046,
    0.12177079466687797,
    0.0950025998652232,
    0.06200773302622314,
    0.09707177111311993,
    0.12320361319557231,
    0.09979378135350749,
    0.08117043195692661,
    0.07163684168488599,
    0.12978719606049352,
    0.10421801770098423,
    0.06192020553856838,
    0.07844437185842579,
    0.10104771549104492,
    0.10058304617157524,
    0.12360346487158255,
    0.07178658374982788,
    0.11809189877967768,
    0.09810910494001962,
    0.11549810960895707,
    0.03252896608896378,
    0.11770361295677849,
    0.10827609829796121,
    0.07985248999397929,
    0.05096924442581301,
    0.11243879915075151,
    0.08931816273290968,
    0.08471859417689591,
    0.020379781220919383,
    0.06750888478662091,
    0.10437332907763391,
    0.10613796382630875,
    0.06845622738617316,
    0.09305610483663057,
    0.10726140404156392,
    0.122989091350565,
    0.09230323627509787,
    0.07041385940047304,
    0.10549999599007305,
    0.12786972720122558,
    0.09531946241581352,
    0.12326366097282239,
    0.092948377497517,
    0.12327789548476371,
    0.07669127376947033,
    0.060803308956104536,
    0.07338772423577877,
    0.05983355862554185,
    0.10662467929872924,
    0.059847146798323966,
    0.10177305292838534,
    0.12728042777551743,
    0.09851649621291045,
    0.0812393485520173,
    0.051797336649296775,
    0.13141169658964,
    0.06692529108369338,
    0.09665316169916319,
    0.08056078919739496,
    0.10554254353319183,
    0.10233173360166417,
    0.11142967150449107,
    0.011650736537526048,
    0.12248053455515033,
    0.07080702581316363,
    0.1088018271735856,
    0.27407941385662443,
    0.04224805009485613,
    0.2679650424495725,
    0.10642874990745088,
    0.07801683856708284,
    0.08189721552311359,
    0.243402865585006,
    0.11237316033232707,
    0.286991398782255,
    0.042362670697747545,
    0.2742568086666807,
    0.11147430531964614,
    0.2112049836059754,
    0.07480570266648584,
    0.2303585352770495,
    0.0923896286222235,
    0.2778572324054252,
    0.0567215147621264,
    0.281108756711708,
    0.10129416914427616,
    0.2559818664964541,
    0.07958415303917604,
    0.24804879338547361,
    0.11474844576925895,
    0.2526128824901882,
    0.056099748282134036,
    0.27276884334544205,
    0.10685463359898216,
    0.23135825633637103,
    0.09947899502089387,
    0.14891292010772325,
    0.10981257435676803,
    0.21144947008686973,
    0.09085828179958669,
    0.2881738516503618,
    0.11479683606354917,
    0.2785724966682829,
    0.11303935568151181,
    0.13554783067240292,
    0.09287280449328404,
    0.17981620998956144,
    0.08235171262172905,
    0.2817641586504709,
    0.11486306491782,
    0.2728433204240191,
    0.1124980849303295,
    0.09342280650353905,
    0.05725676362667803,
    0.19437746165642453,
    0.10947690932041404,
    0.27269859731029783,
    0.11450482789612486,
    0.2738583464129222,
    0.07436818511162754,
    0.19307663012391313,
    0.08342953832197214,
    0.11315830460025207,
    0.10240913583435621,
    0.23642234983181618,
    0.08293542871189073,
    0.26123047601688654,
    0.05132437912242653,
    0.2313296781111539,
    0.031977033462269634,
    0.027754999549626787,
    0.11260343872182722,
    0.25922004474962224,
    0.08821790741484051,
    0.28507558716943077,
    0.08860000549456805,
    0.24228783043109683,
    0.11197990057217841,
    0.13594651117260784,
    0.10286560633527031,
    0.1702741523984351,
    0.053362240045936996,
    0.2712716707933073,
    0.11010562860928992,
    0.2727551986672414,
    0.09641882061746018,
    0.2504095161430423,
    0.08838821950814876,
    0.1691217901395169
  ],
  "classifier_coef": [
    [
      -0.04852773009621681,
      -0.013057097655464624,
      0.030411564649541416,
      0.013061239804460612,
      0.04302669898747128,
      -0.049252759382765125,
      -0.07123158975012918,
      0.019304794467758256,
      0.0006367966904953434,
      0.03265865866230192,
      0.006523562427455838,
      0.021653615436482282,
      -0.028671980752850067,
      -0.04974997930945648,
      -0.008936496596476634,
      -0.03711388095750937,
      0.04508563175860499,
      0.010214150839214516,
      -0.005122579735399039,
      -0.005122579735399039,
      0.024688080634713,
      -0.014393963141574553,
      -0.00618436196659565,
      0.01826779604960977,
      0.027031597268880242,
      -0.02921391423846481,
      -0.06424067307652884,
      0.03699690889480643,
      0.004397981981125149,
      -0.0016935239330909749,
      -0.03330289194578234,
      0.006555486690637775,
      -0.09965229061583473,
      -0.011402157931167875,
      0.026955558065886304,
      0.06405264275786049,
      0.0077752758486758985,
      0.032354764567214284,
      -0.036285777752533596,
      -0.012400094091144565,
      0.06162355931476243,
      0.065703512491883,
      -0.0429924474184376,
      0.09115116873971485,
      0.029843606849029605,
      -0.004711426132792983,
      0.020832625205436918,
      -0.003722121683936798,
      0.08265480393406507,
      -0.04047701969054189,
      0.01464020279626161,
      0.004062483151929232,
      -0.010806477168416928,
      -0.016575839494949396,
      0.009823119287767523,
      0.005855982948452562,
      -0.03137657929950189,
      0.034582070296035584,
      0.08056873935817238,
      0.020915081507214377,
      0.03751774336231198,
      -0.013122217692089048,
      0.02549646424008016,
      0.009407443946139496,
      0.008914691422120612,
      -0.01365238563872135,
      -0.040300534654567344,
      -0.05447045099475085,
      -0.0073752039994131454,
      -0.013113673297078732,
      0.004734724726912283,
      0.018584971071733146,
      -0.029974750972583376,
      -0.019640499353490076,
      -0.059724712914347805,
      0.0017094943815483526,
      0.01263761983243341,
      -0.020919124038026635,
      -0.02860947707645333,
      -0.017211876211813068,
      -0.037228223585267665,
      -0.011741591772754918,
      0.006494543707683896,
      0.02232132691785932,
      0.0171387994271922,
      -0.03137855603103914,
      -0.01477504319029009,
      0.06067471081155621,
      0.004087874903393634,
      -0.019323636786039065,
      0.012824711391492813,
      0.0319891537714404,
      0.011993899284677437,
      0.018604843398757745,
      0.012349258660678424,
      -0.03140906642689422,
      -0.012263047976832853,
      -0.008464711608722274,
      -0.010543712075802174,
      0.055091281503382376,
      0.042738208390537935,
      -0.002006177913987481,
      -0.022167658697375962,
      -0.019964558384497164,
      0.002175511798192531,
      -0.002670558521834978,
      0.05838679823223135,
      0.009119357905729375,
      0.02340811223705356,
      0.019492427269540452,
      0.015517411343484038,
      0.03470476182631045,
      -0.044124488298278905,
      -0.018038104496768438,
      -0.007917143261638164,
      -0.016203179539149862,
      0.0557888758299499,
      -0.034656650018221165,
      -0.0208718039118065,
      -0.029097265741849773,
      -0.01972862828008109,
      -0.010095624072947217,
      -0.013887024477276265,
      0.027340440685349618,
      -0.008175254492378763,
      -0.011970407022867918,
      0.01977829019885787,
      0.018379433805419787,
      -0.0388636391558911,
      0.02706675095792198,
      0.01205810448997402,
      0.026920725984364905,
      0.016102573725453616,
      0.055978619462422406,
      -0.03424779467265388,
      0.007079783667903437,
      -0.01697411234707883,
      -0.0203834719508287,
      0.03132775623896591,
      0.03820473526360425,
      0.0061323056794101785,
      0.004467557300179427,
      -0.00193638060370303,
      -0.002045884874692854,
      0.0220031946349605,
      0.01079368104106225,
      0.028238473760340478,
      0.046228430757113595,
      -0.04852025219357205,
      -0.003242128879898467,
      -0.01555598059584077,
      0.04048552986408701,
      0.0460043267147676,
      0.009422377790174317,
      0.00783814471187147,
      0.003456090267116352,
      0.00843337946835234,
      0.0028060246867244384,
      -0.011324503152638124,
      -0.028756669839229976,
      -0.007804234644358872,
      -0.020381165242863722,
      0.028691922602086507,
      -0.018050534046949437,
      0.016250823466833347,
      -0.016632423838809224,
      -0.01831579917481399,
      -0.01642456687937175,
      -0.0031562280253910613,
      0.10813402058117672,
      -0.054361341563988134,
      -0.023440169448059565,
      -0.0026465923619335766,
      -0.07540275399144292,
      -0.07089488695112015,
      -0.02654517003584011,
      -0.013871080161577724,
      0.03621130260480979,
      0.03333684227241416,
      -0.04746878683712135,
      -0.10587639430603332,
      0.007022007752939763,
      -0.029116300857589754,
      0.07936931962260332,
      -0.0012931169554631049,
      -0.11141250094816026,
      0.005827817438617017,
      0.01228884739900718,
      -0.02388362543530441,
      -0.03092302583267864,
      0.0259882886943245,
      -0.04331791913714346,
      0.005984306218515936,
      -0.0045873051201852505,
      -0.010428521055254655,
      -0.0975343422647745,
      0.0182749388887734,
      -0.006092437037483384,
      0.014367751233766504,
      0.08048992383609227,
      0.06446829685873413,
      0.04353210294754495,
      0.002954496495060622,
      0.0009754849107187213,
      0.025491249874308092,
      -0.00961885031882749,
      0.0421803737322031,
      0.018239222985327458,
      -0.06546161296541458,
      -0.03422334951003663,
      -0.09753563913867257,
      0.050714067153854646,
      -0.055950534964017834,
      -0.10579432946930993,
      -0.03685579204804039,
      -0.06689994618812185,
      -0.08163539289839473,
      0.023265803402073994,
      0.00017119311975253432,
      0.0867692289916108,
      0.002559616382575445,
      0.00977539869330804,
      0.0402041537447981,
      0.054024525704257816,
      -0.010072054759761861,
      -0.053195273000286286,
      -0.0002443723425604033,
      0.04152464791393512,
      -0.01409058950260629,
      -0.02150415934837796,
      0.015102035022399415,
      0.01733487266828756,
      0.01072397224197686,
      0.005399681818655078,
      0.004806897733447106,
      -0.025374404790317814,
      -0.04102382153318992,
      0.03184438474041153,
      0.012131864163443501,
      0.007979630906646638,
      -0.07459090373916376,
      0.010087856532309938,
      -0.035512585202663705,
      -0.031989746210673034,
      0.009670588596173327,
      -0.022469881410017895,
      -0.03378693561285351,
      0.056057225103872343,
      -0.019423460459130577,
      -0.05299154601050271,
      0.03079565457792037,
      -0.0255989932185256,
      -0.016489822054328626,
      -0.0038987612723983397,
      -0.006635926291292522,
      0.03470888763070073,
      0.07983249453118864,
      -0.03466704409949526,
      0.06539522292616083,
      -0.03935696705706576,
      0.024777600751990158,
      -0.002295620541994371,
      0.025619735392413565,
      0.03431650201615879,
      0.009927101535527373,
      -0.005195800309186701,
      0.028892467416108174,
      -0.010338424720412725,
      0.036780065506060264,
      0.016897694098330807,
      -0.009432409673498114,
      0.04127088566627932,
      0.014237018723491486,
      0.01913516143591909,
      -0.019682225391180672,
      0.03668319334542397,
      0.08394047055980719,
      -0.01168474066524465,
      0.009578674828848617,
      -0.022412289508644483,
      0.010139541848058717,
      0.04211022455362085,
      -0.009683223367751528,
      0.017772410958072235,
      -0.010402689174268925,
      -0.04386257753761319,
      -0.008056392135331082,
      0.03259445035250483,
      -0.02697699325465243,
      -0.005796542617418188,
      -0.02695418105500022,
      -0.002964128146907696,
      0.024976085642582788,
      -0.016032742822273252,
      -0.05221563476023406,
      0.010631901647797412,
      -0.027497207245940236,
      -0.02441775731483383,
      0.03282132894498848,
      0.011220292065818087,
      0.01973817453834112,
      0.02115555073646947,
      -0.0009319164395584154,
      0.006811099767447443,
      0.004249852347070458,
      -0.03979251122882161,
      -0.01923308825761154,
      0.01543202086546402,
      -0.05027880136940756,
      -0.024419724666729124,
      -0.02104256569706346,
      -0.03650426623002216,
      -0.017753211912320044,
      -0.039036706686737775,
      0.02226285178701813,
      0.03322201516602316,
      -0.04046937328883206,
      -0.03748378224649372,
      0.014773305065878789,
      -0.031201228395295537,
      -0.0064954236624710365,
      -0.018145272756712374,
      -0.002211864577220328,
      -0.010424626166479677,
      -0.01811999242471522,
      -0.01915659243988125,
      0.04576664092073777,
      0.0072876504657611585,
      0.011897871283844917,
      -0.040814154820536144,
      -0.013931396901168104,
      0.0014292759003123462,
      0.008171370675778406,
      -0.0013309481276419597,
      0.02649257020779651,
      0.009675302664311929,
      0.04152828747723729,
      0.02838272965746263,
      -0.013439697106760483,
      -0.02215640053337923,
      0.05963292082999151,
      0.01085874884621495,
      -0.012454928307642416,
      0.01533016110361959,
      0.0008063838935982032,
      0.028733261092610658,
      -0.0493384854700957,
      -0.00983986010520272,
      -0.04843390692176322,
      -0.02167808544366524,
      0.02017434961226642,
      0.032295871137667534,
      0.012627871844402581,
      0.06200091022866195,
      -0.05723549713189785,
      0.007785943269042493,
      -0.04209432825537701,
      -0.033550489434934355,
      0.015122016857894306,
      0.006206449934732967,
      0.0012650755558372417,
      -0.05847934095751872,
      -0.008046711786593969,
      0.0364215222502422,
      0.0003042098383395954,
      -0.04244190279136965,
      -0.014514522278222058,
      0.0008496419082409043,
      0.021393294386498396,
      -0.02784848552688029,
      0.013151188359894775,
      0.019036525972996175,
      -0.005206704120264409,
      -0.009968944309602011,
      -0.007490252378251273,
      -0.00018881919918575796,
      0.014475038403054169,
      -0.10777722174023324,
      0.007941972487833272,
      0.006989678065015277,
      -0.01608632406439154,
      0.014452654008587841,
      -0.07169696868674764,
      0.005302107450802996,
      0.018943822638495134,
      -0.015658147532645064,
      -0.006722749044542585,
      -0.012274735032694384,
      -0.0675553575426209,
      -0.05559153983364212,
      0.007964624875791498,
      0.016973798645773114,
      0.006958796396299816,
      -0.0012343965273494857,
      0.0243783405086875,
      0.01665251035770713,
      0.07923853457101948,
      -0.016109280798845847,
      -0.018411409746724956,
      -0.03877015392675457,
      -0.02833638810379002,
      0.03463858150301667,
      0.00031555553864352076,
      0.019701360685549393,
      -0.017235549538088136,
      0.007165759841195364,
      -0.023036597293631226,
      0.010921937880463528,
      -0.012100322286994293,
      0.027067795236360548,
      -0.002201985947219173,
      0.0007853604107835588,
      -0.0075733139254467105,
      0.007374015702079045,
      -0.03810858894714335,
      -0.004963762280306164,
      0.012448861104858246,
      0.0008531687276667199,
      0.006319163299342439,
      -0.0316446353201936,
      -0.06977095511003369,
      -0.04734983873283737,
      -0.029846503899165145,
      0.019117256984445392,
      0.018324780223849018,
      -0.01996198565904084,
      0.013928490259657545,
      0.029037348783132,
      -0.019870052057319162,
      -0.042458707703542965,
      0.0017576318820248724,
      -0.02993923325166565,
      0.015803844011052344,
      -0.00555143817820283,
      -0.021548012160908514,
      0.0017789886172331461,
      -0.1042989243525779,
      -0.015433168930263017,
      -0.02173931961334892,
      -0.024470389904762496,
      -0.007982783747657665,
      -0.006199258067733186,
      -0.017485273640589695,
      0.016104048222289356,
      -0.015880191593632402,
      -0.018456038959964054,
      -0.036343028085306504,
      0.00868289286574837,
      0.008265444606443061,
      0.06325876332055204,
      -0.017316017661440447,
      0.011733446283799694,
      -0.04173058777906257,
      0.015542479029001698,
      0.012007017851818028,
      0.019696430222271282,
      0.0026513945149836023,
      -0.01609260911929849,
      -0.022790573256634843,
      -0.04564143973471839,
      0.05151550865917541,
      0.01343096117311162,
      -0.006531352722880718,
      -0.08708642014642104,
      -0.025919381552910653,
      -0.08307381184773731,
      0.03764284487458845,
      -0.021780580573799155,
      0.03078246373243752,
      -0.04929970095154115,
      0.04736990420273163,
      0.015408875646575587,
      0.05822549544242037,
      -0.01730818882683919,
      -0.00726685056801412,
      0.019493630138914718,
      -0.05236150381198616,
      -0.037039310627014446,
      0.03929270428158046,
      -0.001057142712277366,
      -0.05720837863788705,
      0.037669290463990986,
      -0.010204219400784639,
      -0.013344557748574216,
      0.010503310340841045,
      0.011753555912644202,
      0.0038830135697196736,
      -0.016322817308360472,
      0.007143163180556807,
      0.0280285977081956,
      0.032820740167752244,
      0.019862166302296452,
      -0.027753327834945454,
      -0.020529035469728264,
      0.008259107082024226,
      0.008554763198695688,
      0.02497113386761241,
      -0.00701734293855873,
      0.01503687084507011,
      0.041501709064754616,
      0.028072031000577535,
      -0.003930061469628168,
      0.04348595884021775,
      0.013093166159350205,
      -0.012680976772713761,
      0.012819681891365653,
      -0.008935750102004477,
      0.0028215144734904107,
      -0.005075946287852835,
      -0.04444172148662431,
      0.005213993656746636,
      -0.02668160559467193,
      0.004141635482025775,
      -0.0009996779117486393,
      -0.014555883087072188,
      0.019629081803779758,
      -0.006644899042931092,
      0.0030168619000365965,
      0.00830596801870084,
      -0.0065157366891163415,
      0.009292276677570056,
      0.03350609976021385,
      -0.00012105949393505233,
      0.018237222796006588,
      -0.039694836232022995,
      0.01838673148271967,
      -0.003951195946463773,
      -0.00671982819615664,
      0.006343551063723651,
      -0.017312002609814123,
      -0.015376235310592096,
      -0.013292347093017479,
      0.0063047267465921215,
      0.007319228638255987,
      -0.0059813272814864815,
      0.008041220544464024,
      0.0059751265286273544,
      0.04004634659707204,
      0.0032166894279429953,
      -0.037481756149762735,
      0.01646533470341802,
      0.01984569842856123,
      0.012176190108569825,
      -0.0061598320340506135,
      -0.013216063264369464,
      0.03694575308407583,
      -0.01685710788767736,
      0.03875406415757936,
      0.008178086891012654,
      0.04801985232429282,
      -0.009950619156443033,
      0.02391651855426706,
      0.014338409830076029,
      0.02145512189552653,
      -0.006911821381129835,
      -0.014979067834032939,
      -0.021166760813806952,
      -0.00716879954469294,
      -0.010486022358424472,
      -0.03274813085720669,
      -0.06169564099620116,
      -0.014713386701503996,
      0.04971149377836352,
      0.050705108289738655,
      0.01865762854829727,
      0.07458422611472734,
      -0.02322844613364685,
      0.015285174676001032,
      -0.030241928072758002,
      0.005455487702316193,
      -0.001202239061600694,
      -0.0031443200725213808,
      -0.009909508643005167,
      0.031317361194199145,
      0.0033605293536377104,
      -0.014802709189171918,
      -0.013341740527298744,
      0.004835052789575741,
      0.011325766804028923,
      0.042157175347637424,
      0.021638754030858437,
      -0.03541726508806372,
      -0.0005460676217130221,
      -0.027367512311835693,
      -0.0009412557511481812,
      0.04883988357693189,
      -0.0276783099096435,
      0.010545599486250909,
      0.0067295404260375655,
      0.0031331965916656414,
      0.01000959692146574,
      -0.0013284333010498972,
      0.011659400037102977,
      0.031477105335116703,
      -0.02558715853725213,
      0.00030271857689699935,
      -0.016874674493990806,
      -0.005971687434003257,
      -0.002427005393675446,
      0.0050199625501842,
      0.005842864347445714,
      -0.003909896966950727,
      -0.02114055348852109,
      0.005888398014593387,
      -0.005911898665821355,
      0.009302835137876258,
      0.03335404903021651,
      -0.002549516486901403,
      -0.01583084547962748,
      0.0016870284508202563,
      -0.02626542469137601,
      0.009154684387608397,
      0.005075486980894939,
      -0.008433971017612212,
      0.0037966140752567212,
      -0.004192470327649779,
      -0.04066510415434628,
      0.020807617766610755,
      0.027441747866716052,
      -0.04321199480521425,
      0.040904547708047787,
      -0.019263306430449736,
      0.014946451422630323,
      0.004281988994879049,
      -0.008848577617970147,
      0.00747279863801441,
      0.0004561039331910516,
      -0.006829754920412129,
      0.00574434849650881,
      -0.004460549928160771,
      -0.018265816468765038,
      0.013771257166265852,
      0.0055968854085094895,
      -0.01198375720450593,
      0.0012877468194743141,
      0.0008731765099757732,
      0.022308862763107982,
      0.007380196577467791,
      -0.005598417407184267,
      -0.00676056569834417,
      -0.012582004673057822,
      -0.029623460785158262,
      -0.02656413393869442,
      0.004949527769507359,
      0.002331604676177799,
      0.005677905715608757,
      -0.006866131411624017,
      0.01371741093802065,
      0.016804160907309965,
      -0.020820206467419243,
      -0.00687557956923578,
      0.0030770701918930547,
      0.010200829875950966,
      -0.012437310932495407,
      0.014628363372206254,
      0.0015033843429151407,
      -0.01489243085958667,
      -0.0215562553930204,
      0.0273355432644133,
      -0.02228528305076273,
      -0.00010634815171592024,
      0.026289723388040198,
      0.006019051226200757,
      -0.010690746043200335,
      -0.0034037249154155666,
      0.01686474017910841,
      0.0102730459703851,
      0.025552446022938893,
      -0.016669200909301456,
      -0.012463791501862359,
      0.009153381816922032,
      -0.003254054027225603,
      -0.01998492415209406,
      -0.009149743941890434,
      -0.0016184178514526831,
      0.021344126408665176,
      0.007945731630147293,
      0.0024765106393232136,
      0.013520771253035918,
      -0.03228784307458034,
      0.031483721124893026,
      0.0059848053062913804,
      0.012122118879179196,
      -0.013246405765216178,
      0.003982777139911353,
      -0.009874070562171093,
      -0.011145054770856446,
      -0.005354449581231796,
      0.014579438973030226,
      0.025718022144166963,
      -0.004254442311554828,
      -0.013806547548412526,
      -0.005519874516626472,
      0.018648649763785892,
      -0.015154810246449976,
      -0.01925985647778566,
      -0.01077430044523943,
      0.00039908722771809374,
      0.0012783634835547633,
      0.005479668631119445,
      -0.01979205962212639,
      -0.04764009317252832,
      -0.0002476455120731932,
      -0.002186089361383918,
      -0.012756539325604891,
      -0.010590470133991663,
      -0.00772399032162565,
      0.016129476061337134,
      -0.000736892081953662,
      0.01891335524712242,
      -0.017928562671073477,
      0.005205018330753312,
      -0.01732929385202063,
      -0.037645916128664726,
      -0.032451679489656965,
      -0.011050926275841139,
      0.006909406513530645,
      0.013727428144783178,
      0.010723449054640781,
      0.013225095964666422,
      -0.0008884223898952548,
      0.015233618407204337,
      0.0005264388379893972,
      0.027295497018584677,
      -0.013358821723191992,
      0.010486682591594607,
      -0.010306687590156686,
      -0.02002558602898325,
      -0.01589617866539769,
      0.018946137469973694,
      0.0018019832275084462,
      0.004531291519696695,
      0.0158305748415227,
      0.014276252719321387,
      0.015386993927000762,
      -0.027758485362189125,
      0.011013889244645633,
      -0.017343939455056023,
      -0.002689030951175432,
      -0.005391580426702111,
      0.0014207475738893804,
      -0.004899725187515129,
      -0.013290172797144421,
      -0.02009158306721312,
      -0.01120886751629584,
      0.0012945125177462914,
      0.006211159184352041,
      -0.0028786724891831997,
      0.021072239490914864,
      0.009705851186076895,
      9.010931877207959e-05,
      0.006762158932603233,
      -0.0036297327757306985,
      -0.010549856312818857,
      0.0027492041800943005,
      0.003122487907883272,
      -0.004510013518979679,
      0.009493652775080387,
      -0.004823780918604137,
      -0.0007582476150125236,
      0.015925190354025263,
      -0.001847192001400693,
      0.00893505814230673,
      -0.0011608058963057007,
      0.01633235073443035,
      -0.00663323637388281,
      -0.02789491562248059,
      0.0065480646857880515,
      -0.0035596990196246764,
      -0.012359384626134003,
      -0.004245680161050834,
      0.00951673051223112,
      0.002873002084280038,
      -0.006861452378776733,
      0.013874797447905832,
      0.0005027873530498699,
      0.0035275848454288106,
      -0.0014473931732090599,
      0.011885892816023931,
      -0.010463099465875092,
      -0.005679115227279284,
      0.010625001801235025,
      0.03837881048861192,
      0.005025220560476868,
      -0.015331633313387997,
      0.009864836916333386,
      0.0032413621014705934,
      -0.003981000325704486,
      0.011020582205689328,
      0.003706040635034267,
      -0.018459704508398678,
      -0.0033658326291488728,
      -0.00795466195183922,
      -0.007378142025501099,
      -0.00819607378249778,
      -0.002067583667843813,
      -0.0004204744533598138,
      -0.0054497305910192854,
      -0.02528745483926151,
      -0.0005256453734078627,
      0.014646016048363172,
      0.00801838406092421,
      0.006906023027462821,
      -0.002822104246454937,
      0.0047808489108668055,
      -0.01164515592781543,
      0.0027606862350403744,
      -0.003247084222798388,
      0.013733828037969461,
      -0.0037175944108067734,
      0.005009303658015683,
      -0.0005273061101553136,
      -0.01397449906773013,
      -0.0023490528606474907,
      -0.003994802956945841,
      -0.003946546957487692,
      0.020293887379728696,
      0.0028956350162445653,
      0.040795173122493485,
      -0.002101392224179738,
      0.003219785893478662,
      -0.0012294142936503283,
      -0.030272199893042105,
      0.017577540214475815,
      0.009650249231190684,
      0.0127730505386991,
      0.004598716909060795,
      -0.0015746567388870668,
      -0.000140255937346144,
      0.0036202772656051575,
      -0.01189480242008904,
      0.009797507530665658,
      -0.013255417072352366,
      -0.003767311879349231,
      -0.0010247179318556149,
      0.0038817188245408897,
      -0.005716467417960478,
      0.0036051620127557134,
      0.018100344485463694,
      -0.00852068164521378
    ],
    [
      0.04057293012475538,
      0.013818760730352417,
      -0.01267149384903389,
      -0.026190688095986306,
      -0.06149763843867199,
      -0.009896050849949205,
      -0.0883658498167452,
      0.07034751443720869,
      -0.03950472400181487,
      -0.02202812416702777,
      -0.0038622319438817443,
      -0.01781136613246989,
      -0.05150010450527698,
      0.0035553756722303924,
      -0.019978198183764926,
      -0.017116834737284974,
      -0.0106946793538078,
      -0.035803848965313634,
      0.008747235609875084,
      0.008747235609875084,
      -0.023459268679027534,
      0.07416619240898127,
      0.04011408267252292,
      0.004628112009639342,
      -0.01932423707944754,
      0.019551157954771976,
      0.04805582632461964,
      0.004763985677156739,
      0.08478053064965671,
      0.03632915686313784,
      -0.014521092817054,
      0.022943720195997247,
      -0.0031395900952710908,
      0.013593115615758267,
      -0.0379191441422455,
      -0.08027264913469306,
      0.027703157942795528,
      -0.033219866982652786,
      0.05806752900981854,
      -0.007256236487445,
      0.054726792229934366,
      0.019481019197449254,
      -0.009664232168334216,
      -0.1271990200358044,
      -0.06036166917952003,
      -0.007769236009334365,
      0.014059141758044187,
      0.0020922114561580003,
      -0.04077328382426808,
      0.08092669413619472,
      0.032223359928330066,
      0.08630882857640225,
      0.07850254404347301,
      -0.0377455406809898,
      -0.021431768648161965,
      -0.03134537659569117,
      0.006208342923534182,
      0.008521720489533278,
      0.008271921515889163,
      0.026493528471377134,
      -0.008060025573557346,
      -0.0009748546030613862,
      0.09793712071282457,
      -0.023763947085721306,
      -0.009559489778455776,
      0.005803040511728856,
      0.05397790797896704,
      0.00452666752602876,
      -0.0159001705126575,
      -0.04856293090189326,
      0.04091774316760994,
      -0.03654250499810083,
      -0.03953223117512727,
      0.04175105517976651,
      0.031645076647502914,
      0.0008769250842799448,
      -0.06095408788773783,
      0.04220705686719431,
      0.03161261547929166,
      -0.01624367497120115,
      0.027530864126199435,
      0.07098234461154948,
      -0.03347247772191613,
      0.010333236975547683,
      0.026686789421410315,
      -0.0015183571230942133,
      0.024920198826098236,
      -0.03238845273979399,
      -0.03919439339678336,
      0.012642299104461421,
      0.028295040095201757,
      -0.010410817652158531,
      -0.008836515145462416,
      -0.012698740700825203,
      -0.032671655894968274,
      0.027451061219728207,
      -0.07736148870454736,
      0.03420782483341663,
      0.0139474103863143,
      0.01887278218559147,
      -0.029722056139286378,
      0.044896142448562125,
      0.0063874039825549695,
      0.002980729736401306,
      0.07573265318505075,
      0.002741000835267686,
      0.02651592609781385,
      -0.033339865353542796,
      -0.02456051978663354,
      -0.02851339894047189,
      0.02070878514006237,
      -0.031045775537721816,
      0.058092361830989925,
      0.030600107752656272,
      0.035261897735112915,
      0.026087413580184758,
      -0.06705508530189183,
      0.01985759215778938,
      0.03554923879285042,
      -0.021214708591319235,
      0.009310421498436527,
      0.010185972773898466,
      -0.010933813763665208,
      -0.04196845937286521,
      -0.008207388308300485,
      0.010151616638992195,
      -0.001167247445919433,
      -0.06304124101581171,
      0.01967466910155006,
      0.019699257422373016,
      -0.054353516752680645,
      -0.04984754574027689,
      -0.010040992433722397,
      -0.03438321068903661,
      -0.03278997007464407,
      -0.0304747787152291,
      -0.08690006037484432,
      0.013259022706113177,
      -0.003792257311546629,
      -0.0076511654378811755,
      -0.02765938670832363,
      0.024475406289963468,
      -0.04448275236914994,
      0.0038868738487079432,
      0.038320878970821884,
      0.041784160785612846,
      -0.01681430446331906,
      -0.05213442586571734,
      0.030698239467704093,
      -0.003921795926229096,
      0.0006830602540086467,
      -0.058800242885345834,
      -0.04359477510565927,
      -0.05291938717934814,
      -0.05479213914684555,
      -0.05073122808369981,
      -0.03545446183076102,
      0.024632580122130467,
      -0.03304966807151715,
      0.004451395390641516,
      -0.010733768443786477,
      0.020377296058137304,
      -0.03834570831829516,
      0.04214858891052079,
      0.017490309715995536,
      -0.03160559757768231,
      0.007754490581030768,
      0.005975036130359539,
      0.006333791227095032,
      0.027536117079281164,
      0.0025813276876765073,
      0.00023000558425353805,
      0.013588514076947542,
      -0.016330327065366378,
      0.026420947226869926,
      0.02471703379965308,
      0.021101500398969443,
      0.0051648280550368325,
      0.005469760923019171,
      -0.01642781519183627,
      0.017678986854998954,
      -0.01638435404941775,
      0.07418297817812872,
      -0.02232434783424153,
      0.0605027480705295,
      -0.09967170297940207,
      0.030125858364811037,
      -0.02325787896291141,
      -0.018833880042542293,
      -0.023339857159591214,
      0.03998023483494749,
      -0.010616240796691493,
      0.014833316459785435,
      -0.03698587445349533,
      0.014681014357646287,
      -0.00968432434797064,
      -0.009699306081658572,
      0.0756509988504419,
      0.051176507715899766,
      0.0049113754420574765,
      0.021507270272968892,
      -0.028665318551053698,
      0.05993057185318012,
      -0.08356612371088816,
      -0.03705706018486148,
      -0.01514830900043462,
      0.06526097626427213,
      -0.0416032586653943,
      -0.054216808210061765,
      -0.0643497376280884,
      -0.03202746927377408,
      0.008937397822377388,
      -0.008385015683032376,
      -0.016197580159382788,
      0.020756623084856644,
      -0.026587078058117906,
      0.02685184564871729,
      0.011375645838750245,
      0.01810489379544821,
      0.07369046164216538,
      -0.011870867616511247,
      0.012585333693149334,
      -0.1312528898668907,
      -0.012021346646822598,
      0.06381721502343475,
      -0.05758698445078099,
      -0.03044630410080769,
      -0.011395407290763188,
      0.00566770526030254,
      -0.011146603633615235,
      -0.027886217652381133,
      0.036223315142897,
      0.04806792346303801,
      0.004923214809116151,
      -0.004834644450143416,
      -0.06297627784179019,
      0.0046479623761544915,
      -0.06644916157317679,
      -0.024082075654264436,
      0.01874724913267379,
      0.05870974728278252,
      0.00047157286816888744,
      0.07712982325202493,
      0.09268975841257117,
      0.01398452216437691,
      0.03857110236351116,
      0.0001439222242056032,
      -0.009356308647341355,
      -0.006667180898874817,
      0.03545884644169728,
      0.04654746424579453,
      0.0519240618346069,
      0.011758554774849385,
      0.005153658498964106,
      -0.002827631638053843,
      0.041095188191827635,
      -0.024116197441123803,
      -0.03252232232221053,
      -0.05143700737144001,
      0.013013181620239365,
      0.006309313802775872,
      0.09146222372948933,
      -0.04989206703789351,
      0.0016954628568514284,
      0.05230430514536,
      0.001443744894145992,
      -0.03445143221312591,
      0.01456422514939668,
      0.0024171416744663554,
      0.006706991894317213,
      0.05990804441912076,
      -0.06812910200150131,
      0.014492710431675875,
      0.06027114475180356,
      -0.022382082030098074,
      0.0431872155529816,
      -0.04546380292915324,
      0.004752348928982658,
      -0.02273786888939966,
      -0.09983397968311855,
      -0.015491955638785611,
      -0.11338549412594201,
      -0.09716301523418461,
      -0.0909498250362113,
      0.031104761928297843,
      0.012786114282900139,
      -0.010830012856591062,
      0.024052318653225373,
      -0.01907382369800931,
      -0.02687083100707726,
      0.020091318130306075,
      0.03594572548348042,
      0.01261746613204879,
      0.0034811332550809815,
      0.02182919541914595,
      -0.07982821888482505,
      0.03163952711977724,
      0.01181030567991316,
      0.019990062048036623,
      -0.03725660670275246,
      0.038329872363860165,
      0.027445648142522365,
      0.028773046691913398,
      0.004128494163794554,
      0.041643665286752236,
      0.04704986394473974,
      0.013115194337331881,
      -0.04929350122263089,
      0.05548555559154477,
      0.028246839299823294,
      0.15452714984654276,
      0.01401860742934525,
      0.002903036393097502,
      0.0853496778752784,
      -0.04914039849773246,
      0.030425576335428656,
      0.021752920905420532,
      0.005750797962791139,
      0.09867777041270721,
      -0.03266827060521062,
      -0.03732666824538283,
      -0.056137700881229144,
      -0.018291258912691476,
      0.0269548913288518,
      0.02809925100949048,
      -0.009454460759651284,
      -0.0898505776916777,
      -0.03403832652956147,
      -0.0328330995063901,
      0.015008309941676613,
      -0.007919493790849563,
      0.07157098277209906,
      -0.048865031444970584,
      -0.017972257806132576,
      0.02186056993274741,
      0.0015268120536461923,
      -0.018986583674096176,
      0.00042380291824507636,
      -0.021180447362589228,
      0.04468150687863927,
      0.0335574274382239,
      0.04556784617412572,
      -0.022308004313103206,
      0.00989840562661293,
      0.04118889858460046,
      -0.008086330364518592,
      0.0016152749648130921,
      0.04405928784568752,
      -0.0012409479025113999,
      0.03928859368294578,
      0.005209766021586952,
      -0.03489660473104249,
      -0.039065679277511194,
      -0.040637208308346474,
      0.013363997036437876,
      0.009938635525209072,
      0.020956409485869125,
      -0.07263268396918185,
      -0.05842842308834368,
      0.000827470821656788,
      0.00437792428522063,
      0.04296313282826473,
      0.01879007166706627,
      0.020736986519173217,
      0.014568230240807719,
      0.022005369592985415,
      0.03125528583086223,
      0.029065765894593656,
      0.00648242620502415,
      -0.003444830427715947,
      -0.009267402037139216,
