{
  "num_kernels": 84,
  "num_dilations": 9,
  "num_features": 840,
  "num_classes": 6,
  "time_series_length": 3750,
  "kernel_indices": [
    [
      0,
      1,
      2
    ],
    [
      0,
      1,
      3
    ],
    [
      0,
      1,
      4
    ],
    [
      0,
      1,
      5
    ],
    [
      0,
      1,
      6
    ],
    [
      0,
      1,
      7
    ],
    [
      0,
      1,
      8
    ],
    [
      0,
      2,
      3
    ],
    [
      0,
      2,
      4
    ],
    [
      0,
      2,
      5
    ],
    [
      0,
      2,
      6
    ],
    [
      0,
      2,
      7
    ],
    [
      0,
      2,
      8
    ],
    [
      0,
      3,
      4
    ],
    [
      0,
      3,
      5
    ],
    [
      0,
      3,
      6
    ],
    [
      0,
      3,
      7
    ],
    [
      0,
      3,
      8
    ],
    [
      0,
      4,
      5
    ],
    [
      0,
      4,
      6
    ],
    [
      0,
      4,
      7
    ],
    [
      0,
      4,
      8
    ],
    [
      0,
      5,
      6
    ],
    [
      0,
      5,
      7
    ],
    [
      0,
      5,
      8
    ],
    [
      0,
      6,
      7
    ],
    [
      0,
      6,
      8
    ],
    [
      0,
      7,
      8
    ],
    [
      1,
      2,
      3
    ],
    [
      1,
      2,
      4
    ],
    [
      1,
      2,
      5
    ],
    [
      1,
      2,
      6
    ],
    [
      1,
      2,
      7
    ],
    [
      1,
      2,
      8
    ],
    [
      1,
      3,
      4
    ],
    [
      1,
      3,
      5
    ],
    [
      1,
      3,
      6
    ],
    [
      1,
      3,
      7
    ],
    [
      1,
      3,
      8
    ],
    [
      1,
      4,
      5
    ],
    [
      1,
      4,
      6
    ],
    [
      1,
      4,
      7
    ],
    [
      1,
      4,
      8
    ],
    [
      1,
      5,
      6
    ],
    [
      1,
      5,
      7
    ],
    [
      1,
      5,
      8
    ],
    [
      1,
      6,
      7
    ],
    [
      1,
      6,
      8
    ],
    [
      1,
      7,
      8
    ],
    [
      2,
      3,
      4
    ],
    [
      2,
      3,
      5
    ],
    [
      2,
      3,
      6
    ],
    [
      2,
      3,
      7
    ],
    [
      2,
      3,
      8
    ],
    [
      2,
      4,
      5
    ],
    [
      2,
      4,
      6
    ],
    [
      2,
      4,
      7
    ],
    [
      2,
      4,
      8
    ],
    [
      2,
      5,
      6
    ],
    [
      2,
      5,
      7
    ],
    [
      2,
      5,
      8
    ],
    [
      2,
      6,
      7
    ],
    [
      2,
      6,
      8
    ],
    [
      2,
      7,
      8
    ],
    [
      3,
      4,
      5
    ],
    [
      3,
      4,
      6
    ],
    [
      3,
      4,
      7
    ],
    [
      3,
      4,
      8
    ],
    [
      3,
      5,
      6
    ],
    [
      3,
      5,
      7
    ],
    [
      3,
      5,
      8
    ],
    [
      3,
      6,
      7
    ],
    [
      3,
      6,
      8
    ],
    [
      3,
      7,
      8
    ],
    [
      4,
      5,
      6
    ],
    [
      4,
      5,
      7
    ],
    [
      4,
      5,
      8
    ],
    [
      4,
      6,
      7
    ],
    [
      4,
      6,
      8
    ],
    [
      4,
      7,
      8
    ],
    [
      5,
      6,
      7
    ],
    [
      5,
      6,
      8
    ],
    [
      5,
      7,
      8
    ],
    [
      6,
      7,
      8
    ]
  ],
  "dilations": [
    1,
    3,
    7,
    15,
    30,
    60,
    119,
    236,
    468
  ],
  "num_features_per_dilation": [
    2,
    1,
    1,
    1,
    1,
    1,
    1,
    1,
    1
  ],
  "biases": [
    0.011305115185678005,
    -0.03757675737142563,
    0.03956325724720955,
    -0.0025147635024040937,
    -0.03136377036571503,
    0.009066225029528141,
    -0.008789407089352608,
    0.061262570321559906,
    0.0008950858609750867,
    -0.011120906099677086,
    0.003914763685315847,
    -0.0004958870122209191,
    -0.1421719193458557,
    0.024324100464582443,
    -0.005230586510151625,
    0.011764413677155972,
    -0.0016295516397804022,
    -0.059831392019987106,
    0.015511431731283665,
    -0.006474112626165152,
    0.0281640887260437,
    0.0012366584269329906,
    -0.013334397226572037,
    0.01419445313513279,
    -0.0011637606658041477,
    -0.030940450727939606,
    0.0053113903850317,
    -0.01042800024151802,
    0.007626470178365707,
    0.0003615653549786657,
    -0.009191710501909256,
    0.005346713587641716,
    -0.0045897769741714,
    -0.054842960089445114,
    0.002213329542428255,
    -0.005245660897344351,
    0.05761246010661125,
    -0.0003721976827364415,
    -0.01504538394510746,
    0.003023638855665922,
    -0.0027187506202608347,
    0.017169121652841568,
    0.0021816203370690346,
    -0.013914366252720356,
    0.005756697617471218,
    -0.0009440003195777535,
    -0.06740280240774155,
    0.014150380156934261,
    -0.0017715381691232324,
    0.004916240926831961,
    0.00022048053506296128,
    -0.0035546489525586367,
    0.012239499017596245,
    -0.005410403944551945,
    0.050330936908721924,
    0.003031527390703559,
    -0.002919925842434168,
    0.004663372412323952,
    -0.0002234441926702857,
    -0.01798289082944393,
    0.00392944784834981,
    -0.0036032467614859343,
    0.00786046776920557,
    0.0006316028302535415,
    -0.006371162366122007,
    0.0053024631924927235,
    -0.0017298435559496284,
    -0.08185873180627823,
    0.009986301884055138,
    -0.021520361304283142,
    0.01782400719821453,
    -0.00035564281279221177,
    -0.003902312135323882,
    0.001876882859505713,
    -0.009707586839795113,
    0.04808330908417702,
    0.005732078105211258,
    -0.020854827016592026,
    0.004191097337752581,
    -0.0005572300287894905,
    -0.016466839239001274,
    0.0023597711697220802,
    -0.0034542183857411146,
    0.012321585789322853,
    -0.00018879260460380465,
    -0.013685191050171852,
    0.005565973464399576,
    -0.001945024007000029,
    -0.04440947622060776,
    0.0012328475713729858,
    -0.014703569933772087,
    0.021170273423194885,
    -0.00022349464416038245,
    -0.008178511634469032,
    0.025212213397026062,
    -0.020455950871109962,
    0.0527745820581913,
    0.004621848464012146,
    -0.04644642025232315,
    0.04450131207704544,
    -0.003916751127690077,
    -0.06288795918226242,
    0.004290883429348469,
    -0.01378133799880743,
    0.026797989383339882,
    9.699664224172011e-05,
    -0.012400957755744457,
    0.006774034816771746,
    -0.006424373015761375,
    0.11171364039182663,
    0.0008430464658886194,
    -0.0032865568064153194,
    0.008791585452854633,
    -0.0009488470968790352,
    -0.09103599190711975,
    0.015785980969667435,
    -0.0015010000206530094,
    0.004810223821550608,
    0.0005700919427908957,
    -0.0046977391466498375,
    0.011853841133415699,
    -0.0018368493765592575,
    -0.01775614731013775,
    0.0012269973522052169,
    -0.002072466304525733,
    0.0036663750652223825,
    0.0015502963215112686,
    -0.05786848068237305,
    0.008291546255350113,
    -0.004673403222113848,
    0.00451764278113842,
    0.00046673245378769934,
    -0.005086213815957308,
    0.006500255316495895,
    -0.0024314557667821646,
    -0.13093140721321106,
    0.012851999141275883,
    -0.0176530834287405,
    0.004175310023128986,
    0.00018427714530844241,
    -0.013812055811285973,
    0.007336500100791454,
    -0.0011546516325324774,
    0.1342376321554184,
    0.0009507318027317524,
    -0.0022458729799836874,
    0.03078705631196499,
    -0.0006480799056589603,
    -0.014188156463205814,
    0.002553654834628105,
    -0.00720977783203125,
    0.05893727019429207,
    0.001435766345821321,
    -0.023149365559220314,
    0.00876638200134039,
    -0.001319000031799078,
    -0.04355556145310402,
    0.0058319102972745895,
    -0.0023585017770528793,
    0.005541554652154446,
    0.0011075182119384408,
    -0.04094047471880913,
    0.005721608642488718,
    -0.0022543729282915592,
    0.06007099524140358,
    0.0024133343249559402,
    -0.03395107761025429,
    0.03625507280230522,
    -0.0011349995620548725,
    -0.034290049225091934,
    0.0026294460985809565,
    -0.00782264955341816,
    0.0377253033220768,
    0.0011411990271881223,
    -0.018532052636146545,
    0.007063492201268673,
    -0.017910657450556755,
    -0.10901883244514465,
    0.0014708092203363776,
    -0.0037696079816669226,
    0.005110643338412046,
    -0.00020010056323371828,
    -0.03645900636911392,
    0.021228982135653496,
    -0.003187513677403331,
    0.0383271723985672,
    0.00438228715211153,
    -0.022407513111829758,
    0.0037826199550181627,
    -0.0028402102179825306,
    -0.02629101276397705,
    0.004568431526422501,
    -0.003458905965089798,
    0.031227348372340202,
    0.0001799996680347249,
    -0.008464529179036617,
    0.0039002771954983473,
    -0.009394686669111252,
    0.030811160802841187,
    0.0032329619862139225,
    -0.0033463172148913145,
    0.018141858279705048,
    -0.004031522665172815,
    -0.1795399785041809,
    0.004519371315836906,
    -0.0030671681743115187,
    0.05540791526436806,
    0.00029496033675968647,
    -0.01218399964272976,
    0.01645692251622677,
    -0.004548199009150267,
    -0.05089235305786133,
    0.0014030355960130692,
    -0.01945498399436474,
    0.01891995780169964,
    2.2000183889758773e-05,
    -0.032230351120233536,
    0.0022519996855407953,
    -0.0021808091551065445,
    0.095231793820858,
    0.005280246492475271,
    -0.0034146071411669254,
    0.008976101875305176,
    -0.002276559127494693,
    -0.03207075223326683,
    0.0030747794080525637,
    -0.005246303975582123,
    0.05881515145301819,
    0.0004601586551871151,
    -0.046720635145902634,
    0.004917237441986799,
    -0.0009332547197118402,
    -0.04145465046167374,
    0.0052495431154966354,
    -0.008701571263372898,
    0.008672984316945076,
    -0.00012476487609092146,
    -0.008177299052476883,
    0.0028925163205713034,
    -0.00227900012396276,
    0.06710439175367355,
    0.0006500000599771738,
    -0.006730471737682819,
    0.025022540241479874,
    -0.0010058388579636812,
    -0.035011958330869675,
    0.0010183276608586311,
    -0.0020296627189964056,
    0.006975117605179548,
    0.0002267112140543759,
    -0.040209073573350906,
    0.0030659998301416636,
    -0.001733617391437292,
    0.05726173147559166,
    0.003144612768664956,
    -0.0030249999836087227,
    0.023062843829393387,
    -0.0014934113714843988,
    -0.0094821872189641,
    0.002460450166836381,
    -0.011401703581213951,
    0.06788334995508194,
    0.001664435025304556,
    -0.03277365118265152,
    0.0036884925793856382,
    -0.008254491724073887,
    -0.0866277664899826,
    0.002979833399876952,
    -0.0024673938751220703,
    0.0468013770878315,
    -7.423083297908306e-05,
    -0.016993019729852676,
    0.006719337776303291,
    -0.004125088918954134,
    0.01897301711142063,
    0.0019154041074216366,
    -0.003466350957751274,
    0.01393711008131504,
    -0.0015957413706928492,
    -0.028690563514828682,
    0.0015686550177633762,
    -0.011232325807213783,
    0.022332027554512024,
    0.0002519998815841973,
    -0.02431793510913849,
    0.006322476081550121,
    -0.003220590529963374,
    0.03211894631385803,
    0.007607446983456612,
    -0.0018138005398213863,
    0.008053713478147984,
    -0.0007324971375055611,
    -0.014088583178818226,
    0.010954716242849827,
    -0.002800318878144026,
    0.010018469765782356,
    0.0010801953030750155,
    -0.040606144815683365,
    0.015676632523536682,
    -0.0013586909044533968,
    -0.14739173650741577,
    0.007024534046649933,
    -0.0018842893186956644,
    0.00701283710077405,
    2.79941796179628e-05,
    -0.00828735064715147,
    0.007703789975494146,
    -0.002067877911031246,
    0.017235638573765755,
    0.0008088427712209523,
    -0.01927817612886429,
    0.008138683624565601,
    -0.00035199974081479013,
    -0.05760752037167549,
    0.01455766148865223,
    -0.002192044397816062,
    0.03469342738389969,
    0.0014519692631438375,
    -0.007655933033674955,
    0.0023620182182639837,
    -0.0011599749559536576,
    -0.09662922471761703,
    0.012672263197600842,
    -0.0037405199836939573,
    0.015458625741302967,
    -0.00040178431663662195,
    -0.026425927877426147,
    0.004942544270306826,
    -0.0016111960867419839,
    0.05524822697043419,
    0.00075771618867293,
    -0.036202654242515564,
    0.010157112032175064,
    -0.00292811612598598,
    -0.043526824563741684,
    0.01106649823486805,
    -0.01347571611404419,
    0.016522247344255447,
    0.0001831955451052636,
    -0.015337366610765457,
    0.0018964273622259498,
    -0.013956761918962002,
    0.043855246156454086,
    0.0003841752477455884,
    -0.003619995666667819,
    0.009490995667874813,
    -0.001040730276145041,
    -0.041590891778469086,
    0.0029355776496231556,
    -0.004516420885920525,
    0.02010461501777172,
    0.0003191711148247123,
    -0.040390245616436005,
    0.003929027356207371,
    -0.0010052003199234605,
    -0.010311190038919449,
    0.011354013346135616,
    -0.0019146261038258672,
    0.00872221402823925,
    -2.389567634963896e-05,
    -0.030560191720724106,
    0.0031054120045155287,
    -0.018857160583138466,
    0.079676054418087,
    0.001062439871020615,
    -0.01594408042728901,
    0.00516512431204319,
    -0.0028017014265060425,
    -0.02647215686738491,
    0.002065972425043583,
    -0.01332416757941246,
    0.042690034955739975,
    0.000693088979460299,
    -0.004817754961550236,
    0.01470149401575327,
    -0.0012142867781221867,
    0.07337605953216553,
    0.000931563030462712,
    -0.01499814260751009,
    0.03013085015118122,
    -0.00019340896687936038,
    -0.0441284105181694,
    0.0032062185928225517,
    -0.001370763871818781,
    0.051855288445949554,
    0.0005292751593515277,
    -0.01975070685148239,
    0.011124532669782639,
    -0.0006586702656932175,
    -0.045732755213975906,
    0.0065635317005217075,
    -0.0047373054549098015,
    0.0146338464692235,
    0.00016170309390872717,
    -0.049975261092185974,
    0.013302854262292385,
    -0.0012125181965529919,
    0.06302861869335175,
    0.0007627599989064038,
    -0.003300230484455824,
    0.040198247879743576,
    -0.006312444340437651,
    -0.007312842179089785,
    0.004656229168176651,
    -0.003759367624297738,
    0.029885554686188698,
    0.0016488356050103903,
    -0.005391999613493681,
    0.0033078547567129135,
    -0.00499745225533843,
    -0.06868679076433182,
    0.0031908282544463873,
    -0.003447215771302581,
    0.04251551255583763,
    9.082176256924868e-05,
    -0.016487734392285347,
    0.01662837713956833,
    -0.00224506133235991,
    0.07581035792827606,
    0.011473449878394604,
    -0.06645754724740982,
    0.0033538376446813345,
    -0.00021802714036311954,
    -0.10158306360244751,
    0.015347294509410858,
    -0.003680782625451684,
    0.03182737156748772,
    -7.463352085324004e-05,
    -0.02174900472164154,
    0.004308155272156,
    -0.002361814957112074,
    0.06529305875301361,
    0.004215366672724485,
    -0.04408293962478638,
    0.01347119640558958,
    -0.0006368916365318,
    -0.052401840686798096,
    0.011156715452671051,
    -0.0077348072081804276,
    0.08382408320903778,
    0.0012452510418370366,
    -0.01078474335372448,
    0.0031429282389581203,
    -0.0036026316229254007,
    -0.1189185380935669,
    0.0028122016228735447,
    -0.002290146891027689,
    0.030505552887916565,
    0.0008013132610358298,
    -0.01053652074187994,
    0.0034952510613948107,
    -0.003333290806040168,
    0.08371857553720474,
    0.001159278443083167,
    -0.024064894765615463,
    0.05028693750500679,
    -0.00038269333890639246,
    -0.01699494756758213,
    0.0015779768582433462,
    -0.0023696692660450935,
    0.02058144472539425,
    0.008639935404062271,
    -0.018373554572463036,
    0.00198486284352839,
    -0.0011249999515712261,
    -0.036886073648929596,
    0.0008290043915621936,
    -0.022827869281172752,
    0.0038692988455295563,
    0.00012742829858325422,
    -0.027646124362945557,
    0.006572239566594362,
    -0.001487000030465424,
    0.01985720917582512,
    0.0012848102487623692,
    -0.002529770601540804,
    0.027999307960271835,
    -0.0015879995189607143,
    -0.056221358478069305,
    0.001437616883777082,
    -0.0035322040785104036,
    0.0050444221124053,
    0.001642000861465931,
    -0.007554949726909399,
    0.018308572471141815,
    -0.005643260199576616,
    0.20019923150539398,
    0.001235593343153596,
    -0.0027801760006695986,
    0.02965306118130684,
    -0.00010412379924673587,
    -0.010181454010307789,
    0.0016922920476645231,
    -0.0057643442414700985,
    0.049760982394218445,
    0.004494413733482361,
    -0.004281316418200731,
    0.00549815921112895,
    -0.0007312976522371173,
    -0.11672136187553406,
    0.016231413930654526,
    -0.04066530242562294,
    0.05497640371322632,
    -0.00046425190521404147,
    -0.058161038905382156,
    0.011405224911868572,
    -0.002777331043034792,
    0.06437671184539795,
    0.0016221406403928995,
    -0.003934652078896761,
    0.035365696996450424,
    -0.0077110277488827705,
    -0.04435195401310921,
    0.006630375050008297,
    -0.012220586650073528,
    0.02367471531033516,
    0.001001188182272017,
    -0.02347019873559475,
    0.0037226728163659573,
    -0.009287680499255657,
    0.400256484746933,
    0.00515657477080822,
    -0.009606783278286457,
    0.004309752490371466,
    -0.0019918393809348345,
    -0.056177642196416855,
    0.009919192641973495,
    -0.0025263887364417315,
    0.025061778724193573,
    0.00498198950663209,
    -0.013483673334121704,
    0.007664467673748732,
    -0.0004120002267882228,
    -0.06843238323926926,
    0.004652751609683037,
    -0.01704174466431141,
    0.019854119047522545,
    -0.00018599977192934602,
    -0.05881505832076073,
    0.007155710831284523,
    -0.005771739408373833,
    0.06611471623182297,
    0.004826466087251902,
    -0.011870624497532845,
    0.008724311366677284,
    -0.002475893124938011,
    -0.1409934014081955,
    0.003876328468322754,
    -0.0028420884627848864,
    0.02885122410953045,
    0.0005455774371512234,
    -0.005017576273530722,
    0.01931542344391346,
    -0.008003896102309227,
    -0.14633214473724365,
    0.0015099984593689442,
    -0.0025622528046369553,
    0.021606458351016045,
    -0.00021039227431174368,
    -0.05827302113175392,
    0.022608887404203415,
    -0.007084225304424763,
    0.03313692286610603,
    0.0016240003751590848,
    -0.019797999411821365,
    0.0032466675620526075,
    -0.0035314455162733793,
    -0.012068483047187328,
    0.008908087387681007,
    -0.003271655645221472,
    0.03817290812730789,
    0.00035303091863170266,
    -0.007010406814515591,
    0.032836463302373886,
    -0.004160070791840553,
    0.1258721798658371,
    0.001740874839015305,
    -0.0156317837536335,
    0.014737655408680439,
    -0.0011377389309927821,
    -0.007101097609847784,
    0.01063678227365017,
    -0.017434576526284218,
    0.062265414744615555,
    0.0058366949670016766,
    -0.020413760095834732,
    0.005208420567214489,
    -0.0010303768794983625,
    -0.1735825538635254,
    0.027032040059566498,
    -0.0063400003127753735,
    0.018885839730501175,
    -0.0007458221516571939,
    -0.040427111089229584,
    0.028186213225126266,
    -0.006930766627192497,
    0.07312889397144318,
    0.0014335421146824956,
    -0.003082065610215068,
    0.03929503262042999,
    -0.007342744152992964,
    -0.053171150386333466,
    0.007282605394721031,
    -0.018369080498814583,
    0.04248841106891632,
    0.0031916857697069645,
    -0.03848296031355858,
    0.004900973290205002,
    -0.007967346347868443,
    -0.12733058631420135,
    0.007659129332751036,
    -0.02626079134643078,
    0.03578118234872818,
    -0.0017295659054070711,
    -0.02940540574491024,
    0.002018024679273367,
    -0.0008489999454468489,
    0.12596043944358826,
    0.006061832886189222,
    -0.005544672720134258,
    0.02191753312945366,
    -0.005988631397485733,
    -0.09321602433919907,
    0.002978401491418481,
    -0.0028009999077767134,
    0.01692739501595497,
    -0.0001070910002454184,
    -0.029708437621593475,
    0.006380410399287939,
    -0.007902000099420547,
    0.052787333726882935,
    0.007691735401749611,
    -0.008051173761487007,
    0.005777821876108646,
    -0.004497080110013485,
    -0.037772007286548615,
    0.011755116283893585,
    -0.010663987137377262,
    0.04801502078771591,
    0.0034864062909036875,
    -0.019379857927560806,
    0.029761504381895065,
    -0.0016495233867317438,
    -0.027322620153427124,
    0.0016071563586592674,
    -0.01513106282800436,
    0.030316226184368134,
    -0.0025113592855632305,
    -0.030121104791760445,
    0.009569651447236538,
    -0.0014063253765925765,
    0.0498567596077919,
    0.001774309086613357,
    -0.01624906249344349,
    0.01766093447804451,
    -0.008113261312246323,
    -0.04078734293580055,
    0.013814611360430717,
    -0.025547269731760025,
    0.058331772685050964,
    0.0006152288406156003,
    -0.06189608946442604,
    0.024722052738070488,
    -0.0035669703502207994,
    0.05913596227765083,
    0.009072737768292427,
    -0.016241855919361115,
    0.0937657281756401,
    -0.00030369547312147915,
    -0.05783599242568016,
    0.01322078611701727,
    -0.015842001885175705,
    0.051275745034217834,
    0.004748491570353508,
    -0.024874694645404816,
    0.020913852378726006,
    -0.007195665501058102,
    -0.04250238090753555,
    0.006412188988178968,
    -0.011644735001027584,
    0.018125019967556,
    0.001864369958639145,
    -0.0561082623898983,
    0.015134245157241821,
    -0.0011530885240063071,
    0.06955061852931976,
    0.00220294832251966,
    -0.04055536165833473,
    0.04325114190578461,
    0.0005745268426835537,
    -0.07795187085866928,
    0.012584201991558075,
    -0.009513571858406067,
    0.030078794807195663,
    0.0049398476257920265,
    -0.03627120703458786,
    0.02020532451570034,
    -0.0003834220115095377,
    -0.10886011272668839,
    0.002091193338856101,
    -0.007638086564838886,
    0.02834000252187252,
    0.0011237500002607703,
    -0.03429494425654411,
    0.013075546361505985,
    -0.015093237161636353,
    0.055329516530036926,
    0.0033446713350713253,
    -0.00897795520722866,
    0.023379545658826828,
    -0.0030967991333454847,
    -0.03242388740181923,
    0.020598329603672028,
    -0.003741814522072673,
    0.03292038291692734,
    0.0011702486081048846,
    -0.040651239454746246,
    0.010281793773174286,
    -0.012360850349068642,
    0.050234902650117874,
    0.0016063563525676727,
    -0.03346338868141174,
    0.015299134887754917,
    -0.0008910626056604087,
    -0.03554592654109001,
    0.020731261000037193,
    -0.00396448839455843,
    0.02424609661102295,
    0.003804177278652787,
    -0.0231323279440403,
    0.015670109540224075,
    -0.0065437061712145805,
    -0.04687175527215004,
    0.0036975841503590345,
    -0.009075097739696503,
    0.032293904572725296,
    -9.132769628195092e-05,
    -0.04524749517440796,
    0.017131498083472252,
    -0.011168102733790874,
    0.04848145693540573,
    0.004680735059082508,
    -0.005636995192617178,
    0.03506923466920853,
    -0.004657937213778496,
    -0.07856537401676178,
    0.011122430674731731,
    -0.011749496683478355,
    0.05600505694746971,
    0.006396014709025621,
    -0.007555690594017506,
    0.014408692717552185,
    -0.006813333369791508,
    0.18793588876724243,
    0.013384968973696232,
    -0.04109163582324982,
    0.041586291044950485,
    -0.0019745631143450737,
    -0.01883811317384243,
    0.02100437507033348,
    -0.015821829438209534,
    0.03880952298641205,
    0.00405361782759428,
    -0.01322840340435505,
    0.022999271750450134,
    -0.012624788098037243,
    -0.1492428034543991,
    0.028550339862704277,
    -0.027637608349323273,
    0.06472170352935791,
    -0.001375733525492251,
    -0.051537543535232544,
    0.020859548822045326,
    -0.005445117596536875,
    0.05036446079611778,
    0.006280192639678717,
    -0.023172421380877495,
    0.026519278064370155,
    -0.005630637519061565,
    -0.03078107349574566,
    0.022144850343465805,
    -0.004610657226294279,
    0.03129628300666809,
    0.006060658022761345,
    -0.020131230354309082,
    0.010403737425804138,
    -0.008981667459011078,
    -0.055755335837602615,
    0.01139556709676981,
    -0.01891533099114895,
    0.02835770510137081,
    -0.0010566527489572763,
    -0.053609058260917664,
    0.041387468576431274,
    -0.017047064378857613,
    0.08648154139518738,
    0.009400548413395882,
    -0.018495995551347733,
    0.013405713252723217,
    -0.004160984884947538,
    -0.046765465289354324,
    0.015756964683532715,
    -0.021727873012423515,
    0.019827885553240776,
    -0.0010758278658613563,
    -0.029085641726851463,
    0.01369781419634819,
    -0.002681770594790578,
    0.055949367582798004,
    0.00849200040102005,
    -0.01425207033753395,
    0.014124955050647259,
    -0.001391723402775824,
    -0.027800068259239197,
    0.011235680431127548,
    -0.00808034185320139,
    0.040201060473918915,
    0.014115700498223305,
    -0.01673310622572899,
    0.03522918373346329,
    -0.00739642046391964,
    -0.08417864888906479,
    0.020776091143488884,
    -0.010486053302884102,
    0.04154155030846596,
    -0.0004525828699115664,
    -0.03950688615441322,
    0.016670411452651024,
    -0.02678607404232025,
    0.060342494398355484,
    0.009514492005109787,
    -0.0162801593542099,
    0.02520984783768654,
    -0.010461132042109966,
    -0.0624261349439621,
    0.009302109479904175,
    -0.014599808491766453,
    0.030463524162769318,
    0.0029883463867008686,
    -0.03203441575169563
  ],
  "scaler_mean": [
    0.2186761883736933,
    0.9059525614329581,
    0.06257963089640181,
    0.634030828664514,
    0.915400192567524,
    0.216357510422087,
    0.7791749063825416,
    0.03508037252394891,
    0.4476596653335663,
    0.8001479124767891,
    0.3194339615336422,
    0.5282828441631949,
    0.9955172960850998,
    0.13478744699156764,
    0.7126859979348763,
    0.18712869698891102,
    0.6012286240644066,
    0.9845710301236339,
    0.1198595195655751,
    0.7917263663884123,
    0.06801023137158865,
    0.4109100167187418,
    0.8423439456989179,
    0.14443744489634572,
    0.5711876531331849,
    0.9185653204825119,
    0.2766174496193216,
    0.7936029638677712,
    0.19304748418253245,
    0.4629100550916475,
    0.8492691635428827,
    0.219905925587493,
    0.7463550302755562,
    0.9883531903364334,
    0.3724004789599492,
    0.7418414150991397,
    0.04382345213321794,
    0.5248482646867004,
    0.8558285415353805,
    0.31075128819271103,
    0.6613512910193581,
    0.1022567272901805,
    0.3674560901592569,
    0.8531659069354995,
    0.28085544528882217,
    0.5610311291134311,
    0.9850250861367232,
    0.15232597691448194,
    0.6004493594941432,
    0.2621684724259932,
    0.5007154855699665,
    0.6779731534684756,
    0.1758840940939698,
    0.7373005198202585,
    0.05713117440189177,
    0.3720715298751919,
    0.6389063423644713,
    0.3131908657350683,
    0.5083117607686205,
    0.8621227589829112,
    0.3111678752880413,
    0.6855188839605547,
    0.2274058267763543,
    0.46620855228824837,
    0.7502495159158244,
    0.2741299757447442,
    0.5957439169202398,
    0.9792397957299976,
    0.20172713698471145,
    0.8734864786576433,
    0.10428594778307822,
    0.5121378008124313,
    0.7440624925215317,
    0.3668167997749131,
    0.8323260672440566,
    0.020519237713634102,
    0.24692726290116893,
    0.8843835110934034,
    0.30208192122236666,
    0.5340099244301352,
    0.9043703131664462,
    0.32484008013388727,
    0.7483119269496366,
    0.07946625138032895,
    0.5127505760576476,
    0.8721473572357032,
    0.2742404303498443,
    0.6203566989049769,
    0.9792472030300664,
    0.3997374216957842,
    0.8858966568331126,
    0.07553528793729138,
    0.5271448317121532,
    0.7841035074444181,
    0.08561679609563466,
    0.8915051323908442,
    0.04668502126366413,
    0.31589112426182964,
    0.9209417046954285,
    0.08399672718595978,
    0.6856306406088458,
    0.973326867417147,
    0.30694334957666564,
    0.8472316236041582,
    0.10348786956472203,
    0.5043633484374745,
    0.8090137598148349,
    0.26060155678018954,
    0.7408496265988149,
    0.006078340261638961,
    0.43152350417886925,
    0.6962262928805684,
    0.15879119764466068,
    0.5710641198217365,
    0.9949236863441333,
    0.13308506511510465,
    0.5903422636002205,
    0.28514850770430056,
    0.45501321298951736,
    0.7652132953945822,
    0.1233226384964484,
    0.6297740506452542,
    0.8649387077138836,
    0.4385843208746467,
    0.6394475928389015,
    0.294539920885344,
    0.4269403742683609,
    0.9563333384135128,
    0.25887547294471025,
    0.6916439090993872,
    0.3047405465845819,
    0.48158077103378844,
    0.7350722220070561,
    0.2601054323947511,
    0.6343469129684214,
    0.9940959636899668,
    0.1789706148211352,
    0.8517126016690847,
    0.2648725712735739,
    0.4845369968161953,
    0.859087159766167,
    0.20412914776905092,
    0.5707829852976382,
    0.0017233636370219381,
    0.435994522912314,
    0.6494975742315645,
    0.09697815581862078,
    0.5455951701268172,
    0.8065838049236397,
    0.39219380372042245,
    0.7727355822969837,
    0.028864502181450577,
    0.4333907512532426,
    0.8778900842913777,
    0.21794130707986223,
    0.5812507288290343,
    0.9654977951055433,
    0.23342994997413805,
    0.6289740256279694,
    0.2691671300841184,
    0.4611108887302618,
    0.9135904457648777,
    0.283569903491112,
    0.6358018296808197,
    0.030365486749845808,
    0.37457163548348865,
    0.8962248706799717,
    0.1011649117315658,
    0.5612547749960213,
    0.94127655043923,
    0.35644221655770736,
    0.7762257089294969,
    0.05586427817923358,
    0.4197311013371993,
    0.8836575584322756,
    0.21959479568198348,
    0.8594635888987437,
    0.9929312264016129,
    0.4063219562268834,
    0.6901311508774979,
    0.26211420189018464,
    0.5042739661479477,
    0.9252068602168043,
    0.10602711694928917,
    0.6636738070188068,
    0.06752323750452165,
    0.2831237774003297,
    0.8766250716427192,
    0.31991908234770766,
    0.6679266866746933,
    0.9130709522432959,
    0.28673040878995376,
    0.6786646191469418,
    0.06703061958576824,
    0.4914961798134954,
    0.8043988859183134,
    0.27570311596281566,
    0.7926951247464776,
    0.09046293669498866,
    0.3316085906901582,
    0.6671680987523014,
    0.121230968728189,
    0.6910317527732295,
    0.9977828546520603,
    0.30179161038787417,
    0.6631849364296939,
    0.038485041335014854,
    0.484148923743989,
    0.8099701263661855,
    0.13631122434735388,
    0.7090940966854656,
    0.9524059937800746,
    0.4196134221525659,
    0.8585796423528238,
    0.13089084015226501,
    0.5113942675255181,
    0.9339584837797834,
    0.34744552686066393,
    0.6205495358671151,
    0.010022431456294495,
    0.2723903416768392,
    0.682326963344755,
    0.1985740283384719,
    0.6367558945078573,
    0.9094187499248243,
    0.34005538422501336,
    0.728955802203956,
    0.03816394909995435,
    0.477080272343652,
    0.9438802132242005,
    0.2914973741488209,
    0.5703466724447127,
    0.9712505263812485,
    0.2666245929663801,
    0.7877782543172633,
    0.20819564275492922,
    0.5071902867087327,
    0.7931876510488303,
    0.3643708652227324,
    0.6356345762895111,
    0.024777266747178422,
    0.47781323442081813,
    0.794796796312556,
    0.09546517486634483,
    0.5722205863810094,
    0.9371308529116016,
    0.4486702303596279,
    0.625870405961804,
    0.21465645892542115,
    0.49552581127040596,
    0.9521111620011495,
    0.33375646690020516,
    0.5820964602206906,
    0.037512771499498485,
    0.32786352469512947,
    0.6468714798508685,
    0.102332892705485,
    0.5749472912469721,
    0.8019841369964786,
    0.35964436121183685,
    0.7982251347215719,
    0.022447195074851087,
    0.39647469840947014,
    0.9278868016143915,
    0.3096450175131362,
    0.773844202402017,
    0.9888857798444848,
    0.3103309727400874,
    0.6388469252080292,
    0.03523826177092066,
    0.49598906497567113,
    0.8564260935336501,
    0.22062363147684255,
    0.7179230135906952,
    0.1028637268663704,
    0.38315903728350514,
    0.7015028549713508,
    0.14752412792712327,
    0.59897655558413,
    0.919875761401348,
    0.3996069957796281,
    0.8049890275164588,
    0.10726068780656334,
    0.4762691224601276,
    0.9092573164558868,
    0.22748051852860604,
    0.658453592694928,
    0.08606714964349221,
    0.21505927986994047,
    0.6094622529888549,
    0.20858913915759508,
    0.5411162954636664,
    0.8585836331319666,
    0.15081723687529267,
    0.6748870701058294,
    0.17554998266646035,
    0.43368627471053256,
    0.9456951656209704,
    0.13646560790499832,
    0.5973715675932124,
    0.9981790923286804,
    0.21651348571666645,
    0.6053874640829625,
    0.2106186860577999,
    0.5024480167745964,
    0.8168035674342903,
    0.2135565870632206,
    0.6275198580431467,
    0.12535953837654967,
    0.4588321752757759,
    0.8959317917692625,
    0.21938337369927555,
    0.5388452331989786,
    0.9751266910809272,
    0.1669237965047543,
    0.6423563696585819,
    0.05585958701255505,
    0.4177165711042468,
    0.7942860381102883,
    0.3695803786786922,
    0.5811754509934558,
    0.9853265405345123,
    0.1767568121758294,
    0.7017563642732216,
    0.15924042739899813,
    0.5421171760854163,
    0.9185212780122236,
    0.2954980284835099,
    0.6104986903322563,
    0.030423483223200796,
    0.47249345565314693,
    0.931952082406794,
    0.20891899274931264,
    0.6633879439707802,
    0.9404210271246359,
    0.20863761644125642,
    0.7776011417822566,
    0.1709131664878225,
    0.480290202294779,
    0.8163647064171323,
    0.39028606757805195,
    0.8144175932930678,
    0.0582676240595797,
    0.46754815115158027,
    0.6460647528232346,
    0.20831991992175503,
    0.5452100903693401,
    0.9493278730242255,
    0.3425821727696347,
    0.6739441884388687,
    0.13037698958728033,
    0.468719195169532,
    0.9496536130364625,
    0.30098780375179224,
    0.5466697375407494,
    0.8066968321277871,
    0.1700847890368576,
    0.6173809605142234,
    0.20591746904790928,
    0.5028722605284899,
    0.9204648347175723,
    0.3433568923308377,
    0.8626205463627067,
    0.014344550984405784,
    0.43542054297501376,
    0.8238556837204922,
    0.27273976203741923,
    0.6375535423328119,
    0.9034517797290861,
    0.3787903010284445,
    0.8050300629302861,
    0.0494262489127323,
    0.4498398665834998,
    0.7295920313383261,
    0.15239421109746856,
    0.5652786016937557,
    0.015883665298208338,
    0.4347423151197275,
    0.8607903168989125,
    0.07924188871722253,
    0.5221870913839354,
    0.9539597649348449,
    0.350540002642738,
    0.5961823684392458,
    0.039174911650747116,
    0.46447865908933755,
    0.8655000752454528,
    0.1810203634914714,
    0.5479305203652788,
    0.9533312649694631,
    0.24598743734921974,
    0.7292199627434871,
    0.14413771435800685,
    0.502880410439408,
    0.9601229691994959,
    0.16261836415839856,
    0.5937005596541083,
    0.022437315810759556,
    0.47575970842212645,
    0.6778568664887361,
    0.06054237340732002,
    0.7552710259177344,
    0.7751634622305857,
    0.30702338731177564,
    0.6891168925840296,
    0.07682204610912925,
    0.42791632249352246,
    0.7378998292585797,
    0.3637785175604148,
    0.7233979091325412,
    0.9733765215896916,
    0.3663974265438567,
    0.6782644668796285,
    0.05786031767787629,
    0.5104791061742433,
    0.8346644173800681,
    0.18177089789170747,
    0.6237910182710318,
    0.020457346023518723,
    0.24281472225517273,
    0.9546396504299275,
    0.36502188049738654,
    0.5066862195555378,
    0.9909061668810883,
    0.17977212007753457,
    0.6367068953721509,
    0.103335746687507,
    0.49779450140604564,
    0.8388184728670963,
    0.31364435562294946,
    0.599265148181408,
    0.029711082507570524,
    0.31406334913292433,
    0.9348819678451289,
    0.18262313738465466,
    0.5245922490376603,
    0.9643780411893095,
    0.20760630608192499,
    0.7399246740294707,
    0.01357915107837757,
    0.4228321877993523,
    0.7951927081249374,
    0.3396873601943485,
    0.6696555351819548,
    0.9945929633835932,
    0.3704628363951011,
    0.6158701864688296,
    0.1135865908879502,
    0.46097012467651444,
    0.7402613039154201,
    0.33473161068594515,
    0.6370903610417747,
    0.014501693160310738,
    0.4382750884847659,
    0.8608542910297979,
    0.048037964987245385,
    0.5162236851195372,
    0.8542963153683315,
    0.4133060601148538,
    0.6112978889815438,
    0.12212120959347364,
    0.20272985996656168,
    0.8683735431460186,
    0.4000559169100298,
    0.5774984918763955,
    0.9294839228635728,
    0.4671693692220214,
    0.871559444431038,
    0.35383942202487817,
    0.49371616766165893,
    0.8890085734792629,
    0.26275165250715576,
    0.5902166413832741,
    0.13755770313111954,
    0.4353214061467889,
    0.6333753961732347,
    0.08900917637104935,
    0.5995402995131869,
    0.9635448671748393,
    0.4397892363521909,
    0.6904612523935216,
    0.3255238581176586,
    0.4357583403890098,
    0.7522575972293951,
    0.15658843331306732,
    0.7188139869306609,
    0.0004391453251558903,
    0.4547710844020694,
    0.6427423532167923,
    0.0968821480680668,
    0.5212957393018229,
    0.7834878681286463,
    0.43452765971820895,
    0.7187008317867511,
    0.05073595272502098,
    0.3479729612249178,
    0.6913440739830039,
    0.332061382119174,
    0.5453705176662045,
    0.9876564730631979,
    0.21117905097098563,
    0.9065525346682263,
    0.057294569607376646,
    0.5208986466842449,
    0.9202322636274569,
    0.24970954361465583,
    0.59231150230295,
    0.04301892883210393,
    0.4436885379271875,
    0.6337428282763522,
    0.12513926206843168,
    0.6732665426013194,
    0.918307502404237,
    0.28320061051456524,
    0.7487067423041311,
    0.14189007686686828,
    0.4613211786986625,
    0.8362729184407331,
    0.35334569449941733,
    0.7473398216001584,
    9.396592171664238e-06,
    0.31243081612189727,
    0.7249473308227846,
    0.3232649764485949,
    0.5863757918083645,
    0.9608520127669785,
    0.2546778970395471,
    0.6114299843219715,
    0.14431166186539157,
    0.3254768503493633,
    0.767925488449487,
    0.30322097591734537,
    0.5278426975900906,
    0.9648361191914682,
    0.3397158269766313,
    0.813749610415718,
    0.16963642511668695,
    0.5137438988164099,
    0.949183730533543,
    0.269523052496841,
    0.6913181612472504,
    0.02535114993383155,
    0.3286648854586786,
    0.7713617208402187,
    0.2498426579528019,
    0.6333706377103172,
    0.9968573764970774,
    0.3426091935597536,
    0.6343655949477935,
    0.10288291891835763,
    0.47908467588220516,
    0.6946971354337955,
    0.20669690195646462,
    0.7067937482932484,
    0.9958511032226993,
    0.43647365873549726,
    0.6187054837938882,
    0.15313939817252395,
    0.5182128775527437,
    0.9620108680691667,
    0.1389619335916689,
    0.7381512853456748,
    0.10169960831308447,
    0.43251936482733316,
    0.847282300427895,
    0.3813047800119287,
    0.649146602830588,
    0.7812192417014939,
    0.29460736687892974,
    0.6408903399940502,
    0.08641112091066955,
    0.49218838776402213,
    0.7110717823415769,
    0.0992574827570176,
    0.6625297984861223,
    0.003833910437786859,
    0.44038604793624786,
    0.804004656909907,
    0.25322008408014385,
    0.5532001090008808,
    0.7142698068904645,
    0.284456114855578,
    0.8038530448587825,
    0.04178788194965298,
    0.3609032128052068,
    0.8201507988751643,
    0.37606849433418277,
    0.5307627320436726,
    0.9975737849778927,
    0.1836075089172265,
    0.6523929832711345,
    0.22906606478473882,
    0.5428221015973074,
    0.8767043915876658,
    0.16209021993259146,
    0.6522977976959173,
    0.027926616141697346,
    0.4811246122140957,
    0.605057437038205,
    0.10638982756434105,
    0.6730545733607468,
    0.9283902331685658,
    0.30605079985215733,
    0.790309596168311,
    0.07597714889406453,
    0.4081144083461326,
    0.8953928191598043,
    0.365360843521483,
    0.6969184355536044,
    0.9939749043217918,
    0.3135682415691732,
    0.8315005835276302,
    0.1080532952274827,
    0.5485452168046925,
    0.8571579701182566,
    0.4289600882171254,
    0.5561962513589163,
    0.007186965199237344,
    0.34173865412629895,
    0.6549968210354795,
    0.17986273486247895,
    0.6519396761299834,
    0.9830652445738093,
    0.4252120024360059,
    0.6143264979537694,
    0.2139576809009316,
    0.5168404409228808,
    0.8506981002822218,
    0.3175505566300568,
    0.7051591512513512,
    0.04971603571617023,
    0.32683994091583085,
    0.7172234978382381,
    0.34295990114874125,
    0.646789555038816,
    0.8916020056787419,
    0.283126356660271,
    0.7078681208480068,
    0.07395909195937753,
    0.41690230383613,
    0.8058697687319922,
    0.1609810795079751,
    0.5688446856036277,
    0.8508197609805842,
    0.4413614099849821,
    0.7689094786107804,
    0.1330950236648626,
    0.5879637722454198,
    0.8809601544549254,
    0.31351721056641335,
    0.550014827249814,
    0.07550303176900368,
    0.445688552635625,
    0.7675019158693509,
    0.22516259273953038,
    0.6916913137682041,
    0.902200683014112,
    0.2662590765606326,
    0.8523932465183017,
    0.050769768732520655,
    0.47013524134329826,
    0.9396950524062077,
    0.20048874525455415,
    0.6009530570831895,
    0.04696276438129081,
    0.3334729747870457,
    0.7921684095115514,
    0.01379076902231756,
    0.5001187372807184,
    0.9276006767423662,
    0.28724164834829463,
    0.7548799600190471,
    0.07325507216320433,
    0.4271129700466167,
    0.7623657723123601,
    0.2131268279499288,
    0.6209308734541288,
    0.9058734028644531,
    0.41034902327710054,
    0.7201955052543342,
    0.23125515334376906,
    0.4814995051245821,
    0.9333136359246474,
    0.25608383082061664,
    0.5395998604769426,
    0.03221628085447133,
    0.45791243771462886,
    0.9007484846551593,
    0.11001961576002603,
    0.5066455918715088,
    0.9610278788384219,
    0.29112043117267955,
    0.6493197265506593,
    0.14837336010682367,
    0.4212646380519541,
    0.8844577860040783,
    0.2447673181554229,
    0.5285731637943949,
    0.991338045522624,
    0.44990714185194647,
    0.6236878259648221,
    0.1518672180805472,
    0.5022462834049608,
    0.8679229264816922,
    0.31962488160059144,
    0.7482964619889692,
    0.057997618328455056,
    0.4333377270280914,
    0.6598982725596799,
    0.1884406277370009,
    0.5824592048935257,
    0.8607365899467045,
    0.22531451911681558,
    0.6117744761032086,
    0.14377501918489546,
    0.47621593381935035,
    0.8954716973621832,
    0.3111560738169741,
    0.7235372211083201,
    0.05997314258428349,
    0.4937578215712722,
    0.867904743670752,
    0.28832552812217715,
    0.5421564135776686,
    0.8461230852578668,
    0.21701056903842508,
    0.5926624337176871,
    0.18472339015848557,
    0.4323804794134907,
    0.811954711620892,
    0.2909548786396146,
    0.6579137253889643,
    0.9144973443325096,
    0.4110782297294534,
    0.6928757042756646,
    0.1297844537104381,
    0.5081247360213561,
    0.9137875935817792,
    0.2683920020973368,
    0.7140483979026482,
    0.07745273416309681,
    0.3944467821654379,
    0.6358700505869977,
    0.12285579057811571,
    0.6213319026973135,
    0.9737080090776639,
    0.34842511457185205,
    0.7289374979098547,
    0.05516222824879169,
    0.36886615165533637,
    0.6822127805192049,
    0.2657291973524567,
    0.6866752902343005,
    0.0003811360722571053,
    0.31990968161662003,
    0.9115194217741515,
    0.06167655844393071,
    0.5710402086391002,
    0.7668964449552392,
    0.2735667987218792,
    0.7444962884700422,
    0.10750822902444282,
    0.43877032303864566,
    0.5725890714391088,
    0.1979909401181542,
    0.606628275259696,
    0.998478200529365,
    0.15058306127164067,
    0.8566833423824504,
    0.031673582879612416,
    0.5426011906270221,
    0.9299220199994279,
    0.20973688182042874,
    0.5973362927411286,
    0.05220250681975318,
    0.470039827661451,
    0.8129749396998989,
    0.19320718529552225,
    0.6130252988506649,
    0.8886190203059929,
    0.1909476701743746,
    0.6431392209242727,
    0.10941777274923246,
    0.43985906780716993,
    0.797151993118074,
    0.33722039737742265,
    0.6627895836104206,
    0.9224209466039504,
    0.3175987885665331,
    0.6909929905516905,
    0.15314006969237987,
    0.56998378668385,
    0.9415163424653307,
    0.102280966919206,
    0.7688283417396815,
    0.014417895076335082,
    0.35152678975987994,
    0.8059390953231999,
    0.3033271769957153,
    0.6704929192963972,
    0.9311331479394022,
    0.3433371522077284,
    0.8134390098344343,
    0.27827896537686436,
    0.5608266629501463,
    0.7541970727587056,
    0.29922002960348015,
    0.44397982873671776,
    0.03792002675069265,
    0.29103710922098225,
    0.7261524604730194,
    0.27613154303931187,
    0.5499019337213846,
    0.7627760297965936,
    0.31722655219330875,
    0.552062767871883,
    0.08728536658849997,
    0.2641138486047128,
    0.7724342481150428,
    0.11058687638975909,
    0.6576610272343296,
    0.9777936754773011,
    0.21299707739737808,
    0.6844434129501433,
    0.07878454529471617,
    0.5358611178710057,
    0.9088352552536885,
    0.27030572148949006,
    0.8503659406851453,
    0.03735155311509986,
    0.33220684889806246,
    0.8033815049825777,
    0.16654892169146418,
    0.7398125637511888,
    0.9661023336118477,
    0.39869318801399584,
    0.7710968454805357,
    0.1546620902927167,
    0.445505657608452,
    0.9120701576326304
  ],
  "scaler_scale": [
    0.1232742267764925,
    0.07812028077218648,
    0.06124872816552645,
    0.08272394051127868,
    0.07346111788328585,
    0.1208432060918807,
    0.11898329737712407,
    0.04707419260738405,
    0.03960522941141143,
    0.11725485480225105,
    0.1078495831344402,
    0.024428569663604793,
    0.011918955513111543,
    0.09241057756664411,
    0.11603667821040434,
    0.10907357540119722,
    0.07455394227027957,
    0.026687471778023476,
    0.09360062291825272,
    0.11215915249461542,
    0.06292165555612392,
    0.05373034077202348,
    0.10502475401213143,
    0.0954242787389112,
    0.049551537737648275,
    0.0698717657435788,
    0.11493515723652113,
    0.11671441099140373,
    0.11175770775448025,
    0.02152914596217562,
    0.09746797484844451,
    0.10645226545208258,
    0.10309548050098859,
    0.021990234787663553,
    0.07607012146606734,
    0.11287268964807111,
    0.05524581837091053,
    0.01636064826626493,
    0.10769823013443475,
    0.09577900810229602,
    0.08958885392775884,
    0.0767453317774557,
    0.07701601488623153,
    0.0999138385485953,
    0.1251791013956674,
    0.03243263183539384,
    0.026710100701845603,
    0.102183735757826,
    0.06875326328327236,
    0.10672507021002427,
    0.020771268259257687,
    0.09427127084112281,
    0.10661794211820937,
    0.11785023567561984,
    0.056527724467300616,
    0.09732296630492998,
    0.08766635534457859,
    0.11657829233395409,
    0.020317144047441473,
    0.09419535767741276,
    0.1058604680445924,
    0.09328864901498549,
    0.12271517316252512,
    0.03221857446968962,
    0.11706032650384852,
    0.12132553706396693,
    0.060007835017481706,
    0.03126764431019075,
    0.11342902574038122,
    0.09131543291220534,
    0.07668017199348977,
    0.030066866953036307,
    0.09808461647341063,
    0.07328878459239503,
    0.11145701219781115,
    0.030953640822552253,
    0.11690857859549662,
    0.09001331504191078,
    0.10943123927512768,
    0.025071034694421058,
    0.08322232116471996,
    0.07622929806494347,
    0.08807053179834806,
    0.07085351785436461,
    0.017630878435874246,
    0.08922809284925834,
    0.12398225087889284,
    0.06331649045406178,
    0.032480941561702614,
    0.05011062753961418,
    0.08266292407753446,
    0.06470616853284805,
    0.013631899911707277,
    0.11473661966236652,
    0.0710455500522007,
    0.0817084566312559,
    0.05337727381684584,
    0.12049823326553381,
    0.06877557341154744,
    0.07337334132161893,
    0.10497356435243609,
    0.033429066433031555,
    0.11231174208549441,
    0.09461115131745924,
    0.0886895532116982,
    0.016383492149609706,
    0.11479795707898599,
    0.126706788251461,
    0.11820483153868451,
    0.014563867230867559,
    0.03815408220340552,
    0.10662051110397691,
    0.10286999587292538,
    0.0417198930318686,
    0.01546525950704247,
    0.0982375554656372,
    0.05125402234007233,
    0.11171477801217115,
    0.024905872231957,
    0.10778109683651436,
    0.08913049466278605,
    0.061504480488609375,
    0.09443242787344285,
    0.050947923426022876,
    0.07680982992264986,
    0.10754136088800843,
    0.06367839723816683,
    0.04993961010858345,
    0.12792009969589724,
    0.10873432953978057,
    0.11581853286816367,
    0.02979215416702755,
    0.1058742002340859,
    0.12444786047762625,
    0.07881482988186293,
    0.01653216354308582,
    0.10669348411618303,
    0.09732803238937975,
    0.11029149928713687,
    0.01936088630668264,
    0.1045128975142332,
    0.1157760234259155,
    0.04307992407262691,
    0.007477503937208046,
    0.03849291500874671,
    0.08219189669791709,
    0.08723844476289919,
    0.029388187652065335,
    0.10988562298765961,
    0.08896671540932312,
    0.11060107831655291,
    0.03942802472339486,
    0.05542802717907389,
    0.08888138717808089,
    0.1157739287684653,
    0.050112089537429266,
    0.04240156114676996,
    0.11725121513499796,
    0.0805387825321646,
    0.11397444219638495,
    0.05147089862489901,
    0.07002802612736193,
    0.12203970301478771,
    0.07104061241122052,
    0.039767152160522345,
    0.0831565908686638,
    0.08038697412354792,
    0.08669927187453297,
    0.04683957448325244,
    0.058957166125403124,
    0.08966460328603461,
    0.12044919514108669,
    0.05458233150220364,
    0.04667528361385255,
    0.08753393202314758,
    0.10930308295839979,
    0.11081835635565565,
    0.016659539637663083,
    0.06029310610045485,
    0.10480704698386856,
    0.1166388409975742,
    0.017207647461665143,
    0.06836649601739693,
    0.09202665855364316,
    0.0933149602716585,
    0.06353117862345709,
    0.12060017611869876,
    0.0959940308626382,
    0.10787329202041526,
    0.09555817046428018,
    0.0725426405312953,
    0.1229967831357082,
    0.09764081595071197,
    0.06233343000171168,
    0.014276462527563136,
    0.11122048913037133,
    0.10321277687484949,
    0.11214018561456209,
    0.07905037978711496,
    0.10285204755531495,
    0.1009058296848381,
    0.08868728089052237,
    0.10713735681892306,
    0.009274660743651738,
    0.11652375688495276,
    0.10150823825563099,
    0.05130798391556762,
    0.023100234767288827,
    0.11124863436103227,
    0.1026736742073493,
    0.10815922519178071,
    0.05416194472689509,
    0.059250296841636615,
    0.09864083968674123,
    0.09350284071701725,
    0.015030316680134872,
    0.06092761701130966,
    0.07907258719422364,
    0.07700345494077254,
    0.02071137424949409,
    0.12397193190511063,
    0.09999657596834935,
    0.10863803458094107,
    0.08287249987269749,
    0.07564021620124083,
    0.09711719236722023,
    0.11635563214702783,
    0.04544750404889476,
    0.027091953507070547,
    0.058124950681356695,
    0.11934930691870245,
    0.036722259228336385,
    0.04010874885165997,
    0.11307702223823766,
    0.11322745873683811,
    0.12501646212425657,
    0.019781803819200028,
    0.12661095272494605,
    0.09559294099180261,
    0.07960409085724308,
    0.03595758844073012,
    0.03601333181503022,
    0.11615884168818248,
    0.07753747049967231,
    0.03770070054175668,
    0.05900850607459611,
    0.046480548881120146,
    0.06887082092845702,
    0.11412037917081357,
    0.021578560312865834,
    0.04894429391816953,
    0.09355997229899586,
    0.06435815487776363,
    0.0399282421066113,
    0.0901835405016831,
    0.08944873767177831,
    0.0774219048527147,
    0.05599552517887367,
    0.10757807432592356,
    0.07666246008688181,
    0.11318001711554683,
    0.03210475487334868,
    0.06498246292654615,
    0.0712970144130337,
    0.10585004474503382,
    0.11020354576332858,
    0.021391516855187063,
    0.09636716094418059,
    0.08590434524708576,
    0.04732203963685082,
    0.01781840571221819,
    0.10975818250994512,
    0.1290211124062292,
    0.11430001433629552,
    0.08814418926311526,
    0.07752266866228316,
    0.10087319978931082,
    0.10260087341667055,
    0.060418973866586914,
    0.06753954500655714,
    0.056113503436817466,
    0.10807373532189382,
    0.08110794793302784,
    0.022214948525357846,
    0.07873356984934855,
    0.11509189094643192,
    0.09188019977085825,
    0.0856495902571078,
    0.12475897440507394,
    0.07146066236405009,
    0.1263461431581995,
    0.031753509630382606,
    0.10780895239971906,
    0.12122076185416948,
    0.09735815619356919,
    0.1168960890288233,
    0.045388345411420644,
    0.05774995704375619,
    0.09904976509181063,
    0.05085353678835233,
    0.006489079068954462,
    0.11468174028974647,
    0.06760583010824277,
    0.11843250626146473,
    0.014244463290748282,
    0.11353289207443407,
    0.11825005882336811,
    0.07729584800318444,
    0.10395464224147216,
    0.035458540833525405,
    0.08626844513203738,
    0.12893963291301974,
    0.0205678329511488,
    0.03491389384427753,
    0.11049843904907494,
    0.06983522024113713,
    0.06328040119732417,
    0.05759363223312744,
    0.11169498508329077,
    0.0818215295411271,
    0.04505947429600921,
    0.027203237883323378,
    0.11068098270133339,
    0.1009166692227079,
    0.10644060207615591,
    0.02332670109456763,
    0.07095982924394868,
    0.11289957812853235,
    0.0549703144723779,
    0.03956918322608474,
    0.03861785530911558,
    0.05676511478296601,
    0.11094754268335058,
    0.08487369321218946,
    0.052220155143277026,
    0.10929803793991334,
    0.10184752795605594,
    0.09032234394086308,
    0.027838636081311187,
    0.09662046192180675,
    0.061793331826597714,
    0.10070560669502968,
    0.05267894018097036,
    0.025608146905009482,
    0.09983462117273749,
    0.10853036832277783,
    0.04684625536842288,
    0.052850882787895244,
    0.08782580741096264,
    0.10622560925400586,
    0.08715964391352624,
    0.02306995240282397,
    0.05683806822418452,
    0.10768327042328665,
    0.042760841579887576,
    0.11426772643829691,
    0.1146615742165841,
    0.06530939299301933,
    0.11947931945740571,
    0.013229583965864208,
    0.06994362873319214,
    0.09492230608754186,
    0.09016083821076659,
    0.023907735595870668,
    0.03758739374961954,
    0.0970983241131563,
    0.11001507032517681,
    0.08608111466236908,
    0.08008182076768826,
    0.07129561627548325,
    0.1040756054543131,
    0.05122007999380413,
    0.03305985397114829,
    0.11466330118292616,
    0.10595094875342229,
    0.04727698190652937,
    0.02774756755206109,
    0.04516096348637104,
    0.10173356594014649,
    0.07453606807597805,
    0.016001714133963636,
    0.050634010748716526,
    0.09802695736529031,
    0.0472333392641525,
    0.04487760785331436,
    0.02624951834288601,
    0.09161022944853892,
    0.11178819155458389,
    0.027286106222848105,
    0.051045207467926436,
    0.11470929570929433,
    0.10922291924298581,
    0.10705546937460726,
    0.01803606114638856,
    0.04650387681852278,
    0.10902990768194525,
    0.04281036235317511,
    0.033861739125859325,
    0.04091547370991841,
    0.08683019085715385,
    0.061576613082347235,
    0.11158035827432002,
    0.11237443406720313,
    0.11074211062278731,
    0.10063290415293527,
    0.07092354613023748,
    0.06589819002158355,
    0.1071899790866539,
    0.09940347304554846,
    0.10170362854131529,
    0.03378051892757161,
    0.09672847298245642,
    0.09032890547877423,
    0.054098084266505066,
    0.030176349672226693,
    0.09028673002535453,
    0.0998688599655642,
    0.06427832150911776,
    0.028982172683999857,
    0.1073464301384239,
    0.0451089950673728,
    0.07760616726967175,
    0.04090083184703394,
    0.017866288983585735,
    0.09322977099343197,
    0.09831273102048539,
    0.06471729806056489,
    0.04281156788113771,
    0.08560948717065431,
    0.09829180748319766,
    0.08072545349670278,
    0.03465359053790021,
    0.09863181173545821,
    0.057117572640870376,
    0.09834567588094928,
    0.038392868806421614,
    0.04335846805753573,
    0.10865326694214912,
    0.10674713949167078,
    0.023431061274778044,
    0.048877442383804794,
    0.10542339844056486,
    0.09156109648610256,
    0.09407672064793815,
    0.012178996643266141,
    0.08753017470384648,
    0.06697744353773774,
    0.07282129883065716,
    0.033270279170182764,
    0.10748795930308655,
    0.08915655930564415,
    0.09525314117999673,
    0.022355383075185347,
    0.04036544254061859,
    0.08138553179147104,
    0.046850960061850536,
    0.02603805698945609,
    0.09920689026074744,
    0.05730532257143271,
    0.07906954645328751,
    0.08990406541731871,
    0.12347029448414941,
    0.09105881229914883,
    0.06870926356086661,
    0.04074917959559946,
    0.06212999371746566,
    0.040282893110833995,
    0.0801318642117213,
    0.10343496783326131,
    0.02591397775958556,
    0.07394708282761106,
    0.11310874413377031,
    0.05206195892894116,
    0.09250850205246569,
    0.043971882601379825,
    0.0786459225519295,
    0.07824569577056387,
    0.05241947127259456,
    0.039263434322703565,
    0.059433172177686525,
    0.08986838165111768,
    0.11059084081779921,
    0.06780583775818928,
    0.10559955232366704,
    0.08951190867728978,
    0.1069284930080566,
    0.002454653662269318,
    0.05594842594448415,
    0.07787238951773731,
    0.07553955509332455,
    0.026645926145826723,
    0.10341843460855502,
    0.07266948306006546,
    0.10134532070444144,
    0.04798836995038314,
    0.1079757315043913,
    0.0937604568546028,
    0.11076302157828616,
    0.03144922894407927,
    0.0193618603400782,
    0.09566221356123117,
    0.057963642673798,
    0.05126598625434442,
    0.043058106636165154,
    0.06199034794426127,
    0.10180291018118755,
    0.09525928544726624,
    0.039708801794638766,
    0.044597672978471406,
    0.09712695364076727,
    0.06972493368171087,
    0.10491206130789536,
    0.06534158618477562,
    0.10365848261004393,
    0.10179744067296953,
    0.0785341771110844,
    0.03310178176957412,
    0.08371130174695356,
    0.08574874107292395,
    0.10113635565773157,
    0.0004299514372437714,
    0.10336121849368002,
    0.10553524191911648,
    0.09807190945409199,
    0.06336731613711419,
    0.041824675723870317,
    0.10692223527805154,
    0.07144534769515837,
    0.08394115087616907,
    0.10407840189183874,
    0.09882247506320861,
    0.1071473395568298,
    0.0614557775542677,
    0.03833334423196058,
    0.09365586684172014,
    0.090542561702656,
    0.08997594927407847,
    0.02502793790235315,
    0.04788173004708655,
    0.10705184675054258,
    0.10778221405928258,
    0.03289421552426947,
    0.10619956471191644,
    0.09913321900180477,
    0.11290282262851445,
    0.07483494666526708,
    0.009460757101364629,
    0.09646573035496502,
    0.07861900215893415,
    0.07580322348683081,
    0.03829629771571541,
    0.09992359096925642,
    0.09710290850511148,
    0.10512463923014516,
    0.010409467990647576,
    0.04841301539944618,
    0.07539860597903678,
    0.08549358692706298,
    0.025308400497798395,
    0.03933227721586669,
    0.09180867305646385,
    0.10371649589173118,
    0.07363512150186331,
    0.06434080961400031,
    0.08755754100751455,
    0.09296147959835856,
    0.08028581913412611,
    0.09849536550248175,
    0.10413789567604706,
    0.08149234770953183,
    0.06720423979844685,
    0.036251974373892694,
    0.10571378713388316,
    0.07168031072510991,
    0.08659617424967657,
    0.010745803780784208,
    0.08002809431402695,
    0.091192981004154,
    0.09969392797171961,
    0.034884319790621836,
    0.10277771778662653,
    0.10272628211008844,
    0.09271046783393957,
    0.046018594640163904,
    0.11093509064951726,
    0.08512780028131597,
    0.11237184514155704,
    0.04536914446374313,
    0.008170840076504454,
    0.09539711337357056,
    0.09498719831832787,
    0.10172709471325131,
    0.05907544288322266,
    0.07636614280404483,
    0.07957170756484162,
    0.10140740250989949,
    0.0349700314485081,
    0.04439299724706658,
    0.08266847515698982,
    0.07337066802918592,
    0.09312952460834427,
    0.05988494443027821,
    0.09817773190098196,
    0.09561957487865273,
    0.0608537505550515,
    0.07455185779036591,
    0.06745259095244749,
    0.0983315284346321,
    0.09300962891483049,
    0.01666528941417323,
    0.09847662818469821,
    0.09008969520930016,
    0.06920860101326082,
    0.05564267520737925,
    0.07686398225562244,
    0.07568561900958236,
    0.064152081222857,
    0.01714242449730567,
    0.09141032825639585,
    0.10177914604439231,
    0.08517219065497462,
    0.10923142061268376,
    0.024981145250677062,
    0.07195208149680556,
    0.0793760119521042,
    0.1042500353338188,
    0.021888059178585648,
    0.08190727144340972,
    0.09898446905904502,
    0.10829440846673839,
    0.05040267616435375,
    0.11078443178686709,
    0.09882691137578822,
    0.10621518706377427,
    0.0899986347827014,
    0.07787903495622948,
    0.09946014480566807,
    0.10564233869812124,
    0.058909928434390885,
    0.08308595096410498,
    0.08397770422459332,
    0.09049183932301277,
    0.05305528974934265,
    0.0834206566653232,
    0.05754468905425115,
    0.10369334511162018,
    0.07768161394946534,
    0.05888224848555741,
    0.07337361987469726,
    0.10427776709461338,
    0.03607996159132441,
    0.06814517876517358,
    0.0618840310557103,
    0.09804624648323941,
    0.08955971392863146,
    0.1083639133104938,
    0.06130056915362009,
    0.10265575194797016,
    0.07702528394128874,
    0.05752824839129851,
    0.05321862155991893,
    0.05765443255197086,
    0.0865248515016907,
    0.07036858194841687,
    0.04999183445020689,
    0.10349291178278842,
    0.09064327579022419,
    0.02764889451446584,
    0.0450435330907962,
    0.05976060623069277,
    0.09516752265958182,
    0.11748940562313331,
    0.07516490503552281,
    0.06535001514098515,
    0.09655219936270823,
    0.09251346306876415,
    0.08537113734501521,
    0.06570801836379477,
    0.08714069007524063,
    0.08311718484519573,
    0.1093722649509142,
    0.03887709882003259,
    0.06713003759964947,
    0.0954448069707052,
    0.05915453002973558,
    0.042346035233162695,
    0.055063883449724994,
    0.07167225556181873,
    0.08972701774836501,
    0.039333278983762834,
    0.05370734895455391,
    0.09230575121925938,
    0.09406466510390128,
    0.08423885179912835,
    0.08378773493341578,
    0.07448691014541844,
    0.10643555405060401,
    0.040726938900630914,
    0.021805139983132577,
    0.053931396853209815,
    0.09345322020504104,
    0.08750187010456656,
    0.05042689037924811,
    0.07202510536758822,
    0.11086926184683875,
    0.09085407617036269,
    0.06790422393517583,
    0.06244855686928466,
    0.09342952197038924,
    0.09272770400514482,
    0.07020327341097173,
    0.07268783173682428,
    0.10468799634650756,
    0.07455867231062532,
    0.10063701552434721,
    0.039138539614471335,
    0.08485354755172968,
    0.09010529808962764,
    0.10380086545982346,
    0.05966717583015208,
    0.07561881411551291,
    0.07014208533984753,
    0.10163611858155668,
    0.029802499511140095,
    0.08747248656628803,
    0.093847635187849,
    0.09257031944337299,
    0.09242681929571048,
    0.06913814930074214,
    0.08678526877743269,
    0.10432657151237196,
    0.08573497265491184,
    0.07920443014622373,
    0.07556527286791177,
    0.10075157756761831,
    0.08333840472544347,
    0.05982002185918382,
    0.061503713922579924,
    0.10640528575089304,
    0.09755770478111017,
    0.07911160216975552,
    0.07932290148054638,
    0.09051638640742472,
    0.08260167646923286,
    0.07885874410107398,
    0.03625203965191008,
    0.09837070483720631,
    0.09409417387650718,
    0.06932403449318754,
    0.08594798755318285,
    0.1132169482075531,
    0.09179552317254992,
    0.11616183230207901,
    0.0027418399952611004,
    0.1203175355591721,
    0.06585325158923842,
    0.06589262401738358,
    0.3335700915167355,
    0.07697005228225083,
    0.2895962001745093,
    0.09047043128904345,
    0.1988555112059801,
    0.05223886039930535,
    0.3197344370945165,
    0.09453956575804924,
    0.32787426345909526,
    0.00697857336274274,
    0.2363738143796054,
    0.07759921276980161,
    0.1144964527564453,
    0.04499176617366636,
    0.16834942384956605,
    0.09880201847626267,
    0.33584281194954185,
    0.06120867861617855,
    0.3322692928532645,
    0.08431362434745371,
    0.26384660728312487,
    0.0717042995036058,
    0.2104762479108739,
    0.10142519351926578,
    0.3102075151816253,
    0.08712834364525116,
    0.3172160844069317,
    0.08044016425031898,
    0.3075947771552585,
    0.0719246541020241,
    0.17987243110603435,
    0.08879339345771332,
    0.30151343346138526,
    0.09105846737406419,
    0.33721750411907897,
    0.05975604489326631,
    0.20324724614359463,
    0.08262117362836117,
    0.07596947857162369,
    0.07461184825618637,
    0.2676826614216791,
    0.09334792024864166,
    0.3112170234567129,
    0.06407027548618383,
    0.31421746142722146,
    0.0926500178554538,
    0.29524176837264116,
    0.04513307947586752,
    0.2775468086836053,
    0.08947807890334111,
    0.3291424138881952,
    0.052253259114585976,
    0.2966351163464214,
    0.07917148246926371,
    0.30002769065706136,
    0.03237297880785268,
    0.28796921570860945,
    0.08248462761879363,
    0.3389873130014094,
    0.07989675377584636,
    0.29311581173324336,
    0.09583806316467297,
    0.204223130477353,
    0.07223156765389291,
    0.09257606591216472,
    0.10046932973571356,
    0.3161689369942473,
    0.07292656818827585,
    0.3369252033655509,
    0.07107286336851129,
    0.300172497791935,
    0.08884118243549857,
    0.12450563063299236,
    0.08359277308116486,
    0.2660118784771846,
    0.10074861631937679,
    0.2905931063654763,
    0.04624878301685133,
    0.32034274503978705,
    0.10416842119159517,
    0.23912443647990822,
    0.06438006552435033,
    0.18159886573893858
  ],
  "classifier_coef": [
    [
      -0.02893417675509055,
      0.04255119337480501,
      0.045805004559495544,
      -0.16594288528107895,
      -0.12634738375069648,
      -0.29757412689388596,
      -0.3238390377317045,
      0.06570220413491568,
      -0.028260485883233932,
      0.1793821707020833,
      -0.1472065967054091,
      0.028360715781431844,
      0.041739016581293864,
      -0.03342012597753097,
      0.055227548771842994,
      -0.028312476912652706,
      -0.13276477760346628,
      -0.02861005083053192,
      -0.21085454525837066,
      0.41154258920581444,
      -0.20561580302981752,
      0.008382509511401293,
      0.31172615337525766,
      0.008442818854432155,
      0.07714801708835906,
      0.14751081562035973,
      -0.1406991840984526,
      -0.11830922447298564,
      -0.4908987321061239,
      -0.013149286884384437,
      -0.02955656245072119,
      -0.0317682321422883,
      -0.05148462575648727,
      -0.05873418597307145,
      0.15869054709109856,
      -0.2591627633004,
      -0.01066884200544499,
      0.05039002564886602,
      -0.4977751371278983,
      0.0835997737411589,
      0.12233349716283393,
      -0.20402122607319506,
      0.06627128224618639,
      0.13499834939903332,
      0.053105738565222826,
      -0.05084825287173511,
      0.004373513461822298,
      0.11058811203259467,
      0.21003134960205316,
      0.016238704272646343,
      -0.04949271721339338,
      0.13940432310218054,
      0.05166555286965198,
      -0.054320843015335574,
      -0.11698621180817953,
      -0.26680734092207886,
      -0.02636881917324385,
      -0.16116772021771153,
      -0.012124613634364567,
      -0.10897038769287687,
      0.20736148073187066,
      -0.16369026835654532,
      0.27430427451415496,
      -0.10005308980253502,
      -0.40082280960794925,
      0.39331807133222274,
      -0.02023031846241241,
      -0.00818177794003494,
      -0.060372706871379356,
      -0.17417707669994192,
      -0.07785320124920497,
      -0.1078040147970778,
      0.5681462228187386,
      0.0070664375170630955,
      0.5665514665417468,
      -0.034233331911801224,
      0.022135549030821267,
      0.13625401842302964,
      0.2911697035700122,
      0.057996312075141554,
      -0.0009914884581192426,
      -0.4416542011083367,
      -0.4147492721304928,
      0.3078297079253795,
      0.09960125768481176,
      -0.11351432063325315,
      0.04106232394806569,
      -0.02454598380998163,
      -0.06180121429849966,
      -0.07771636271182647,
      -0.1474964906779297,
      0.2844085325212556,
      0.0028952536847149934,
      0.1132050633349081,
      -0.013849512297456013,
      0.10754543222141899,
      -0.04336151916435771,
      0.017981359116310047,
      -0.020987618704792543,
      0.04411602947529791,
      -0.015079228719698412,
      -0.026945847491864572,
      0.21539829979398978,
      -0.14225217075214525,
      -0.06501720126351923,
      -0.005076252987944924,
      -0.04009300239852753,
      -0.08068460722083143,
      -0.11487319663642698,
      0.021021982216087642,
      0.023268629746183933,
      0.10719019729738,
      0.359254022201973,
      0.11088633611795645,
      -0.03595978051796678,
      -0.1547637082169523,
      -0.06980494109802027,
      -0.41068629459468686,
      0.07667853139847686,
      -0.11794159250897474,
      -0.34724035837159967,
      0.09698390573362853,
      -0.26382780632843617,
      -0.23869979358977605,
      0.031538828924670526,
      -0.20751567850522973,
      0.06765738826487394,
      0.11906630439726265,
      0.4671012564095557,
      0.1512681376882966,
      0.3820034902889453,
      -0.025769756825689882,
      -0.1322408127011792,
      -0.15949788838325746,
      0.21338501237831153,
      0.009507390473666444,
      0.00453119459393303,
      0.09135444756770278,
      -0.008755640064313952,
      -0.042735616042325564,
      0.01641578978743008,
      0.3355441772743623,
      0.1368127814148981,
      0.016401196572305196,
      0.11119792787174546,
      -0.013805178987466193,
      0.0775251467500167,
      -0.04894865453953784,
      -0.03791671415701753,
      -0.2989363458886173,
      -0.11071517528416658,
      0.07780594471402114,
      0.10079590783070108,
      -0.09930839895278418,
      -0.11644073257257598,
      -0.05995854978245119,
      0.03356254033593098,
      -0.2346518520176696,
      0.12805002200584892,
      -0.09302119296786027,
      0.175854085434217,
      -0.08746088829758392,
      -0.26848382434115997,
      -0.0460124465712419,
      -0.08648293774047866,
      -0.10847097023444613,
      -0.09962793497318692,
      0.11870801673892964,
      -0.05744162924033319,
      -0.06812621799461877,
      0.15174473455232168,
      0.29174460496965526,
      -0.01245177063462033,
      0.029112249635627918,
      0.07046902347717818,
      0.04188667924885381,
      -0.005178905905322023,
      0.03020838343229254,
      0.10182188483856935,
      -0.3649855364789325,
      0.05074995507573532,
      -0.0183179072547891,
      -0.1168733794824442,
      0.023815513482754125,
      -0.04587951242773586,
      -0.02669606286836909,
      -0.08597549003669061,
      -0.05748183864912079,
      -0.03380545869591717,
      -0.33554788778676164,
      -0.12551744315834074,
      -0.2456704130129232,
      -0.01005500151415184,
      -0.008837338326445954,
      -0.01103728698986503,
      -0.09334150746884931,
      -0.20115972294450532,
      0.2155907879383232,
      -0.10765702144009448,
      -0.17143177955067665,
      0.017819642019626436,
      -0.09094883023708913,
      -0.017032126344527332,
      0.05438980038815844,
      -0.2759960301991061,
      0.36831806490960073,
      0.03343062648532982,
      0.038364468368294824,
      -0.04531091355896966,
      0.12806954639998502,
      0.09037035753628236,
      0.001538464713763732,
      0.09565600007047831,
      0.04948904761265603,
      0.11789875640136262,
      -0.04341438243256679,
      -0.06083683063313061,
      0.11017394814152204,
      -0.15578555280714113,
      0.04020602894234604,
      -0.16268085975205174,
      -0.1617779406118862,
      0.20028184310450403,
      0.1501249475305613,
      0.10654661057930903,
      -0.03591706036259046,
      0.1745863564758607,
      -0.04917518429813311,
      0.01891488052410195,
      0.06915014176614187,
      0.07223695582008555,
      0.03214428456596827,
      0.05378297854655012,
      -0.0076480281533436445,
      0.12226688001179314,
      0.5280481952659509,
      0.03148279030170775,
      -0.1768281049786265,
      0.03253087181935066,
      0.03569754307007175,
      0.1255535823433871,
      0.0658247191122675,
      -0.19185717009298142,
      -0.13985458881609153,
      -0.06514516752804364,
      -0.0874153431834575,
      0.01957522913424009,
      -0.016084441390367576,
      0.06492166424132526,
      0.01852246519734624,
      0.07500974496968005,
      -0.03188327303804364,
      -0.07509404974721401,
      0.003929759160120061,
      -0.05492754495459018,
      0.14558675381015673,
      -0.09925609712374972,
      -0.059761408591169074,
      0.03509461425719679,
      -0.08302913070192475,
      0.03475918666175526,
      -0.005433260163375309,
      0.0545641413634379,
      -0.03259980353169628,
      -0.19182162140197223,
      -0.010647076248992082,
      -0.004328393532948338,
      0.17762361284277162,
      -0.15300934941190472,
      0.06957442923096491,
      -0.014631921728578023,
      -0.28911535360701646,
      -0.07701628963975526,
      -0.017193689781565574,
      -0.1486137058011422,
      -0.005596486559440117,
      -0.07249415582692964,
      -0.13300428214724708,
      -0.05331297654192141,
      0.001642905493648289,
      -0.05723301353791227,
      0.20341028077999757,
      0.10644758441402669,
      -0.029815886741197728,
      0.03681942435254662,
      0.06509824416127297,
      0.12636667623274084,
      -0.06929016080666339,
      0.06469519572297597,
      -0.08567604587811006,
      -0.05963724939151316,
      -0.009469146679572105,
      -0.23511375397850515,
      0.18225814697912252,
      -0.0648712044985574,
      -0.251212313602331,
      0.03528660909159165,
      -0.07810980900564923,
      -0.04027817034413561,
      -0.19723515455618226,
      -0.015952685955756496,
      0.2129413554798177,
      0.0025676325389774046,
      -0.087392662427494,
      0.001561976300827328,
      0.0535169389262814,
      -0.14223726546798032,
      -0.11105304943933025,
      0.2923612336699928,
      -0.013815561027483991,
      -0.07590346097248751,
      0.20625079093536058,
      -0.006740350926655675,
      -0.002429174394097733,
      -0.025828951338336625,
      -0.11926485590802327,
      0.12720057882111702,
      0.026953521153061905,
      -0.13713009171787469,
      0.07628143105718907,
      0.024826649515038823,
      -0.0023240821468035744,
      0.019667740143142043,
      0.07361416877097249,
      -0.09251630316007467,
      -0.012711019811192714,
      0.02318132626158459,
      -0.08264470463141826,
      0.10012471156214026,
      -0.07223808734986381,
      0.014100977910721096,
      0.08491089934468826,
      0.039393429749875586,
      0.1225248819862686,
      0.03822820877074168,
      -0.03478476787031476,
      0.05236873848353302,
      -0.0844654647882982,
      0.002672334778490437,
      0.0321587811515163,
      -0.020088982397143865,
      0.0580898921521463,
      0.0017296766278332432,
      -0.0026595229461390812,
      -0.1355871796573747,
      0.14932720223814755,
      -0.047761908316478446,
      0.05423301371874567,
      0.01721324860249948,
      -0.006229664058447382,
      0.0013503168191412729,
      -0.008846492219410251,
      -0.07616864657516215,
      -0.04645520976561318,
      0.02841759169437663,
      -0.14430489785636957,
      -0.028671972776278976,
      -0.08092056208057322,
      -0.05351181334924521,
      -0.03453842785449188,
      0.007747860477148483,
      -0.03443123787525593,
      -0.016390410266803213,
      0.016040199181515336,
      -0.030506154802159124,
      0.008605392649095212,
      0.059290120891771214,
      -0.00832509944385601,
      -0.026289038543873405,
      -0.009109150744279398,
      -0.09184591151569568,
      -0.01827667207405531,
      -0.0289803759783408,
      0.24093897671326547,
      0.006639253333273476,
      -0.029582070946598593,
      0.034951545276503126,
      -0.05982235181224832,
      -0.0643156374271438,
      -0.003313088619234683,
      -0.010410203428766973,
      0.007101297875277024,
      -0.038212855716061644,
      -0.015613094703498698,
      -0.03204770649197469,
      0.008592631201783996,
      0.09031725678864444,
      0.0031466184285008636,
      0.051247190107900686,
      0.028391385617782372,
      -0.0050884295590305495,
      0.029374125478580926,
      -0.14083247607649635,
      -0.010937132206337088,
      0.02700557144054594,
      0.02357960727806957,
      -0.04396968107347678,
      -0.05846823278038499,
      -0.008923047519776017,
      0.13588653438078568,
      0.02672305663461022,
      0.09663934686137021,
      -0.03015612146010946,
      -0.09838709172245458,
      0.0500984700748012,
      0.10051828956342135,
      0.053717669897487774,
      -0.00288007079856456,
      0.04774851333457769,
      0.04937179548967191,
      0.017883413962322625,
      -0.06038408756012481,
      0.02117793290087333,
      -0.029497293459934848,
      -0.032243786562705296,
      0.030429446030716234,
      -0.009750238613025819,
      0.15100977246315656,
      -0.015647280171363576,
      -0.19825299560081466,
      -0.0024691934766310764,
      -0.11724039307905054,
      -0.026317585213110728,
      0.025066327916383774,
      -0.05434851219561321,
      0.013386388166483243,
      -0.046610175429384504,
      0.014827273498939003,
      -0.03719727983634186,
      -0.06315626749394598,
      -0.04010974062849382,
      0.029020169941301688,
      0.041770779163242955,
      -0.028716920948396507,
      0.10896743142160537,
      -0.01810059036554429,
      -0.011034658246245332,
      0.012287580171969459,
      -0.1616084372071259,
      0.006294710086159783,
      0.00764095774446677,
      -0.07033994505453228,
      0.0069493390117513765,
      -0.029158679858046016,
      -0.014862947156826234,
      0.006567779461204237,
      -0.10466210856186192,
      -0.03291138942612165,
      -0.002245615552489477,
      -0.07252452167563217,
      0.011957223681884177,
      0.14366796474502996,
      -0.004665706693694038,
      -0.008588041015047898,
      0.0009831724754142679,
      0.026152373809246565,
      -0.0010152254384612758,
      0.00912880599171817,
      0.022616386949209644,
      0.04634524524065803,
      -0.09863949728293353,
      0.09897319925496267,
      -0.11418367563526577,
      -0.035553562712892825,
      -0.11530222439881782,
      0.04751358542789208,
      -0.04576924870137555,
      0.03395790940811265,
      -0.1054171123404366,
      0.015146326976446134,
      -0.03296776667224258,
      0.017158284125583068,
      -0.055805025692894195,
      0.004377960071772019,
      0.007732343825453125,
      -0.1152440673249778,
      0.03515721075134093,
      0.007995075222393386,
      0.018706543670789888,
      0.02730210279374612,
      0.03238352345137896,
      -5.5265056926379064e-05,
      0.07182495144755843,
      -0.10147385191145375,
      0.022135254629775586,
      0.07014141254215989,
      -0.003130131709519146,
      -0.038819697075374415,
      0.04086693159118454,
      0.01909374052765872,
      0.0059108750184806436,
      -0.1124476773132459,
      0.00496943536158978,
      0.0804509247884822,
      -0.04293239659532433,
      -0.08758380378770153,
      -0.011099905164180357,
      -0.03137335497826488,
      0.03250287183335154,
      -0.004520826440654213,
      -0.08699279505294516,
      0.016104636409152433,
      -0.07655825180951559,
      0.04782240004075877,
      0.05540252171576482,
      -0.0938315268996106,
      -0.04888234204525721,
      0.020261838932832676,
      0.04078311639372023,
      -0.05269892191820169,
      0.04435303168210597,
      0.1569236004755925,
      -0.05462433899139252,
      0.0410457615844827,
      0.027585767658083626,
      -0.04531420934188041,
      0.001479402626020504,
      0.03431826470192201,
      -0.04533004129893248,
      -0.07774218624155457,
      -0.002292486721625922,
      0.03288399212621684,
      0.02890978372090791,
      0.013297909051454226,
      -0.052887370115550614,
      0.030087315815931687,
      0.03777683998527698,
      -0.12441471570349483,
      0.08334209078607416,
      0.03631455962770136,
      0.02813521014122472,
      0.06463440901325623,
      0.06754134341564619,
      -0.006296102084124455,
      0.04689734752690078,
      -0.039019823605999926,
      -0.034011733672997396,
      0.0506004498460329,
      0.01833929941446888,
      0.04813522141189852,
      -0.039893440619527765,
      -0.0011446280695966426,
      -0.00968840254464759,
      -0.0894547466298426,
      0.038256653513654426,
      -0.06575045891534409,
      0.022668564705029398,
      -0.07736165516464777,
      0.01198641588456345,
      0.027916926038299372,
      -0.056325511135410955,
      0.06641568704048317,
      0.007289224102982217,
      0.030178600529478405,
      -0.01834303618152955,
      0.026806327959054244,
      -0.008546297999459995,
      -0.009024127949552346,
      0.02040243510944806,
      -0.0003752762390665798,
      -0.06572030210473603,
      -0.05858628186218606,
      -0.01843407768154315,
      -0.019601272949756,
      0.07369530455463938,
      -0.00177595444559564,
      -0.018381736405017196,
      -0.022447398733488777,
      -0.009736009126024348,
      0.058944225616827606,
      0.07264345300425096,
      0.004787584199766742,
      -0.0010887433080633002,
      0.0033139067451393445,
      0.011197721321477339,
      0.013753644147667388,
      0.06342568780859226,
      0.021621185898900053,
      -0.006363077185546073,
      -0.05190527321394295,
      -0.012962246699431301,
      -0.10521212688175452,
      0.02786019913388743,
      -0.02666246402643685,
      -0.0654263109740838,
      0.07903802607532506,
      0.14717491726487808,
      0.032520419384463595,
      -0.006327075445612673,
      -0.05412735988896411,
      0.015363460329418044,
      -0.026473921647803156,
      -0.0168730090100358,
      -0.0028845135997493943,
      -0.003793110731074578,
      -0.015499182195719108,
      -0.007065355387214034,
      0.022943877190981676,
      -0.012688875605332384,
      0.04036168288306796,
      -0.024581609033870522,
      -0.0005922457768454126,
      -0.031292712275571066,
      0.032141434408816644,
      -0.003328931636597199,
      -0.020553215163999564,
      0.00801587928409303,
      -0.018334808720459117,
      0.012398558333830412,
      0.0043224099933133475,
      0.11331254108055744,
      -0.007355646190361026,
      0.027420661736727914,
      -0.030637018084633066,
      -0.008153388366200276,
      -0.03313757700040605,
      0.034138999762921785,
      -0.010257217444475913,
      0.07400246715464998,
      -0.04958479569316532,
      -0.012945057831541984,
      -0.007730476215422111,
      0.03007748548901959,
      0.025200877486032877,
      -0.034352692550163044,
      0.028876074705323967,
      0.033240916119299246,
      0.007123965677595823,
      -0.03916201521299795,
      -0.00701695223381138,
      -0.007528337852001021,
      -0.08324808203860706,
      0.02513137735567006,
      0.0017400904379072657,
      -0.06020614658713025,
      0.00803251078252426,
      0.028087879767805968,
      0.007559179079462686,
      -0.0030226189127618985,
      -0.0075675132284703794,
      0.04748465078607128,
      -0.0325520228669835,
      0.059145876026040656,
      0.02994841870504633,
      0.01580773010423908,
      -0.03181001127509797,
      -0.02250516022867599,
      -0.04261326057674997,
      -0.02037987708817096,
      0.02707305276788391,
      -0.02192162090812058,
      0.019269702682435663,
      0.003080671540284463,
      -0.023063761928345083,
      -0.01187130767557465,
      -0.007826919435664936,
      -0.03039515974933457,
      0.0036722388427454233,
      0.03706059025574693,
      0.008432939124962069,
      0.037587762831216426,
      -0.060260784109955334,
      -0.00031052381404039764,
      0.0010188917002175724,
      0.023305645098492894,
      0.06768660123078657,
      -0.03381159376805795,
      -0.03774992287929502,
      -0.0009263626326153629,
      -0.018680683086725436,
      -0.08652683909606396,
      0.023496176620896314,
      -0.021172765339055155,
      0.059924479681519066,
      0.015771619593804687,
      0.038905195361891465,
      0.002691320862290958,
      0.009060493566420885,
      0.0009466067128174882,
      -0.05435548782779165,
      0.0016491962915784891,
      0.013187354650040062,
      0.0007185397093578128,
      0.03800347548438693,
      0.010791723289428123,
      -0.007776177063980705,
      -0.0017637750228309823,
      0.018183875348675327,
      -0.00986532036690213,
      0.005367824821239542,
      -0.009923505104984465,
      0.05169691941483706,
      -0.005857066496505636,
      0.00939515472864505,
      -0.03498308970839528,
      -0.04035728781866915,
      0.0014884802373700823,
      -0.01366114550254438,
      0.0007462077141176526,
      -0.03097119723552745,
      0.009719180365627578,
      -0.0010149265238086347,
      0.01584970399216956,
      0.01840518135574215,
      -0.009620709681512574,
      0.016748396600754778,
      -0.003085459391418771,
      -0.007471372731280984,
      0.0168112407943507,
      -0.058382430065313407,
      0.002451400094491518,
      0.03218011926440428,
      -0.007327717262946232,
      -0.0230226484488803,
      0.012174467074134498,
      -0.003554957231102912,
      -0.00631726390381851,
      -0.010923365493805237,
      -0.022241714177761607,
      -0.02323894562387019,
      0.022964734573992618,
      -0.004486655536426132,
      -0.045267247739169125,
      0.008551469739487894,
      -0.008738770458684764,
      0.025366255131450965,
      0.018568447706694746,
      -0.007361837461692944,
      -0.02123710026837833,
      0.036099784214178504,
      -0.0009494193202609358,
      -0.014019600469398541,
      -0.028966939569933514,
      0.020115081769039533,
      -0.0046872346998844405,
      -0.03522466383040601,
      0.013778824004106578,
      -0.01056670384874464,
      0.00797181621074916,
      0.016122398550589834,
      -0.006118388924415796,
      -0.013278795292688883,
      -0.008474980294504608,
      0.010575916388137652,
      0.00608566928709614,
      0.008755411327020568,
      -0.01734187329752379,
      0.045613974580643646,
      0.01617074487337039,
      -0.06270692752339391,
      -0.00819860926487423,
      0.0632335738629286,
      0.024569141556342933,
      -0.0028320203943953404,
      -0.0029118915621981767,
      0.03118721307825445,
      -0.015872229304328855,
      -0.0002139732963826746,
      -0.04387347429632349,
      0.00475692814860218,
      -0.017518879828163136,
      -0.0006552371514322863,
      0.013023621383221662,
      -0.007759135705464326,
      0.008029887394347457,
      -0.0016698202291673958,
      0.009435893973915643,
      0.008238086946693188,
      -0.051992807848663,
      0.0018404803385365237,
      0.021016637302829433,
      0.0015777053984149525,
      0.052049224411390316,
      0.002231409487356617,
      0.03270823848844279,
      -0.005822121557537696,
      0.0029386489930962045,
      0.0005187146921963315,
      -0.016657643458522386,
      0.002563807142035579,
      -0.0009621043390938278,
      -0.0012215602283595084,
      -0.0035389673126078325,
      -0.005058003043277859,
      0.005560744475840873,
      -0.0017861993323408237,
      0.005388559797359527,
      0.007750192229254438,
      0.014228338847985245,
      -0.0024323779511952193,
      -0.04587920492460884,
      0.0028654016280520445,
      -0.012742692230933106,
      -0.00021460992841151882,
      0.007522922752156325,
      0.0024489217703917987,
      0.02639008633078116,
      0.005647960580726974,
      -0.03131170179205467,
      -0.002398321126566655,
      0.008619429509971133,
      -0.0026725935161476533,
      0.12847791083683202,
      0.003599313511182811,
      -0.013385954257414623,
      -0.0044390555582820845,
      -0.017371324656603404,
      0.004516927278959804,
      -0.02682491811758056,
      0.0033102710176428074,
      0.023076659160301105,
      0.005908754744012257,
      0.005476349180964485,
      -0.004485163718871699,
      0.01938308546112988,
      6.389508530618704e-05,
      0.011483659468041918,
      -3.356987780150922e-05,
      0.004181780995821227,
      0.00045574494982025815,
      0.02467429688552958,
      0.0011006667582899587,
      -0.004301701500873889,
      0.0014183381145285723,
      0.02068800734594678,
      -0.007923941201049112,
      0.01314678037443967,
      0.0004211096332292219,
      -0.03244813874886887,
      0.0020547879762427,
      0.006136218316238784,
      0.007308775567063774,
      0.0017611524307974413,
      -0.012002355754290428,
      -0.006758908935006552,
      -0.001646843280583954,
      -0.06725756763463586,
      0.0017700772777272111,
      0.0005568677874009387,
      0.003619768854445038
    ],
    [
      -0.09468256097950117,
      -0.084262254223614,
      0.08147117381070546,
      0.17521508274015818,
      0.07782109956147187,
      -0.0612954450851273,
      0.18370132001933687,
      0.019890536741319964,
      -0.08301215400784595,
      0.2808672321897968,
      -0.01637860709756156,
      0.03467959696298356,
      -0.010235068200979192,
      -0.11224560611688272,
      -0.184581046572794,
      -0.19451962068060435,
      0.06478407272093428,
      0.03578562340619301,
      -0.00876018014058727,
      -0.006072012269444427,
      0.04169280800013192,
      -0.03635012595725018,
      -0.0885597999494267,
      0.04852510701111734,
      0.08980259462022766,
      0.0045707819673068695,
      0.2675100671663733,
      -0.18226482922763604,
      0.37337932093230136,
      -0.028474921975979672,
      -0.07031392837373796,
      -0.10618085239637476,
      0.24994734253071793,
      0.01014848715877173,
      -0.17235969517885658,
      0.14727453078839592,
      0.01715489881161611,
      -0.0038412160389257044,
      -0.07317382137615819,
      -0.10364627462081244,
      -0.02644822101882105,
      0.07835548245620139,
      -0.04303571767830805,
      -0.03686902437894801,
      0.0556949978052903,
      -0.00033475796493920296,
      -0.017757067375955338,
      -0.12788825800618675,
      0.07373354099751273,
      -0.19341467481619184,
      0.041982323084623296,
      -0.3604496278459869,
      -0.03740396900359422,
      0.1346873027869258,
      -0.0073263075884930084,
      0.3361076810792475,
      0.27378566858569575,
      0.033180199711445035,
      -0.051040405644029674,
      0.036818870586506125,
      -0.06999319940117554,
      -0.09118935390250449,
      -0.017428725473672968,
      -0.02930133719784689,
      0.01802420072860239,
      -0.11974717376914723,
      -0.1490306705862196,
      0.06025394689269209,
      0.21096986047525457,
      -0.044658063036347284,
      0.020517233489631914,
      0.07341416776437959,
      -0.20423719913451605,
      0.23055542013233132,
      0.020185444244676443,
      0.028016577971156198,
      -0.1430455702340535,
      0.0043009485342989096,
      -0.06562090287733713,
      -0.02851890772942084,
      -0.28926373411673795,
      0.05694270373347643,
      0.02123792227940835,
      0.09469216420558976,
      -0.04393972267420852,
      -0.24057044651477014,
      0.25508865291189364,
      -0.15059861281190107,
      0.07141541532061799,
      -0.08747719803867193,
      0.07202658851645977,
      -0.019424833178650597,
      0.03001820582166609,
      0.18387745938378997,
      -0.0197976053400426,
      -0.09867108581020684,
      0.06995166632121252,
      0.0031156939879649626,
      0.0707492676757625,
      -0.02747554962192711,
      -0.0824561174208826,
      0.008732941197519661,
      -0.29738843820042227,
      -0.10397722119265648,
      -0.26426718115423076,
      -0.0440690523767,
      -0.13443508552210975,
      0.12013923432715762,
      0.07888003473699035,
      -0.005540677377162573,
      0.060335832293655356,
      0.19925958394665522,
      0.15544921234405165,
      0.07401380300996346,
      -0.00609350321368024,
      0.07827658222788225,
      -0.052062001385430434,
      0.07732457207152404,
      0.016619136212099206,
      -0.06560153063983931,
      -0.12512081578021444,
      0.050899517230437286,
      0.1629587598924574,
      -0.0385324807682369,
      0.09017389948574706,
      -0.12463692672239124,
      -0.0892668179217585,
      0.004296265345133776,
      -0.2665849769263798,
      -0.004821396624448804,
      -0.1887353062895285,
      0.08300914837450246,
      -0.25816201666683747,
      0.03737429935984671,
      0.030553811635796957,
      0.012288127294844506,
      0.3678460197810046,
      -0.2688721373601457,
      -0.017721904753227324,
      0.021724039943890744,
      0.06001769192978296,
      0.2446541112546377,
      0.06093679256273149,
      -0.008528036762072796,
      0.07120599087023982,
      -0.32854084942417217,
      -0.03720704393572949,
      0.08378539885519432,
      -0.009610179756913084,
      -0.05742699295994513,
      -0.02884824445356915,
      -0.009598681963318978,
      -0.047531527248841465,
      0.058326974078620586,
      -0.10940182281820443,
      -0.012811908999115107,
      -0.053604008924008906,
      0.08342989063369527,
      -0.0010104928589353412,
      0.08448675367453645,
      0.06744349039205144,
      0.046866340962237296,
      0.003367259059866068,
      -0.08164968112757831,
      0.01774832936271553,
      -0.08596918066078962,
      0.08918883646228165,
      -0.03618207642768734,
      -0.003220819925669083,
      -0.054630553712311236,
      0.05799275429434636,
      -0.08439744194294369,
      0.008143313373331629,
      -0.0462601270842069,
      0.057182447389941604,
      0.1585573960129682,
      0.00015197216968837468,
      -0.011990188969115467,
      -0.012793562408363268,
      0.018950316948956214,
      -0.04830898452438265,
      -0.0004855335723006893,
      0.0956815933742311,
      0.01582154519780496,
      0.0565795020504834,
      -0.002346766270204359,
      -0.07399371419751521,
      0.02382622911268334,
      0.0018506452547817354,
      0.08788340607265954,
      0.06912563978887576,
      -0.03468175805905288,
      0.18765411719894998,
      0.022533627395523892,
      0.022046571613601573,
      -0.05017572344043003,
      0.02255978677302667,
      -0.018240288416260464,
      -0.0475352028611154,
      0.02655767548529575,
      0.09000010905825628,
      0.040635880636142985,
      0.07086407144049889,
      -0.012817916954096738,
      -0.14896426409349772,
      0.11908522790910525,
      -0.005701533891947663,
      0.013513035999947076,
      -0.04081803185327715,
      -0.04004692080038447,
      0.049289719639754814,
      -0.02268390045121288,
      -0.027352018664330402,
      0.08689407492814094,
      -0.03696931283176952,
      0.017826900023957898,
      0.018219476084639974,
      0.043289321978634276,
      0.012991261059726367,
      0.010718659360236332,
      -0.08249429305612588,
      -0.014791432807799265,
      -0.15571440359365651,
      -0.09940381702699908,
      -0.046185143201385115,
      -0.08011041709687139,
      -0.1782412189255117,
      0.04858191948789303,
      0.01292975382358491,
      0.019759229573862724,
      0.04661883104938064,
      -0.036470334254572245,
      0.007980420878455297,
      -0.09451591539096033,
      -0.230768633614061,
      -0.026854138739739408,
      -0.006146642347479109,
      0.05446132873290832,
      0.21037703577841999,
      0.07956248487261924,
      -0.027130985140554065,
      -0.02453262433537501,
      -0.09086690059339847,
      -0.017116665435302103,
      0.05961866487475426,
      0.093567762089381,
      0.06022188325796457,
      -0.10422993675881265,
      0.04858401331831563,
      0.005905685979430461,
      -0.06372897075159051,
      -0.07945420727822206,
      -0.009729215332364372,
      0.0241669025947856,
      0.015914057082329902,
      0.06372706322032262,
      0.004442365674376447,
      -0.058336849245324396,
      0.0013576439815888852,
      0.05112591479572948,
      -0.03263932401803443,
      0.013259468759163631,
      -0.03205981209269371,
      -0.006060665792095826,
      0.16833400385732822,
      0.059206531512338956,
      0.020605313247792106,
      -0.13004311149909564,
      -0.005100990178518894,
      -0.00982773203685669,
      0.0014496880392240279,
      0.06435018919444468,
      0.08771215459275222,
      -0.05455940721734431,
      0.028697889889526124,
      0.0032276457429838423,
      -0.016577852952675665,
      -0.02025463342005579,
      0.06264829542616224,
      0.06917385691259698,
      -0.005571532285413405,
      -0.05150854102259128,
      -0.03657127789148168,
      -0.025194614403153348,
      0.0309475244930687,
      0.0016260589937238112,
      0.06654017673414392,
      -0.0746440141225777,
      0.04197815932593657,
      0.12536789868547304,
      0.08001850472928151,
      0.004011922515045729,
      0.06793714867296263,
      0.024117910147843147,
      0.1538375935600027,
      0.12046346219149709,
      -0.006866087119360931,
      -0.006517990198596196,
      -0.044106516259583284,
      0.044197253349702204,
      0.007582603266421552,
      0.00975615395167273,
      -0.08105410476785468,
      0.09229293449073345,
      -0.006141258834029023,
      -0.1721789104956957,
      -0.011446094248887317,
      0.05195521813436399,
      -0.02425718886858097,
      -0.02236230548644813,
      0.07281045002603936,
      -0.10914872368529738,
      -0.001744855770008491,
      -0.006856025779391636,
      -0.046970817330200365,
      0.020227330392324716,
      -0.028210361308988186,
      0.01550190406525026,
      -0.020712080103236163,
      -0.00022437008446052342,
      -0.012354576211879187,
      0.007867041965889277,
      -0.08652729318501279,
      -0.0346775521002094,
      -0.005124169159566649,
      0.009900049060947325,
      -0.05437448430808117,
      0.0633485962202534,
      -0.0009858362134662069,
      -0.000849401099439491,
      -0.01201664012484649,
      -0.041811836341136,
