{
  "num_kernels": 84,
  "num_dilations": 8,
  "num_features": 840,
  "num_classes": 2,
  "time_series_length": 150,
  "kernel_indices": [
    [
      0,
      1,
      2
    ],
    [
      0,
      1,
      3
    ],
    [
      0,
      1,
      4
    ],
    [
      0,
      1,
      5
    ],
    [
      0,
      1,
      6
    ],
    [
      0,
      1,
      7
    ],
    [
      0,
      1,
      8
    ],
    [
      0,
      2,
      3
    ],
    [
      0,
      2,
      4
    ],
    [
      0,
      2,
      5
    ],
    [
      0,
      2,
      6
    ],
    [
      0,
      2,
      7
    ],
    [
      0,
      2,
      8
    ],
    [
      0,
      3,
      4
    ],
    [
      0,
      3,
      5
    ],
    [
      0,
      3,
      6
    ],
    [
      0,
      3,
      7
    ],
    [
      0,
      3,
      8
    ],
    [
      0,
      4,
      5
    ],
    [
      0,
      4,
      6
    ],
    [
      0,
      4,
      7
    ],
    [
      0,
      4,
      8
    ],
    [
      0,
      5,
      6
    ],
    [
      0,
      5,
      7
    ],
    [
      0,
      5,
      8
    ],
    [
      0,
      6,
      7
    ],
    [
      0,
      6,
      8
    ],
    [
      0,
      7,
      8
    ],
    [
      1,
      2,
      3
    ],
    [
      1,
      2,
      4
    ],
    [
      1,
      2,
      5
    ],
    [
      1,
      2,
      6
    ],
    [
      1,
      2,
      7
    ],
    [
      1,
      2,
      8
    ],
    [
      1,
      3,
      4
    ],
    [
      1,
      3,
      5
    ],
    [
      1,
      3,
      6
    ],
    [
      1,
      3,
      7
    ],
    [
      1,
      3,
      8
    ],
    [
      1,
      4,
      5
    ],
    [
      1,
      4,
      6
    ],
    [
      1,
      4,
      7
    ],
    [
      1,
      4,
      8
    ],
    [
      1,
      5,
      6
    ],
    [
      1,
      5,
      7
    ],
    [
      1,
      5,
      8
    ],
    [
      1,
      6,
      7
    ],
    [
      1,
      6,
      8
    ],
    [
      1,
      7,
      8
    ],
    [
      2,
      3,
      4
    ],
    [
      2,
      3,
      5
    ],
    [
      2,
      3,
      6
    ],
    [
      2,
      3,
      7
    ],
    [
      2,
      3,
      8
    ],
    [
      2,
      4,
      5
    ],
    [
      2,
      4,
      6
    ],
    [
      2,
      4,
      7
    ],
    [
      2,
      4,
      8
    ],
    [
      2,
      5,
      6
    ],
    [
      2,
      5,
      7
    ],
    [
      2,
      5,
      8
    ],
    [
      2,
      6,
      7
    ],
    [
      2,
      6,
      8
    ],
    [
      2,
      7,
      8
    ],
    [
      3,
      4,
      5
    ],
    [
      3,
      4,
      6
    ],
    [
      3,
      4,
      7
    ],
    [
      3,
      4,
      8
    ],
    [
      3,
      5,
      6
    ],
    [
      3,
      5,
      7
    ],
    [
      3,
      5,
      8
    ],
    [
      3,
      6,
      7
    ],
    [
      3,
      6,
      8
    ],
    [
      3,
      7,
      8
    ],
    [
      4,
      5,
      6
    ],
    [
      4,
      5,
      7
    ],
    [
      4,
      5,
      8
    ],
    [
      4,
      6,
      7
    ],
    [
      4,
      6,
      8
    ],
    [
      4,
      7,
      8
    ],
    [
      5,
      6,
      7
    ],
    [
      5,
      6,
      8
    ],
    [
      5,
      7,
      8
    ],
    [
      6,
      7,
      8
    ]
  ],
  "dilations": [
    1,
    2,
    3,
    5,
    7,
    9,
    13,
    18
  ],
  "num_features_per_dilation": [
    3,
    1,
    1,
    1,
    1,
    1,
    1,
    1
  ],
  "biases": [
    0.05686843767762184,
    -0.4065573215484619,
    1.395632028579712,
    -0.006175159476697445,
    -2.038247585296631,
    0.095083087682724,
    -0.07885827869176865,
    2.802727699279785,
    -0.011853535659611225,
    -0.6774344444274902,
    0.45712989568710327,
    -0.02034570649266243,
    -3.0568618774414062,
    0.010737692005932331,
    -0.023666605353355408,
    1.0573056936264038,
    -0.001123904949054122,
    -0.6546090245246887,
    0.14222560822963715,
    -0.021709665656089783,
    1.5363019704818726,
    0.020602283999323845,
    -0.1884257048368454,
    0.902450680732727,
    -0.016393162310123444,
    -2.4219729900360107,
    0.0019867559894919395,
    -0.16633662581443787,
    1.745039463043213,
    -0.012206170707941055,
    -0.230806365609169,
    0.1456766575574875,
    -0.021053696051239967,
    -1.5997436046600342,
    0.0008358127670362592,
    -0.04788194224238396,
    0.503684401512146,
    -0.0017150789499282837,
    -0.5082460641860962,
    0.04035719484090805,
    -0.033737991005182266,
    2.330456256866455,
    0.0007209003088064492,
    -0.1144501194357872,
    0.35837146639823914,
    -0.007842973805963993,
    -1.376645565032959,
    0.013809244148433208,
    -0.06555239856243134,
    0.5375291705131531,
    -0.0068176668137311935,
    -0.1412298083305359,
    0.059889066964387894,
    -0.013231231831014156,
    1.6853604316711426,
    0.009864075109362602,
    -0.04287520423531532,
    0.18436449766159058,
    -0.0002035604848060757,
    -0.6201285719871521,
    0.023808008059859276,
    -0.010264931246638298,
    0.38442498445510864,
    0.006363274529576302,
    -0.12866470217704773,
    0.10183273255825043,
    -0.008447453379631042,
    -1.1630065441131592,
    0.0038339728489518166,
    -0.017278378829360008,
    0.04056583344936371,
    -0.0024171178229153156,
    -0.26915669441223145,
    0.057727500796318054,
    -0.008055388927459717,
    0.8760345578193665,
    0.0026843200903385878,
    -0.026823822408914566,
    0.08571360260248184,
    -0.004213681444525719,
    -0.6431318521499634,
    0.07627340406179428,
    -0.05138944089412689,
    1.0070840120315552,
    -0.015844697132706642,
    -0.9581306576728821,
    0.2893291413784027,
    -0.050877492874860764,
    -3.3707971572875977,
    0.012433880008757114,
    -0.09162699431180954,
    0.477818101644516,
    -0.002452313434332609,
    -0.7864587903022766,
    0.008478646166622639,
    -0.008442128077149391,
    0.7822424173355103,
    -0.010474717244505882,
    -0.05268370360136032,
    0.18466995656490326,
    -0.006730427499860525,
    -0.5991894602775574,
    0.015070773661136627,
    -0.0697934627532959,
    1.1839691400527954,
    0.005033530294895172,
    -0.12048421055078506,
    0.021215852349996567,
    -0.015566269867122173,
    1.051755666732788,
    0.00624390784651041,
    -0.020518817007541656,
    0.2331143468618393,
    -0.004693369846791029,
    -0.1486872285604477,
    0.009312731213867664,
    -0.022947682067751884,
    0.7351784110069275,
    -0.004853646270930767,
    -0.2290467470884323,
    0.10475845634937286,
    -0.026424840092658997,
    -1.3358503580093384,
    0.0017560793785378337,
    -0.008486364036798477,
    0.029689116403460503,
    0.000451215251814574,
    -0.31805419921875,
    0.009412758983671665,
    -0.003654936794191599,
    0.2121696025133133,
    0.0051435730420053005,
    -0.07702693343162537,
    0.05627644434571266,
    -0.007547012995928526,
    -0.8671924471855164,
    0.008239714428782463,
    -0.008325912989675999,
    0.5546683073043823,
    0.008148878812789917,
    -0.32572636008262634,
    0.1303575336933136,
    -0.02782651223242283,
    2.731840133666992,
    0.0217538271099329,
    -0.07725650072097778,
    0.2624810039997101,
    -0.000946986663620919,
    -1.3152471780776978,
    0.03762076050043106,
    -0.03261025622487068,
    0.9298827052116394,
    -0.0029656831175088882,
    -0.15240338444709778,
    0.09812571853399277,
    -0.004981995560228825,
    -0.39790669083595276,
    0.0096458550542593,
    -0.019975092262029648,
    0.28787291049957275,
    -0.003284081118181348,
    -0.225885808467865,
    0.06885973364114761,
    -0.004092686343938112,
    0.37705761194229126,
    0.003018974792212248,
    -0.02346166968345642,
    0.040246084332466125,
    -0.005952402018010616,
    -0.48323923349380493,
    0.006293262355029583,
    -0.0694483295083046,
    0.7135218381881714,
    0.005231520626693964,
    -0.2169472724199295,
    0.017844686284661293,
    -0.006463272962719202,
    -1.1126775741577148,
    0.00410282239317894,
    -0.023687612265348434,
    0.41522806882858276,
    0.012218975462019444,
    -0.7901893258094788,
    0.028508592396974564,
    -0.034215521067380905,
    1.5516042709350586,
    0.005445235874503851,
    -0.25653550028800964,
    0.22659151256084442,
    0.0061456868425011635,
    -1.9765390157699585,
    0.053253933787345886,
    -0.10001510381698608,
    0.2147890329360962,
    -0.005151583347469568,
    -0.39844340085983276,
    0.036909282207489014,
    0.00019665498984977603,
    1.044471263885498,
    0.02028045617043972,
    -0.11852524429559708,
    0.24807743728160858,
    -0.0009825348388403654,
    -1.0276633501052856,
    0.036684222519397736,
    -0.027878865599632263,
    0.6952908039093018,
    0.002258834894746542,
    -0.29728996753692627,
    0.10741377621889114,
    -0.014771328307688236,
    -1.6071494817733765,
    0.016541818156838417,
    -0.028817258775234222,
    0.8286198973655701,
    0.013534024357795715,
    -1.166700005531311,
    0.10883213579654694,
    -0.002580657135695219,
    2.6828854084014893,
    0.02221018821001053,
    -0.08149033039808273,
    0.08197450637817383,
    0.00274862814694643,
    -1.7319872379302979,
    0.01301141269505024,
    -0.021628642454743385,
    0.9055110812187195,
    0.0018274442991241813,
    -0.888577401638031,
    0.14415834844112396,
    -0.017397606745362282,
    -3.7026944160461426,
    0.10094598680734634,
    -0.0614677332341671,
    0.7601638436317444,
    -0.00044449378037825227,
    -2.197197198867798,
    0.12152624130249023,
    -0.07830622792243958,
    2.763014554977417,
    -0.009250245057046413,
    -0.46626612544059753,
    0.08337938040494919,
    0.0014522194396704435,
    -3.350289821624756,
    0.028982771560549736,
    -0.07717027515172958,
    1.7974989414215088,
    -0.011903292499482632,
    -1.713133692741394,
    0.23036877810955048,
    -0.2579890787601471,
    5.979012966156006,
    0.12037646770477295,
    -0.9996961951255798,
    1.4797203540802002,
    -0.07181409746408463,
    -2.208444118499756,
    0.1901625245809555,
    -0.22863955795764923,
    2.787081480026245,
    -0.006435835734009743,
    -0.6648657321929932,
    0.7968226671218872,
    -0.029638666659593582,
    -4.000951766967773,
    0.11864937841892242,
    -0.11247861385345459,
    0.9809499979019165,
    -0.004402773454785347,
    -1.1713197231292725,
    0.08653175085783005,
    -0.05020158737897873,
    0.8277537226676941,
    0.017023753374814987,
    -0.28629007935523987,
    0.41818854212760925,
    -0.020310621708631516,
    -2.635512113571167,
    0.3067297339439392,
    -0.24980242550373077,
    2.091939687728882,
    0.011278197169303894,
    -0.6797395944595337,
    0.5084470510482788,
    -0.021986698731780052,
    2.498173713684082,
    0.07531211525201797,
    -0.11856135725975037,
    0.48736900091171265,
    -0.004945586435496807,
    -1.0638394355773926,
    0.013498599641025066,
    -0.06916463375091553,
    0.5131322145462036,
    5.447756848298013e-05,
    -0.39393243193626404,
    0.11061754077672958,
    0.00853097252547741,
    -4.232694625854492,
    0.01895364187657833,
    -0.37076619267463684,
    0.5250212550163269,
    -0.00592294754460454,
    -0.5181503295898438,
    0.15016475319862366,
    -0.017975229769945145,
    1.3097615242004395,
    -0.0060662259347736835,
    -0.2811800241470337,
    0.10231277346611023,
    -0.0054573481902480125,
    -2.240192174911499,
    0.10135939717292786,
    -0.07285445928573608,
    1.54581880569458,
    0.00852966494858265,
    -1.0930943489074707,
    0.28194984793663025,
    -0.0075315386056900024,
    -3.475985288619995,
    0.12510739266872406,
    -0.8126676678657532,
    1.680236577987671,
    6.471716915257275e-05,
    -2.0967187881469727,
    0.03349461778998375,
    -0.0681445300579071,
    4.095767498016357,
    0.16318844258785248,
    -1.7071657180786133,
    0.5661689043045044,
    -0.01618618704378605,
    -5.722716808319092,
    0.20361672341823578,
    -0.5162039995193481,
    5.383822917938232,
    0.047142188996076584,
    -3.616163969039917,
    1.4418631792068481,
    -0.11066976934671402,
    5.25294303894043,
    0.5270946025848389,
    -1.4985159635543823,
    2.261777639389038,
    0.02430979534983635,
    -2.5700807571411133,
    0.644652247428894,
    -0.4128684103488922,
    2.4951939582824707,
    0.0044006709940731525,
    -0.684437096118927,
    1.0362459421157837,
    -0.12397593259811401,
    -1.8269156217575073,
    0.017018213868141174,
    -0.42557433247566223,
    0.8754035234451294,
    -0.010664504021406174,
    -1.94937264919281,
    0.4059073328971863,
    -0.04794995114207268,
    4.964113712310791,
    0.025571955367922783,
    -1.7322207689285278,
    1.568666934967041,
    0.003960836213082075,
    -1.8275482654571533,
    0.21914741396903992,
    -0.8368864059448242,
    2.257524013519287,
    0.011429715901613235,
    -0.4381238520145416,
    0.5715458393096924,
    -0.1752442866563797,
    1.6615790128707886,
    0.008662286214530468,
    -0.2732517123222351,
    0.5734348893165588,
    -0.012886404059827328,
    -1.2244759798049927,
    0.2637995481491089,
    -0.06059496849775314,
    4.5683417320251465,
    -0.009951799176633358,
    -1.3762669563293457,
    0.6840822100639343,
    -0.15206535160541534,
    -1.2087984085083008,
    0.09182295203208923,
    -0.8351970314979553,
    0.6145801544189453,
    0.033380866050720215,
    -1.9445267915725708,
    0.21453431248664856,
    -0.018942812457680702,
    2.754758834838867,
    0.32343170046806335,
    -1.2333660125732422,
    1.0501956939697266,
    -0.0038380695041269064,
    -2.3286492824554443,
    0.21519722044467926,
    -0.6837185621261597,
    2.245074987411499,
    0.02148287743330002,
    -2.184753894805908,
    1.5108848810195923,
    -0.5076213479042053,
    -4.433371543884277,
    0.12494011223316193,
    -1.1550912857055664,
    1.9849835634231567,
    -0.03810812532901764,
    -5.530107021331787,
    1.0344188213348389,
    -0.30063778162002563,
    8.433589935302734,
    -0.05973498150706291,
    -4.843893527984619,
    5.574453353881836,
    -0.28926071524620056,
    -5.593648910522461,
    1.8825397491455078,
    -0.5389734506607056,
    4.310949325561523,
    0.7375284433364868,
    -4.728426933288574,
    2.3281283378601074,
    -0.06151020899415016,
    5.322498321533203,
    0.9225072264671326,
    -1.9643256664276123,
    2.2479195594787598,
    0.0479244701564312,
    -1.9362993240356445,
    1.361168622970581,
    -0.6970223784446716,
    2.032644033432007,
    0.024085000157356262,
    -0.978502631187439,
    1.0706806182861328,
    -0.01808185502886772,
    -3.385315418243408,
    0.21206034719944,
    -0.6216496825218201,
    3.4415030479431152,
    0.18185117840766907,
    -5.565091609954834,
    1.8313257694244385,
    -0.411371648311615,
    3.954923629760742,
    0.6697168946266174,
    -3.1633245944976807,
    2.0878424644470215,
    -0.06832453608512878,
    -1.8933823108673096,
    0.20244409143924713,
    -0.8925090432167053,
    1.8335686922073364,
    0.0667918473482132,
    -0.9421426653862,
    0.6511287093162537,
    -0.016799768432974815,
    -2.680574655532837,
    0.30140578746795654,
    -1.1008964776992798,
    3.2818784713745117,
    -0.6064127087593079,
    -3.9601564407348633,
    0.23379383981227875,
    -0.5862740874290466,
    2.842817783355713,
    0.01659896969795227,
    -1.5931183099746704,
    0.4783998131752014,
    -0.20503859221935272,
    -2.071962594985962,
    0.20045459270477295,
    -1.1409931182861328,
    3.134577989578247,
    0.3023560345172882,
    -3.1954128742218018,
    0.24958404898643494,
    -0.9151468276977539,
    3.8835394382476807,
    0.20990173518657684,
    -2.18432354927063,
    2.548943519592285,
    0.05489661917090416,
    -4.27848482131958,
    0.34830546379089355,
    -1.3345445394515991,
    5.561379909515381,
    0.04251166060566902,
    -3.064037799835205,
    2.2233331203460693,
    -0.6275003552436829,
    -6.909520626068115,
    0.3675270676612854,
    -2.1935317516326904,
    7.189957141876221,
    -0.4385775327682495,
    -7.9431023597717285,
    2.8458750247955322,
    -1.92620849609375,
    7.316824913024902,
    1.2880066633224487,
    -3.058722972869873,
    4.0624518394470215,
    -0.40254420042037964,
    -8.435188293457031,
    1.9159964323043823,
    -1.503919243812561,
    4.180208683013916,
    1.1210936307907104,
    -4.704519271850586,
    2.3766579627990723,
    -0.9704962372779846,
    4.074765682220459,
    1.6506305932998657,
    -1.5855786800384521,
    1.4932080507278442,
    0.039844345301389694,
    -2.742708683013916,
    1.250180721282959,
    -0.8052477836608887,
    3.5163497924804688,
    0.8246331810951233,
    -3.3734169006347656,
    4.07210111618042,
    -1.5208262205123901,
    -8.762481689453125,
    1.4143617153167725,
    -1.9173269271850586,
    2.873781442642212,
    0.6868446469306946,
    -5.596065998077393,
    1.5895315408706665,
    -1.0562410354614258,
    3.2970712184906006,
    0.560899555683136,
    -2.433852434158325,
    1.267130732536316,
    -0.0185718834400177,
    -2.5012714862823486,
    0.7767170667648315,
    -0.5240448117256165,
    2.479921579360962,
    0.04253740236163139,
    -2.829113483428955,
    3.129664897918701,
    -1.0995639562606812,
    -6.092766761779785,
    0.9212300777435303,
    -0.9663652181625366,
    2.4780519008636475,
    0.02132916823029518,
    -3.329488515853882,
    0.35505199432373047,
    -0.933229386806488,
    2.916757583618164,
    -0.04108915105462074,
    -1.8338007926940918,
    1.8849334716796875,
    -0.18770435452461243,
    -6.2847490310668945,
    -0.7036781907081604,
    -0.673902690410614,
    3.7439334392547607,
    0.16643066704273224,
    -3.4681012630462646,
    1.273512363433838,
    -0.6460406184196472,
    6.2352495193481445,
    1.2640191316604614,
    -4.301213264465332,
    3.7179408073425293,
    -1.0060608386993408,
    -5.800327777862549,
    1.7604001760482788,
    -2.996288299560547,
    6.22418212890625,
    -0.12606406211853027,
    -6.017416954040527,
    4.975844860076904,
    -1.2755433320999146,
    -11.593090057373047,
    3.031292676925659,
    -2.7562255859375,
    6.165422439575195,
    1.0231757164001465,
    -6.13815975189209,
    5.136017799377441,
    -2.6173667907714844,
    5.85113000869751,
    1.2380613088607788,
    -2.472299098968506,
    3.4282259941101074,
    -0.6901246309280396,
    -7.801002025604248,
    1.197235107421875,
    -1.3229283094406128,
    2.906890869140625,
    1.2323005199432373,
    -3.723785877227783,
    1.2018359899520874,
    -0.715237557888031,
    -3.9993417263031006,
    0.7352303862571716,
    -1.6691097021102905,
    3.6001994609832764,
    0.37264466285705566,
    -7.606388092041016,
    4.1314311027526855,
    -3.8053512573242188,
    8.318044662475586,
    -0.6698476076126099,
    -2.8017733097076416,
    2.345766544342041,
    -0.469343900680542,
    -7.3918938636779785,
    1.2059251070022583,
    -1.4299546480178833,
    2.7643320560455322,
    0.7595133185386658,
    -4.127930164337158,
    0.5996884107589722,
    -0.5597642660140991,
    4.223511219024658,
    0.4258439838886261,
    -1.3120365142822266,
    2.211169481277466,
    0.46575579047203064,
    -5.630675315856934,
    2.15112042427063,
    -4.264570236206055,
    7.982269763946533,
    0.10619181394577026,
    -2.1175529956817627,
    1.380873203277588,
    -1.9454585313796997,
    -5.411077976226807,
    0.028587650507688522,
    -1.3726977109909058,
    4.0822601318359375,
    -0.09450611472129822,
    -2.1941232681274414,
    1.6632146835327148,
    -0.9320354461669922,
    7.85745906829834,
    -1.1588324308395386,
    -4.287126541137695,
    3.203662872314453,
    -0.6303187608718872,
    -7.311682224273682,
    1.0867409706115723,
    -1.245072603225708,
    3.758629083633423,
    0.8683819770812988,
    -5.5588459968566895,
    1.2348864078521729,
    -2.596909999847412,
    5.840129852294922,
    2.0887951850891113,
    -4.178725242614746,
    5.896526336669922,
    -2.3281044960021973,
    -7.7505106925964355,
    3.792433977127075,
    -3.031193256378174,
    6.924241065979004,
    2.1486566066741943,
    -4.03462553024292,
    3.4933087825775146,
    -0.409123957157135,
    -6.962761402130127,
    4.382835865020752,
    -4.186827182769775,
    5.827908039093018,
    0.9578039050102234,
    -2.8193652629852295,
    3.6959214210510254,
    -0.3828604817390442,
    6.505660057067871,
    0.9500612020492554,
    -1.7847530841827393,
    2.1317875385284424,
    -0.04367700219154358,
    -5.116133213043213,
    1.0531710386276245,
    -1.6159275770187378,
    3.5926918983459473,
    1.644235610961914,
    -3.5345723628997803,
    2.4756577014923096,
    -1.9007664918899536,
    -7.313439846038818,
    4.217005729675293,
    -5.761441707611084,
    6.5314106941223145,
    -0.5332032442092896,
    -4.080194473266602,
    3.022142171859741,
    -1.1617443561553955,
    8.348508834838867,
    -0.1550784409046173,
    -1.5938794612884521,
    1.8771791458129883,
    -0.06060590595006943,
    -5.496583938598633,
    0.2667265832424164,
    -0.451444536447525,
    2.819993257522583,
    -0.2751034200191498,
    -2.687152862548828,
    1.7981159687042236,
    -0.9947459101676941,
    5.953744411468506,
    1.8855036497116089,
    -6.545040130615234,
    5.71472692489624,
    1.7832856178283691,
    -4.622344493865967,
    2.9818027019500732,
    -2.877650022506714,
    5.914773941040039,
    -0.34654703736305237,
    -3.736241340637207,
    1.9259881973266602,
    -0.7036912441253662,
    -3.62320613861084,
    1.4298349618911743,
    -1.341802716255188,
    6.120969772338867,
    1.1465154886245728,
    -5.616274356842041,
    0.20461001992225647,
    -2.5483076572418213,
    6.017611026763916,
    0.5217204093933105,
    -1.9649652242660522,
    2.354597568511963,
    -0.5454442501068115,
    -4.708643436431885,
    2.9900166988372803,
    -4.087326526641846,
    6.639047622680664,
    0.31887006759643555,
    -5.571521282196045,
    2.3878350257873535,
    -3.3348233699798584,
    7.168476581573486,
    1.4860635995864868,
    -6.322237491607666,
    7.882559776306152,
    -1.0369493961334229,
    -4.9754743576049805,
    1.3722959756851196,
    0.08421804010868073,
    8.060140609741211,
    -1.8150434494018555,
    -5.290449619293213,
    2.054074764251709,
    0.07331562787294388,
    -5.6759514808654785,
    3.0353446006774902,
    -4.4066338539123535,
    6.406866073608398,
    0.6680851578712463,
    -2.982503890991211,
    2.151583671569824,
    -2.5880701541900635,
    5.30710506439209,
    0.201859712600708,
    -1.6120989322662354,
    3.8858790397644043,
    -2.058755874633789,
    -5.531153678894043,
    0.8195245265960693,
    -3.5110976696014404,
    4.891538619995117,
    -1.542258620262146,
    -8.51956558227539,
    3.059706211090088,
    -0.8027184009552002,
    -6.131008625030518,
    3.4315426349639893,
    -3.715012550354004,
    5.591495037078857,
    -0.0043199872598052025,
    -2.4601073265075684,
    2.2334046363830566,
    -1.3751938343048096,
    8.521565437316895,
    1.1296777725219727,
    -2.1706230640411377,
    0.7978345155715942,
    -0.8544998168945312,
    -3.559767007827759,
    1.4237622022628784,
    -1.3188472986221313,
    4.0430827140808105,
    1.84792160987854,
    -5.901106357574463,
    3.287574291229248,
    -0.7503697872161865,
    4.243477821350098,
    1.7042105197906494,
    -4.440274238586426,
    3.5417349338531494,
    0.9112588763237,
    -5.853246688842773,
    0.97496497631073,
    -1.4822397232055664,
    4.1852946281433105,
    1.8032327890396118,
    -2.8914291858673096,
    4.904092311859131,
    -4.9479851722717285,
    -6.5092926025390625,
    0.9851750731468201,
    -2.7322704792022705,
    5.5219831466674805,
    1.3922982215881348,
    -2.179298162460327,
    1.0682200193405151,
    -1.6748579740524292,
    8.999338150024414,
    2.8351449966430664,
    -2.6830928325653076,
    4.1830925941467285,
    -1.0818963050842285,
    -5.876591682434082,
    -0.6790636777877808,
    -4.583319187164307,
    6.674403190612793,
    1.5669103860855103,
    -4.0391035079956055
  ],
  "scaler_mean": [
    0.314857143163681,
    0.8089999978031431,
    0.14557142869702408,
    0.5055834972432681,
    0.914587533048221,
    0.2636317900248936,
    0.6984761893749237,
    0.050761904826919946,
    0.5418571410434586,
    0.8727867186069489,
    0.17168008025203432,
    0.5951207241841725,
    0.987809529049056,
    0.3996190476630415,
    0.6203333356550762,
    0.09622736339058195,
    0.4801307827234268,
    0.895774650147983,
    0.23300000019371508,
    0.6557619043758938,
    0.047380952563669,
    0.36332997871296746,
    0.7845070421695709,
    0.13787726344806808,
    0.5742857149669103,
    0.9358095254216875,
    0.456809524340289,
    0.798843059369496,
    0.06710261517603483,
    0.5655432584030288,
    0.8262380923543657,
    0.22466666650559222,
    0.6289047607353755,
    0.9711770679269518,
    0.4559356118951525,
    0.7399396359920501,
    0.13852380963840655,
    0.5126190500599997,
    0.9110000069652285,
    0.29265593396765843,
    0.6589034169912338,
    0.01745472839102149,
    0.45961904738630566,
    0.7705714298146111,
    0.17300000126872744,
    0.5616197175213269,
    0.9641348132065364,
    0.34592555218509263,
    0.7935238105910165,
    0.11552381073789937,
    0.5744761879955019,
    0.8596076450177601,
    0.22535211092659405,
    0.63445674095835,
    0.005904762054394399,
    0.3715714299253055,
    0.7062380969524383,
    0.16524144884731087,
    0.48078470677137375,
    0.9243460838283811,
    0.26066666596702165,
    0.6542857140302658,
    0.06638095211237668,
    0.36237424409815244,
    0.8457746463162559,
    0.16448692115289823,
    0.6387142832790103,
    0.9908571515764509,
    0.43295238060610636,
    0.7098088528428759,
    0.19039235343890532,
    0.528169011431081,
    0.8808095229523523,
    0.23704761979835373,
    0.6069999973688807,
    0.023591549335313693,
    0.42967806713921686,
    0.7121227383613586,
    0.23385714377675737,
    0.5616666649069105,
    0.9156190586941583,
    0.22590543164738586,
    0.7237424535410745,
    0.06896378211677075,
    0.5668571423207011,
    0.8748095235654286,
    0.197428572550416,
    0.7061368192945208,
    0.9904426566192082,
    0.38179074344890457,
    0.7537142881325313,
    0.15552381010992186,
    0.49433333426713943,
    0.9163480937480927,
    0.3831991946058614,
    0.5745975837111473,
    0.069761903836791,
    0.6171904757618905,
    0.7738095215388707,
    0.14567404402686016,
    0.5867203222853797,
    0.9544768631458282,
    0.35309523812362126,
    0.7354761902775083,
    0.09066666630761964,
    0.4186116684760366,
    0.8172535198075431,
    0.3093058339187077,
    0.6561904745442527,
    0.019142857460039003,
    0.3863333341266428,
    0.7434104634182793,
    0.10477867113160236,
    0.5909456734146391,
    0.9006666664566313,
    0.3380476201219218,
    0.7428095230034419,
    0.06654929538656558,
    0.5686116674116679,
    0.882796778849193,
    0.15071428646998747,
    0.7494761888469968,
    0.9927142896822521,
    0.44934607659067427,
    0.7219818894352231,
    0.13712273607296602,
    0.5030476189085415,
    0.9057619082076209,
    0.3439523824623653,
    0.6098591519253594,
    0.03661971790716052,
    0.410563379739012,
    0.821333332998412,
    0.1733809532331569,
    0.6451428579432624,
    0.9700201260192054,
    0.4054828973753112,
    0.6370724335312843,
    0.09933333455451897,
    0.4071904765708106,
    0.8621904815946306,
    0.17771629717733178,
    0.7136317925793784,
    0.00030181087287408964,
    0.37800000192863603,
    0.7653809526136943,
    0.1726666680404118,
    0.5150905387742178,
    0.946327970283372,
    0.29195170955998556,
    0.708809524348804,
    0.04604761942422816,
    0.5304285717861993,
    0.872887321455138,
    0.19170020084295955,
    0.5977364205888339,
    0.9664761913674218,
    0.3422857152564185,
    0.7361904753105981,
    0.07982897354023798,
    0.5570422506758145,
    0.8912977835961751,
    0.22152380953942027,
    0.5583809488586017,
    0.09057142886200122,
    0.471881285735539,
    0.7381790757179261,
    0.24818913415074348,
    0.6095238070402826,
    0.9391428534473691,
    0.3773333351526942,
    0.7717303812503815,
    0.05945674066564866,
    0.4443158928837095,
    0.841904763664518,
    0.3088095248809883,
    0.6095238085303988,
    0.9929577482598169,
    0.45452716307980673,
    0.7234909453562328,
    0.13242857291230134,
    0.40209523790649004,
    0.8960952303239278,
    0.306740440428257,
    0.7288732375417437,
    0.02937625747706209,
    0.4804761899369104,
    0.8089523813554219,
    0.18071428707667758,
    0.47892354003020693,
    0.9550301841327122,
    0.29657947612660274,
    0.7613809517451695,
    0.14052380993962288,
    0.5654761874250003,
    0.905583502139364,
    0.2642354111586298,
    0.5239436603018216,
    0.03933333380679999,
    0.2950476200452873,
    0.7937142802136284,
    0.14773641814078603,
    0.5394869191305978,
    0.9334507111992155,
    0.259666666920696,
    0.6888571453945977,
    0.0748095235654286,
    0.4934607620750155,
    0.8482897396598543,
    0.18888329980628832,
    0.6350476181932858,
    0.9496190462793622,
    0.3935714305511543,
    0.6989436613661902,
    0.09336015981222902,
    0.40583501011133194,
    0.886190471478871,
    0.24942857165421758,
    0.549857140651771,
    0.04421529139259032,
    0.3956237428954669,
    0.7418511050088065,
    0.20661904785249915,
    0.4753333330154419,
    0.969952387043408,
    0.4062374231006418,
    0.6718309840985707,
    0.08888329906123026,
    0.5086666667035648,
    0.8635238157851356,
    0.22280952366335052,
    0.6428571430700166,
    0.9999496983630317,
    0.23531186942543303,
    0.7126190492085048,
    0.13633333354124,
    0.5317142825041499,
    0.9193158979926791,
    0.2520120725035667,
    0.7308350098984582,
    0.052952381462923116,
    0.5771428568022592,
    0.811142858011382,
    0.2843058330672128,
    0.518460761649268,
    0.9849094582455499,
    0.40004761878933226,
    0.7109523798738208,
    0.10866666861942836,
    0.5884305824126516,
    0.8846579432487488,
    0.21846076282007354,
    0.7026652455329895,
    0.03866666692442128,
    0.32510661067707197,
    0.8072380921670369,
    0.14637526665548128,
    0.666047619496073,
    0.9210021385124751,
    0.3162380950791495,
    0.7236140698194504,
    0.08552380869431155,
    0.5107675886579922,
    0.8575714315686908,
    0.1475479745971305,
    0.5679047605821065,
    0.9981343299150467,
    0.31580952512366434,
    0.744189766049385,
    0.13280952482351235,
    0.5139658857669149,
    0.924095242364066,
    0.24909381791949273,
    0.6691904736416681,
    0.020682302616270524,
    0.3686190472117492,
    0.7724946686199733,
    0.20200000064713614,
    0.5661513873508999,
    0.9443809500762395,
    0.24450959541967937,
    0.7139523825475148,
    0.10154584271700255,
    0.432095239843641,
    0.8921108739716667,
    0.21376190579363277,
    0.584648186819894,
    0.03433333364581423,
    0.2857675913721323,
    0.7832857140472957,
    0.10287846590259246,
    0.5089999988675118,
    0.9563965805939265,
    0.33700000090258464,
    0.7309168479272298,
    0.0827142863667437,
    0.5114072518689292,
    0.8214761861733028,
    0.23033049117241586,
    0.49828571251460485,
    0.9966417917183468,
    0.40671428676162447,
    0.8166311310870307,
    0.1479047623063837,
    0.5873134323528835,
    0.880380956189973,
    0.27979744193809375,
    0.6011904742036547,
    0.021321961167268456,
    0.5393809531416212,
    0.7949360345091139,
    0.24576190561056138,
    0.5409381653581347,
    0.9562380884374891,
    0.30735607785837993,
    0.6572857111692428,
    0.05943496758450887,
    0.4405714294740132,
    0.9006929691348757,
    0.23314285821148328,
    0.5802771847162927,
    0.995571431517601,
    0.299786780242409,
    0.8048571420567376,
    0.13459488302469252,
    0.5123333317892892,
    0.9211087473801204,
    0.3875714290354933,
    0.6602345398494176,
    0.047190476900764874,
    0.3042643929166453,
    0.8230476106916155,
    0.18981876320072583,
    0.5591904750892094,
    0.9494136397327696,
    0.3313809537461826,
    0.6690476187637874,
    0.11938775855648731,
    0.4452380950961794,
    0.8523242563009262,
    0.2420000002852508,
    0.6442176906125886,
    0.014619047620466777,
    0.3121882180816361,
    0.7689999878406525,
    0.17743764570914208,
    0.46099999994039537,
    0.9099773168563843,
    0.3080952380384718,
    0.7031746072428567,
    0.10714285708963871,
    0.48650794540132797,
    0.8278095194271633,
    0.16712018522833075,
    0.6111904753105981,
    0.9527210759265082,
    0.4368095225521496,
    0.7553287987198148,
    0.1516666674188205,
    0.5218820950814655,
    0.9576666614839009,
    0.23424036912620066,
    0.6232857135789734,
    0.043310659026194895,
    0.4530952376978738,
    0.8310090673821313,
    0.18219047864632948,
    0.509523817045348,
    0.9285238159554345,
    0.28123583740421704,
    0.7598571389913559,
    0.11286848355749889,
    0.4520476194364684,
    0.8696711957454681,
    0.22147619224020412,
    0.7337301599127906,
    0.010428571587960634,
    0.44234694412776404,
    0.7869999936648777,
    0.1395691665155547,
    0.5805714251739639,
    0.8688775445733752,
    0.2643809537802424,
    0.6306689432689122,
    0.053380952848653705,
    0.5490929748330797,
    0.8285714268684388,
    0.2144557846976178,
    0.6905714277710233,
    0.9485260665416717,
    0.3173333333006927,
    0.819274371436664,
    0.11423809661396912,
    0.40243764839002066,
    0.9397618966443199,
    0.2602607786655426,
    0.5536190465092659,
    0.06751700901160283,
    0.33076190586600984,
    0.7705782302788325,
    0.1752857152904783,
    0.5399093044655664,
    0.9286190526826041,
    0.30272109785250256,
    0.7163333305290767,
    0.1107142881091152,
    0.4474761920315879,
    0.8530045313494546,
    0.220619048923254,
    0.6853741552148547,
    0.9579047573464258,
    0.34841270595788953,
    0.7468095277036939,
    0.16190476715564728,
    0.5526190457599504,
    0.9150793556656156,
    0.2251904770731926,
    0.6570861741900444,
    0.031523809821477955,
    0.5725056788751057,
    0.738181819660323,
    0.17047619250203883,
    0.5813636319977896,
    0.9235238126346044,
    0.3075974002746599,
    0.7112380921840668,
    0.12876623291522266,
    0.394428572590862,
    0.8162337699106761,
    0.24314285750899997,
    0.5436363592743874,
    0.006142857264993446,
    0.32422077909245023,
    0.7274285703897476,
    0.26168831121176483,
    0.45795238209622247,
    0.8379870155027934,
    0.3097619050315448,
    0.7178571432828903,
    0.07052380951520587,
    0.4527272726808276,
    0.8230952377830233,
    0.26279220644916806,
    0.5517619024430003,
    0.9555844166449138,
    0.4489047620977674,
    0.6285714230367115,
    0.1605238110359226,
    0.4651298715599946,
    0.900428569316864,
    0.29188311638177505,
    0.6211428595440728,
    0.04707792141873922,
    0.3719523821558271,
    0.8325974064213889,
    0.16938095348221915,
    0.6023376605340413,
    0.9351904779672623,
    0.3555194820676531,
    0.7303809489522661,
    0.09941558348946274,
    0.38609523858342853,
    0.8592207827738353,
    0.24657142918024744,
    0.5442207785589355,
    0.9854285687208175,
    0.29974025945578303,
    0.8005714327096939,
    0.1529220779692488,
    0.5522857152989933,
    0.9287662348576955,
    0.34100000113248824,
    0.7485714282308306,
    0.02380952389378633,
    0.5075974008866719,
    0.7994761896984918,
    0.23577922061085702,
    0.5763333337647575,
    0.8717532498495919,
    0.35609523824283057,
    0.6482467544930322,
    0.09347619044461421,
    0.38915584406682424,
    0.8646190528358731,
    0.4137662344745227,
    0.6068095262561526,
    0.07324675313596214,
    0.34133333372218266,
    0.8083766209227699,
    0.14671428576111795,
    0.4490909084677696,
    0.9148095267159598,
    0.3875324670757566,
    0.6852380918604987,
    0.1012987014837563,
    0.43319047625575746,
    0.8043506515877588,
    0.22233333342841693,
    0.5941558422786849,
    0.9421428582498006,
    0.37233766221574377,
    0.7194285801478795,
    0.1622727264251028,
    0.5804285715733256,
    0.8364285635096687,
    0.3933130749168673,
    0.6342857139451163,
    0.057674772378855516,
    0.41319047425474437,
    0.6974923832075937,
    0.21333333392228399,
    0.5612461937325341,
    0.9894285695893424,
    0.42112462310386556,
    0.7219999973263059,
    0.12765957553471838,
    0.4646190462367875,
    0.8310790474925722,
    0.21685714383742638,
    0.6145136684179306,
    0.0030000000460339445,
    0.2923252290646945,
    0.7462857152734484,
    0.2037993898482195,
    0.4837142833641597,
    0.8665653654507228,
    0.2810952383492674,
    0.614437678030559,
    0.07995238147143807,
    0.33875379993447235,
    0.8360952351774488,
    0.15129179320564226,
    0.6074761880295617,
    0.9935410342046193,
    0.328761905006,
    0.6849544001477105,
    0.1409047625426735,
    0.3658814590424299,
    0.8879523800952094,
    0.3836626195016184,
    0.673333334497043,
    0.005775075977934258,
    0.42657142813716614,
    0.858814606496266,
    0.15209523870476654,
    0.5941489275012698,
    0.951666665502957,
    0.38791793478386744,
    0.6599999985524586,
    0.11162613985527839,
    0.5183809523071562,
    0.7243920773267746,
    0.2075238117149898,
    0.6459726474114826,
    0.9804761916399002,
    0.47439209691115786,
    0.6843333380562918,
    0.13655015128398582,
    0.37542857016835895,
    0.9801671756165368,
    0.33790476109300344,
    0.703875372665269,
    0.11147619070751326,
    0.5778115464108331,
    0.7832380912133625,
    0.3111702111150537,
    0.568523810165269,
    0.9402735633509499,
    0.42457142791577746,
    0.6533434706074851,
    0.0940952385908791,
    0.48609422317573003,
    0.8102380935634885,
    0.3935410384620939,
    0.5799047593559538,
    0.024772036494687198,
    0.39090476312807626,
    0.6742401114531926,
    0.17880952315671103,
    0.6466565272637776,
    0.9097619052444186,
    0.3826747777206557,
    0.735380950995854,
    0.2312309986778668,
    0.504380953524794,
    0.7687689917428153,
    0.22552381051438194,
    0.5100303962826729,
    0.9685897384371076,
    0.34700000089194094,
    0.5773809584123748,
    0.07633333441668323,
    0.3583333426022104,
    0.8948095240763255,
    0.11565934313195092,
    0.6659047629152025,
    0.19120879608339497,
    0.3876190493149417,
    0.6958791255950928,
    0.1827619053955589,
    0.3687729006500116,
    0.9652380973100663,
    0.5103479950156595,
    0.7335238111870629,
    0.050091576669365166,
    0.4332857146859169,
    0.9166666622672762,
    0.23633333503135612,
    0.5304029383829661,
    0.9644285751240594,
    0.4019230843654701,
    0.777428572518485,
    0.0065018316664333855,
    0.4997619071177074,
    0.9173076902117048,
    0.29447619095444677,
    0.6936813226767948,
    0.03685714291142566,
    0.6325091630220413,
    0.8302380957773754,
    0.2510073319277061,
    0.6135238102504186,
    0.9223443188837597,
    0.3356190472841263,
    0.8168498124395098,
    0.08571428621320852,
    0.32866300895277945,
    0.8826666674443654,
    0.5533882896815028,
    0.6371904756341662,
    9.157509276909487e-05,
    0.3856666662863323,
    0.6900183171033859,
    0.15938095258814947,
    0.3879120945930481,
    0.9683809565646307,
    0.14395604744952703,
    0.7407619020768574,
    0.0747252772961344,
    0.4253809530820165,
    0.8681318649223873,
    0.3288095248597009,
    0.8547619032008308,
    0.9936666701521192,
    0.6663919453110013,
    0.7428095242806844,
    0.1605311394070408,
    0.5092857160738536,
    0.7940476170607975,
    0.2981904769582408,
    0.41721612555640086,
    0.02819047635421157,
    0.7434065955025809,
    0.8134285692657743,
    0.2919414008302348,
    0.5341428558741297,
    1.0,
    0.3387142853013107,
    0.6194139241107872,
    0.2014285722481353,
    0.42023810244032317,
    0.9175238072872162,
    0.5743589824863843,
    0.6767619047846113,
    0.1205128232748913,
    0.3074761920741626,
    0.6805860838719777,
    0.14919047685606138,
    0.6023809586252485,
    0.8880000012261527,
    0.3031135617090123,
    0.684047624043056,
    0.20352380914347512,
    0.25031055764162113,
    0.8275714282478605,
    0.06226708057469555,
    0.5854761872972761,
    0.631677020234721,
    0.3154285706446639,
    0.7729813694953919,
    0.04323809504109834,
    0.31257763733821253,
    0.8768095276185445,
    0.005745341708617551,
    0.5990952334233692,
    0.16894409957208803,
    0.3770476195429053,
    0.8914596251079014,
    0.2093333337455988,
    0.1858695645550532,
    0.8738095245191029,
    0.3874223566214953,
    0.7625238056693758,
    0.0,
    0.3815238093691213,
    0.6450310541050774,
    0.28414285821574076,
    0.28819875698536634,
    0.924571431534631,
    0.0,
    0.7857618996075222,
    0.2352484457327851,
    0.5149999971900667,
    0.8468944119555609,
    0.26538095186863625,
    0.3619565206446818,
    0.023238095348434788,
    0.8850931682756968,
    0.7939047626086644,
    0.19347825892535703,
    0.541714282972472,
    1.0,
    0.39328571664435524,
    0.6920807480812072,
    0.08095238195466144,
    0.6074534162878991,
    0.8863333348717009,
    0.006987577570336205,
    0.6526666688067573,
    0.0,
    0.432380953005382,
    0.9989130437374115,
    0.15352380998166545,
    0.6602484449744225,
    0.940857144338744,
    0.2602484454134745,
    0.6133333270038878,
    0.10527950152754784,
    0.49314285814762115,
    0.9715838543006352,
    0.25542857221194676,
    0.83602484613657,
    0.9573809504508972,
    0.28897515370377475,
    0.7186666654688971,
    0.0,
    0.3631428569555283,
    1.0,
    0.3573809536440032,
    0.9340062145675931,
    0.1392380959021726,
    0.7591614842414856,
    0.7600476201091494,
    0.2807453405112028,
    0.5939047606928008,
    0.788043476002557,
    0.3087619079010827,
    0.9195652178355626,
    0.04785714314452239,
    0.5628881951261844,
    0.893142859850611,
    0.10419254581044828,
    0.6530000022479466,
    0.05341614836028644,
    0.4280476208244051,
    0.5118012385708945,
    0.0,
    0.5472381000007902,
    0.944047619083098,
    0.37428571326392035,
    0.0,
    0.040619047052626096,
    0.0,
    0.9112380985702787,
    0.4880952391241278,
    0.5467142858675548,
    0.8392857150307723,
    0.267666665624295,
    0.20357142889073918,
    0.07776190522792084,
    0.9369047619402409,
    0.8763333320617676,
    0.022619047867400304,
    0.7026666671037674,
    0.3404761920017855,
    0.46509523668459485,
    0.7273809525583471,
    0.01600000010803342,
    0.6690476197217192,
    0.8976190490382058,
    0.014285714605024882,
    0.7091904806239264,
    0.0,
    0.5272380967225347,
    1.0,
    0.2410952390836818,
    0.597619048931769,
    0.9836666681936809,
    0.0011904762259551456,
    0.7151904821395874,
    0.600000000851495,
    0.613428567988532,
    0.9797619042651994,
    0.2937619049102068,
    0.5797619050102575,
    0.015238095274461167,
    0.6369047631110464,
    0.8498571442706244,
    0.4952380957348006,
    0.6153809543166842,
    0.8226190481867109,
    0.3319523809211595,
    0.05238095266478402,
    0.10623809544901763,
    0.0,
    0.7980476187808173,
    0.8428571430700166,
    0.6132380924054555,
    0.09999999989356313,
    0.4142857155629567,
    1.0,
    0.09738095277654273,
    0.9178571424313954,
    0.9505238132817405,
    0.49285714349576404,
    0.7771428580795016,
    0.0,
    0.38871428572705813,
    0.3107142857142857,
    0.1470000006391534,
    1.0,
    0.9690476221697671,
    1.0,
    0.5814285701939038,
    0.34999999957425254,
    0.38738095377172743,
    1.0,
    0.4139523822282042,
    0.8726190469094686,
    0.014285714392151152,
    0.9285714286778655,
    0.6466190453086581,
    0.5821428569299835,
    0.5516666599682399,
    1.0,
    0.48428571458373754,
    0.9464285711092608,
    0.05628571403878076,
    0.013095238166196005,
    0.7611428554568972
  ],
  "scaler_scale": [
    0.06965831738296731,
    0.035678684231164,
    0.015319055856380472,
    0.08603372778297244,
    0.012508482122638487,
    0.06307331640038126,
    0.06085811351772934,
    0.01856068020041953,
    0.08193325798354142,
    0.01990445468460285,
    0.026017805936324516,
    0.08254983780951065,
    0.012822173857575614,
    0.07200428345666202,
    0.07517735824024425,
    0.019534402297476022,
    0.07207944026762085,
    0.015796372679291397,
    0.034708079218411764,
    0.06902592558935128,
    0.021047133658336083,
    0.07601951786185673,
    0.050191632297617486,
    0.0193971375714868,
    0.08151957988813915,
    0.009834909206157852,
    0.075312968321372,
    0.04584973661381881,
    0.017844315111697488,
    0.08418321698190906,
    0.03145378319630064,
    0.03645131483703032,
    0.07285824671795829,
    0.01868703631800557,
    0.07055506234002369,
    0.05427330115066793,
    0.019306513900968533,
    0.0611357929111529,
    0.0123680444657853,
    0.07080515480218556,
    0.07590439950917399,
    0.018256924386345748,
    0.07490849918634333,
    0.04687020446263526,
    0.019277835605801073,
    0.07730056348358771,
    0.018987917890113868,
    0.07286249873799412,
    0.04255299535268934,
    0.01681727803319104,
    0.06576505913205329,
    0.030443985453205605,
    0.05351318281122543,
    0.055366987231978596,
    0.007086124134977452,
    0.0684736578609917,
    0.05777466040879515,
    0.02091460698369021,
    0.07108761766498803,
    0.010424007470029514,
    0.05205796463472662,
    0.05289445394182129,
    0.016462972344119815,
    0.06725982213708766,
    0.02617840617459939,
    0.03317098341077943,
    0.050046941416929266,
    0.00524587665577374,
    0.06219157114212076,
    0.05666715132748909,
    0.05195753275517907,
    0.047547319027723925,
    0.018507274656570163,
    0.04955850434198385,
    0.057050936791231015,
    0.011100528439213737,
    0.050228216957785496,
    0.05421991794260549,
    0.04589199057441777,
    0.05739379248511483,
    0.013232272844347942,
    0.056319588285384824,
    0.0563464711511238,
    0.013817807768591196,
    0.07897736376919438,
    0.015287035731483878,
    0.029820475360032017,
    0.06521404269603258,
    0.01214140503636352,
    0.0728154106884945,
    0.048329370552737255,
    0.017984876926775865,
    0.07364834665731221,
    0.013267770031207387,
    0.07092869360164406,
    0.07413693658336346,
    0.014505842932011168,
    0.06138128270283548,
    0.04799234554048764,
    0.027752015543800093,
    0.05201664668823129,
    0.01235367814518295,
    0.06825447484994074,
    0.052252546302140844,
    0.015302246748383744,
    0.07329780051061306,
    0.04065839257721783,
    0.06861910185402753,
    0.06343171864196286,
    0.014161043422772662,
    0.06559290031252453,
    0.05912504428399567,
    0.017053056000341044,
    0.05449374403718935,
    0.019408726996913584,
    0.06431814079895494,
    0.05498667915449204,
    0.01628497345821037,
    0.0659944425812273,
    0.021966406586386617,
    0.023020990481655044,
    0.055113549529949714,
    0.00792410365346653,
    0.035180029307744894,
    0.06849716003966297,
    0.03635411740855459,
    0.0530490695805291,
    0.014911616370148612,
    0.054800628627255155,
    0.053518480936163494,
    0.023795255015957778,
    0.05472217595060972,
    0.030469346263677654,
    0.03750552522243001,
    0.06201558013952345,
    0.01967463057529092,
    0.06834494608662549,
    0.0706054514994991,
    0.008954914542346062,
    0.06518383195197552,
    0.018125535858231633,
    0.03819928283697554,
    0.07029974477764554,
    0.003019785010998039,
    0.07116134110308038,
    0.0513432011848172,
    0.02745616968915541,
    0.06729246814421201,
    0.012094528989454359,
    0.06435298487362105,
    0.06340731506868827,
    0.01621084158583083,
    0.057300159300818644,
    0.022464757355443125,
    0.026975046546627142,
    0.05957423159000471,
    0.008278611470140597,
    0.055019600156501244,
    0.060117042577764374,
    0.016972743386984172,
    0.06264553134972083,
    0.014920148692242953,
    0.03865470100729377,
    0.05312979596748084,
    0.016349083826661937,
    0.05119575429174225,
    0.07774445506066693,
    0.04647636823184963,
    0.06040152897484675,
    0.01813253061583039,
    0.0563255847341738,
    0.04637805416693246,
    0.015503732946406255,
    0.06977009773429249,
    0.019845212490981475,
    0.049915915205036854,
    0.06393519952710358,
    0.012341893665022939,
    0.07219289569412198,
    0.06512037318728159,
    0.013049617425490871,
    0.0731603398289595,
    0.011408319177854152,
    0.0684029906399514,
    0.06616131868648253,
    0.019485963234640143,
    0.0783708834221717,
    0.025607182490118043,
    0.03177996179743104,
    0.08248544561439647,
    0.019533948421893866,
    0.06566465566914971,
    0.046954864898418866,
    0.024792060311740593,
    0.057829893917708444,
    0.016641543065595052,
    0.04730432693136946,
    0.05380892602723016,
    0.01443760539236557,
    0.06274347586731086,
    0.030651877117672477,
    0.024109789153556185,
    0.07386791414907572,
    0.016543942676014268,
    0.05569944773030057,
    0.06212860286223452,
    0.009597216340193233,
    0.0741070495498417,
    0.02284078711789943,
    0.04195288625807608,
    0.07004475396437998,
    0.01916132667425771,
    0.07510589783987298,
    0.07067422218267773,
    0.011704660139414286,
    0.07881727327021032,
    0.014467098226907926,
    0.051002557142243284,
    0.07600111860787118,
    0.017935893112008324,
    0.08159932212749589,
    0.06214291497341232,
    0.04656789787284323,
    0.06965994533409847,
    0.016339588293502648,
    0.07860909826464534,
    0.07116709232340057,
    0.011917495527051071,
    0.07761402111065839,
    0.014196866588690479,
    0.045690940457460874,
    0.07202053248426396,
    0.0005930475535364434,
    0.05373109243713062,
    0.06252210538848489,
    0.016984119451282007,
    0.07894088792560795,
    0.018138248738245544,
    0.056210782177123275,
    0.06485030964266611,
    0.012842673045575344,
    0.07178514300545286,
    0.02314128616328461,
    0.062481571592753395,
    0.08400449021059953,
    0.017866703203501123,
    0.07886696141547633,
    0.06379566402453615,
    0.009039595484960875,
    0.08001239407956724,
    0.017685289907911343,
    0.05018928448074588,
    0.060372503983952976,
    0.022722620064157952,
    0.07937561966108413,
    0.022317841647656034,
    0.02011538014164262,
    0.05316579040844021,
    0.009891750489181693,
    0.059810338075223186,
    0.06075437613999305,
    0.012368492410205245,
    0.08469536969261919,
    0.019553926956733955,
    0.025091609070157783,
    0.0736253298828414,
    0.005650063670818457,
    0.06283939168380416,
    0.044625434361353425,
    0.018517565295428168,
    0.08194328352313762,
    0.026590194633836103,
    0.05012846667664422,
    0.042906083315812825,
    0.024481753324740025,
    0.07714137290081952,
    0.025014485999258172,
    0.025469558586935656,
    0.06075961927922667,
    0.01634491565204139,
    0.05007402133027346,
    0.049964408723565,
    0.017987937677214207,
    0.06503032556465659,
    0.016576379885813418,
    0.02196983152219584,
    0.08435888136498308,
    0.02051596372001311,
    0.05672550942296969,
    0.02706249564116992,
    0.015546401040085514,
    0.0683962534703092,
    0.015222830344352995,
    0.04581761745553654,
    0.057230105544937834,
    0.02348787569090988,
    0.061786891986923116,
    0.01808388849263277,
    0.04989575325473312,
    0.07339551989557748,
    0.008934099742136896,
    0.05674502393389094,
    0.034833846363218374,
    0.023899069530435062,
    0.06287349132045054,
    0.02918763974243059,
    0.03933233787530421,
    0.07187408828845535,
    0.017963040548414334,
    0.0680284533401876,
    0.036488401804474345,
    0.048515818268703846,
    0.08064973927193732,
    0.016888256673241193,
    0.06099078076033868,
    0.06821021259705672,
    0.02877057811470095,
    0.04783228455835393,
    0.022703827071448184,
    0.03478681369728106,
    0.06560541164388443,
    0.00845569752927651,
    0.05704332066866168,
    0.020437170668857235,
    0.012372596028280993,
    0.07905764353162016,
    0.017137336737181007,
    0.07822316760626893,
    0.08196561112583328,
    0.016941877592757625,
    0.060135303146161286,
    0.012832774702762034,
    0.04203790325227849,
    0.07400329456203164,
    0.022300252222874187,
    0.06001849789314922,
    0.04861296345149189,
    0.021670165739010115,
    0.07072318193961318,
    0.022501812167552156,
    0.01891837085397046,
    0.0654250986842738,
    0.020623556006192232,
    0.07163996523192251,
    0.014862863074055684,
    0.02679793408708873,
    0.06766361562550105,
    0.010028724223948534,
    0.022870035692698597,
    0.05393489378528468,
    0.018816454762874066,
    0.07692215544881847,
    0.018770844117382085,
    0.03349452758730588,
    0.05068588452291134,
    0.03180085167361113,
    0.0610774559996567,
    0.028377756019398688,
    0.030769238886466484,
    0.05176466799608096,
    0.023298273121171845,
    0.041124439131273276,
    0.04649967944570611,
    0.026786180215884275,
    0.07116451091408188,
    0.013925168146741206,
    0.01079220239985575,
    0.08238691615717023,
    0.012242721008111504,
    0.05559773975165656,
    0.03561226971087339,
    0.018997191600136656,
    0.06680412696960149,
    0.02335291082271738,
    0.016272829507512996,
    0.0529203714459004,
    0.01486896680627984,
    0.054472853210550246,
    0.02730573697128854,
    0.019578434338021648,
    0.05520228754379496,
    0.02070604784424446,
    0.03440903772307576,
    0.07660395396390854,
    0.02070957815698919,
    0.08970905203132092,
    0.025364463697491953,
    0.01845418768692226,
    0.057679938175285154,
    0.03651145555901374,
    0.04019634378818496,
    0.030669715925430913,
    0.015101995505706225,
    0.06805127520290012,
    0.029604914226772243,
    0.04971300067190924,
    0.06648007919379695,
    0.027517348321098662,
    0.04578476523169345,
    0.031215758314461006,
    0.014085823181197894,
    0.08184857427897468,
    0.01746645063824256,
    0.04614665824291341,
    0.024486151332289242,
    0.014489757186162855,
    0.07004065969935376,
    0.02426747370693527,
    0.017291092462142183,
    0.060458056949735314,
    0.023053917435527684,
    0.0725429563819993,
    0.016798855388398516,
    0.010765602506137934,
    0.07108544512762302,
    0.024253234836692977,
    0.032289049451395886,
    0.08164798083449483,
    0.0232425836608442,
    0.08848003994042662,
    0.03136411149645483,
    0.0178733266131599,
    0.0786870204947326,
    0.022781817882407032,
    0.06654405845414997,
    0.03762881298331017,
    0.04610714239159614,
    0.050468350839707146,
    0.03346896159757779,
    0.02815425477592301,
    0.07881351198240372,
    0.012849998297230013,
    0.11077493887012214,
    0.031391897066655856,
    0.05826886464638072,
    0.046495580460650394,
    0.028917252323709678,
    0.035163207513217005,
    0.06265863949843825,
    0.027488154545686212,
    0.06513268730616005,
    0.035154181628524454,
    0.040039773416125225,
    0.03424107424480501,
    0.054697682640037,
    0.06221626690038731,
    0.052668703498783186,
    0.03461413400829111,
    0.09227935484721501,
    0.031994150158827554,
    0.05193648362290046,
    0.05816202103378881,
    0.030986683224608628,
    0.03813506738664079,
    0.04381437775840303,
    0.019055415680729892,
    0.10280810265856717,
    0.014865903234534619,
    0.07790570830044234,
    0.04370369769507587,
    0.029240902554553992,
    0.05702957061273405,
    0.022622762340190544,
    0.01958272271721423,
    0.10140809693219661,
    0.018180507389899406,
    0.052030129321992004,
    0.019231020944961003,
    0.05486129220265904,
    0.06638163755240557,
    0.056130757195520214,
    0.04802727430770058,
    0.06030003191882614,
    0.03150351804379193,
    0.1134913893151866,
    0.026607885328511008,
    0.024925170496968487,
    0.04522483561277209,
    0.08159201314313998,
    0.042694824753971516,
    0.0638391612895221,
    0.01852442214334377,
    0.07011456641205867,
    0.018359662353888945,
    0.06268760074013659,
    0.042197327620796664,
    0.03200817953328797,
    0.05581261251291126,
    0.06314343475390574,
    0.01341632283841783,
    0.08068332670325198,
    0.05040198662494506,
    0.07046265430246647,
    0.04271564015180072,
    0.035201752995115146,
    0.05175931903222964,
    0.055833997720666,
    0.01877054388132015,
    0.08159472739442936,
    0.0528806232805486,
    0.07019009051206324,
    0.029712761548880723,
    0.04023139941097192,
    0.057587537264257097,
    0.02416097699890165,
    0.09964970590951304,
    0.047646659457304105,
    0.05171300682213996,
    0.06266295716825515,
    0.028917252860405522,
    0.04206570703581489,
    0.07361507468431108,
    0.017692003470855894,
    0.10106771494913654,
    0.04240170516278049,
    0.06935321863160904,
    0.07091643258099253,
    0.08612110465475675,
    0.04377752421089286,
    0.07692022911311497,
    0.009802008416903756,
    0.16577355309539765,
    0.05600890785121755,
    0.0675495573518277,
    0.04539261645781243,
    0.05662720169981486,
    0.03599480271771595,
    0.05673417188382905,
    0.03940426608479929,
    0.16203409030360771,
    0.031390886665059195,
    0.10743452817327785,
    0.052761626704610896,
    0.016563778938876412,
    0.03840540280498747,
    0.08600012375807148,
    0.0236403032424368,
    0.13525227659053246,
    0.018548890661387027,
    0.07777306687366321,
    0.046256703693237915,
    0.017171234817589573,
    0.05344622474197644,
    0.0946393606057273,
    0.025802493876561097,
    0.07370346480830643,
    0.024327460896366747,
    0.04724189788242527,
    0.047762643406701846,
    0.08383835444411158,
    0.057624241414374555,
    0.04927687873963666,
    0.03127799481815593,
    0.16680221405241508,
    0.025268626232985536,
    0.09509145317048918,
    0.045271137601087946,
    0.07591527659901455,
    0.10484784147371401,
    0.02703917885982799,
    0.02802590379183165,
    0.07889174935208544,
    0.0631705571346233,
    0.10977190166061536,
    0.03610818074392795,
    0.09032378646204749,
    0.06256967039177955,
    0.043836747885197654,
    0.11299974967808003,
    0.20629595102984816,
    0.014759140780662356,
    0.07767618736579646,
    0.039764472369365665,
    0.07140346992886852,
    0.05755320805378894,
    0.036442805919324105,
    0.03752003244376253,
    0.07832467765416234,
    0.027789091716783433,
    0.11320658944506415,
    0.029129280439095035,
    0.07420647858316053,
    0.03759344767410483,
    0.09352034867463141,
    0.07759386143055301,
    0.06891603930243557,
    0.02215304397686992,
    0.1032656561559987,
    0.04399523702843558,
    0.04480876471806737,
    0.09577349217753355,
    0.05666568728890169,
    0.11406783191885903,
    0.025034173183503254,
    0.1000782546829575,
    0.028251540557283624,
    0.07847168075592428,
    0.05711348527862614,
    0.07957970046216789,
    0.028751654310621926,
    0.09064967440324358,
    0.03175087082579888,
    0.11796958534513104,
    0.04734167095941239,
    0.04071241670642565,
    0.0755235529784494,
    0.06655562667970458,
    0.04983990202496422,
    0.06370467950375497,
    0.03836839135174203,
    0.10358834827633566,
    0.027758434992230498,
    0.014974418064530043,
    0.056424754892473596,
    0.08203876269923482,
    0.03875804422438404,
    0.11541203897748875,
    0.03805962624631095,
    0.10022059615557863,
    0.03719883123218733,
    0.14192245805578158,
    0.0711936481914988,
    0.07632200445631566,
    0.03812903235243555,
    0.07600621892407372,
    0.03233329848850838,
    0.11856831582614304,
    0.028661127784411895,
    0.06361740750428664,
    0.05184879118064084,
    0.0010796544209041607,
    0.05684802678456793,
    0.09819287791263101,
    0.039512074814248184,
    0.07466734243533595,
    0.035939727005676915,
    0.09964178207720631,
    0.04262859366623236,
    0.07686113222967235,
    0.07448402941296421,
    0.09013891791645855,
    0.04265228801178243,
    0.1353715245360191,
    0.013946036856498312,
    0.07667033448448997,
    0.05357722411761981,
    0.14307919016154808,
    0.06984652839219722,
    0.05531764279965429,
    0.05236527852202412,
    0.1353275367240003,
    0.029700546338999233,
    0.17972893413938001,
    0.027243586445268284,
    0.05512911910900002,
    0.0671055435181834,
    1.0,
    0.03151111115442832,
    0.10479583604371326,
    0.051975486599220154,
    0.0837768961022485,
    0.03806713342353404,
    0.09333725633425675,
    0.041560710586368343,
    0.07018404970820027,
    0.04061017099286516,
    0.11085412883781684,
    0.04401635996992644,
    0.13261628436971273,
    0.03421871239923756,
    0.07649562950195346,
    0.03823649587198121,
    0.06547721155963647,
    0.13762495173766312,
    0.031494124119783716,
    0.11859318906016444,
    0.0657955842984045,
    0.15515647156451284,
    0.07850219207513454,
    0.1236395400557011,
    0.044482817107855344,
    0.24458029960975136,
    0.0454848140065845,
    0.03303149526594376,
    0.04862039503238722,
    0.13889107169274006,
    0.0703247411127201,
    0.1455408055691313,
    0.058672077710000464,
    0.19553697388300198,
    0.04016349961387522,
    0.14251198760319256,
    0.05361513624211787,
    1.0,
    0.054774243054832625,
    0.13285647631822173,
    0.034691088216308445,
    0.1273541875037937,
    0.04737613931433194,
    1.0,
    0.027501352897983406,
    0.14043612502947095,
    0.06395000394932011,
    0.11535124613049448,
    0.044213740224675634,
    0.15511629774591099,
    0.027307603586946998,
    0.12601962554887183,
    0.04204672789181252,
    0.11626733560851474,
    0.05651447960925597,
    1.0,
    0.06421440530703185,
    0.11866148215857271,
    0.041820262036179154,
    0.17285726819158392,
    0.02850034674860433,
    0.028257029558831564,
    0.036768690117143496,
    1.0,
    0.04738609660976377,
    0.005995878873671919,
    0.059713298409295644,
    0.17234038406049337,
    0.03957586913672187,
    0.19572018826085472,
    0.05971360683772615,
    0.09625275115988438,
    0.07264588174931015,
    0.048463873601647015,
    0.05744886337385718,
    0.13280383469351462,
    0.03448207635250826,
    0.21554333233782458,
    0.04285227335872299,
    1.0,
    0.063267851097387,
    1.0,
    0.06820927908740075,
    0.07617168080421864,
    0.06111703986156603,
    0.14158042219019834,
    0.04958556261607875,
    0.2098455275575479,
    0.07873397390688971,
    0.152995232913617,
    0.04830515113546214,
    0.09284052513700564,
    0.040467646384435355,
    0.15439148444748246,
    0.04235857859224071,
    0.15251727861529563,
    0.05197877796754957,
    0.06672033261178249,
    0.028446513705001533,
    0.1630615200653895,
    1.0,
    0.06160027642785482,
    0.21786364785923099,
    0.08359225159442335,
    1.0,
    0.03983215867281511,
    1.0,
    0.07531135422085886,
    0.46146886628553074,
    0.07770312345175914,
    0.34354057135027405,
    0.0617877818379284,
    0.3743077508568623,
    0.0549840425395105,
    0.23185574408636261,
    0.06674435945589413,
    0.11987214565059444,
    0.078807782933307,
    0.40623680842498544,
    0.11614607520319033,
    0.4049351859051919,
    0.03594351836161129,
    0.37637879363512483,
    0.027162900848079923,
    0.07839084754890362,
    0.047559271628308364,
    1.0,
    0.09089846322444509,
    1.0,
    0.05718036477064124,
    0.43231827652497257,
    0.02449911024965512,
    0.014035507707042648,
    0.03659358516573069,
    0.4266889862586011,
    0.07289908498925089,
    0.08083850492289084,
    0.0738647866392922,
    0.421857125619245,
    0.022485066898958777,
    0.4315291447601982,
    0.071485231787855,
    0.4862975022361258,
    0.037339259874349856,
    0.30421034346303116,
    0.09451126182051504,
    0.21183787126198386,
    0.04565022765287153,
    1.0,
    0.03909692160146816,
    0.330206421029569,
    0.04953104166343027,
    0.2892244688820009,
    0.049796865555255414,
    1.0,
    0.07288911559284447,
    0.23862738107565176,
    0.037544196960314156,
    0.47803808212266374,
    0.06865207102752285,
    1.0,
    0.055273613017095415,
    0.44641904712008573,
    0.06846769587492293,
    1.0,
    0.03211162271115869,
    1.0,
    0.07758164804546987,
    0.444677517070425,
    0.07018658375475263,
    1.0,
    0.07102379022718838,
    0.24528143241452435,
    0.019543544132364102,
    0.2228449319873147,
    0.038811686559115724,
    0.43438353762769477,
    0.05297573378571893,
    1.0,
    0.09667839374783296,
    0.18609164919514182,
    0.03343101300142392,
    0.09567607635360073,
    0.08265031716416334
  ],
  "classifier_coef": [
    -0.003195404853979303,
    0.010529586584696863,
    0.003791644604806602,
    -0.0019883184221497945,
    -0.007936631262373161,
    -0.0023852917612176847,
    0.0014953627372735682,
    0.003127046869468824,
    0.0025908169692441573,
    -0.00047361350685449013,
    -0.0020750413458458295,
    0.002049243670880851,
    -0.0017000200508114306,
    0.008364134272769757,
    -0.0003159404527874588,
    0.00816400302954641,
    -0.0006835228800754996,
    -0.003744792944063329,
    -0.01454499266306214,
    0.0028634308049990623,
    0.006674791378613275,
    -5.3908610149561815e-05,
    0.013741467427073769,
    0.0038868399090168987,
    0.006503223803413935,
    -0.009350366309488368,
    -0.0018118960731078628,
    0.0017993640725996797,
    0.014098521599346792,
    0.0027772859980978834,
    0.012527821412057952,
    -0.012640864374570777,
    -0.0012712520236031599,
    0.006362410499077998,
    0.00419824459531076,
    -0.002134936321065288,
    0.007681912385724453,
    0.0028008847517020674,
    0.0027737507284813882,
    -0.004904486796743339,
    -0.0002174120885366452,
    0.0012390132747776646,
    -0.0046324423257914915,
    0.008912507273033323,
    0.001410221408506349,
    0.0029356534315389516,
    -0.0038404786904376194,
    -0.0022676602127643056,
    -0.0026403724599042043,
    0.013536571406956691,
    -0.005438789051828121,
    -0.003019737415031412,
    -0.010441865531643113,
    -0.00220930622346952,
    -0.0030261374146904,
    -0.005962602681979266,
    0.003500467691106174,
    0.0052272060000442926,
    -0.004542597101462505,
    0.009493727293648498,
    0.002588165398945709,
    -0.006137165308431126,
    -0.004786252774365528,
    0.0011042447313249263,
    -0.004624007093450766,
    -0.013908616182971921,
    0.0008081172373293989,
    0.006552468683815102,
    -0.010598407089162189,
    -0.014660943530896677,
    -0.008647118788096342,
    -0.006353710083575029,
    -0.0073671099919462996,
    -0.01625257418647027,
    0.00822910131587427,
    0.006221944334836109,
    -0.00512703133696958,
    -0.004801834615765931,
    -0.005500122372705552,
    -0.004985201149145519,
    0.004095581496857216,
    -0.0022149770112890477,
    -0.0020800713900017654,
    0.012490088152533354,
    0.0012002010719061556,
    0.00045374658254472306,
    -0.01412546905224724,
    -0.0033145036562737527,
    0.003914727659619222,
    0.002150877447214993,
    0.0008153743469160924,
    0.008756363951425424,
    -0.00010066157018139639,
    -0.014350361339145148,
    0.005503865917256269,
    0.0038976812137813868,
    0.002448062015290104,
    0.00043782036693890396,
    -0.008721089178277429,
    0.00042167413341281153,
    0.005422500905254036,
    0.0009202273039592183,
    -0.002897940872332237,
    -0.004314955803070548,
    0.011977462497275933,
    0.0010158328501647476,
    0.004046788562500987,
    -0.002587407760083052,
    -0.00578383139367274,
    -0.0027020607465172188,
    -0.008837651034852444,
    -0.009288618478457812,
    0.017831136998507753,
    -0.004431862596070686,
    -0.014407106610732169,
    -0.00820009715978131,
    -0.0022652202612016403,
    0.00792892258018492,
    -0.006455678176303485,
    0.0038116803051680384,
    0.009721682517294493,
    -0.008882200460671983,
    0.005321735217064216,
    0.016678472564456502,
    -0.006709605982611812,
    0.021444690682381716,
    0.010609421801752065,
    -0.006241461183386185,
    -0.003083829273914978,
    0.00399494340197718,
    0.017779980296919098,
    -0.003393741740974592,
    0.0001665583316399356,
    -0.0002707262808564052,
    0.003370443526701319,
    -0.0020929212932113833,
    0.008165067513436784,
    0.0016557047606555123,
    0.0072608739179605,
    0.00011339625803953677,
    -0.01147540000025342,
    -0.010467793943827831,
    -0.0013211339896833556,
    -0.005733987179463011,
    0.0016603957337363966,
    0.0011822149231461702,
    -0.001789447059329836,
    -0.011550386316266769,
    0.003176909429632257,
    0.002054621001281687,
    0.0007587608612768613,
    0.018539994863627555,
    -0.0052976369175605775,
    -0.01785184169777484,
    -0.011717220281994064,
    -0.0015337176689342634,
    -0.017353537350865336,
    0.0007241686663845637,
    -0.002911690618510556,
    -0.00266775137715926,
    0.002257410084445906,
    0.008774815105789391,
    -0.0012332065011971313,
    -0.00175960933140509,
    0.0027668463621122333,
    0.007135698073388413,
    0.01718714823832507,
    0.008737207255109245,
    -0.006904849735857704,
    -0.0012794479755522648,
    0.0004956466035463195,
    -0.00039370913160991427,
    -0.0019504068117500721,
    -0.0018034504572878396,
    -0.017099412664834973,
    -0.0035640829690875356,
    -0.0017565810369788,
    -0.004781613105557424,
    0.0030365632800322794,
    -0.010839475114397333,
    -0.0009479046247259991,
    0.007384568422927018,
    -0.01680495251755228,
    0.0021849655809491808,
    0.0022435868443177144,
    -0.0027963481121954957,
    -0.003276967863624661,
    0.010149384783358186,
    -0.008460305451355338,
    0.0015928560438828675,
    -0.004766329966319851,
    -0.002630608553231381,
    0.021221231414986476,
    -0.005835942208502824,
    0.003245135106507698,
    0.006249609706357971,
    -0.004287387258825436,
    0.004139061189754195,
    -0.009475520974224777,
    0.002169319453664517,
    0.01404355925111198,
    -0.0032378117969883817,
    -0.001754977150476695,
    -0.001876909861043325,
    0.0054453586202029055,
    -0.001467699796600979,
    0.0009188764666562318,
    -0.003279915758875325,
    0.0014687577035405238,
    -0.004612477963534124,
    -0.00145985534411024,
    -0.004347665390036906,
    9.912048084911038e-05,
    -0.0036690887046922733,
    0.01435942861570261,
    -0.003702330870834317,
    -0.0013296583606474052,
    -0.006224267980233069,
    0.0007556499692909766,
    0.006322023949563407,
    -0.0018213034852696585,
    0.0014220323529800238,
    0.006488995959905715,
    -0.00021268168447150263,
    -0.011276192772386177,
    0.0003300308838403935,
    -0.0033503626558740998,
    0.012465806775663106,
    -6.563156736812711e-05,
    -0.004469093586508009,
    0.0046452398428671205,
    -0.003963828579869135,
    -0.0017940935824552224,
    -0.0055614391540864585,
    0.0024626519672865865,
    0.003728538648108436,
    0.00023175909815453268,
    -0.001253207903715281,
    -0.006002997731041687,
    0.0028111734335183373,
    -0.0028202776589043702,
    -0.00681053614520621,
    0.010183052896090911,
    -0.004527302402746371,
    0.0014895815209910676,
    0.001723043760918385,
    -0.0015460506397679435,
    0.001061326196152403,
    0.013872783590719667,
    -0.004909543557116908,
    -0.006064782551937842,
    -0.010583624640578836,
    0.008468044663252626,
    -0.004620164519579852,
    -0.00799502381651076,
    -0.004788976953938056,
    0.00632841359142112,
    -0.008121877368802224,
    -0.00663582783028895,
    -0.005218069052232902,
    0.0014040244891839397,
    -0.01206066759423156,
    0.003249515664412158,
    0.007152951047023971,
    0.004201239477192852,
    0.007831380061375298,
    0.011291203072735867,
    -0.010021036345448524,
    0.004108890159479299,
    0.0025917112655309002,
    -0.0014078692308917957,
    -0.01270562256721961,
    -0.01307937351254861,
    -0.004976023754875148,
    0.022247199960261668,
    -0.015092670888229725,
    -0.00764539085965374,
    -0.00257503265358016,
    -0.008232574060752814,
    -0.0034010970864162627,
    -0.010974147243319703,
    0.007201646760244086,
    0.011588694914312301,
    -0.0010416067447714158,
    -0.0006801297687787445,
    -0.007335919689759222,
    0.002355552606758452,
    -0.00883380413856381,
    -0.006220630196264655,
    -0.0024265571316311888,
    -0.0029431660879201942,
    -0.004195450865514064,
    0.006467427908415345,
    -0.014800861140155889,
    0.01090573301301391,
    -0.002208976198733565,
    -0.003829465298381676,
    -0.0028171947199538945,
    -2.0342245160588895e-05,
    -0.007460238702316599,
    0.006085028222571743,
    0.0033352230196428247,
    0.002739022441850641,
    0.006241109702332765,
    0.0024349550183357365,
    -0.023961652336946238,
    -0.00579672883821149,
    0.0030712488411415036,
    -0.0030618112144046652,
    0.009064319500486417,
    -0.0011776826859713698,
    0.0067314130755867126,
    0.004545885983856676,
    0.006383818459659498,
    -0.0043998590135457165,
    0.004721958426627032,
    -0.008328247558118507,
    -0.010200398805771066,
    -0.01052167099247624,
    -0.01903385868588719,
    0.0031344395244322647,
    -0.0022356510083486924,
    -0.0049679818909096765,
    -0.004430694331408054,
    0.01250924677765608,
    0.0019461621285000897,
    -0.004823938723942463,
    -0.005951242005482563,
    0.007167327761382132,
    0.0028151227627454733,
    -0.008287375580841604,
    -0.002938163250975267,
    -0.01162717790700483,
    -0.004437098760544977,
    -0.0035393304874967854,
    -0.015801514200081166,
    0.006466931768473865,
    -0.0018251492620306614,
    -0.00246895966181245,
    -0.005487341070292971,
    -0.014044721836542061,
    -0.00166542960291998,
    -0.005906331557633561,
    -0.018804566336683988,
    -0.00044136633713812336,
    0.007368722021953383,
    -0.0032622135056561774,
    -0.003666918687004726,
    0.01305836539658727,
    0.006427551080271372,
    -0.007246000518297641,
    -0.002219352363184447,
    -0.0065131381045803564,
    0.0065484084646649544,
    0.00956883930079999,
    0.014380208054287125,
    -0.010809150217786088,
    -0.00030587910156302297,
    -0.007076012645130416,
    -0.022960476538376372,
    0.010917206385864221,
    -0.01310017882204938,
    -0.01393958432566389,
    0.012601663894303472,
    0.0006556255601818884,
    -0.00964626233828767,
    0.010088652618539487,
    -0.007233256074325853,
    -0.0037276954526279647,
    -0.006017908086614367,
    0.003091324553037799,
    0.002624926714362749,
    -0.00953359303258535,
    0.005557548814371168,
    -0.019561034087977203,
    -0.009232063918562025,
    -0.005723794013380065,
    -0.0234394150733009,
    -0.001420089135727986,
    0.008710200836991658,
    -0.011396393888093841,
    -0.01532144442562407,
    -0.0028110600379905423,
    0.00019604182218093275,
    0.0012108617749662378,
    0.011755600254542354,
    -0.008409039814390494,
    0.0017963344013019432,
    0.01770732762627137,
    -0.002593844448214527,
    0.011032531045696582,
    -0.013931853967162167,
    0.013617828655851153,
    0.0035872843917970367,
    -0.016349752623699466,
    0.004918397798408557,
    0.0024444030953245065,
    0.02646796514445102,
    -0.0015253241176357768,
    0.0077292011974916764,
    -0.0065577608959623696,
    0.008278244159509831,
    -0.0016249699532002255,
    0.0040337595258479984,
    -0.021271027037748646,
    0.004344854047641207,
    -0.005631220550194896,
    -0.006906896156814516,
    -0.0027954857624927013,
    0.0075536397498365306,
    0.0006906417805085161,
    0.0027121501149979825,
    0.004082903584543383,
    0.019053243971822495,
    0.0014127231906002173,
    0.0009407515379806848,
    0.0009319803539549962,
    0.019013791879950757,
    -0.001243565492075723,
    -3.8381694346376494e-05,
    0.011139061046163714,
    -0.007440360392676463,
    4.79378137818935e-05,
    0.006573971200844247,
    -0.004003769687066262,
    0.008353585711088693,
    0.0045683478199750405,
    -0.015916847722635723,
    -0.0011551450151256856,
    -0.014331033242975487,
    -0.008350302604184677,
    0.020600197691106315,
    -0.0015301377268178264,
    0.004720889053751086,
    -0.012143407139899207,
    -0.008081921553898419,
    -0.006958660581470153,
    -0.02743656746736464,
    0.005402344949417695,
    -0.009073272602166985,
    0.009113166585208742,
    -0.013780798849565222,
    0.0027205615875794007,
    0.003486335949784051,
    0.004241014237046375,
    -0.00022169057405899682,
    0.004467332459892216,
    0.002853362716585932,
    -0.0147380228002854,
    -0.01066931482152061,
    0.0003403720769328334,
    -0.006864254928195438,
    0.0006530084921940163,
    0.019429789621592777,
    0.001115810151864004,
    0.005016575773060646,
    -0.010159436227158515,
    -0.008427194781662031,
    -0.0005621236108917645,
    0.008679662639901234,
    -0.003777666361342531,
    0.01078311586626647,
    -0.018554019400053957,
    0.0009286026563453049,
    -0.0013258265972473015,
    -0.007562704399630457,
    -0.003073569579583052,
    -0.024050279982615726,
    -0.003385534334503402,
    0.011441723005286463,
    -0.010998923294653197,
    -0.0025980759701443226,
    0.012069530419105672,
    -0.01307828874820932,
    0.010486515361675514,
    -0.005363925500068862,
    -0.006606207578600515,
    0.003963529059712143,
    0.0023691469200467323,
    0.00031532948652013976,
    -0.0013569951082474812,
    -0.00481767732502922,
    -0.012852647093216447,
    0.00397914136647526,
    0.010455069425826262,
    0.0011081311178872484,
    -0.001531727059968464,
    0.0042104206675463,
    -0.003680175214430797,
    0.006324413268659897,
    0.009249929315433031,
    -0.0004040846413245813,
    -0.00966246680913435,
    -0.0021706008964112247,
    0.0062250258616242836,
    0.005823069542213145,
    -0.002412018281791904,
    -0.005118620332124076,
    0.0032496789283217413,
    0.003357232666929782,
    0.0031172283087183327,
    0.006451989697412272,
    0.000276820070102865,
    0.005304344578928429,
    0.009089597485951995,
    -0.00038377058956495227,
    -0.01057338619490554,
    0.0005420013086945455,
    0.0011930461472744495,
    0.006593014453105545,
    -0.0015750950801597006,
    0.005366173353121599,
    0.00668211992424716,
    0.002719820680708187,
    -0.005319347374677187,
    0.0017197276261297968,
    -0.008331659306570519,
    0.006708135057277415,
    -0.001448122809786679,
    0.010056735224776087,
    0.004474380132629017,
    -9.501544763828044e-05,
    -0.0012591751733478963,
    -0.007949788121089672,
    -0.0032704299767773257,
    -0.007409734727587678,
    0.0021348801219624536,
    -0.003144094761772063,
    -0.00738285177341237,
    0.0020705071915399064,
    0.0013672149059567303,
    -0.0006885339561676484,
    0.0010306481325012642,
    0.0030339167630133355,
    -0.0067833438841593124,
    0.0022782378655758547,
    0.008050445950061077,
    0.008018762046115475,
    0.017827397776856626,
    -0.005435165207582449,
    -0.00549369504964629,
    -0.0011549196530710865,
    0.0018836165564759747,
    0.0068869258585061805,
    -0.011970670615162772,
    0.010038034531595439,
    -0.0031165625979222913,
    -0.005553019666000351,
    0.005300088144627408,
    0.004237089645120443,
    0.0034053097273585575,
    0.0027401575648759186,
    0.001998374888022823,
    -0.0010149878024752735,
    -0.003541445878700049,
    0.002037877103525621,
    -0.00036519089028135086,
    0.005646239707384991,
    0.003505529537684504,
    0.005833472999366268,
    0.004497215548006937,
    0.008836060478229522,
    0.0030944599803632627,
    -0.003203349936073431,
    0.005753535566151909,
    -0.004355925162615374,
    -0.0005937294379719813,
    -0.007123328626483805,
    0.008102146423669793,
    0.0009259295587388645,
    0.0019173531478300818,
    -0.009745782658401862,
    0.009012283635507863,
    -0.00851341031291025,
    -0.003078507978063223,
    -0.008511369008450674,
    -0.004656422153445826,
    -0.004323502386267639,
    0.0035698028909103494,
    0.0016506153690490593,
    -0.002854284546497287,
    -0.004504965794420194,
    0.0016189012967948828,
    1.0869063306926047e-05,
    -0.0018477204650642614,
    0.00034819603018635423,
    -0.00515518092330566,
    0.002032443327735765,
    -0.007334822792278007,
    0.011819827424272844,
    0.0014762516511564302,
    0.0013883202757221584,
    0.001493042446349159,
    -0.01043822714528048,
    0.0008549434568748109,
    0.006945189683751821,
    -0.0015140087290387199,
    -0.0002655524155003076,
    0.0038076873001810126,
    -0.007166416833531188,
    0.0028865845141804736,
    0.0015631024114388335,
    0.00926981547740229,
    0.004670677086386681,
    -0.003077831457959223,
    -0.0009245021825783907,
    -0.0019210671327245606,
    0.02380077558471187,
    0.014229864304224035,
    0.0007579122799048112,
    0.002832353822441494,
    -0.0008681351423489375,
    -0.004159260448047843,
    0.001971433305665684,
    -0.0003797065544626113,
    0.009578915654083796,
    0.0030535536000259626,
    0.004944146643798622,
    0.005474938261745093,
    -0.011135216082574428,
    -0.0026789666856390426,
    0.002266883362124579,
    0.0022144327981416354,
    0.00030791507423974,
    0.0007488501990014552,
    0.005032271185961773,
    0.0030634290028628184,
    -0.008997084457504658,
    0.004830235016022346,
    0.007653194153769951,
    0.0017940935824552224,
    0.009990963798221113,
    -0.010111603930366371,
    -0.002512101871526707,
    0.003601920539157256,
    0.0067043994720609,
    -0.0034388309406982974,
    -0.01146370660129233,
    0.004121834640572196,
    0.0053748715408615845,
    0.006065267915308295,
    0.001937157149740304,
    -0.007264435188060222,
    0.0038814358420320282,
    0.0063829990534645,
    -0.0003911605795774691,
    -0.003099975079611346,
    0.0012713270860393033,
    -0.0006736981097159333,
    0.005879567987085995,
    -0.004566746836226397,
    -0.006393437134493053,
    -0.00021456885962316827,
    -0.0022393530048260765,
    -0.00292336181444701,
    0.0016719601239641685,
    0.0,
    -0.006808777743564633,
    -0.0006464251980810936,
    -0.009374696062965631,
    -0.0018438226931073798,
    0.01080878797227564,
    -0.0033080543697270094,
    0.008931908242129392,
    -0.0048063971632667695,
    0.009454748728030843,
    -0.00010235264131857333,
    -0.001034068554166341,
    7.767413568853312e-05,
    0.001049987959172366,
    -0.005604468107843964,
    0.00016689336394371803,
    0.0038285428803534953,
    0.0035833379514690396,
    -0.007021164030376568,
    0.009130717575277626,
    0.009933478781011201,
    -0.01104632058061759,
    -3.412009087331506e-05,
    0.0055665335880118304,
    0.0007638791639075358,
    -0.0005568352923220796,
    -0.010597356288815647,
    -0.0015896743895089586,
    0.0075286666599090335,
    0.00603744398853542,
    -0.007272902983482055,
    0.007468324498362636,
    -0.0091285482347169,
    0.00029678802172023507,
    0.001461392841119841,
    -0.006227040614942662,
    0.007755553853328561,
    0.0,
    0.004697348814696736,
    0.006578897833137473,
    -0.003821068319529632,
    -0.006745694108584747,
    -0.0007253274695770983,
    0.0,
    0.005662774847523728,
    -0.0034792355038317535,
    0.010125287392214279,
    0.0008225570771528414,
    -0.002862559265692364,
    0.005495520378343244,
    -1.9983846943125226e-05,
    -0.0014392046942518074,
    -0.0036070744790723834,
    0.004655282810391244,
    -0.0015932773804786702,
    0.0,
    6.34421589028203e-05,
    -0.008681039521714125,
    0.002548039681695366,
    -0.00611903440306356,
    0.006758822255554208,
    0.008800859689864497,
    -0.006825697066076352,
    0.0,
    0.003969370155848858,
    0.0014991579292717185,
    0.0010842604312064955,
    -0.002365708852445315,
    -0.010803663594723088,
    -0.0017373804254376653,
    0.007805869614636864,
    -0.007661856620980463,
    -0.009488761898720128,
    0.00781972194033073,
    0.010039923573205711,
    -0.01054585149706971,
    -0.0007136820184657328,
    0.000598469804491458,
    -0.0018003194592434843,
    0.0,
    0.003141027131502835,
    0.0,
    -0.001266822814918604,
    0.0026929822894988208,
    -0.006607812033389641,
    -0.006831357523220214,
    0.00231197470428378,
    -0.0002304842086441267,
    -0.007478133847802124,
    -0.0013120854536775486,
    0.0032839358916974862,
    0.0016076619484972166,
    -0.008087967626072872,
    -0.00762664416086083,
    -0.001372480454696775,
    -0.00044479509586503943,
    -0.0011977381240691864,
    -0.011731936346916435,
    -0.00022112253974915209,
    0.002569400932425373,
    0.0,
    0.010786632251341275,
    -0.010906694907796959,
    -0.003281146366373936,
    0.0,
    -0.0031369373052235047,
    0.0,
    0.006963421900459046,
    0.0005805892309471063,
    0.00252745596109254,
    0.007726691947884357,
    -0.011540880733157476,
    0.014607115606659674,
    0.0004911736770942927,
    0.0008897824222187534,
    0.0012936172076901341,
    0.011436630177251196,
    0.006498824044795721,
    0.00522633401366884,
    0.0003146236195060581,
    -0.001924707257067941,
    0.008556667032710068,
    0.00115700355173395,
    -0.00121321464824598,
    0.011131107675404416,
    0.005638452159728354,
    0.0,
    0.0014388352520296782,
    0.0,
    -0.0010554004319928388,
    0.00544131797403717,
    -0.01684360505376291,
    -0.010098811634957681,
    -0.003754313092007005,
    0.003527567507073416,
    0.005033724250227089,
    -0.010100901157935795,
    -0.004206164795160578,
    -0.0061249653893879815,
    0.0001811146356572441,
    -0.00266231835535871,
    -0.004149380000511514,
    -0.00369840710638899,
    -0.003455034241855628,
    0.0004342999708122267,
    0.004405546350944927,
    -0.008300830396172004,
    -0.012991099579849064,
    0.0,
    0.01058073553965123,
    -0.0046205505037236515,
    -0.003198136982806127,
    0.004322187333251853,
    -0.0011716058973615692,
    0.0,
    -0.004072655450838543,
    -0.0007930890961553192,
    -0.0026518023849926987,
    0.0014728329787133828,
    -0.006710503601816013,
    0.0,
    -0.005138840554950804,
    0.010054594114177036,
    -0.008799212659687524,
    0.0,
    -0.00467904970958509,
    0.0,
    0.0018155632618168055,
    0.00027570413653930925,
    -0.013555211471277131,
    0.0,
    -0.014983753059001938,
    -0.012558354927500699,
    -0.0162470677374316,
    -0.017510793304879337,
    0.0014608811155472072,
    0.0014660154280132928,
    -0.0001531343607698338,
    0.0,
    -0.0004599312388077672,
    0.0035383826198912226,
    0.0011906490237638349,
    0.0049186857734769525,
    0.005435514115427708
  ],
  "classifier_intercept": [
    -8.303510868844758e-10
  ],
  "classes": [
    0,
    1
  ]
}