{
  "num_kernels": 84,
  "num_dilations": 2,
  "num_features": 840,
  "num_classes": 2,
  "time_series_length": 24,
  "kernel_indices": [
    [
      0,
      1,
      2
    ],
    [
      0,
      1,
      3
    ],
    [
      0,
      1,
      4
    ],
    [
      0,
      1,
      5
    ],
    [
      0,
      1,
      6
    ],
    [
      0,
      1,
      7
    ],
    [
      0,
      1,
      8
    ],
    [
      0,
      2,
      3
    ],
    [
      0,
      2,
      4
    ],
    [
      0,
      2,
      5
    ],
    [
      0,
      2,
      6
    ],
    [
      0,
      2,
      7
    ],
    [
      0,
      2,
      8
    ],
    [
      0,
      3,
      4
    ],
    [
      0,
      3,
      5
    ],
    [
      0,
      3,
      6
    ],
    [
      0,
      3,
      7
    ],
    [
      0,
      3,
      8
    ],
    [
      0,
      4,
      5
    ],
    [
      0,
      4,
      6
    ],
    [
      0,
      4,
      7
    ],
    [
      0,
      4,
      8
    ],
    [
      0,
      5,
      6
    ],
    [
      0,
      5,
      7
    ],
    [
      0,
      5,
      8
    ],
    [
      0,
      6,
      7
    ],
    [
      0,
      6,
      8
    ],
    [
      0,
      7,
      8
    ],
    [
      1,
      2,
      3
    ],
    [
      1,
      2,
      4
    ],
    [
      1,
      2,
      5
    ],
    [
      1,
      2,
      6
    ],
    [
      1,
      2,
      7
    ],
    [
      1,
      2,
      8
    ],
    [
      1,
      3,
      4
    ],
    [
      1,
      3,
      5
    ],
    [
      1,
      3,
      6
    ],
    [
      1,
      3,
      7
    ],
    [
      1,
      3,
      8
    ],
    [
      1,
      4,
      5
    ],
    [
      1,
      4,
      6
    ],
    [
      1,
      4,
      7
    ],
    [
      1,
      4,
      8
    ],
    [
      1,
      5,
      6
    ],
    [
      1,
      5,
      7
    ],
    [
      1,
      5,
      8
    ],
    [
      1,
      6,
      7
    ],
    [
      1,
      6,
      8
    ],
    [
      1,
      7,
      8
    ],
    [
      2,
      3,
      4
    ],
    [
      2,
      3,
      5
    ],
    [
      2,
      3,
      6
    ],
    [
      2,
      3,
      7
    ],
    [
      2,
      3,
      8
    ],
    [
      2,
      4,
      5
    ],
    [
      2,
      4,
      6
    ],
    [
      2,
      4,
      7
    ],
    [
      2,
      4,
      8
    ],
    [
      2,
      5,
      6
    ],
    [
      2,
      5,
      7
    ],
    [
      2,
      5,
      8
    ],
    [
      2,
      6,
      7
    ],
    [
      2,
      6,
      8
    ],
    [
      2,
      7,
      8
    ],
    [
      3,
      4,
      5
    ],
    [
      3,
      4,
      6
    ],
    [
      3,
      4,
      7
    ],
    [
      3,
      4,
      8
    ],
    [
      3,
      5,
      6
    ],
    [
      3,
      5,
      7
    ],
    [
      3,
      5,
      8
    ],
    [
      3,
      6,
      7
    ],
    [
      3,
      6,
      8
    ],
    [
      3,
      7,
      8
    ],
    [
      4,
      5,
      6
    ],
    [
      4,
      5,
      7
    ],
    [
      4,
      5,
      8
    ],
    [
      4,
      6,
      7
    ],
    [
      4,
      6,
      8
    ],
    [
      4,
      7,
      8
    ],
    [
      5,
      6,
      7
    ],
    [
      5,
      6,
      8
    ],
    [
      5,
      7,
      8
    ],
    [
      6,
      7,
      8
    ]
  ],
  "dilations": [
    1,
    2
  ],
  "num_features_per_dilation": [
    6,
    4
  ],
  "biases": [
    0.9225485324859619,
    -6.565256595611572,
    5.051563739776611,
    -1.949109435081482,
    -7.5388593673706055,
    2.5123679637908936,
    -2.1635146141052246,
    5.8716535568237305,
    2.250603675842285,
    -6.690942764282227,
    4.908435821533203,
    0.24177303910255432,
    -7.926578998565674,
    1.849342942237854,
    -2.700737714767456,
    3.7085344791412354,
    0.6933991312980652,
    -5.974513530731201,
    2.6128573417663574,
    -0.36982935667037964,
    4.363192081451416,
    1.3343943357467651,
    -4.480898857116699,
    2.7724807262420654,
    -0.2606378197669983,
    -6.067294597625732,
    2.4714040756225586,
    -0.8659223914146423,
    3.1921894550323486,
    0.7250314950942993,
    -4.332302093505859,
    2.876300811767578,
    -0.6435527801513672,
    -7.458032131195068,
    1.506486415863037,
    -2.8155665397644043,
    3.722688913345337,
    0.39587703347206116,
    -5.575499534606934,
    1.8300542831420898,
    -0.6057831645011902,
    6.335137844085693,
    1.2707864046096802,
    -4.448307991027832,
    2.947605848312378,
    0.17983776330947876,
    -10.056598663330078,
    1.8413290977478027,
    -1.9476428031921387,
    3.7830731868743896,
    0.006065386347472668,
    -5.431360721588135,
    2.0198302268981934,
    -1.0948513746261597,
    3.805176258087158,
    0.650422990322113,
    -2.4942057132720947,
    2.134855031967163,
    -0.006204977631568909,
    -5.3444013595581055,
    1.2798304557800293,
    -1.1359379291534424,
    2.764198064804077,
    0.237273707985878,
    -2.926190137863159,
    1.8103121519088745,
    -0.7601181864738464,
    -5.124475479125977,
    0.7576924562454224,
    -2.402935743331909,
    2.009533405303955,
    0.3766000270843506,
    -4.38338041305542,
    2.3252267837524414,
    -0.8711363077163696,
    4.722967147827148,
    1.733176350593567,
    -2.4540047645568848,
    2.043365001678467,
    0.033681806176900864,
    -6.260357856750488,
    1.3843287229537964,
    -1.6498386859893799,
    2.741893768310547,
    -0.008234230801463127,
    -2.6992626190185547,
    1.3829361200332642,
    -0.33742547035217285,
    -5.594956874847412,
    0.3104950785636902,
    -1.2124907970428467,
    1.4496084451675415,
    0.1932825893163681,
    -2.8815982341766357,
    0.8885643482208252,
    -0.6023463606834412,
    2.5739479064941406,
    0.2506415843963623,
    -1.7280845642089844,
    0.6450949907302856,
    -0.38168150186538696,
    -2.876753330230713,
    1.5883772373199463,
    -2.208500385284424,
    3.3000619411468506,
    -0.06433936208486557,
    -3.595602512359619,
    2.356782913208008,
    -0.8040730357170105,
    3.6961519718170166,
    -0.1467587649822235,
    -2.1335935592651367,
    1.2938677072525024,
    -0.5610854029655457,
    -1.8985421657562256,
    0.47211915254592896,
    -0.6909899115562439,
    2.6005454063415527,
    0.0849560797214508,
    -1.6734719276428223,
    0.7970243096351624,
    -0.1152946949005127,
    -2.816399097442627,
    0.4713093638420105,
    -0.6041037440299988,
    0.9975962042808533,
    -0.20443159341812134,
    -2.6201348304748535,
    0.7444602847099304,
    -0.4915417432785034,
    4.1650309562683105,
    0.4778275489807129,
    -1.6048731803894043,
    1.1734106540679932,
    0.07511216402053833,
    -2.6741015911102295,
    0.5527250170707703,
    -0.9408196806907654,
    1.711610198020935,
    0.549566924571991,
    -1.8242695331573486,
    1.1468629837036133,
    -0.379462867975235,
    3.324347972869873,
    0.8789496421813965,
    -1.8176721334457397,
    2.656656265258789,
    -0.20425817370414734,
    -2.3290388584136963,
    1.6135329008102417,
    -0.7543817758560181,
    4.654236793518066,
    0.34669944643974304,
    -2.098173141479492,
    1.3194340467453003,
    -0.09234420955181122,
    -3.8866000175476074,
    0.39077550172805786,
    -0.9739909768104553,
    4.925449371337891,
    -0.216287299990654,
    -2.3341941833496094,
    2.0398306846618652,
    -1.0125291347503662,
    7.725622177124023,
    0.956690788269043,
    -2.589458703994751,
    4.0897674560546875,
    1.0918595790863037,
    -9.67251205444336,
    2.403348684310913,
    -1.8333652019500732,
    4.3998284339904785,
    1.8927876949310303,
    -4.5249104499816895,
    3.042985439300537,
    -0.9274020791053772,
    -8.461719512939453,
    2.151998519897461,
    -4.265063762664795,
    2.8835947513580322,
    -0.44556736946105957,
    -3.7722573280334473,
    1.9492149353027344,
    -2.097727060317993,
    3.468719482421875,
    0.6193563342094421,
    -2.6182873249053955,
    1.907096266746521,
    -0.6522679924964905,
    -3.9777209758758545,
    1.505930781364441,
    -0.9140791893005371,
    2.362872838973999,
    0.03797939047217369,
    -3.6749861240386963,
    1.4448912143707275,
    -0.6591548919677734,
    3.294466495513916,
    1.5909578800201416,
    -1.4357140064239502,
    2.2626936435699463,
    0.9324834942817688,
    -4.523106575012207,
    2.822650194168091,
    -2.5477585792541504,
    4.876760482788086,
    0.561887264251709,
    -3.6202001571655273,
    3.548187255859375,
    0.006533218547701836,
    -5.881781578063965,
    0.8328158855438232,
    -1.063284993171692,
    1.9607174396514893,
    0.38167524337768555,
    -2.76361346244812,
    0.9220603108406067,
    -0.15238450467586517,
    1.5775253772735596,
    0.6169667840003967,
    -1.9026780128479004,
    0.913523256778717,
    -0.05949046462774277,
    -1.6131645441055298,
    0.2990684509277344,
    -0.529704749584198,
    1.0299993753433228,
    0.7382246851921082,
    -2.1863293647766113,
    1.5362900495529175,
    -0.4439644515514374,
    -4.886150360107422,
    1.1058412790298462,
    -2.114684581756592,
    2.1522045135498047,
    -0.10553662478923798,
    -4.094198703765869,
    1.0897217988967896,
    -1.3863673210144043,
    1.1337038278579712,
    0.26209214329719543,
    -0.9077647924423218,
    0.8016347885131836,
    -0.2744649350643158,
    -3.091770648956299,
    0.08962525427341461,
    -0.23991161584854126,
    0.5455601215362549,
    -0.04116430506110191,
    -0.4683493971824646,
    0.27583375573158264,
    -0.3549361228942871,
    3.4413857460021973,
    0.10180524736642838,
    -0.46906760334968567,
    0.68310546875,
    -0.20485801994800568,
    -2.1526150703430176,
    0.5841619372367859,
    -0.7114962339401245,
    1.4985259771347046,
    0.051059141755104065,
    -1.040018081665039,
    0.6892501711845398,
    -0.2900795638561249,
    -2.296926259994507,
    0.4347287714481354,
    -0.6286333799362183,
    1.1656008958816528,
    0.16293787956237793,
    -1.9248499870300293,
    1.2837036848068237,
    -0.9885687828063965,
    3.5042459964752197,
    0.20095127820968628,
    -2.079347610473633,
    2.73342227935791,
    -1.0184156894683838,
    -4.479466915130615,
    0.6188364028930664,
    -1.7302926778793335,
    3.767812967300415,
    0.5639744997024536,
    -1.4393017292022705,
    1.7199922800064087,
    -0.36185455322265625,
    5.052767753601074,
    0.279072642326355,
    -1.5151509046554565,
    3.7894132137298584,
    -0.5725631713867188,
    -2.4053709506988525,
    1.7710105180740356,
    -2.97453236579895,
    6.59716272354126,
    0.46289294958114624,
    -5.531524181365967,
    4.244783401489258,
    -2.3607661724090576,
    -6.187252521514893,
    2.1825127601623535,
    -3.2105252742767334,
    4.153352737426758,
    -0.10662776231765747,
    -3.93093204498291,
    1.3994576930999756,
    -1.1811227798461914,
    5.975081443786621,
    0.6051338315010071,
    -2.77091908454895,
    1.9847967624664307,
    -0.6516082286834717,
    -3.3894739151000977,
    1.482864260673523,
    -1.5721195936203003,
    2.8576924800872803,
    0.23678293824195862,
    -1.4123122692108154,
    1.7512074708938599,
    -0.10015353560447693,
    -2.6734137535095215,
    0.8298435211181641,
    -1.0464751720428467,
    4.972857475280762,
    -0.08784273266792297,
    -3.9196407794952393,
    2.162337064743042,
    -2.1149322986602783,
    5.1596293449401855,
    0.2800583839416504,
    -2.407912254333496,
    1.4092357158660889,
    -0.5321482419967651,
    -3.0200395584106445,
    0.8222448825836182,
    -0.7527523636817932,
    2.5401649475097656,
    0.19791698455810547,
    -1.4111192226409912,
    1.345733880996704,
    -0.547627329826355,
    2.2857704162597656,
    0.8311277031898499,
    -0.9798229932785034,
    1.282623052597046,
    0.23931792378425598,
    -1.3052191734313965,
    0.2822710871696472,
    -0.5748575329780579,
    3.0406157970428467,
    -0.35865518450737,
    -1.2024857997894287,
    0.9997614026069641,
    -0.507465660572052,
    -2.3380513191223145,
    0.7633996605873108,
    -0.9913517832756042,
    1.6380280256271362,
    -0.4488920271396637,
    -1.2792152166366577,
    1.2998168468475342,
    0.09529127180576324,
    2.5543551445007324,
    0.8648256659507751,
    -0.8748469352722168,
    2.4647459983825684,
    -0.7823622822761536,
    -2.368560552597046,
    0.22228533029556274,
    -1.3705941438674927,
    3.3591268062591553,
    -0.31241753697395325,
    -1.8249441385269165,
    1.5784928798675537,
    -1.1779290437698364,
    6.331889629364014,
    0.03807654604315758,
    -2.269672155380249,
    4.476285934448242,
    0.27721184492111206,
    -3.580601453781128,
    2.818647623062134,
    -1.6644352674484253,
    4.960582256317139,
    0.009164934046566486,
    -3.509571075439453,
    3.082718849182129,
    -2.1529695987701416,
    -4.882932662963867,
    0.5924879312515259,
    -3.011885166168213,
    5.136594295501709,
    -0.07447625696659088,
    -4.639265060424805,
    1.399275302886963,
    -1.4404133558273315,
    4.877390384674072,
    0.889662504196167,
    -1.913590431213379,
    3.1500937938690186,
    -0.8932656049728394,
    -2.602278232574463,
    1.275808572769165,
    -1.3608031272888184,
    3.4683778285980225,
    0.3230193257331848,
    -2.042020320892334,
    1.1088149547576904,
    -1.0278403759002686,
    -7.4427266120910645,
    0.6565718054771423,
    -2.5567305088043213,
    5.052353858947754,
    -0.933866560459137,
    -2.4794673919677734,
    0.505725085735321,
    -1.4021427631378174,
    5.543786525726318,
    -0.6073679327964783,
    -1.714108943939209,
    2.4611458778381348,
    0.2857060730457306,
    -2.2090260982513428,
    1.9267657995224,
    -1.2197319269180298,
    5.5619797706604,
    -1.0030193328857422,
    -2.248878002166748,
    1.709223985671997,
    -1.3878659009933472,
    6.210532188415527,
    -0.1827775239944458,
    -1.6803392171859741,
    4.120102882385254,
    -0.6322177648544312,
    -2.376382827758789,
    1.1139802932739258,
    -1.6507704257965088,
    6.782848358154297,
    -0.6340296268463135,
    -2.5444443225860596,
    4.641193389892578,
    -1.0525962114334106,
    -4.721985816955566,
    0.6503618955612183,
    -3.3989243507385254,
    5.697859764099121,
    -1.087586522102356,
    -4.159617900848389,
    0.5953324437141418,
    -1.625800371170044,
    7.562255859375,
    -0.058614909648895264,
    -3.106799602508545,
    3.1150970458984375,
    -0.8591620922088623,
    -4.014353275299072,
    1.4899648427963257,
    -1.5415080785751343,
    5.556845664978027,
    -0.372622013092041,
    -3.2964725494384766,
    2.6711997985839844,
    -1.648799180984497,
    -4.9702839851379395,
    -0.3336675465106964,
    -2.4538917541503906,
    5.33460807800293,
    -0.7135446071624756,
    -4.182150840759277,
    1.4828635454177856,
    -2.0837535858154297,
    7.500565052032471,
    1.0149506330490112,
    -3.726120948791504,
    5.183211326599121,
    -0.9541885256767273,
    -5.068755149841309,
    2.2262673377990723,
    -3.355393409729004,
    8.130831718444824,
    -1.4855984449386597,
    -4.612297534942627,
    2.456075668334961,
    -2.079071044921875,
    9.608078002929688,
    0.9025924205780029,
    -2.7386765480041504,
    5.6664628982543945,
    -0.30015435814857483,
    -4.545812129974365,
    3.8899106979370117,
    -3.7950615882873535,
    9.403568267822266,
    1.3218562602996826,
    -4.92214298248291,
    5.3765363693237305,
    -1.9836289882659912,
    -6.866441249847412,
    2.083552598953247,
    -2.7049858570098877,
    7.856748580932617,
    -0.9531506299972534,
    -11.347588539123535,
    3.7261650562286377,
    -2.9274520874023438,
    5.065421104431152,
    1.0697249174118042,
    -7.367406845092773,
    3.2138397693634033,
    -2.058992624282837,
    -5.914105415344238,
    -0.8868793845176697,
    -2.807488441467285,
    2.435985565185547,
    0.7626073360443115,
    -4.807099342346191,
    2.5827362537384033,
    -0.4937703013420105,
    5.6515607833862305,
    1.3752096891403198,
    -4.2071757316589355,
    2.9856808185577393,
    1.522870659828186,
    -7.37259578704834,
    2.3316216468811035,
    -1.7415472269058228,
    6.7857465744018555,
    0.6071870923042297,
    -6.225365161895752,
    4.099404335021973,
    -3.9022269248962402,
    -6.077176570892334,
    -1.1093502044677734,
    -4.7511210441589355,
    3.0596392154693604,
    -0.7973524332046509,
    -5.519108772277832,
    1.550584316253662,
    -1.6577205657958984,
    3.05793833732605,
    0.062014371156692505,
    -2.981013774871826,
    1.9035911560058594,
    -0.2738237977027893,
    -5.2190423011779785,
    0.9926491975784302,
    -3.103792905807495,
    4.165279865264893,
    -0.3134114146232605,
    -3.738389492034912,
    1.6979557275772095,
    -1.1169277429580688,
    -6.096255779266357,
    0.5566242337226868,
    -3.4769694805145264,
    2.0267035961151123,
    -0.2784704566001892,
    -6.435072898864746,
    0.18495909869670868,
    -1.0420515537261963,
    2.006195545196533,
    0.055943865329027176,
    -2.0043785572052,
    0.5306624174118042,
    -0.7523541450500488,
    -2.6467413902282715,
    0.7529383301734924,
    -1.929209589958191,
    3.1686837673187256,
    0.19764620065689087,
    -3.614992618560791,
    1.5438333749771118,
    -0.5220187902450562,
    7.3326945304870605,
    -0.0652778372168541,
    -2.8342478275299072,
    1.810746431350708,
    -0.6539319753646851,
    -3.5641376972198486,
    0.9218112230300903,
    -2.253021478652954,
    2.6844229698181152,
    0.06403453648090363,
    -1.9375269412994385,
    1.3329476118087769,
    -0.8747825026512146,
    -4.027958393096924,
    1.106836199760437,
    -0.88189697265625,
    2.4334332942962646,
    -0.4635578989982605,
    -4.979868412017822,
    2.868907928466797,
    -3.2672715187072754,
    6.56831693649292,
    0.6134328246116638,
    -2.5876617431640625,
    2.8460190296173096,
    0.7842077612876892,
    -6.230697154998779,
    2.088165760040283,
    -1.4237592220306396,
    8.013884544372559,
    0.21971920132637024,
    -4.261624813079834,
    2.998649835586548,
    -0.9215584993362427,
    -5.388923168182373,
    0.35318976640701294,
    -1.8473258018493652,
    6.378544330596924,
    -0.2187618762254715,
    -5.290925025939941,
    3.893214464187622,
    -2.5680041313171387,
    4.738462924957275,
    1.57904052734375,
    -6.875911235809326,
    1.874732255935669,
    -1.0273151397705078,
    -6.350553035736084,
    -0.10053933411836624,
    -3.1435964107513428,
    3.0954015254974365,
    -0.7709339261054993,
    -4.480200290679932,
    1.2881542444229126,
    -0.48076003789901733,
    4.487488269805908,
    0.5475319623947144,
    -3.0700693130493164,
    2.774688959121704,
    0.4802917242050171,
    -6.028081893920898,
    1.545750617980957,
    -0.470205694437027,
    6.663642883300781,
    0.801446259021759,
    -6.586120128631592,
    2.7873504161834717,
    -0.7150186896324158,
    -9.701977729797363,
    0.9133385419845581,
    -3.43515682220459,
    2.0630972385406494,
    -0.2596903145313263,
    -3.389662981033325,
    0.8393140435218811,
    -0.7670242190361023,
    2.71644926071167,
    0.8681089282035828,
    -1.1379815340042114,
    1.439815640449524,
    0.21086205542087555,
    -4.510332107543945,
    0.8576452732086182,
    -0.6274648904800415,
    4.191446304321289,
    -0.8622355461120605,
    -4.498888969421387,
    1.1817365884780884,
    -1.6162962913513184,
    2.7293732166290283,
    0.6189101934432983,
    -1.343692660331726,
    1.379287600517273,
    -0.3493882417678833,
    -2.1206071376800537,
    0.18349795043468475,
    -0.7020182609558105,
    2.642284870147705,
    0.3857989013195038,
    -1.3640388250350952,
    1.152117133140564,
    -1.6856846809387207,
    -5.278543949127197,
    1.3480082750320435,
    -2.4367623329162598,
    4.350130081176758,
    0.12267185002565384,
    -4.3934431076049805,
    1.7156133651733398,
    -0.014240504242479801,
    3.0641074180603027,
    0.7242871522903442,
    -1.1005176305770874,
    2.4615533351898193,
    -0.21847638487815857,
    -3.4994311332702637,
    1.481740951538086,
    -0.48483806848526,
    5.244767189025879,
    0.6597105264663696,
    -2.5338492393493652,
    3.5903735160827637,
    -1.241243839263916,
    -3.759434223175049,
    0.7005772590637207,
    -4.210662364959717,
    4.72025203704834,
    0.07549844682216644,
    -9.673731803894043,
    2.021674871444702,
    -0.9345561265945435,
    3.4446263313293457,
    1.0259597301483154,
    -2.688530921936035,
    2.9937753677368164,
    -1.100208044052124,
    -4.068629264831543,
    2.1940181255340576,
    -1.5553157329559326,
    3.7904608249664307,
    0.8087753653526306,
    -5.369516849517822,
    3.919726848602295,
    -1.2435986995697021,
    6.318688869476318,
    0.16010965406894684,
    -4.104480743408203,
    3.246020555496216,
    -0.35269683599472046,
    -3.8785743713378906,
    1.2369898557662964,
    -1.536052942276001,
    3.0829362869262695,
    0.09823764115571976,
    -3.265648603439331,
    2.647484540939331,
    -1.0665980577468872,
    -3.93325138092041,
    1.1489683389663696,
    -0.4890724718570709,
    3.1522674560546875,
    0.058668188750743866,
    -4.184570789337158,
    2.2716777324676514,
    -1.199306607246399,
    3.6422784328460693,
    0.6808179616928101,
    -2.4651403427124023,
    2.4940807819366455,
    -0.05517396330833435,
    -2.9550588130950928,
    1.5907964706420898,
    -1.111109972000122,
    4.158267974853516,
    0.5542761087417603,
    -1.4951122999191284,
    2.6429522037506104,
    -0.1386374682188034,
    4.468514442443848,
    2.3432321548461914,
    -0.9802385568618774,
    5.0236639976501465,
    0.21093279123306274,
    -1.9186878204345703,
    1.9452307224273682,
    -1.4809582233428955,
    5.53326416015625,
    1.1960219144821167,
    -4.809535980224609,
    3.8472888469696045,
    -0.284365177154541,
    -6.365128993988037,
    1.4073628187179565,
    -2.1686031818389893,
    5.451114177703857,
    -0.34024161100387573,
    -3.6874141693115234,
    2.699201822280884,
    -1.1966899633407593,
    7.181314468383789,
    0.32643377780914307,
    -2.202741861343384,
    2.8164045810699463,
    0.30000123381614685,
    -6.099370956420898,
    1.7252466678619385,
    -0.8218008279800415,
    3.2686798572540283,
    0.3702223598957062,
    -1.3104045391082764,
    2.0664994716644287,
    -0.06123621389269829,
    -2.580268144607544,
    2.3446733951568604,
    -1.873921513557434,
    4.511402130126953,
    -0.1401253640651703,
    -1.9740082025527954,
    2.3982298374176025,
    0.3409806787967682,
    5.685918807983398,
    1.8700084686279297,
    -1.8239803314208984,
    5.137947082519531,
    0.6392831206321716,
    -6.8868608474731445,
    2.701310396194458,
    -2.2684717178344727,
    6.666792869567871,
    1.2101263999938965,
    -3.5863137245178223,
    2.5436477661132812,
    -0.13296964764595032,
    9.13754653930664,
    0.49174922704696655,
    -2.6689631938934326,
    6.140476226806641,
    0.2747075855731964,
    -4.359055519104004,
    3.6587839126586914,
    -1.2971516847610474,
    7.456909656524658,
    0.4762805104255676,
    -1.815574049949646,
    4.256941795349121,
    0.616242527961731,
    -3.9786906242370605,
    2.013000965118408,
    -1.134291172027588,
    8.01305866241455,
    1.0163384675979614,
    -3.636164903640747,
    4.1877593994140625,
    -1.3408374786376953,
    8.954317092895508,
    1.2169910669326782,
    -2.5181174278259277,
    7.007999897003174,
    -0.5361354351043701,
    -3.5761220455169678,
    4.61952543258667,
    -2.960494041442871,
    10.81363582611084,
    0.8284008502960205,
    -4.440219879150391
  ],
  "scaler_mean": [
    0.4933181226331221,
    0.7960126101582116,
    0.1907866137852647,
    0.6558561432703532,
    0.8207301124444686,
    0.3674489351807859,
    0.5341427640156454,
    0.016541720990873532,
    0.17136571056062583,
    0.7454367666232073,
    0.027379400260756193,
    0.35886571056062583,
    0.9360604116782993,
    0.3588657109103271,
    0.7087679194502601,
    0.15987614116290247,
    0.4843003071426879,
    0.8299109104248504,
    0.07659713168187744,
    0.4007496740547588,
    0.017764015645371577,
    0.19964146023468057,
    0.6915743155149935,
    0.06641134289439374,
    0.547262062888102,
    0.9237288204756368,
    0.20974576115763638,
    0.6102781434102661,
    0.1360821404301281,
    0.4262277271787999,
    0.78748370273794,
    0.07953063885267275,
    0.5460397653194263,
    0.9335886571056062,
    0.24951108213820078,
    0.7075456323337679,
    0.20132551051316858,
    0.5317796653687876,
    0.8623967836702041,
    0.37543459211365654,
    0.6229356771342291,
    0.030638853513005503,
    0.25252607561929596,
    0.6780475880052151,
    0.08882007822685789,
    0.3680736636245111,
    0.936848109517601,
    0.18440352020860495,
    0.6968709181464791,
    0.1009887023895707,
    0.5622012193230949,
    0.8504454477203249,
    0.2819969565297976,
    0.6471099509642675,
    0.010104302477183833,
    0.2616525423728814,
    0.617503259452412,
    0.06950782268578878,
    0.3529986962190352,
    0.903112777053455,
    0.30714906421836075,
    0.6434702373157113,
    0.07887874989536005,
    0.4852238176815513,
    0.8217622763641188,
    0.21088657002152955,
    0.5704856584093873,
    0.9153357235984355,
    0.30484028683181225,
    0.7288135593220338,
    0.09110169491525423,
    0.39154172099087353,
    0.8687527192928955,
    0.272544544243595,
    0.6609083007258573,
    0.04079748038809645,
    0.3526184260262349,
    0.774282917360905,
    0.1121251629726206,
    0.35625814863103,
    0.8723109517601043,
    0.17372881355932204,
    0.6020208604954368,
    0.06347783572359844,
    0.5248804892057546,
    0.8256192879540046,
    0.21621034231226324,
    0.5758909167724297,
    0.9814211162003886,
    0.4668622361168246,
    0.5397653194263363,
    0.0689374185136897,
    0.3063070404172099,
    0.921202737940026,
    0.1644393741851369,
    0.4498044328552803,
    0.012711864741910078,
    0.5000543274966492,
    0.7997066527022221,
    0.38868970081035287,
    0.6418405060196172,
    0.9279117775398563,
    0.20607887874837028,
    0.7165906127770535,
    0.0745599739243807,
    0.4338331160365059,
    0.915580182529335,
    0.13746740547588004,
    0.6414059092044209,
    0.021349413682265884,
    0.49587136316641367,
    0.8305084730220431,
    0.16014776269588352,
    0.5905041294815954,
    0.8301825293350718,
    0.2819426336375489,
    0.5642112125162972,
    0.020779009126466755,
    0.36676988265971316,
    0.777460886571056,
    0.22017600964341977,
    0.5388961353155904,
    0.9624619659575521,
    0.32523902594032933,
    0.7160473695168128,
    0.16568883168942147,
    0.4710723598435463,
    0.9315514993481095,
    0.28120925684485004,
    0.5411505867014341,
    0.025586701434159063,
    0.32252281616688394,
    0.7755867028329643,
    0.23902650781684937,
    0.42318557150360814,
    0.9099847895847306,
    0.3412103444881825,
    0.6352129527300868,
    0.24217731421121252,
    0.48826597131681876,
    0.8200782268578879,
    0.35552477183833114,
    0.6720990873533247,
    0.037646675358539765,
    0.3682637985946302,
    0.7963928725604439,
    0.1693828780801464,
    0.518578884887571,
    0.8666884000018492,
    0.28509343581606855,
    0.6799217731421121,
    0.11383637548891787,
    0.5260756192959583,
    0.8072033898305084,
    0.4001792698826597,
    0.5977020860495437,
    0.9237288095960405,
    0.4460017411851821,
    0.6221751398959402,
    0.11196219174111216,
    0.5156453782218998,
    0.7754780518029473,
    0.37434810951760106,
    0.6188885267275098,
    0.0973761408083442,
    0.4361147327249022,
    0.7648305084745762,
    0.26833441981747064,
    0.45735550016125925,
    0.9416558022915618,
    0.3296392866965223,
    0.6728052975612328,
    0.16574315613104126,
    0.3815189040274477,
    0.7182203389830508,
    0.07423402868318123,
    0.49209582790091266,
    0.9564048239895697,
    0.1652542372881356,
    0.7011897001303781,
    0.12380486862270121,
    0.5906127775585791,
    0.8114950072501131,
    0.24152542275742103,
    0.7183833091168857,
    0.06258148763625065,
    0.28259452411994784,
    0.6998044328552803,
    0.08034550195567144,
    0.49388852672750977,
    0.9027053455019557,
    0.1354302477183833,
    0.7008909165004397,
    0.1435245556569861,
    0.5184159117618471,
    0.8973272568710158,
    0.28884180608986254,
    0.6603650606517841,
    0.053373533246414605,
    0.24828878748370273,
    0.641215775749674,
    0.1513200782268579,
    0.3603324641460235,
    0.8697848761408083,
    0.17313124833451257,
    0.7507605474184824,
    0.026944807141708427,
    0.4811495048281733,
    0.8011190732734611,
    0.1200021734167342,
    0.45078226857887876,
    0.9603161668839635,
    0.3140482398956975,
    0.5699152542372882,
    0.10609517601043025,
    0.3991199478487614,
    0.8965123882505076,
    0.2853650567273584,
    0.5723598433520057,
    0.13255106576632178,
    0.3870599734386844,
    0.7887331654537455,
    0.1700619295958279,
    0.43529986962190353,
    0.8151075619295959,
    0.3248044328552803,
    0.584419817470665,
    0.14863102998696218,
    0.46398305325651107,
    0.8473489788862375,
    0.2677096897029504,
    0.6670469379020949,
    0.9882659702288592,
    0.3801064753936509,
    0.7379400260756193,
    0.10202086049543677,
    0.5136082138200783,
    0.8653846153846154,
    0.2711864406779661,
    0.6803292046936115,
    0.1372772716520041,
    0.3977618428454716,
    0.7459256837078925,
    0.21137548853416174,
    0.590286831112853,
    0.9644176391143998,
    0.46707953063885266,
    0.6608539765319427,
    0.2309322033898305,
    0.5451434159061278,
    0.7747718383311604,
    0.36114732724902215,
    0.6392872670794093,
    0.009180791234060869,
    0.48152977216507964,
    0.67840069481882,
    0.3111690561611307,
    0.5911560195754373,
    0.8990384615384616,
    0.3873859191655802,
    0.6997229465449805,
    0.22180573663624512,
    0.5100228161668839,
    0.7720013037809648,
    0.2623315929900248,
    0.5620382451094114,
    0.9745219433789458,
    0.32518470182412607,
    0.6662320729728783,
    0.1868209472749348,
    0.5059485006518905,
    0.9607235984354628,
    0.3317307692307692,
    0.8299380704041721,
    0.026727509778357236,
    0.49608865710560623,
    0.8550086939972102,
    0.15205345526240485,
    0.6715558444039297,
    0.989080832399321,
    0.3351260322441178,
    0.8101368947476731,
    0.19328552803129073,
    0.461864406779661,
    0.8244784876140808,
    0.3396349413298566,
    0.6068285528031291,
    0.08735332464146023,
    0.44301390974276067,
    0.7059973914666778,
    0.1748152993124032,
    0.5680682329264272,
    0.8107887872505686,
    0.28487613989523525,
    0.6598761408083442,
    0.013200782268578879,
    0.3882007822685789,
    0.8029661016949152,
    0.09745762711864407,
    0.6235332464146024,
    0.9747392375124169,
    0.2370165138756747,
    0.7983485445516206,
    0.061386354845575745,
    0.5217840106577419,
    0.850934372498439,
    0.23590286831812254,
    0.6122881355932204,
    0.0011408083441981746,
    0.3573174706649283,
    0.8133148631029987,
    0.16378748370273793,
    0.6145154278157121,
    0.9859300286860012,
    0.2208822238048954,
    0.827249022863679,
    0.04747935781811487,
    0.4464363339982412,
    0.7411179921773142,
    0.2153683181225554,
    0.5355280312907431,
    0.9134615384615384,
    0.36921447196870927,
    0.6784550195567145,
    0.03259452473678209,
    0.4904932674248806,
    0.8727183876634421,
    0.21930682253107098,
    0.7350608464014732,
    0.02803129129199192,
    0.4588494132985658,
    0.828715775749674,
    0.28023142112125166,
    0.609354628422425,
    0.890645371577575,
    0.3639993481095176,
    0.7138200779937237,
    0.06404824141106985,
    0.4035202081969695,
    0.8494132974001699,
    0.19002607593014156,
    0.649717515380628,
    0.10438396349413298,
    0.38901564537157757,
    0.8252118644067796,
    0.29172099087353326,
    0.5248533246414603,
    0.8819263363754889,
    0.38744024188297826,
    0.5319426371345619,
    0.12239243948863725,
    0.48929813554731466,
    0.6698717947422759,
    0.3056279868276054,
    0.7326434159061278,
    0.9738428943937418,
    0.4494784876140808,
    0.8547913950456323,
    0.3211375488917862,
    0.7153683181225554,
    0.82290308431976,
    0.30655149979495006,
    0.4866362481804217,
    0.09327466479433406,
    0.35864841689342314,
    0.7333224697094386,
    0.27909061277705344,
    0.7759941329856584,
    0.9631681877444589,
    0.5827900912646675,
    0.8602509778357236,
    0.18383311603650587,
    0.5465015221528,
    0.8476205996615324,
    0.26722077094747004,
    0.7463059556686272,
    0.004834854555215488,
    0.4739243843176219,
    0.8838820078226858,
    0.2215612777053455,
    0.578797262059974,
    0.9655312907431551,
    0.29375814863103,
    0.8265971316818774,
    0.11451542933108443,
    0.4325836588770656,
    0.79416558243616,
    0.20795306309843933,
    0.6528683173454414,
    0.9176988293947421,
    0.41941003911342895,
    0.8606584093872229,
    0.09851694915254237,
    0.5039113428943938,
    0.9714797913950456,
    0.3336864406779661,
    0.7252824858238986,
    0.05095610739918234,
    0.3109517587249251,
    0.7881355942305872,
    0.13428943995702064,
    0.6336918745233617,
    0.9590123859191656,
    0.3845338983050847,
    0.8331975228161669,
    0.12369621903520209,
    0.565026075619296,
    0.9159876140808344,
    0.31605823470141153,
    0.5489461130548798,
    0.9995110819050665,
    0.3538678806600546,
    0.7617883528382402,
    0.10343329133915155,
    0.7535853976531942,
    0.9458116036505867,
    0.5110006518904824,
    0.8435462842242504,
    0.05141786179921773,
    0.6852998696219035,
    0.7854193841462962,
    0.22425032370618145,
    0.4431768798765956,
    0.8635919153146359,
    0.2827574938457979,
    0.6965449785782118,
    0.10226531942633638,
    0.7711864406779662,
    0.921284224250326,
    0.418106258148631,
    0.8319752281616688,
    0.03365384615384615,
    0.5055410712374546,
    0.7275641024345836,
    0.16710126131403866,
    0.5716536298802188,
    0.8415362871454779,
    0.3485441117546238,
    0.8108702737940026,
    0.10291720990873533,
    0.7153683181225554,
    0.8961864406779662,
    0.25114080834419816,
    0.7555410691003911,
    0.9243263801197962,
    0.34990221485398426,
    0.7558126876997668,
    0.14031942672978945,
    0.4996197344116002,
    0.8427857462865588,
    0.508148631029987,
    0.8060625814863103,
    0.07423402868318123,
    0.5754563233376793,
    0.942470664928292,
    0.3046773142112125,
    0.5772490233688031,
    0.9105280358757158,
    0.34235115265752997,
    0.6723707072349384,
    0.09946762399342411,
    0.509832684033231,
    0.9388852672750978,
    0.3763852672750978,
    0.8145371577574967,
    0.9832953063885267,
    0.6328226857887875,
    0.9014830508474576,
    0.1539004799779966,
    0.5433507172349534,
    0.9066166974108719,
    0.336266837343865,
    0.7100717068651042,
    0.05198826724869798,
    0.5370762711864406,
    0.9634126466753585,
    0.29546936114732725,
    0.7205019556714471,
    0.9891623207301173,
    0.44817470664928294,
    0.7488591912672449,
    0.1204367674148922,
    0.557040417948167,
    0.8443611491923226,
    0.28270317143924545,
    0.6255432430659621,
    0.08564211212516297,
    0.5334908735332464,
    0.8921936114732725,
    0.26295632333767927,
    0.629970664928292,
    0.9718057366362451,
    0.26379834774109345,
    0.8120925718678023,
    0.09256844978774698,
    0.35625814752364254,
    0.8854302568883287,
    0.2154498011884043,
    0.7620599739243807,
    0.9885919165580183,
    0.4666720990873533,
    0.8273305084745762,
    0.2504889178617992,
    0.6632985658409387,
    0.7555410691003911,
    0.008311603650586702,
    0.22897653194263365,
    0.00211864406779661,
    0.373696215926746,
    0.8855932189401778,
    0.1902976959186085,
    0.5668187701329103,
    0.6069100391134289,
    0.13477835723598436,
    0.21773142112125163,
    0.01059322033898305,
    0.34137331619567324,
    0.8135049942264034,
    0.1456431993653675,
    0.496957849414905,
    0.003911342894393742,
    0.06551499348109517,
    0.3472946544980443,
    0.022979139504563234,
    0.36234245945686155,
    0.8995545414777902,
    0.2701542787205287,
    0.6700347634773055,
    0.00016297262059973924,
    0.033246414602346806,
    0.5761082138200783,
    0.002607561929595828,
    0.7039873943490497,
    0.8068774486303019,
    0.5281942641408689,
    0.7519556644531707,
    0.0037483702737940027,
    0.14634941329856585,
    0.9630052151238592,
    0.012711864406779662,
    0.6035419362542527,
    0.05595393434672032,
    0.35625814863103,
    0.7571707967051937,
    0.03748370273794003,
    0.12646675358539766,
    0.700619295958279,
    0.07235984354628422,
    0.7849847870202543,
    0.0825727964512217,
    0.5494893566648217,
    0.8189917410368093,
    0.03780964797913951,
    0.13396349413298567,
    0.8660365058670143,
    0.06421121251629726,
    0.7236527555769083,
    0.21137548835445413,
    0.4588222547180494,
    0.9034658881800427,
    0.17209908735332463,
    0.4155801825293351,
    0.04481747066492829,
    0.19361147327249023,
    0.7593437632961099,
    0.29590395379524964,
    0.583713600113308,
    0.8493589746439162,
    0.059647979139504564,
    0.502444589308996,
    0.005215123859191656,
    0.09338331160365058,
    0.8843980916475845,
    0.2776510196566737,
    0.5475880067693519,
    0.008420252315262928,
    0.4377444589308996,
    0.684973924380704,
    0.3391460234680574,
    0.47555410691003913,
    0.8284984776529215,
    0.34528465969233035,
    0.7079530603105428,
    0.12369621969089203,
    0.40172750977835725,
    0.6171773142112125,
    0.2588005215123859,
    0.49902216427640156,
    0.8885267310845029,
    0.3915688837872335,
    0.70393307236991,
    0.20110821377150861,
    0.39113428943937417,
    0.8683181225554107,
    0.17747718383311603,
    0.6632985658409387,
    0.02172968339422691,
    0.4014558881093812,
    0.7734680582211879,
    0.19828335486226162,
    0.34273142112125166,
    0.9659387222946545,
    0.2478813559322034,
    0.4724576271186441,
    0.06649283059378491,
    0.39412212076522846,
    0.9235658407055881,
    0.23755975401774534,
    0.40352020860495436,
    0.8823337679269883,
    0.26646023468057367,
    0.49934810951760106,
    0.1566166884643469,
    0.5267275114102966,
    0.941710125514084,
    0.2660799595773842,
    0.5021186440677966,
    0.0780638852672751,
    0.3036179921773142,
    0.722457627118644,
    0.25304215468922836,
    0.5451434131862287,
    0.9059104752354081,
    0.46121252059081697,
    0.5073337679269883,
    0.1483050847457627,
    0.33784224250325945,
    0.6448826597131682,
    0.3108431109199313,
    0.5642655383421513,
    0.04584963164125925,
    0.41840504263339484,
    0.46039765319426335,
    0.17421773142112126,
    0.30964797913950454,
    0.7046936114732725,
    0.3473489781868349,
    0.5831160421010879,
    0.06518904971641232,
    0.42791177765642335,
    0.9793024771838331,
    0.11228813559322035,
    0.6569426336375489,
    0.9998370273794003,
    0.29106909987629626,
    0.8102455484198778,
    0.12798783305978992,
    0.4917970463691821,
    0.8085071707953064,
    0.2915580182529335,
    0.49054758800521514,
    0.10430247718383312,
    0.42497826982508113,
    0.7175141257832538,
    0.30524771801418243,
    0.5449804450728902,
    0.8875488917861799,
    0.23859191655801826,
    0.48647327249022165,
    0.03340938722294654,
    0.5341156052797061,
    0.8386027694836434,
    0.308507169804486,
    0.6276075610359148,
    0.08898305084745763,
    0.458116036505867,
    0.7866688396349413,
    0.26727509778357234,
    0.5844198169266851,
    0.9156345055964344,
    0.4687635834866739,
    0.6546610190473604,
    0.0710560625814863,
    0.42715123859191656,
    0.7671121251629727,
    0.23402868318122555,
    0.6508583222483096,
    0.9393741782982937,
    0.3206214696324322,
    0.7232181630358392,
    0.0022816166883963492,
    0.5453063885267275,
    0.9662646675358539,
    0.22718383311603652,
    0.5898522391546193,
    0.05465015322164264,
    0.48218166371601034,
    0.7660799668385432,
    0.13510430247718383,
    0.44247066492829207,
    0.8981421121251629,
    0.23109517601043025,
    0.6019122124961644,
    0.08691873249380498,
    0.4513255124996663,
    0.8885267281314696,
    0.0614406779661017,
    0.6232073011734028,
    0.9110169491525424,
    0.22147979139504564,
    0.7447305511309239,
    0.10821382165188273,
    0.5289548037493556,
    0.9128639767968826,
    0.46088657105606257,
    0.7356584093872229,
    0.2969361147327249,
    0.5545958279009127,
    0.7443502813461085,
    0.1665036952441177,
    0.5704584983134985,
    0.9211755781938387,
    0.47392438070404175,
    0.6989895697522817,
    0.3140482398956975,
    0.567470664928292,
    0.8984680579880536,
    0.21566710104337727,
    0.6367883512840122,
    0.08192090556083789,
    0.8754889178617992,
    0.9946219035202086,
    0.3177966101694915,
    0.8955345501955672,
    0.9130269529144953,
    0.29085180159497914,
    0.6803563637403963,
    0.11294002770755872,
    0.8388200782268579,
    0.9797913950456323,
    0.3816818774445893,
    0.9261734028683182,
    0.9101477688107994,
    0.4034658847995967,
    0.6431442834096907,
    0.16074532900379565,
    0.8210560625814863,
    0.9877770534550195,
    0.47767275097783574,
    0.9064537157757496,
    0.06122338281266848,
    0.4641460270039261,
    0.8934159071380188,
    0.13874402554339038,
    0.8309973924380704,
    0.9973924380704041,
    0.5334093872229465,
    0.939374185136897,
    0.16905693200354938,
    0.4924489397657586,
    0.7253368137479606,
    0.28281182074018374,
    0.7535853976531942,
    0.05834419817470665,
    0.3238265971316819,
    0.8777705345501956,
    0.18470230442137886,
    0.5377553259611441,
    0.7963928762128798,
    0.36380921243999587,
    0.9308996088657105,
    0.3645697522816167,
    0.7923728813559322,
    0.9877770534550195,
    0.17144719879913983,
    0.5070078251336979,
    0.9341047477691083,
    0.33729899864075547,
    0.9641460234680573,
    0.3324641460234681,
    0.891297262059974,
    0.9850065189048239,
    0.2991090802162536,
    0.6171229884242141,
    0.06095176137196971,
    0.4812581510400834,
    0.972457627118644,
    0.6690026075619296,
    0.8895045632333768,
    0.9995110821382008,
    0.3264884843042963,
    0.5919165584068099,
    0.19415471355541278,
    0.43959148206797855,
    0.9088983050847458,
    0.7144719687092569,
    0.8414276401564538,
    0.9566492829204694,
    0.3475662751956278,
    0.7655910506863949,
    0.12950891100423897,
    0.5796936106573027,
    0.9519230769230769,
    0.6080508474576272,
    0.8235006518904824,
    0.14716427640156454,
    0.4419274225423047,
    0.7701542807993087,
    0.1778574534479378,
    0.5680139035647043,
    0.9980443285528031,
    0.6318448500651891,
    0.9397001303780965,
    0.3407757496740548,
    0.3894502397777204,
    0.84039547771332,
    0.3022055612316032,
    0.49668622452090583,
    0.09680573663624512,
    0.7669491525423728,
    0.9470338983050848,
    0.3932529335071708,
    0.5210234716320908,
    0.9141134423880098,
    0.30068448698815964,
    0.6386353782678055,
    0.14977183833116037,
    0.7821056062581486,
    0.9564863102998696,
    0.5101043024771839,
    0.5536179977725351,
    0.9580617082321038,
    0.454476317650647,
    0.7037700996715989,
    0.13983050847457626,
    0.7951434159061278,
    0.9877770534550195,
    0.4294328552803129,
    0.6279878355999814,
    0.06910039215425158,
    0.42655367028293584,
    0.7848761406529214,
    0.22376140808344197,
    0.8441981747066493,
    0.9879400260756193,
    0.4230769230769231,
    0.8053020442480214,
    0.02911777555884252,
    0.5294437232430942,
    0.9257931309075834
  ],
  "scaler_scale": [
    0.06866957732591965,
    0.028926089866785794,
    0.059097745465173344,
    0.07125927298159088,
    0.025167166896084614,
    0.05872951808771631,
    0.06717774121235501,
    0.04301288677652874,
    0.1202420454841002,
    0.05406357240075495,
    0.05844960269704225,
    0.10644769769442142,
    0.04273495290828375,
    0.06571729475342852,
    0.04339412693344274,
    0.04895114314515325,
    0.0717773486502809,
    0.04467682340437763,
    0.08763548656487523,
    0.08527416813738785,
    0.0445693618321184,
    0.11928883358010875,
    0.0910209745876382,
    0.08245601309540174,
    0.06955212723112487,
    0.03296068827603533,
    0.0475077515995077,
    0.06591082532656922,
    0.039626893405675705,
    0.07139011134972519,
    0.05087043575346461,
    0.10785371164693142,
    0.09792295042810276,
    0.05131282959950911,
    0.11830061180453377,
    0.06234091516708748,
    0.060579162352566544,
    0.05651007367856893,
    0.03403705486092886,
    0.06400595093979276,
    0.0798959305887026,
    0.033751469207935425,
    0.1131920232658373,
    0.05088727108608888,
    0.09513128012047513,
    0.10803136518814167,
    0.04954139820980565,
    0.10949552960992211,
    0.04793076060994879,
    0.041237690305335035,
    0.058727606787771586,
    0.03022624101938558,
    0.0632370177715449,
    0.05525885101284372,
    0.029072004208268235,
    0.11161964921989233,
    0.05325939256889379,
    0.08175387947817069,
    0.09119464975711912,
    0.06104972640063014,
    0.06284942301104403,
    0.04845512310869031,
    0.03851138002401771,
    0.07845829815409601,
    0.04365239391407439,
    0.05097822246213883,
    0.09308840019380557,
    0.05778063201185063,
    0.11029177366948803,
    0.057352586832727134,
    0.10401541586550891,
    0.1028063404218656,
    0.040809236833775325,
    0.0650328149683295,
    0.07415427927554451,
    0.03403176401680899,
    0.06273389908595849,
    0.057417623383174875,
    0.07945061510371129,
    0.0944341612123158,
    0.04291258189030111,
    0.09887946577813173,
    0.08274339991665841,
    0.05875394655897287,
    0.05706213987587657,
    0.02869253418444019,
    0.059300587421539236,
    0.0526902213728148,
    0.025687024372511098,
    0.0609806121055452,
    0.06723099623405969,
    0.06980832853492833,
    0.08206824474352159,
    0.06625182808971088,
    0.08875007707655598,
    0.06299803565705073,
    0.02547046560066817,
    0.0726999985139573,
    0.03415709098452312,
    0.0668308761221536,
    0.0738078663564799,
    0.03943772200910481,
    0.10508347695456242,
    0.06750775659148864,
    0.0683552128621002,
    0.08942973131657178,
    0.07088681430059923,
    0.08378813759406696,
    0.058483886897581286,
    0.03990836849017606,
    0.07864456832019523,
    0.046626625918524005,
    0.0672700836101866,
    0.06176287119149391,
    0.07990296793038955,
    0.0657815116102261,
    0.06771831067359435,
    0.039619947961383926,
    0.0649260298624674,
    0.07595984088394893,
    0.06815282888258677,
    0.06147498459514588,
    0.029653052655747244,
    0.06365378684961985,
    0.06811415012240433,
    0.07151624397912851,
    0.08846584085811719,
    0.05126596442008547,
    0.111879665427701,
    0.08169611192122696,
    0.04325963856778262,
    0.11389909158909121,
    0.06110862339631145,
    0.04802149127297355,
    0.05643817267689496,
    0.05393728707266455,
    0.04517468684082533,
    0.06224904539325104,
    0.08080229534209968,
    0.07904936521322987,
    0.04327559881640661,
    0.09565312801336913,
    0.05972607472264227,
    0.051348532324373274,
    0.04902795004444806,
    0.06473061386887272,
    0.041167712376646064,
    0.03990474368943384,
    0.06071308284810466,
    0.048563108114634906,
    0.05424283616851517,
    0.05409267260569511,
    0.07753789597164105,
    0.04962228611473105,
    0.09404190999192753,
    0.06457140995761461,
    0.06606033041384922,
    0.06557631871821011,
    0.0530316132558108,
    0.036448020830751875,
    0.04233651099588417,
    0.08235270192416713,
    0.10336569777672572,
    0.07490440425702197,
    0.05142050906761708,
    0.10987872242676719,
    0.06899932416672683,
    0.07879224800648274,
    0.04547407056667635,
    0.034640011926946435,
    0.06010403370593655,
    0.07278328740381303,
    0.0738678965409977,
    0.045065259634764,
    0.046342719706203815,
    0.08282481190961825,
    0.09962273821550839,
    0.04678733617972188,
    0.08229633248958948,
    0.05011812186249152,
    0.05798400914929408,
    0.061676806939193606,
    0.033347709215256795,
    0.0701209989486377,
    0.042403793069175535,
    0.044062658619673976,
    0.10221320035714923,
    0.06001719837094719,
    0.08163269120744565,
    0.08716018925322898,
    0.04867891511899448,
    0.09262660399829369,
    0.07423326703554751,
    0.05236413848354065,
    0.053386683658346236,
    0.03298808623748841,
    0.05475362793256282,
    0.07312619277489801,
    0.07611772287039209,
    0.11437096418779943,
    0.1037947530854757,
    0.10820559750259474,
    0.09584542995270948,
    0.04539701735320772,
    0.09413069897798675,
    0.0533989016144894,
    0.04576362310314979,
    0.04217994104370782,
    0.04288543653331553,
    0.07919660616190476,
    0.10093374773911455,
    0.04568352502072232,
    0.07935687316347605,
    0.0925045859642312,
    0.07830041562821057,
    0.09287723714483724,
    0.038987831770788815,
    0.06086158972770337,
    0.056509812843517984,
    0.0625734680725809,
    0.05411470879606164,
    0.03598854422242825,
    0.07909210883342693,
    0.086702736092214,
    0.05604113985382342,
    0.0763057406488469,
    0.09350269166777599,
    0.07812221379844321,
    0.059876271175474956,
    0.049470595777090995,
    0.07106955895619355,
    0.04434911617626663,
    0.025935470186998228,
    0.06593195520562521,
    0.07564106933758857,
    0.08156555794455095,
    0.0958157049064411,
    0.04786458978168942,
    0.0682964179347337,
    0.09622053131444477,
    0.08258858912349971,
    0.058658121559704283,
    0.05783347028734683,
    0.0792672635150699,
    0.05626571713531424,
    0.034230024411668405,
    0.07912140300081585,
    0.10873639012004445,
    0.09802196873854213,
    0.0873406294896506,
    0.12769084227815725,
    0.08688672474056058,
    0.05840117640973053,
    0.020283527541348885,
    0.06360448392409682,
    0.05631662181319251,
    0.06342066912932351,
    0.06000968625300742,
    0.0637320889314224,
    0.08285286646218068,
    0.09713612524071971,
    0.07064426052175772,
    0.08922777023650319,
    0.0936196499190898,
    0.059874740233608566,
    0.07094549876361365,
    0.038832879339982286,
    0.06127317901768117,
    0.0815475272113143,
    0.05494081658088645,
    0.09970754965063977,
    0.04497099460497279,
    0.05873540933797332,
    0.07007879536472343,
    0.03997266911036383,
    0.0995783383299758,
    0.0809558280697924,
    0.04241123810334183,
    0.08050726324289509,
    0.025189685573133027,
    0.06557222104136222,
    0.09138229365758234,
    0.04789551548255005,
    0.11153067934815356,
    0.07839796177676112,
    0.0896590876567589,
    0.09489506799881692,
    0.049325003761961764,
    0.07318594060836776,
    0.07873258958894966,
    0.04198231352672799,
    0.06502577922018558,
    0.08739628745220898,
    0.062006938023398836,
    0.09142371827130633,
    0.03815056426181626,
    0.0856309855360375,
    0.047399823943088414,
    0.06863808181281748,
    0.10438698499586595,
    0.03042989886153457,
    0.07275489914825749,
    0.0419448259282366,
    0.058058778950615335,
    0.05339055136167783,
    0.040345592968056086,
    0.054907988861320395,
    0.0920649629071226,
    0.009506348163683112,
    0.06888085575324956,
    0.06947949253837868,
    0.051392092237188436,
    0.05999970210335887,
    0.030446670862972102,
    0.055837461676949286,
    0.060772059958912376,
    0.050620718078073716,
    0.0469650947139279,
    0.06562081994344081,
    0.08097607530627994,
    0.06890119285773895,
    0.06961382690384853,
    0.07601000045164188,
    0.06330704958340158,
    0.04844007685087965,
    0.05064304073724207,
    0.041139107544025895,
    0.0737479466171098,
    0.06003677922919354,
    0.0441425554860667,
    0.08903430082786189,
    0.07769786986716541,
    0.07537479298071235,
    0.1100480992449088,
    0.061470390589743795,
    0.08128160402032797,
    0.05543614348285385,
    0.03925238828739014,
    0.06761275686089913,
    0.046414815771490044,
    0.0611671740616716,
    0.054724891251253044,
    0.07476421147713606,
    0.05733324908059532,
    0.0739672204613784,
    0.059717291288282334,
    0.0690326127888212,
    0.07005292363295301,
    0.05294946757241084,
    0.05321803728067865,
    0.048634942083519414,
    0.05238589008838405,
    0.06123246433165374,
    0.058091607506230186,
    0.11201839823887438,
    0.05188829164034915,
    0.06682503468622895,
    0.11630034972894956,
    0.05469291703844846,
    0.11114332455026944,
    0.06036644047900936,
    0.040985233152349955,
    0.06507881341057448,
    0.04746530764514332,
    0.04284185933655481,
    0.07066520839006368,
    0.06224828793833824,
    0.11014960031967652,
    0.058311070730415186,
    0.08074491604029387,
    0.09935537297600085,
    0.050075310152813655,
    0.0577356651829907,
    0.05139167791012028,
    0.045732336521421155,
    0.060815362685567566,
    0.015969839016588695,
    0.0543206239594937,
    0.062194076021657274,
    0.043067654245088696,
    0.07632496933680229,
    0.039199573758128804,
    0.06331082536428054,
    0.0749150410905797,
    0.05116250092662397,
    0.04028769442164891,
    0.06027833049093126,
    0.063917824394765,
    0.06838237353365319,
    0.04773141083468816,
    0.08768676690853613,
    0.08826189991649984,
    0.0496118477414889,
    0.09097215766251916,
    0.0483115559308783,
    0.08041943370915071,
    0.049786885349152724,
    0.030570389847843424,
    0.07450964697895765,
    0.04461766869662172,
    0.038087118506049775,
    0.0521742085913596,
    0.057231125596753786,
    0.06355660576551385,
    0.08699113028032764,
    0.053768616969764114,
    0.07829787153189106,
    0.07616742976080638,
    0.07050545509712261,
    0.0658994919296213,
    0.0044869317020954785,
    0.06946326431726962,
    0.06125361947474955,
    0.033490245141812675,
    0.11210082103272391,
    0.08588788534133429,
    0.10210959772432666,
    0.1148002437597071,
    0.045689193249418496,
    0.1112474075990351,
    0.05065836376637595,
    0.036391135905553346,
    0.0744309441843199,
    0.04121614980037882,
    0.03779052207662432,
    0.05771475845197315,
    0.0669273016001259,
    0.11778095672306714,
    0.10019967053526735,
    0.06934298284492571,
    0.1161845631355452,
    0.04584110141651659,
    0.07121267581190899,
    0.05442483310029447,
    0.05189784406712638,
    0.06796481414557118,
    0.05481143138845397,
    0.061735394911573344,
    0.09439231526740749,
    0.04587628612038871,
    0.0971057012233509,
    0.07457043727922205,
    0.05154793332283105,
    0.09965439271494136,
    0.06331550804320382,
    0.06505472881086348,
    0.07027902485030363,
    0.03618049220431013,
    0.05117357667357441,
    0.07538301256910762,
    0.10582571620969142,
    0.11460313014699795,
    0.05091270927683858,
    0.11678600253028458,
    0.09038672230865107,
    0.06815159577638234,
    0.06220769098235166,
    0.035486722654201434,
    0.05017157549186357,
    0.051956890285855664,
    0.033641380525487756,
    0.07015352446972731,
    0.08994826416464255,
    0.07384152578511682,
    0.11400881270978142,
    0.0421116332148818,
    0.11480562273154876,
    0.11349624384058063,
    0.040954326652642994,
    0.06936603206646673,
    0.03405543080301351,
    0.06126456022467965,
    0.055700194908130995,
    0.03657298356720097,
    0.08578848407669182,
    0.06098040430895356,
    0.0495482332530301,
    0.1108138922041464,
    0.03300849404865313,
    0.07181362221385744,
    0.08227303758303751,
    0.02785555507656405,
    0.055003302935488566,
    0.06760651905162718,
    0.055309514918568545,
    0.06775027960551414,
    0.04999807701358683,
    0.08794830720768418,
    0.09507710107189336,
    0.045920120639781445,
    0.10963570463754096,
    0.056097983690427115,
    0.03922915056364941,
    0.07333052081343755,
    0.040602466096820757,
    0.06432169887885963,
    0.05137226821296327,
    0.027685419115244362,
    0.10191497748222055,
    0.034701497998517995,
    0.08361845490799295,
    0.10279497236893838,
    0.03610459699432095,
    0.09800598076914493,
    0.15703390899447495,
    0.038723748760005505,
    0.10501053264100503,
    0.022467772179016264,
    0.07822293436757508,
    0.06686844244946899,
    0.07912980226210456,
    0.03552361892067467,
    0.11568416064040621,
    0.1400859408446614,
    0.17497477066321648,
    0.06532742809469633,
    0.05292410310285867,
    0.029608525630442337,
    0.05868950451494687,
    0.04884196601548624,
    0.021762795283733292,
    0.08362798338895946,
    0.10075504657732928,
    0.05656816988244236,
    0.10157543336150679,
    0.04869625375330726,
    0.08578987792506049,
    0.05639328218278841,
    0.004510545144425699,
    0.126034009749795,
    0.22848505672155014,
    0.026955099953110004,
    0.04993602989698086,
    0.07831741884920516,
    0.08568778623164112,
    0.062401424524057225,
    0.028656315200391757,
    0.15323448111438245,
    0.06782520270101282,
    0.05303450602436966,
    0.05452792170465927,
    0.04434612523429005,
    0.055845337474388274,
    0.043325389864762,
    0.0706515915432446,
    0.11155663374369437,
    0.09351760346053085,
    0.08924592601646328,
    0.045466535156079756,
    0.02681822745994729,
    0.06157350904042485,
    0.038567120095857096,
    0.10887010194985693,
    0.22939251722619194,
    0.14137064647327233,
    0.15048313234609995,
    0.036429880917094266,
    0.05884698245888535,
    0.07272950568912058,
    0.037462047582371115,
    0.20386318004752282,
    0.18390259743653456,
    0.09872079104198161,
    0.20966679413291717,
    0.045220786132015654,
    0.0709201646904825,
    0.04155613298741656,
    0.06213293043692126,
    0.11519132632926937,
    0.1512326208190507,
    0.028065380562749962,
    0.1492136944300381,
    0.03572914955380758,
    0.05439570669100831,
    0.04431269969771568,
    0.018528935560213296,
    0.08584496739806911,
    0.1477391525897486,
    0.09815119941717246,
    0.09997809085003263,
    0.05004960740431469,
    0.08119955533084168,
    0.0453084723067435,
    0.08699122239257932,
    0.10727808147999363,
    0.13166674916649293,
    0.11597102366922715,
    0.11872731580885257,
    0.028789170185931377,
    0.07283557498746786,
    0.0478714936984685,
    0.07240265285067081,
    0.06848341445199377,
    0.15364489603743045,
    0.07617222432377592,
    0.13637897112777328,
    0.02505765580025188,
    0.053947959826358347,
    0.04853447788761507,
    0.04423264688348127,
    0.14714848363357202,
    0.0666484297954229,
    0.13102958155703506,
    0.16692358787449246,
    0.04038967368818439,
    0.07938917687664235,
    0.0705666646212457,
    0.038020271925624766,
    0.22217514097728114,
    0.12559829466892747,
    0.18287706679852342,
    0.22684395516117764,
    0.06048706952873026,
    0.0781527688506512,
    0.05572567562111917,
    0.0468516581913476,
    0.09667505083641803,
    0.11399209623795051,
    0.13954472944046598,
    0.1060201720792805,
    0.08595284419062969,
    0.05341828679787256,
    0.04955451934972737,
    0.0723620081211716,
    0.09341501904299954,
    0.10491690764600027,
    0.09828884017753932,
    0.126264345948704,
    0.06196875507384295,
    0.07290790232980865,
    0.04215999526517337,
    0.06846143504723706,
    0.08705453726623603,
    0.12069594281201455,
    0.09064706516431911,
    0.13322351354597167,
    0.07515278609983003,
    0.08811235627093471,
    0.03982101517082356,
    0.09590067510472937,
    0.0464629196380848,
    0.1463976800798738,
    0.1965267363927463,
    0.004510545144425672,
    0.058129695652909846,
    0.05743756837711466,
    0.04909952705470642,
    0.05875770032113872,
    0.09304437902143543,
    0.12246630682737615,
    0.14912377721089676,
    0.10272240681653547,
    0.04977313161872229,
    0.07834601799869852,
    0.05425609787957362,
    0.06422187198180938,
    0.09459714842926946,
    0.18749247449437595,
    0.1428729945481932,
    0.07975074805542719,
    0.0748297362604274,
    0.02694404161208087,
    0.0444452393301606,
    0.06846690535374032,
    0.08507920061715751,
    0.1627916204799927,
    0.1703802170561585,
    0.13060687229407317,
    0.05305303145407463,
    0.07574251584617028,
    0.05637219789098702,
    0.05723657975932445,
    0.12411325414992122,
    0.13841720495965798,
    0.12610542948067593,
    0.17148158498283964,
    0.10471762749875026,
    0.04518996449772714,
    0.054466297936117854,
    0.09240248605512169,
    0.016733090310423186,
    0.09608946422577858,
    0.0734928822750747,
    0.10742158280859482,
    0.05135657672599975,
    0.04829706188957274,
    0.05515028508591136,
    0.05241540184469197,
    0.12001027583014061,
    0.11097466200086882,
    0.14525514803614198,
    0.11188138655425582,
    0.06043328022485523,
    0.034711850285661296,
    0.05856537795742648,
    0.059120460957540186,
    0.11973042869384483,
    0.2240819603475742,
    0.13935807751072393,
    0.19303128292777824,
    0.030565084231679956,
    0.05882009824817498,
    0.0684605258471411,
    0.04699260581297204,
    0.20499895739131974,
    0.1396925404997131,
    0.18663474801088664,
    0.20765398052521178,
    0.049256992188470086,
    0.05405703386888643,
    0.06371976943706342,
    0.03764302420644793,
    0.0953856347377136,
    0.09481225472532114,
    0.0952797652036727,
    0.1005745754557809,
    0.05160845548319406,
    0.06281588620620407,
    0.07605679864110709,
    0.04551240412715924,
    0.22262930894026653,
    0.03303805146913591,
    0.25172048474372744,
    0.20171310268435805,
    0.03486886313989316,
    0.04982374107733368,
    0.05509834901742507,
    0.047949414420855305,
    0.15581307613499054,
    0.04901928183015096,
    0.12218208555846703,
    0.11953950069370256,
    0.05100276096398967,
    0.05645395959853061,
    0.05169330051625931,
    0.06260421023495578,
    0.21618414873894667,
    0.04937398029103418,
    0.15455184343235231,
    0.17272191706562293,
    0.032997205337820606,
    0.05637492050714181,
    0.0554252805130039,
    0.03881326718004062,
    0.09605933082648932,
    0.018970741080219847,
    0.10815514384457951,
    0.0836613245261372,
    0.05460877024942515,
    0.06202849345538984,
    0.08792322296839693,
    0.052038169340696556,
    0.16169183816731927,
    0.0945575515217097,
    0.13965964372463258,
    0.139745007183441,
    0.04272058972623837,
    0.08214660692652945,
    0.10654479867710534,
    0.06093994519542177,
    0.12291377326506746,
    0.17658412467626622,
    0.1843285901514988,
    0.0387388353120084,
    0.03233453993965121,
    0.07699880919455734,
    0.029888277255772748,
    0.05927127018461168,
    0.07881137553954327,
    0.11943146919106541,
    0.11497992696108734,
    0.049229062649967174,
    0.05916572220582551,
    0.04222218060591231,
    0.04584866568083384,
    0.052286762219926175,
    0.0822102780753556,
    0.24360105885084454,
    0.16587746900932543,
    0.01008061740168978,
    0.04606071501950927,
    0.09390095940306756,
    0.04676503214323586,
    0.07078838343666162,
    0.07410829374517326,
    0.11613260161074616,
    0.08476143170760043,
    0.061844620216162265,
    0.055452536144582246,
    0.06154858265155839,
    0.039290638025014084,
    0.06987647192352185,
    0.07492097933234662,
    0.133121000613602,
    0.10505958916097466,
    0.0957333412251423,
    0.04826338634138704,
    0.05960437290060996,
    0.04848757083966298,
    0.056779890134351356,
    0.02008997015154493,
    0.17675941610769988,
    0.11834573039828378,
    0.16201495025315726,
    0.06177142457134688,
    0.047384849528113636,
    0.039774820810309794,
    0.07447101978685665,
    0.08371020083948945,
    0.11523973660601484,
    0.08064987924977933,
    0.1052374166366921,
    0.0803425465158744,
    0.025976856120187224,
    0.05478665921203378,
    0.08750504895560242,
    0.10755723785745583,
    0.11041007151954327,
    0.06845858868977142,
    0.11211166006744967,
    0.04673384481216636,
    0.03638788841454596,
    0.052602051359037755,
    0.07250985531505653,
    0.1021488672971632,
    0.20559730841107948,
    0.052957325519033364,
    0.15547348840200756,
    0.08145225868179895,
    0.04706219903206657,
    0.06597200407943506,
    0.06596882703235991,
    0.12997002631927584,
    0.10892644239693317,
    0.03745393069680137,
    0.13597054891224514,
    0.06600710761611547,
    0.03863448137550261,
    0.06932113404170985,
    0.052747599488753544
  ],
  "classifier_coef": [
    0.00666058364263147,
    -0.0006045017038398511,
    -0.0037142245969312114,
    -0.004383888089642832,
    -0.018498045177378054,
    -0.006559154206990228,
    0.0015169285840631766,
    -0.0001220972147103515,
    -0.0024876870106872477,
    -0.0039312989298210645,
    0.0028938692817025162,
    0.012861024164477475,
    0.0022579308821225703,
    -0.0006866393011643204,
    -0.0031642903286349623,
    -0.0012751945020133939,
    0.00044292980125174383,
    -0.0041646301084803505,
    0.01115863303286665,
    0.005006572223256987,
    0.0061130056411596405,
    0.003081639947630637,
    -0.0014788130010183157,
    0.01571168834430532,
    -0.004757463468026597,
    -0.004119826676059573,
    -0.010494609704813643,
    -0.0008180826909640515,
    -0.008219077485229155,
    0.0021800443780780887,
    -0.007684628122393899,
    0.0014061462969335576,
    0.014356027319992512,
    -0.005955986859535469,
    0.002246005610716669,
    0.00838242065056944,
    -0.004174403020141569,
    -0.006033233313598686,
    -0.004631004273242595,
    -0.0056226428191007045,
    0.008574626677180376,
    -0.0013323934995338417,
    0.0036620360427196937,
    0.005928365789708477,
    0.0067855244174098266,
    0.012384110196821948,
    -0.010646473083478424,
    -0.002577473454114998,
    0.005259486272470303,
    0.005091914630635527,
    -0.008950135552835988,
    0.002582686400909797,
    0.0027737331648303633,
    -0.000884953573461469,
    -0.00023096156303540187,
    0.0051087712579032185,
    0.004102713156358059,
    0.009400542705072987,
    -0.0024534838133075196,
    0.004923166715328839,
    -0.0059086441274263535,
    0.003203931667754126,
    0.0016484685037523432,
    7.828784922834584e-05,
    -0.006680592476568281,
    0.005113206050886993,
    0.012146422260393811,
    -0.0024697630395891135,
    0.00013514742760795627,
    0.005498367835830152,
    0.004986069779200613,
    0.008474410390806873,
    0.004490450330600287,
    -0.008236807505162256,
    0.007876530039341427,
    -0.0017804042390540122,
    -0.00267411303532451,
    -0.0013506696444116127,
    -0.0006606482136610935,
    -0.0020125336105111208,
    0.0004233800368563712,
    0.0037010264243962027,
    0.0010796869190854521,
    -0.0035154708555529255,
    -0.0003137144583165388,
    -0.0036591852556801053,
    0.004666502755792031,
    0.002217022646192239,
    -0.0033871419216352085,
    0.00719827916709047,
    0.0006555459139598614,
    0.00760044959142514,
    0.009229761642971988,
    -0.005416588746490135,
    0.0024581766327322384,
    0.00035665650959708914,
    -0.003725265603948661,
    0.002001924048022105,
    0.009290969804153719,
    0.005421091328773727,
    0.009418399743771969,
    -0.0003824953168514783,
    0.0027217564445416015,
    0.007182872351961947,
    0.0036675363026341464,
    -0.0012455987217871748,
    0.0039011005204360547,
    0.008945830202199148,
    -0.008215480877806691,
    -0.0023110174092565226,
    0.001933298686916638,
    -0.0025374990293360747,
    0.005181699901997547,
    -0.012799042400837114,
    0.0001533875089480022,
    -0.0011052648195366045,
    -0.005985890545925757,
    -0.011267166252866839,
    0.00038125210629776974,
    -0.002545729168815298,
    0.006757414811527515,
    0.0034413756714719674,
    0.0008086464040689149,
    0.008003727762663742,
    0.0013561758932858485,
    0.0018233115894473104,
    -0.00892983361136003,
    -0.004470153725826438,
    0.0031853271197995834,
    -0.007731639406608774,
    0.001227042607897873,
    0.0015217773962878298,
    -0.002784468621409291,
    -0.006132253666162412,
    0.0028152623655037026,
    0.0079697849581491,
    -0.00463367685481475,
    0.006413439345582601,
    -0.004292875439130917,
    -0.0018390052773672933,
    -0.008575053347390789,
    -0.0028736261089425635,
    -0.0008406345361118507,
    -0.002488039299660693,
    -0.004966226567624717,
    -0.008299561023445371,
    0.0013394094814426355,
    -0.0009790687301150707,
    -0.001622255844068183,
    0.004622501328756931,
    0.0103167568571423,
    -0.0022972946946859924,
    0.008521500440866048,
    -0.0014878869624251757,
    -0.008593941087406612,
    0.00638597468028816,
    -0.0010184558085768636,
    -0.007874519231062112,
    -0.0010505674246419658,
    -4.796497181956031e-05,
    -0.003521593253412368,
    -0.001474936914035873,
    -0.001905215496779974,
    0.0006901507449092698,
    -0.0004686292083287066,
    0.0003404775504941189,
    0.008168138824742073,
    0.005074858591080504,
    -0.0002530886798019202,
    -0.0020792358409008646,
    -0.008780538548838469,
    -0.005939129205893131,
    -0.003690943825403783,
    -0.014128973572232834,
    -0.003839876978322181,
    0.0006477209204358675,
    0.005807765433172631,
    0.0008952931195355781,
    0.00027806475937402065,
    -0.0048478989151079606,
    0.0024839801914595568,
    0.006483754322238535,
    -0.004416209319047628,
    -0.002327289820432613,
    -0.001787340319061661,
    -0.0012789590469409336,
    0.00489330898354644,
    -0.0011656067133963017,
    0.011773615747989848,
    0.003662340561295979,
    -0.0045335398231405605,
    0.00401235188326713,
    0.00014402979390076842,
    -0.008405619586079525,
    0.004572551260196962,
    0.0020438225867483134,
    -0.003039296577083197,
    0.0006890479206400139,
    -0.00349415903601056,
    0.011242084370940479,
    0.007422008205501396,
    0.005618775838164936,
    0.007723275422951051,
    8.869817486115279e-05,
    -0.006276693624229398,
    0.0003558407756830696,
    0.00868107781313091,
    0.001747214772124542,
    0.0005375316725403734,
    -0.001185070673693904,
    0.002253512329776001,
    0.0012060681169848012,
    -0.009243220126186863,
    0.0025455385500615536,
    0.003473397108446785,
    -0.0021228080741338,
    -0.0021795973419287055,
    -0.0020683741167078096,
    -0.0014798663493196093,
    0.0008786425155633209,
    -0.010959834255239265,
    0.010788628375802942,
    0.006538917245963021,
    0.004390344059994477,
    0.005730916772879511,
    0.007391367427915252,
    -0.003299635132171862,
    0.0018728032553324244,
    -0.007876471520494447,
    0.002794753947086722,
    0.0011951230185995307,
    0.0026268145746784943,
    -0.0015613693768077683,
    -0.011069714993252523,
    -0.00504644730371868,
    -0.006967855605347703,
    0.0030578046602100072,
    0.0039010527549237484,
    -0.008759078761131836,
    -0.0006310286595806408,
    0.0030992771119016964,
    -0.0017822672765210928,
    0.0027237485553824785,
    -0.0030243462900067276,
    0.001955142996072015,
    -0.003372099419666871,
    0.007780729757588139,
    -0.004226424598996851,
    -0.006145872743766314,
    0.0019905547805412283,
    -0.004357681448362225,
    -0.0029301145700518453,
    0.006430944793097317,
    -0.010953422467434599,
    -0.00027270874860854503,
    0.004230492398518438,
    0.004590936559735021,
    0.0005234436802203643,
    -0.007016601567579022,
    -0.0045760600492336535,
    -0.005886743377247057,
    -0.011248031703560315,
    -0.0052499428046050185,
    -0.0054077170756191145,
    -0.001274375240899427,
    -0.00653553472878373,
    -0.008886876533756072,
    0.0012604732614585972,
    -0.008853466700095373,
    0.003472043134589097,
    0.0049903371892326435,
    -0.012863776015613174,
    0.002591530534321059,
    0.00032181520913610875,
    -0.0032724704915208596,
    0.0063649799350370745,
    -0.003477855877369086,
    0.006468695451454329,
    0.0018246135950231303,
    -0.0050122625189833,
    -0.0029125890338825215,
    -0.004968755942386389,
    0.0028078855906449986,
    -0.0044381988968019,
    0.005887763399927634,
    0.005953970803374747,
    0.0021387817538627094,
    0.0023304901020671444,
    -0.003966360529602859,
    0.0064945044038714995,
    -0.0027109574133840656,
    -0.00890306933433577,
    0.00036957205297064895,
    -0.0031149254427200366,
    -0.004637377899613494,
    0.004001112926168765,
    -0.002994648550312886,
    -0.0027700139579766954,
    0.0024594601500047787,
    -0.0048759373375219595,
    0.00013906304188451905,
    -0.005992001091139546,
    0.0013862091229080835,
    -0.0027018237885649173,
    0.013105697544801485,
    0.0031866377700427747,
    -4.3255991921977e-05,
    0.0014345506600263347,
    0.0018081629700473893,
    0.0051395408802034,
    -0.004367661572977541,
    0.002559822944265279,
    -0.006447923640463751,
    0.0001469838932473044,
    0.005897539872196184,
    0.0012659508503588598,
    -0.002775360956863533,
    -0.0009244674039881968,
    0.005392070105404387,
    0.003674556871280086,
    0.010696005298004487,
    -0.0008119034818045528,
    0.009418480772687084,
    -0.0012674221561153553,
    0.0017055568590414745,
    0.0037450349123076803,
    0.0021595208605052077,
    -0.005405945190931792,
    -0.002827835648255434,
    0.0043563885883946656,
    -0.003898302951612414,
    -0.0066331983330510805,
    -0.011544019838106524,
    -0.0011712744397245364,
    -0.0014112364194623543,
    -0.010128857111105796,
    0.0017669319551904415,
    0.006610473087275975,
    0.00136277472000953,
    0.0022392400802849553,
    0.00045726818059857997,
    -0.0007627113834121389,
    0.0063706014531315636,
    0.005892763924555614,
    0.004032313930448306,
    0.006498716008859342,
    -0.004481236991011697,
    -0.0010836831081933332,
    0.006925881022747395,
    0.0019156362802538757,
    0.0031760540024368734,
    0.013109228531558504,
    0.0016497158881213774,
    -0.006016307533884009,
    -0.009333543945635922,
    -0.0068922167452876906,
    0.0016711924140276264,
    -0.00874574437085772,
    0.001625825500624475,
    -0.011355247574640412,
    0.000454643184349373,
    0.0025886569628987806,
    -0.000726754334432577,
    0.009566694358932868,
    0.0017459921592600492,
    0.004666478429717025,
    0.0009108716919168767,
    -0.01223986515325063,
    -0.0015450468059030203,
    -0.002478681482355985,
    -0.005300058442430751,
    0.009974695821315088,
    0.003173281733314173,
    -0.0020589627211483634,
    0.0009186576510637589,
    -0.005307093707019162,
    -0.0004815229998958668,
    -0.0010619690673083016,
    0.005143983887553483,
    0.00586696959242384,
    -0.0015290709787893024,
    0.007702053790289675,
    -0.0009561666176201872,
    0.0016980145861176582,
    -0.003242350319347242,
    0.003982573981532224,
    -0.002012307672599167,
    -0.0051181601359740515,
    0.004212137642863961,
    0.0007532192146359716,
    -0.00546197413364356,
    -0.00700013844936443,
    0.0034455213244110284,
    -0.005042052529523191,
    0.002947761129092456,
    -0.007604602672193854,
    0.0005594220725852403,
    -0.0009219377559716841,
    0.004049192178504594,
    -0.0012271769397711896,
    0.005597703527558504,
    0.009200821566152874,
    0.00026066524823109403,
    0.0076962604950296136,
    -0.0018941680521763562,
    -0.004056623495807838,
    0.004037233373957194,
    -0.0040842875294565765,
    -0.014972263822615958,
    0.008419652457962253,
    0.00040892403719806246,
    -0.008171982100381314,
    0.004274039275954269,
    0.002251248878878685,
    -0.00421565670787607,
    -0.004816317459725385,
    -0.005442475324160551,
    -0.004967551123756868,
    -0.0010911221499145531,
    -0.004055262312241671,
    0.007187657858797167,
    0.003594281901351274,
    -0.001108982395963172,
    0.00261640590095298,
    -0.0009355863716516105,
    0.010518292844535149,
    -0.0005683683933871333,
    -0.0009085286499789505,
    -0.00355103956755484,
    -0.002168583215120389,
    -0.004853416473638611,
    0.00447381473569216,
    -0.0015237276380436434,
    0.0066347850907780915,
    -0.0012055485056960207,
    -0.0030873303581184764,
    0.003303831654727797,
    -0.00469995868869419,
    -0.00318176289792184,
    -0.002046439351482773,
    -0.005859821919489514,
    0.001950572898252442,
    0.004213740101894454,
    -0.004285371730462695,
    0.0011088428520953794,
    -0.006743572104958175,
    0.016369395795366847,
    -0.0014428489931852763,
    0.006434485207254602,
    0.011853991723135102,
    -0.012539521434782935,
    -0.004930381945321402,
    -0.0020019464615351514,
    -0.005483061080952416,
    -0.003957946384317891,
    -0.005419087795605072,
    -0.00525220981978672,
    0.0018028125124917942,
    0.0033933506632724715,
    -0.0043920300991445544,
    -0.0009786795682213134,
    0.0035871810491865867,
    -0.00241453974618878,
    -0.004335605556939294,
    -0.0033661192521772286,
    0.003158042500190713,
    -0.008376618715905186,
    -0.006895139557158837,
    0.0076782556751530395,
    -0.013628434960442663,
    -0.0003574235006906048,
    0.004823277666357213,
    0.008208923964447841,
    -0.0016430673010287527,
    0.0004446907574786035,
    -0.0018239571858619079,
    -0.0014788048357803302,
    -0.004831001923986085,
    -0.004170222454976055,
    0.0009773095708226426,
    0.01421903371587363,
    0.0038468177899024973,
    0.006621636613167016,
    0.00018892790048807183,
    0.000419378595761522,
    0.001837384562974436,
    0.004285487788717482,
    -0.00380890501022769,
    -0.0020592813595409504,
    -0.006684722169796837,
    -0.007152191098353444,
    -0.004828871855256375,
    -0.0009533288543030949,
    -0.003064486730228837,
    0.006364061887496742,
    -0.003410018675806922,
    0.002746758342792937,
    -0.006102223105093738,
    -0.002455424077850698,
    -0.0034703927218856204,
    0.004725794720836999,
    0.0049221442390174446,
    -0.003949268421818987,
    -0.006522029725718691,
    0.0011692460620008624,
    0.002463618374982051,
    -0.004640357009661325,
    0.004734425646267155,
    0.0024503347489526844,
    -0.003088353216885207,
    0.005122822287376344,
    -0.004315012278261569,
    -0.003855367758333433,
    0.0027593042318079263,
    0.001107465205834658,
    0.0014185124759642212,
    -0.0016347385902833824,
    0.0030307025378980444,
    0.003497795828555519,
    0.0007619481803603296,
    0.0006569178258300742,
    -0.002611012348900282,
    -0.01349654472724192,
    -0.005838016638609771,
    0.009906792268925208,
    -0.0019468249227852653,
    0.00468419153844468,
    0.0016819790333694232,
    0.002130795662229928,
    0.0008900123487443924,
    0.002258564424977731,
    -0.00231859203795488,
    0.005673877009585118,
    0.00035061087087315246,
    -0.00274453398434604,
    0.0022636789656462044,
    -0.003299073609297812,
    -3.140222621303776e-05,
    -0.002085878286179269,
    -0.006118029555221956,
    0.005213671188314964,
    -0.0035541827236307147,
    -0.0118586258259655,
    -0.004494499993245399,
    -0.0055075845495609985,
    -0.009783670413652091,
    0.00760950594639776,
    -0.012511374980505195,
    -0.00764859491348166,
    0.003660332240230647,
    -0.0006793018078129805,
    -0.0055197951224520815,
    0.006861157414562877,
    0.0019258348543467203,
    -0.007797369574681522,
    0.0033807002617051675,
    -0.0071030624693246315,
    0.009102579237143334,
    0.010388754574988533,
    -0.0014812228494343151,
    0.002614391101085713,
    0.007387901167187954,
    -0.003739589628841648,
    0.0013318463343021465,
    -0.013775768557440105,
    -0.0018150692140841663,
    0.007506798718555761,
    -0.007025166331875973,
    -0.0029550627945520353,
    0.0009268761343199128,
    -0.011930647751600574,
    -0.0027586155728305337,
    0.0034554863668848986,
    -0.0012369791163023898,
    -0.004315410812894486,
    0.004368293650626298,
    0.006010737726386055,
    0.01546382299148341,
    0.006878942670261675,
    0.01184080267235508,
    -0.009420504955715045,
    0.001134594886521179,
    -0.0006732933060143317,
    -0.0023158603902524878,
    -0.0014369056899678197,
    0.007910512623267163,
    0.00943226199123826,
    0.009354458174015312,
    0.015074080079273437,
    0.004768283406917497,
    -0.0005354248496619908,
    0.0064704268859233915,
    0.000450475005363472,
    0.0029102567426622715,
    0.002429932705347185,
    0.004059728397625148,
    -0.0034569258722931596,
    0.0036355507315354125,
    0.004189619230028653,
    -0.0019460948194252896,
    0.006949239324705832,
    -0.0015636430030574265,
    0.009123097700170406,
    -0.004254826757599755,
    0.0024144011489238937,
    0.008734774792047966,
    -0.010311878689824966,
    0.007929502162517027,
    -0.0026181851825779812,
    -0.00022053360305502594,
    -0.0014920469406946506,
    -0.006063514150577738,
    0.0015493628257521215,
    0.009341616842008087,
    -0.0008431699199483815,
    0.002924319726697786,
    -0.002958729256735066,
    0.003954896908314079,
    -0.0008208485424428815,
    -0.00942263446113011,
    -0.0009155740994772337,
    0.0063897165428336115,
    -0.004699596281145599,
    -0.0007362150109553129,
    0.00036553506665791015,
    0.0014786339113270386,
    0.00024922399030606667,
    0.007174791519859803,
    -0.0011448568097775266,
    -0.0030308133834877965,
    9.32966605704642e-06,
    0.008026452694891191,
    -0.004956686322147625,
    -0.0005268841359494308,
    -0.015184763353431698,
    0.006426332866307733,
    0.007060726634369209,
    -0.008402989627767433,
    0.00022924407202037136,
    0.013178997579364323,
    -0.004545791846254784,
    0.0009549057600951928,
    -0.005736926672668094,
    -0.0004854768878113595,
    0.006530589670156204,
    -0.003625833542777528,
    -0.007072182074244522,
    0.004044214321801438,
    0.0026290894466066295,
    0.002933668826625716,
    -0.00834739571011151,
    -0.016828563148522952,
    0.0011005743921533129,
    0.007032531184594265,
    -0.0003713713901069568,
    0.0028991470699383124,
    0.004849725533323573,
    -0.0014047590274131867,
    0.005938203812954919,
    -0.00026268870034006216,
    0.011780246666083983,
    -0.004845275314211262,
    -0.004958180031436239,
    0.004579208315318857,
    -0.007933258927696855,
    -0.0034113747467551573,
    0.007435112167005224,
    -0.0006108219996412447,
    -0.00933522757513352,
    -0.001112133292096477,
    -0.01580756038750861,
    -0.00389175710613582,
    -0.002186988222689787,
    0.011315961837872257,
    0.00908209680457942,
    0.0021695165273945575,
    0.014300751984405348,
    -0.0013188168145767557,
    0.001272279015814272,
    0.004218275427750039,
    0.0031644075719995967,
    -0.0050217879908242965,
    -0.0007724292862089785,
    0.011003262953502952,
    0.010539552212120143,
    -0.003042081203352345,
    0.00948284848490227,
    0.014681201225622713,
    -0.002002670257989,
    -0.011251358771598295,
    0.0005374136968471178,
    -0.014450185653661076,
    0.007314497592497659,
    0.009732980103358142,
    -0.0039985190869119116,
    -0.002584368723180931,
    -0.001268430740492845,
    -0.0011584728612174671,
    -0.00228200137196348,
    -0.00025889585433798006,
    -0.00042219877172942156,
    -0.0007860108981623817,
    -0.0003634265182172224,
    0.0007746697224889008,
    -0.00028856589044730965,
    -0.0002852530685885955,
    -0.00250862938767358,
    -0.0008679285124146614,
    -0.005138561079704942,
    -0.008634801639737597,
    -0.0027962542015667912,
    0.002084419076526545,
    0.00683687279499904,
    -0.007232619156987962,
    -0.006190642902902327,
    -0.00025189502939195764,
    -0.0007948027157860058,
    -0.0009335406969050882,
    -0.005543165381858845,
    0.0007329549606951257,
    0.0029008214944018606,
    0.01140701579515242,
    0.004863167862915145,
    0.0015219709282374538,
    -0.0010897152570119337,
    -0.001508356293624443,
    -0.0001873436656291953,
    -0.008242164449055364,
    -0.0015659140351921563,
    -0.0010259433358788452,
    0.009765890437928453,
    -0.0003994149662160224,
    0.007071718065032594,
    0.006557719053495119,
    -0.0025252222689661186,
    0.002307115143225975,
    -0.0034465576546767844,
    0.012443162951823433,
    -0.0005592775686832304,
    0.0024491893182237118,
    -0.008543991090652502,
    0.004902445583924519,
    -0.0023999324015319956,
    -0.0008074106370629358,
    0.006048267907920915,
    0.001944303954008963,
    0.0010397415362238596,
    0.01070878139769752,
    -0.003170348449047321,
    -0.006616669722579789,
    -0.0006097825345469074,
    -0.006944528379137967,
    -0.009593530624224607,
    0.005334348609363595,
    -0.005914049037928786,
    -0.007199823020634801,
    -0.00044326304309955165,
    -0.009150894688058592,
    -0.0018356256981329787,
    -0.010968755462529841,
    0.00053517949641013,
    0.0019702520154511577,
    7.966782494979414e-05,
    0.009340705077127382,
    0.0002846808434081939,
    -0.007467439080122127,
    -0.003960272370661414,
    0.0003399806427140007,
    -0.00042937614323466743,
    0.004430505453806144,
    -0.0010698767289463952,
    -0.004109021828051837,
    0.011083432616892005,
    0.009089086313600421,
    -0.002538087062768927,
    -0.0030514839681521915,
    -0.0012347450586536871,
    0.0010271491649795385,
    -0.0006615612213303039,
    0.022872513086752425,
    -0.010452146283889574,
    0.0015063898800373554,
    -0.00041450590598397384,
    0.006584884840714524,
    0.004471461048861954,
    0.0005896285985244477,
    -0.003303900900732844,
    0.005755864400147389,
    -0.007491360835641963,
    -0.0008498000015533038,
    -0.001381590950124439,
    -0.013800738559443027,
    -0.012447647235759154,
    0.0035237329611697184,
    -0.0020690455341887044,
    -0.004390815700142967,
    0.005870013651653519,
    0.0013222354777623598,
    -0.0015321257445720235,
    -0.00011239962999376753,
    0.005592797499956576,
    -0.0007629719610507333,
    -0.0017279037368410522,
    0.0045251466258067535,
    0.00012985948059352913,
    -0.0003502905166409208,
    0.0026990384435838463,
    -0.005245733625620919,
    0.002089493635356248,
    0.013397356109191584,
    0.0063072680713368535,
    -0.00640740850234593,
    -5.19361334020798e-05,
    -0.005677455716082365,
    0.0007062471833426758,
    0.0008537394521973326,
    -0.00565996615556837,
    0.014576484747975477,
    -0.005122147197180214,
    0.005628200561388545,
    -0.0001271241518158937,
    -0.0009870535480517757,
    -0.007832215761337481,
    -0.005523979978802632,
    0.010559260189852539,
    -0.005770715911392319,
    0.0034391849150586682,
    0.0038638561138883204,
    -0.00333560944995426,
    -0.0024691474906160596,
    -0.001554160042723036,
    -0.004325507726124478,
    0.001776688624707871,
    0.008335436905012776,
    0.009765567804362302,
    0.0006233092297342456,
    -0.0018818870355185506,
    0.0009523914767233004,
    -0.0047541806196217,
    0.0028637767752038045
  ],
  "classifier_intercept": [
    0.0013037820869517083
  ],
  "classes": [
    0,
    1
  ]
}