{
  "num_kernels": 512,
  "num_groups": 8,
  "kernel_size": 9,
  "num_features": 1024,
  "num_classes": 2,
  "kernel_weights": [
    0.08190140596580728,
    -0.7972711833236078,
    0.2909361223112316,
    1.502908100666238,
    -0.9300363890154364,
    -0.9300136574456965,
    1.580697382018989,
    0.4567331948756461,
    -1.255854976053171,
    1.3469607564035375,
    0.118448773776775,
    0.11562525766628841,
    0.9798671801584938,
    -1.652140627615663,
    -1.4221102084288566,
    -0.0022922470013096914,
    -0.552501441824662,
    1.068142556865396,
    -0.5270720119065829,
    -1.103475519099312,
    2.1860920392014043,
    0.25275328773661027,
    0.588007255582451,
    -1.1176998588540692,
    -0.11142137018961944,
    0.637608061244072,
    -0.804791883714954,
    0.49758849844176434,
    -0.5644670114086303,
    -0.2283978324836944,
    -0.5656286934026142,
    2.1038070170480525,
    0.0742233326894007,
    -1.061668525763149,
    0.9836669195003204,
    -1.2391237046214498,
    0.7298799663045402,
    -1.7486434739274832,
    -1.0268893834355932,
    0.7161618819617943,
    1.3351891671185312,
    0.6870247349657331,
    0.3589794413332389,
    0.1470133627180744,
    -1.1987156970388353,
    -0.6628133725937811,
    -0.3413203753275133,
    1.5411614774666849,
    0.6562011871848573,
    -1.9566912906099774,
    0.6319727327035823,
    -0.24760751633766417,
    -0.6095768762289886,
    0.9886740337428003,
    1.297071060164775,
    1.1667068021859501,
    -1.1478839752757823,
    -0.4550024956412727,
    0.3822984762487311,
    1.2245749274210593,
    -0.6771954818866751,
    -0.29347979634785665,
    -1.4970895168689284,
    -1.8523085024829524,
    0.4917617348100765,
    1.1262435895382479,
    -0.5404386379798567,
    0.7146555311305206,
    -0.03439960445337465,
    -1.2092231920586713,
    -0.034680159630017915,
    1.3383892411260279,
    0.2075144652577921,
    1.5219581100950632,
    -1.9146225577102836,
    0.9119550657611242,
    0.3084284504381372,
    -0.008632709067904275,
    0.3122997539277906,
    -1.3954249888175192,
    0.056524410115799756,
    0.30101969540859824,
    1.8346559337521056,
    -0.8968219899721959,
    -1.2939530190786914,
    -0.8742259677161023,
    1.0649626227113473,
    0.2622109117985554,
    -0.912544464470214,
    0.514696277566597,
    0.3632629731114245,
    1.7004007200098432,
    -0.8627439854634081,
    -0.28836242409618623,
    -0.38723393294562924,
    -2.030960396534421,
    0.6686295252552159,
    0.6148336404952803,
    0.2221738801678806,
    -0.15464799646492836,
    -1.5250846230157824,
    -0.37059015177325605,
    -0.2801423928262801,
    -0.8135183847221487,
    -0.06957317636206997,
    0.5865656233994934,
    2.3067556187650586,
    0.32023548299991367,
    0.15720624500319616,
    -0.15970853717909764,
    -1.9202520707989243,
    -0.11395389527585807,
    -0.031150314664434135,
    2.2627004866596545,
    -0.2722670848020812,
    0.19920455662267106,
    -0.12177938556512641,
    -1.3113291325657943,
    0.6507024777933444,
    0.31891021070195286,
    0.3520978713627271,
    -1.0912399557433428,
    0.8713696228214324,
    -1.5092493910201785,
    0.17879163367181963,
    1.5399466629780394,
    -0.7114557059482435,
    -0.026165870496554482,
    1.049568752261416,
    0.07531317979908053,
    -1.6162517718999392,
    0.9993504126640158,
    -0.8273844838571692,
    1.6536109445066063,
    -0.5965854570292122,
    1.4801707088790608,
    -0.7704289241984419,
    -0.3255619967262026,
    0.7698205496561199,
    -1.2021958187943296,
    0.20450799162640518,
    1.2459731770309108,
    -1.5654835216690812,
    0.16319783419555856,
    0.470090710387756,
    1.1781289437126903,
    -1.5604399887856264,
    -1.6737199878042996,
    0.8255867481427187,
    0.5204212942620187,
    0.45735277441001604,
    0.587521094292759,
    -0.8049415886180328,
    0.08032057741486874,
    0.14672813391258682,
    -0.9532703078330007,
    1.8639494603647422,
    0.34409908413109475,
    -1.4740506351599292,
    0.5436104055318273,
    -1.2375229190983899,
    0.6861362007361993,
    0.9239468503400505,
    -1.1639093795229105,
    0.7180181402169774,
    0.13721863510207086,
    0.5689499233834261,
    1.7026399535816608,
    -0.5570559477836389,
    -1.0932907236642788,
    -1.2365174516533577,
    -1.3197964988915445,
    -0.5772298828682876,
    -0.15679179237138963,
    -0.2215896281217856,
    0.33177786895844047,
    -0.48665569905976624,
    0.9613999286918895,
    -0.7657645475860418,
    2.2346502512484854,
    1.0752181260522766,
    -1.164483939230014,
    -1.487315440693918,
    0.8589323156354653,
    -0.20733283961757612,
    1.2086390914702334,
    0.8449838179558536,
    0.020188963372679506,
    -1.148830094945001,
    -1.6528737455972777,
    -0.24962178726990947,
    1.461752391919011,
    0.6180862005777795,
    -1.299400426954955,
    0.5643473088095886,
    0.8429880481806141,
    -0.8240701242246269,
    0.5387921345597753,
    0.04432102038293874,
    -1.310421797503252,
    0.38219906188191927,
    0.6111482434695593,
    1.2001837444463774,
    1.1671952131038712,
    -1.5751257885902696,
    -1.079049902874324,
    0.5595502056831795,
    -0.40876482187761876,
    -0.40760814849059523,
    2.652153866302966,
    -0.3564152366168362,
    0.161240602936678,
    -0.005204838187176046,
    -0.28261762044709715,
    -1.168786365024956,
    -0.1839974385953639,
    -0.4343781103238163,
    0.022021177872245255,
    -0.1896100456007251,
    0.29338190434343697,
    2.194554778865146,
    -1.3662726423887817,
    0.8080049695329947,
    -1.1495288048900763,
    -0.17817322741042316,
    1.769262820772143,
    0.2697098553386362,
    -1.4015850056241603,
    -0.871171045220645,
    1.1701958714205332,
    -0.8932148615715089,
    0.49241540732434863,
    0.2423313922593481,
    -0.7779444346986949,
    1.8546873736259601,
    0.49720705809105,
    -1.8932325914525323,
    0.09494583364818096,
    -0.6676045280743867,
    0.6936467625256926,
    -0.7851318505954499,
    -0.17581822964131041,
    0.3813001718727954,
    0.8787929431067041,
    -1.226504161223643,
    -0.3442628533007253,
    -0.48737472181171754,
    -0.6691471194548997,
    1.7955821440261401,
    0.4092668773603918,
    -1.2882425939761637,
    0.931889485273913,
    1.6857905674950904,
    0.7188189784873397,
    -1.5456324189634278,
    -0.6270719667416547,
    0.9268619252391435,
    -0.8253444030271889,
    0.19646555066887145,
    0.49002433249720584,
    -1.01991256565538,
    0.4775640309626663,
    -2.056395880509891,
    -0.2908585385798862,
    0.3238234991951632,
    -0.4687721931769282,
    1.825033338883877,
    -0.6140034408721887,
    0.17451613222527437,
    0.6290930518719131,
    1.5859434994967478,
    -1.662132928353278,
    1.2719780814751631,
    -0.02959672395076231,
    -1.1492009081761922,
    0.48053207192350994,
    0.18357479799621046,
    -0.7187502573035343,
    0.03765236689213508,
    -0.44303019669787536,
    -0.030708008156464447,
    0.42276315710310175,
    1.1864262014683673,
    -1.1476886696967867,
    1.6385775127286746,
    -1.738089732208703,
    -0.2500009059488018,
    0.36175064140848806,
    0.5093428503369429,
    -0.9982547925902941,
    -0.306629617380094,
    -0.7818830489027044,
    -0.9426435400852693,
    1.4579359798284095,
    0.6361704700627261,
    -1.1153838763690893,
    1.541345575099373,
    0.1917872181367566,
    1.1094020536811846,
    0.776826871219873,
    -1.8706294324006092,
    -1.382722121746807,
    0.9903927733811344,
    0.7418718417733663,
    -0.4039099581059511,
    -0.15301924593894836,
    1.1065219071713286,
    -1.6959167896710206,
    0.011223955562145444,
    -1.1121435943846303,
    -1.135364689790421,
    0.8383253284537359,
    0.42849161289052184,
    0.4106405613661458,
    1.1482217084021942,
    -0.34002288172490863,
    0.5155785779188621,
    -0.7688540801626339,
    0.05242227805608539,
    -0.5356831814891249,
    -0.24165075480881731,
    0.4032208568257677,
    -1.4264025987409088,
    2.3413917841256784,
    -1.2474103942351062,
    -1.501371433216048,
    1.392744331887014,
    0.9456913945906017,
    0.7412954133070704,
    0.7464505981900383,
    -0.03504778908248714,
    -1.1147236302912484,
    0.07237150885016534,
    -0.8260044735581779,
    1.985328622957741,
    0.07596041392301951,
    -1.0783951667032188,
    -0.22065695183548686,
    1.028773357826938,
    -0.6329927807684838,
    -1.072819736581522,
    0.7408067147391908,
    1.0904747091971199,
    -0.10318641325068528,
    -0.04618722241545087,
    1.069969477533678,
    -1.597253521702685,
    -1.532768133701211,
    -0.43894556121689593,
    0.3627402417437968,
    1.1951564238123324,
    1.967984838886333,
    1.1223939634201212,
    -0.27063899469857877,
    -0.07772449445644895,
    -1.4240970658035121,
    -0.07703581813645945,
    -0.4468493716450623,
    0.3900906186248947,
    -1.1841236761912877,
    0.3588671402430245,
    2.2776528142767978,
    -0.8304076832342115,
    0.1361341157933354,
    0.6822598885318216,
    -1.384160286376571,
    -0.20017515010892953,
    -0.6006353529195188,
    -0.43953548620574917,
    -1.4031946661805288,
    -0.5318287546009011,
    -0.01449824709166864,
    1.0269030735558355,
    0.4894855826768023,
    1.7939468522392865,
    -1.397008154752647,
    0.39448428490768145,
    -0.35828997075386076,
    2.2762483544318104,
    -0.4315611125636426,
    -0.4599420771995199,
    -0.24288280312038224,
    -1.6197755657274955,
    -0.17637515704159978,
    -0.3871559601439765,
    0.43430540720455374,
    0.6071389141602518,
    1.3602823820693535,
    0.5402536299459804,
    -0.812656460468561,
    -1.0974516331167894,
    0.13410917661077343,
    -1.4710994300257243,
    1.3206763280581404,
    0.7431167622860131,
    -0.7172307553591858,
    -1.5060358120279393,
    1.5527884894629833,
    0.08829391118431247,
    1.4370420583117596,
    -1.3876456449789563,
    -0.3952477535557997,
    0.20775788040016513,
    0.2493834227629232,
    -0.2463365515594489,
    0.7559095671243301,
    -1.090823480025488,
    -0.08005566817257971,
    0.20690045345895344,
    0.6374772287526935,
    0.8528797136824277,
    -1.1531160767154447,
    -1.6004386900570406,
    1.471266951952148,
    -0.36712752387694714,
    -1.5289342570482538,
    0.9430625519949694,
    -0.6000040597071571,
    0.5433371807746591,
    -0.6517695244254925,
    1.49085280428947,
    1.1625554091630874,
    -0.9919725811643354,
    0.8797256530067644,
    0.6204287316429218,
    1.1953546247824567,
    -0.6596205572094763,
    0.6527622578490199,
    0.9487667308058301,
    -1.2906359031417616,
    -0.8331781120278893,
    -1.5136034257078654,
    -0.3439664381336093,
    0.5755008822085134,
    1.3066546619267898,
    -0.023951441944160393,
    1.4242803427385962,
    -1.3787183007526145,
    -1.679895231139339,
    -0.14472973156242655,
    0.26482525665825074,
    0.6315122413129686,
    -1.8416073941828046,
    0.5629305100170898,
    -0.9142576102153269,
    1.4851997282100857,
    1.1168301572228694,
    -0.47111955665309413,
    0.04667484679811467,
    -0.6161629225099025,
    0.35492790785418515,
    1.9454511618958903,
    -1.0874937305764452,
    1.2405353926879643,
    -0.3757449763193425,
    -0.7861269915360881,
    0.2856213346096326,
    -1.1648715369278704,
    -0.41229856168792683,
    -1.5698190391403364,
    2.1120979407730225,
    -0.13419010096933615,
    -0.9898677431232533,
    0.07387230541212587,
    -0.3060169220630677,
    -0.4324979137850395,
    0.5397716050749962,
    0.7066498678208882,
    -0.27090718654354395,
    -0.3088062458787113,
    -0.05727270048370421,
    -1.7523603831537142,
    -1.0944114980753468,
    1.315883550057021,
    1.5484553967304904,
    -0.03551559108343197,
    0.6549346584309408,
    0.239212635702559,
    2.254530493167051,
    0.8278140500172637,
    -0.08057808483100715,
    -0.6832318763400326,
    -1.157204890386412,
    0.16072524954238462,
    -0.5381870346715387,
    -1.0230805422002685,
    -0.962692364721363,
    -1.3875290995591563,
    1.3166280199964717,
    0.529900750855878,
    -0.3389765934307193,
    1.114259875648653,
    -0.2556247682544183,
    -1.1723991981033508,
    1.1564333775680047,
    0.5891576412895669,
    -0.8524545743357701,
    -0.07784088769942504,
    -0.7046235683241487,
    -1.1685109765266146,
    0.9433671828090081,
    1.8426749348256684,
    -1.1829328434089905,
    0.6111630913707056,
    -0.7185707724146697,
    -0.28878016736030043,
    -0.5654693092677457,
    -1.2793378379974818,
    1.1191211046399223,
    -1.192493373736646,
    1.7024583407355849,
    0.8595397817541481,
    0.36353223364718773,
    -0.8848235281049779,
    -0.49089944318545814,
    1.0955064860402672,
    0.7924660491964242,
    -0.9681730122565774,
    0.3142386473347072,
    1.090738200185278,
    -1.7920627053646239,
    0.8430093061549606,
    -0.22382188886165028,
    1.2221713806161383,
    -0.34182015450007147,
    -1.5631568192408807,
    -1.3552203164114336,
    0.6095071050961886,
    0.8576589983408966,
    -0.5072146085703765,
    1.301896303531189,
    -1.6151033837898296,
    0.5737667783465494,
    -0.9970329457721477,
    -0.22986375337997483,
    0.7294539843248263,
    -0.5160220921232698,
    0.13683280296393546,
    2.045012338310449,
    -0.12704372888053825,
    0.8220985915545889,
    -0.9158423321570539,
    0.5516114447565506,
    1.357856265608265,
    -2.1024758811813875,
    -0.6215474292357785,
    0.5934090160379667,
    -0.09642453658472869,
    0.41131486120157756,
    -1.0884527092080958,
    0.21486063553198986,
    -0.2423668280918091,
    2.2553810306319,
    0.531606047541494,
    0.6885940336399657,
    -0.7258893136437986,
    -0.8688121767108881,
    -0.7649207196907579,
    0.1916222118978117,
    -0.5441565740501665,
    0.09717057232577328,
    1.7083634599150217,
    0.6217298968958875,
    -0.4584721081772941,
    0.9195735768383735,
    -0.5325085226951137,
    -2.0033225129502936,
    -0.5951648420516736,
    -1.3329612876710781,
    -0.03365568726760865,
    0.2827145908609659,
    1.7006727694875658,
    0.546555276457238,
    0.07958550020093887,
    0.9762808179297046,
    -1.624027137946053,
    -0.1781543801175068,
    0.372101384621291,
    -1.9404108095521688,
    0.7554437390805849,
    -0.07238835775823704,
    -0.8473041457876055,
    0.2301470513674129,
    1.9139749724687742,
    -0.2334094543225449,
    0.5665426149845969,
    -0.6715042373664171,
    -1.3547284885788173,
    1.585062662400634,
    -1.3656455908003264,
    0.2574526158674428,
    -0.703517486941108,
    0.9702992928571297,
    0.7160386175768654,
    1.420766372173369,
    -0.6795747578247452,
    -0.35365512641318153,
    -1.3157579079251178,
    -0.590375413203989,
    0.5246903868292888,
    1.0400025343443529,
    -1.2389426563783115,
    1.1928465683983345,
    0.9449223506775611,
    0.16373751618762658,
    1.3770168239904634,
    -0.8205954859380662,
    -1.210992256392587,
    -1.6537884738841369,
    1.0613339909210229,
    0.36349431953108935,
    -0.2251287850929735,
    0.004763366859323331,
    -1.4761970020710309,
    2.2868949273671206,
    -0.1540823920578705,
    -0.17497387424597324,
    0.47451011153586903,
    0.21660408946301593,
    -0.054334160222843625,
    -1.1231850666276106,
    -0.06746282660487933,
    1.4293056589036002,
    0.8599042660607651,
    1.1228141915069458,
    -1.1102079195757468,
    -1.6178359212699949,
    -0.701221988568353,
    -0.508616261728531,
    0.5933208012761937,
    -1.209667361175771,
    1.8609091264413937,
    0.2526681134306912,
    -0.0035677052039328498,
    -0.5612848324192484,
    -1.173827021220755,
    1.1877300626053868,
    0.473121393631896,
    -0.8260817760896606,
    -0.6535960911994065,
    0.19350002680778458,
    1.9638263723964597,
    0.2607818865402479,
    -0.8373253198790263,
    0.27301049372848857,
    0.24918559763396647,
    -1.891450091672347,
    0.44206712564383227,
    -0.6925494256986787,
    0.1584911603211207,
    1.2166224660729394,
    0.5535257146166482,
    -0.7273882846426685,
    -1.496271712032346,
    1.8815666614378712,
    -0.4262123996504639,
    -0.4677841804244225,
    0.7106611519288868,
    1.401796347397423,
    0.33669543658767637,
    -0.9985534039954922,
    -0.9151883228028168,
    0.6838250729951661,
    -0.9045070867973785,
    -1.4314541372894283,
    1.1167249419759635,
    0.07696262076832941,
    1.340053919615953,
    -1.6435653241798223,
    1.0438535358160728,
    1.1548540270719236,
    -1.228813707393705,
    0.013979056180862644,
    -0.006668256346568669,
    -0.7506558715330455,
    -0.9373195968401596,
    -1.262633756145312,
    1.536160541921541,
    0.737838542228635,
    1.0662004950272603,
    0.528620291157435,
    -1.280696310130558,
    -0.6896903118039536,
    0.30152010458511164,
    -1.5221756117056113,
    0.944506742152856,
    -0.27068377998729803,
    -0.4421234754054643,
    0.9419083389757487,
    0.6019532891821641,
    -0.42446312871292863,
    1.5134400241273236,
    -1.34236239862679,
    0.6696062457607063,
    0.6376298962492277,
    -0.6264034372397603,
    0.26377778323023277,
    -1.944938066596505,
    1.1010456833554207,
    -0.451856319762148,
    -0.9249277733386412,
    1.2760659883414671,
    -0.29433228000340916,
    -0.8159824092036694,
    -0.9257535491738474,
    0.6764517778562077,
    -0.7211291069882395,
    1.5275360816456893,
    -1.3149256602777781,
    1.4843161311724564,
    0.38381901497259013,
    -0.3813819734051329,
    -1.381953291762169,
    0.7255477458065286,
    -0.24949581987166386,
    2.297521592407971,
    0.08952043901831784,
    0.17005199062836132,
    -0.977205321667224,
    -0.29260536115498936,
    0.7167631299944879,
    -1.9054569029494284,
    -1.4350837452835634,
    1.2826178954948915,
    0.5388233385101926,
    0.07772060129500027,
    0.34074858307374356,
    0.7684545515563402,
    -0.3845874516916644,
    -0.8693658467552807,
    0.23687153706419412,
    -1.0965616206052788,
    0.4780798956224408,
    -1.918969982986763,
    1.1831725334182897,
    0.5511492828322749,
    0.30521657855409695,
    1.1304076228560258,
    1.698231229789147,
    1.0781950721266655,
    -1.6408078382929867,
    -1.1062935419162956,
    -0.48277773008279434,
    0.13707296884358985,
    0.605185187300723,
    -0.5788871975967762,
    0.2900818498287273,
    -0.30951644723412736,
    -0.19536385373157017,
    -0.8262858123937046,
    -0.4427005532138092,
    -0.7826636429100436,
    -0.4844687935960999,
    1.1258895155440967,
    -0.46346219288651375,
    2.3785717804217716,
    0.08831340047720654,
    -0.2342658670960484,
    -1.3251333034772736,
    0.30476482732071447,
    -1.0294931638769835,
    -0.2999633126385187,
    2.2495304234568496,
    -0.5279987232973761,
    0.7742457191314297,
    -1.235095051465196,
    -0.5137670100267558,
    1.4356341480880501,
    -1.1528248534679857,
    1.4805942748877445,
    0.2880425842260274,
    -1.0831949490664592,
    0.20670636307274645,
    0.5739044937518283,
    1.1246919960571045,
    -1.7381017280250064,
    -0.6370307688364913,
    -0.010649736521886076,
    0.2153992611537615,
    1.1232059466561746,
    0.5446864160587782,
    -1.4313483589356402,
    0.8091469723932051,
    0.4500971954662084,
    0.38251865566276677,
    1.0756490052907353,
    0.7472260481286094,
    0.2486656779198331,
    -0.45558092462065225,
    -2.5719898017317213,
    0.2093363021062321,
    -0.08592215822201167,
    0.26654321330876035,
    -1.7531999608709739,
    -1.497926012065149,
    1.2860813103159137,
    -0.13932104343695934,
    0.801273059257484,
    -0.05078221260146026,
    -0.048906696661674555,
    1.136238342754059,
    -0.5844901258346081,
    0.4466245577843742,
    -0.49392236573713977,
    -0.4471320815180861,
    -0.23603961923550382,
    0.658877368600401,
    -0.5216695931755638,
    2.3998823378177567,
    -1.2221304787016303,
    -0.4686443653553175,
    -0.7747588654561254,
    1.5093125693949667,
    -0.004463953083341554,
    1.0067473918612535,
    -2.0408518009422005,
    0.08087869298662569,
    0.8345818062635028,
    -0.14280147566936363,
    0.38389935121884156,
    -1.1221372721732887,
    0.7110958346315136,
    1.5575213430909276,
    -0.975175071118089,
    -1.0538315057550662,
    0.752997968001181,
    0.8730680927913673,
    -1.1274387406873874,
    -0.10837987788926712,
    0.06149582210326282,
    -1.2428266760102797,
    -0.7201989655783868,
    -0.8251284560085161,
    -0.5350393936277564,
    0.36478750139445365,
    0.6948365067146514,
    2.3104535389018386,
    -1.524654091781286,
    1.400378871743141,
    -0.36748391017030696,
    -0.12476077469743756,
    0.9437707306681552,
    -1.7081335725077007,
    0.5123800463700897,
    0.19377893486612718,
    0.6747237655092185,
    0.023757807416544444,
    2.0092806979974167,
    -0.825866650785905,
    -0.728023685861618,
    -0.8124844725764216,
    -0.750462732794568,
    -0.8255432144930068,
    0.8485778062821022,
    1.0607644448154558,
    -0.6742660362666976,
    -0.9256074930724361,
    0.3269923223304262,
    -0.6564698001481886,
    0.48216928138346604,
    0.06903776815977831,
    -1.58217392721187,
    1.360846854099333,
    1.5994710307261888,
    -0.6518449307579073,
    -0.40951253674643673,
    0.31566038310452516,
    0.3679746583936876,
    0.7168924101863158,
    2.1721114063793845,
    -0.18261106172869512,
    -0.8515663981914332,
    -1.477103930639441,
    -1.0804705210099836,
    -0.4331798807072972,
    1.2622028767662046,
    -0.8825934538173791,
    -0.19486246159669246,
    -0.41768497522681136,
    0.699917205991516,
    1.9415624579737034,
    -0.8948912483732596,
    -1.6737915646385546,
    0.5838949001182763,
    0.050580788104155956,
    1.7653619560078189,
    -0.09363568299130404,
    -1.482195416232388,
    -0.0837330662515631,
    0.6789113044974916,
    0.2546067813860672,
    -0.09259438643977877,
    0.7141960085002144,
    0.8622000479588381,
    1.169200306946453,
    0.11139016162948008,
    -1.0652301344864623,
    -0.6126091888332431,
    0.9158706933458906,
    -2.002423508621392,
    0.27691176197430223,
    -0.7983834309529355,
    -0.20277019674902044,
    1.5607240245902583,
    0.026332115975796447,
    -0.17780494153087206,
    -2.162261259751723,
    0.8097251177812342,
    0.66752680866296,
    2.128858533065025,
    -1.1162150663336452,
    -0.42422835624037225,
    -0.3845245290611955,
    1.359557260666175,
    -0.8371730543193954,
    -0.34560275811141133,
    0.08629092600142008,
    -0.4669629556666006,
    -0.3035841656468047,
    0.43845677179094505,
    1.4573981226816908,
    -0.9756036700313667,
    0.3676494227793332,
    -0.5974785448752631,
    1.5980561868538727,
    -1.5509933346174927,
    -0.4339007889349146,
    0.3501083847236009,
    1.3099935503734936,
    -0.007703981270443615,
    -0.4030673441364047,
    1.5649530507201157,
    -1.1242577064570436,
    -1.7307264316223794,
    0.40083853999874436,
    -0.36013806232968343,
    -1.2461192166457034,
    0.5928946180334217,
    0.09894820051833508,
    -0.7600426141541581,
    -1.5215812771607409,
    0.767377541010023,
    0.5310600847852834,
    -0.2657272077175378,
    1.8031898713310772,
    -0.8633534780896199,
    -1.3804242502060329,
    -0.4340017682878717,
    0.2997808295626063,
    0.6278037983503418,
    0.077655350571326,
    0.7512312285654451,
    -1.0693626487706966,
    1.9906709383045014,
    -1.5552299916333645,
    1.359555257793654,
    -0.522734335782644,
    -0.24563433984651084,
    0.029001984616479976,
    -0.2676138344116766,
    0.2062916473831449,
    1.8743898230314975,
    -0.8780262111505829,
    0.5912159334421366,
    -0.22281645941595757,
    1.3363275416839457,
    -0.8207053969026498,
    1.7040592048928243,
    -0.17228948319693388,
    -1.5895318701921797,
    -0.0008055083674086469,
    -0.825453961943777,
    1.2232693807602661,
    -0.07866568208241312,
    0.1013236234182778,
    -1.1570962099494377,
    0.09598526316948588,
    -1.6229699666409092,
    -0.8906197074360754,
    1.1533202211701272,
    1.1754530775906786,
    0.4815363411071542,
    -1.296666236167075,
    -0.122722365339204,
    -0.06639335528685714,
    -1.5410783073985428,
    1.8581167809661232,
    1.0586396894260421,
    -0.34397426828078814,
    -0.027458279026852366,
    0.4439507298788349,
    -1.7740959072713052,
    -0.005116338522957263,
    -0.43372588010771707,
    -0.7488058575833764,
    -0.03855574395865487,
    2.0106020237812867,
    0.8702469085363272,
    -0.3244999347524384,
    0.04494744278353382,
    1.5521267135600822,
    0.6867246202553866,
    -0.8901478781862114,
    -2.1781964748311875,
    0.27398598752723935,
    -0.28154120061186244,
    0.6330556278162766,
    0.15904516168674265,
    0.5284756788127312,
    -1.0590316392697883,
    0.7967766271593508,
    -0.32493932697051187,
    1.55594388343611,
    -1.21324841828314,
    1.21606460265929,
    -0.32462761423808756,
    -1.1754137933059554,
    -1.0168236334405387,
    -0.8344399201260924,
    -0.004133475384581336,
    0.10590614555203309,
    -1.116987443317168,
    -0.5043387995365387,
    1.9119548647355569,
    1.4494370313665794,
    0.009425230150749937,
    0.2972536892460714,
    0.40944582939273133,
    1.0844034679087755,
    -1.1536313512383911,
    -0.1067471067219538,
    -2.036901273928617,
    0.7913054739601214,
    1.1304659120323426,
    -0.41559464065108,
    1.1896009622915573,
    -1.3625154940130935,
    -1.5800199076685546,
    -0.0405686442992597,
    0.7093153847150577,
    1.2898176990871417,
    -0.6634641697121709,
    0.7381044647345428,
    -0.2802702951352212,
    -0.5373874288296756,
    0.6076772028360793,
    0.3568970410086136,
    -2.0591340068631956,
    1.2503872222394414,
    1.1458320125546853,
    -1.0283905294907845,
    0.07881810673553027,
    0.18530037980930517,
    0.4082164595505426,
    -0.32492654725701087,
    -0.434600914991083,
    0.14946011974285328,
    1.2327347234173054,
    0.6639882167905489,
    -0.1624820420236816,
    0.8701943920410885,
    -2.402584407270563,
    1.4562481292443488,
    -1.5213604438705068,
    -0.10158944058387705,
    -0.8821840195666485,
    -1.0625958895569667,
    1.4686813822172775,
    -0.21009769019236285,
    0.6292311168984248,
    0.22366685541031042,
    0.46954453215492686,
    0.06236909686222015,
    -1.3210809457621748,
    0.9977955725131673,
    -0.5181270206809842,
    -1.5994260832072962,
    -0.4513446367390916,
    1.5110575063804201,
    0.8492119784788122,
    -0.874923689782929,
    -0.8757161750495795,
    -0.8395675071149583,
    2.299101019296198,
    0.08116723928080427,
    0.14412190409263015,
    0.92963449321979,
    -0.10616262364771123,
    -0.7576546602942439,
    -0.14446752089077897,
    0.022076910342280424,
    0.06797430149544864,
    1.0890824762505897,
    0.18701736446396386,
    1.095771741974742,
    0.009907587189367451,
    0.2226486694041504,
    -2.5500115302297637,
    0.5059670836941585,
    0.0909552747281266,
    0.5654561031341127,
    -2.2707232404099766,
    1.3595646585302241,
    -0.2630536346012164,
    0.6456944834982447,
    -0.9187507096026976,
    0.2848899810290241,
    -1.5962733466184302,
    -1.0653268620977694,
    2.070823051951413,
    -0.5301293645191878,
    -0.02579075523056945,
    0.7807190164553967,
    0.3180623914569666,
    -0.1086049344591976,
    0.15652080306137844,
    1.6741778494192927,
    -0.863682173666946,
    -0.596887984346273,
    0.2791877722136767,
    0.33577222346506314,
    0.419820902518218,
    -0.1455953601201445,
    -1.9829505806760312,
    0.8801573511931439,
    -1.7696504470017644,
    0.1870374955903753,
    -1.2402040136190329,
    -0.30824985840076835,
    0.22231903716011092,
    0.21231914282110717,
    0.34811904844693486,
    1.9574999572151444,
    0.39080963778789285,
    -0.7052891355702985,
    0.7967978495053198,
    1.0769940744543425,
    -1.927914249250726,
    0.34093296815598556,
    0.4699430075607116,
    -0.7716844783007821,
    1.3085228091197794,
    -0.5883028456743329,
    0.6605645039112956,
    0.36929409087116005,
    0.5532844951741118,
    -0.5311021800928728,
    -0.8663852721603993,
    2.0932044176755413,
    -0.2879475362501273,
    -0.4288104860499348,
    -1.5621020330787754,
    -0.4747579927074191,
    -0.9491232300506678,
    1.1068408892967638,
    0.6684832020523022,
    -0.5088647083553549,
    1.530098400892252,
    0.6490325961454152,
    -0.25694419937726154,
    -1.7647649578960294,
    1.2068952321626993,
    -1.5494763509816678,
    -1.7410670064759137,
    0.25699966380684997,
    1.3183402860888598,
    0.5278819096463939,
    -0.08649601357762399,
    -0.0633957432566051,
    0.13031802258700764,
    1.530093221075175,
    0.842157018447865,
    0.5872929271303978,
    0.3471110893123832,
    -0.6484561210570949,
    0.03307550956550606,
    -2.000594476640077,
    0.2956365286821058,
    -0.9863156965162602,
    -0.9359658342729049,
    0.3371262336525044,
    1.539420840797167,
    1.0695702371896076,
    -1.399096891118825,
    -0.822927311606576,
    1.091843021311366,
    -0.8158443818009284,
    -0.06412591415141002,
    1.1815940364709414,
    -0.8239762629942595,
    0.5942440683345173,
    -1.3069851522945939,
    -0.3392558579895682,
    0.8774422637619447,
    -1.6490427040836824,
    1.036859052529307,
    0.42912055626539386,
    0.5634169331650077,
    -0.13634260380579,
    2.2919682317614503,
    -0.3465193925601242,
    -1.5277008386094701,
    -0.35275294892329534,
    0.5438411243260907,
    -0.5091507747035127,
    -0.5267597306503569,
    -0.3744713347962226,
    -0.33386937715445975,
    -1.1021695324621803,
    2.1718708564605964,
    -0.9372907798552553,
    -0.36503357544488446,
    -0.3915215128462886,
    1.2841789807177466,
    0.04830627538094814,
    0.9961841807354258,
    -0.9399109627592492,
    0.01994214212037743,
    -1.1030194954548558,
    1.9005334789250015,
    -1.4579958393669534,
    0.05100716093642464,
    0.37746942124123123,
    0.15578991362259775,
    -0.28337068466113746,
    -0.22462790397573573,
    -0.04074119483943831,
    -0.24282391588412197,
    0.933664698488142,
    2.2539340885389527,
    -0.6775568035466084,
    -1.5378422615410057,
    -0.18063602257904682,
    1.6377494764275204,
    -1.2848846905853506,
    0.8252469793549061,
    0.8585766117805513,
    -1.0688551585478194,
    -0.09915577211466785,
    0.8159866731094656,
    -0.9181527155432372,
    -0.7665114038813678,
    -0.0068671126075846144,
    -0.704738774134557,
    -0.11579439842590425,
    -1.041823543675154,
    0.9853945097363231,
    -0.31028713079790005,
    1.30720115580137,
    -1.5767466293028767,
    1.4636619234062844,
    0.690589715774308,
    -1.8417831867639276,
    0.27904159514900334,
    1.0436198256871576,
    -1.1394718517709714,
    1.442118536585968,
    0.31931432494593853,
    -0.6874769390372797,
    -0.10595202057019684,
    1.2917943940183771,
    0.5698748868688575,
    1.2625014258282647,
    -0.921914240880885,
    0.709605553985686,
    -1.6598780901317116,
    0.2896343581250508,
    -0.8968196369771445,
    -0.6447986508364943,
    0.6545220864338348,
    0.5002830654277745,
    -0.013380203975068903,
    -1.825955022053327,
    -0.9993754043362013,
    0.6300247473174542,
    -0.5113292878475115,
    1.8085060030145272,
    -0.24329598398148158,
    0.5348764196951523,
    -0.04603445019479814,
    0.4670584021212244,
    0.135537733408944,
    1.133051193820132,
    1.421200965645102,
    -0.5987873082981527,
    -1.2307897523042406,
    -1.8161132038933632,
    0.33373918017287135,
    -1.0020668818100666,
    -1.8721159720516325,
    0.23474674952795083,
    1.9792990645021367,
    -0.09241533227986055,
    0.6077212399248698,
    -0.0195465355824931,
    -0.16936151240377573,
    1.3116571124166014,
    -0.6923021521108221,
    0.23178162672414854,
    0.32176872857572464,
    -1.3183632998031738,
    1.4325654516653323,
    -0.5012193882638089,
    -1.4636118305604064,
    0.6777237513564034,
    -1.961476423006318,
    -0.5400147644518345,
    -0.5972324712919679,
    1.082498454189528,
    0.1449336975990312,
    -0.6216349740695765,
    0.6711934025298024,
    1.5493070854792965,
    0.27242599302203774,
    0.6206827116175849,
    -1.80440679005561,
    -1.3518811833077613,
    0.04186732181214954,
    -0.5162408600804339,
    0.258761513380835,
    0.7055988022768631,
    1.5732291696492204,
    0.47238931470715184,
    0.4840808067578744,
    0.09672439738391825,
    -1.7756292316478197,
    -0.8246193843226932,
    -0.09470357333133508,
    -1.0727678910485194,
    0.588189513030209,
    1.4425417503772038,
    1.1561836128011622,
    -0.3871509007561904,
    2.528186644857075,
    0.23231455744598922,
    -0.5986682858206812,
    -1.0713657848495286,
    -0.5394498903384923,
    -0.6860698669138854,
    0.2695203694230892,
    0.25268315695262455,
    0.1942206425946991,
    0.5480728902890385,
    1.1627447789693326,
    0.9661268049204644,
    -1.019242945775182,
    -1.8910638594314113,
    0.9537028316339409,
    -0.9229946407248922,
    0.008433497524010602,
    -0.4171878056787341,
    -1.0017353856641067,
    1.1662099877110792,
    1.3675996812508808,
    0.1319605944200945,
    -1.7317052957036838,
    0.15995996414892708,
    1.0277590363837823,
    -0.7028607768682382,
    0.29256174982559036,
    -0.019013285656846034,
    0.9135037113645254,
    0.19253588235508148,
    -1.5210728317903714,
    1.8815877815273332,
    -0.24362567020305376,
    -0.03782463318618184,
    -1.4586527042360773,
    -0.1854822555510675,
    -0.593247700286025,
    0.06418625709833131,
    1.8047556335808614,
    -1.043106595197483,
    -1.2662914974322552,
    1.5826070469430906,
    0.03058977286678516,
    -0.39401066202223767,
    0.49889472327780016,
    -1.2130452886704928,
    1.3167300957460553,
    0.12230499288899489,
    -1.0905901470563282,
    1.661401129389226,
    -1.2131486834435194,
    0.1890646315323828,
    -0.2716114536641185,
    0.9406993059585769,
    1.2153708683161841,
    -0.4018760820301341,
    -1.2323536973972806,
    0.05064222051440675,
    -1.1523085361758396,
    1.6931687092663092,
    -0.2913484871481383,
    -0.8219943013040854,
    0.21943883740265666,
    -1.4085542093159764,
    -1.009462486212915,
    1.2989532137446278,
    -0.6749805863860765,
    -1.0894875376251265,
    0.59351262552033,
    1.283319793616323,
    0.7872603492561577,
    0.8207205354338286,
    -1.0614746035791194,
    -1.7755655117326208,
    1.3632944634561686,
    -0.5953234890849068,
    -0.5181746758385499,
    1.1773779916211236,
    0.3484461793514379,
    0.24069911037263805,
    1.8585052657133112,
    -1.7376755923824363,
    0.2743761973188828,
    -0.8406775527324769,
    -0.5697602198982488,
    1.0434529875337233,
    -0.263419998816261,
    -0.22441696262522487,
    0.45961587588873043,
    0.017633017854629753,
    -0.4292582660237268,
    -0.622994254095265,
    -1.4913663660114853,
    2.299086702237698,
    -0.6780236669279249,
    0.15304037373173676,
    0.1006866112536139,
    0.6511958479807244,
    0.6164760785041229,
    0.6864231155732704,
    -1.5706290941891117,
    -0.9202649329598368,
    -0.21713758486926124,
    -1.0478021185662225,
    1.8541888413381258,
    0.10869670962956378,
    0.490048985539349,
    0.5752690322032022,
    1.2045327963245196,
    -0.018583799801574596,
    -1.8399178355608004,
    0.250904713330516,
    -1.0444224227307664,
    -0.8931551119038422,
    0.4809677560888934,
    1.284404872049852,
    -0.45680187003635486,
    -0.20105012404252007,
    1.0381976244783846,
    -0.2615990503361475,
    1.838167739166248,
    0.02723325775697272,
    -2.041709774873078,
    0.19428749274692006,
    -0.13672529486042373,
    1.2472873108293387,
    0.5810772975248545,
    -0.2959029150686044,
    -1.4691635918611823,
    -0.37215138178484103,
    -1.065293902095355,
    -0.7735601189909822,
    0.4896631805402282,
    1.658044120906543,
    0.5535374047377883,
    -1.6612291809011241,
    0.6230639821159023,
    1.670225963862491,
    -0.8451144421858822,
    -0.18263478652046913,
    0.02442988590551899,
    -1.0889537658681854,
    0.90667493885396,
    -0.2945679602057584,
    0.43510263172518643,
    -1.3294333064726074,
    -0.7218694266282887,
    0.8439608763070913,
    -0.634622870846517,
    2.2001877469077566,
    -0.6708080467936373,
    0.17205035600677454,
    0.7495409327241886,
    -0.9601056665021819,
    -1.2091347869405955,
    -1.0381287915444564,
    0.9895163890663877,
    -0.3299699287498538,
    1.9317048256303655,
    -0.33897970209188294,
    0.2055567284080286,
    0.7001798460974559,
    1.1846327829085366,
    1.2424880803869514,
    0.3517120171095434,
    0.1592772006590833,
    -0.29129686444292796,
    -0.09726410663597021,
    -1.4854678504466485,
    -1.7642611056360247,
    -0.19190261621464538,
    -0.4159556696404476,
    -0.7961288082728419,
    0.7479908929700673,
    1.095759357344411,
    -0.06862541491168798,
    1.7971918939956515,
    -1.720843459980184,
    -0.447486175290323,
    -0.7419650455055758,
    -1.7188846898849095,
    -0.2031308131941929,
    -0.23632614398250196,
    1.153111494961646,
    0.4031282503801321,
    -1.003134644419921,
    1.4425578962259749,
    0.9046436954193485,
    0.3549134822493115,
    -0.4261404485948046,
    -1.1341423971016078,
    -0.5669020506125777,
    0.8443156535038608,
    1.6130593370271187,
    1.283337449279906,
    -0.6795736401520749,
    -1.2888673855991326,
    0.848984718382693,
    -1.5948302520523003,
    1.082293367072953,
    0.4797374172436943,
    0.07216232115791295,
    -1.3724588744779418,
    1.326034679882886,
    -0.013163778083589634,
    -0.8287595991263079,
    -2.0935453797317756,
    0.04218960221199101,
    1.3933902047867865,
    1.310061076557691,
    -0.2803247797897845,
    -0.3892725579138697,
    0.4147858322914621,
    -0.686705423612157,
    0.28942142519965636,
    0.9202388760567223,
    1.5720318667189144,
    -0.30489266814869287,
    -0.4513024901325831,
    -1.4049901632094661,
    -1.332715314112377,
    -0.4835562310976368,
    0.35632907376589784,
    1.1288570501592212,
    -0.5943758373329882,
    1.5254078556462392,
    -0.10312699815718321,
    0.1274740019527831,
    -0.5427010309601059,
    -2.091108248937017,
    0.9634451722246089,
    0.8275334373085397,
    -0.1125483517448766,
    0.41079125947729395,
    0.934689734158943,
    -1.490789266359501,
    -0.28475895380235783,
    1.259480405712839,
    -1.1310707791323296,
    0.6751828727562164,
    -1.2504404229961141,
    0.8769151501850107,
    0.1626784718907484,
    -1.5958548011175577,
    1.49912833600145,
    -0.6155010276594977,
    -0.6997384157104388,
    0.42566478497680477,
    1.4812010901030814,
    -0.9286100905814719,
    0.2710316520968816,
    0.7565582223703468,
    1.0055831427118964,
    0.5187593538602365,
    0.006678382345830885,
    -0.42728392398145615,
    0.43367688150524875,
    -0.6577086432939624,
    -2.4001177222451338,
    0.763854306726993,
    0.6529248552409848,
    -1.9263964141692504,
    -0.8579899836086259,
    0.42807929369246867,
    1.5637067184206632,
    -0.044350092411217915,
    -0.6355547418318447,
    -0.20517154263570136,
    1.024751907302524,
    -0.6712967898139699,
    -0.8789244678740162,
    -0.4501285688736894,
    -1.0877835583721776,
    0.37022287456746605,
    2.405482840626668,
    0.6417822061943081,
    -0.13794411984237395,
    -0.1914104166122154,
    -1.4325746484124213,
    0.46832142831277185,
    -0.27838171344016016,
    -0.3581401611044726,
    2.2633035180000416,
    0.014247351847240066,
    -0.802077060868704,
    -0.5491992341152246,
    0.6745005197809293,
    -0.19534699498712474,
    -1.7438862047205288,
    0.6090483979350153,
    -0.9752459623160211,
    1.5612668531765317,
    0.7695556254462685,
    -0.7548520501022532,
    0.9701341498006619,
    -0.2406738142325493,
    1.2672282882972756,
    0.7469178636566326,
    -1.1348833381100178,
    -0.8481692361811218,
    1.5177230781361342,
    -0.4116454429501534,
    -0.5090134588789498,
    -1.2886489950629192,
    0.6604912410931196,
    1.8945120319829922,
    -1.3244299352229798,
    -0.20167511358222487,
    1.2257409997739026,
    -0.30848529406403746,
    0.2386354517602052,
    -1.319144606163012,
    0.213887388371167,
    -0.41904092285601285,
    0.43502000935383606,
    0.6728873290937243,
    2.3268531560906878,
    -0.043999389746589485,
    -0.34341758709831266,
    -0.4984271832825226,
    -1.1443011280918456,
    -0.3284517681958391,
    -1.0761634381231393,
    0.012460813882559681,
    1.0008227598744195,
    -0.9981490892099188,
    0.8479682796751348,
    1.000407793287152,
    -0.233980616533577,
    -1.9574191251295632,
    -0.6552131314600083,
    0.983102315613801,
    0.35769108781236186,
    -1.3380253616101916,
    -0.4792085341860689,
    1.8572606451439975,
    1.3468851206892827,
    -0.017534762233389335,
    -0.2396379054567457,
    -0.2829388771599324,
    -1.204491412999314,
    1.334866251160939,
    -0.8897473515636927,
    0.877684496304733,
    1.226879068435221,
    0.6264317928551623,
    -1.0152313793620644,
    -0.056189446316131486,
    -0.547478713537256,
    -1.5572147179769111,
    0.4595143029064583,
    -1.831790754453617,
    1.7752858517758086,
    -0.742951534845042,
    0.2717478403190429,
    0.3969180624634079,
    -0.4294288675005943,
    0.8593339001606141,
    -0.7586288008260783,
    0.8051974319729892,
    -1.5285857846948594,
    0.02113820737443633,
    1.928927562143347,
    -1.1647754265953845,
    -0.8252388568975192,
    0.42902904909931855,
    0.07713590557971646,
    0.2571719120179554,
    0.07630204131196544,
    0.2630303095036227,
    0.8724527321353927,
    -0.025531915640914615,
    -0.8608973245237538,
    0.31159672980865594,
    1.8862982298949476,
    -0.7215270941702968,
    -1.8017237083196187,
    1.171209872610264,
    -0.16318229971662981,
    -2.3942557866607586,
    0.8889306870599004,
    -0.6142774320400378,
    -0.130734219821226,
    0.32858666694806654,
    0.17478092909355167,
    0.7389415825268696,
    -0.9015443851328345,
    0.494250040919165,
    -0.6426600606757648,
    0.8263604551121544,
    0.6447217565760918,
    -1.6371931713617136,
    1.3372019414574654,
    -1.04939015617712,
    0.9282535792825561,
    0.4525750577171836,
    2.00247661578251,
    -0.16990894342516952,
    -0.302519491090947,
    0.045097228798029784,
    -0.25390435371427805,
    0.9084685098813832,
    -1.6375664275321675,
    -1.0447181964165442,
    -1.456427760370092,
    0.8492502780341555,
    1.7178946506034143,
    -0.3558024668580743,
    -0.42934763163358797,
    -0.156435781713164,
    1.0909684286526975,
    -1.2959647985522096,
    0.03586508183686051,
    0.905408280151888,
    0.5232319040981848,
    0.2721205986234955,
    0.926244811985889,
    -2.059786316662421,
    0.6657357768346379,
    -0.4079543570573889,
    -1.3563810407860868,
    0.5313803428118018,
    0.7104398713887319,
    -0.8013455509824966,
    0.28946697607900307,
    0.9491667048073125,
    0.6516694085522067,
    0.9768654050450376,
    0.07862531188169126,
    -0.5883678309041103,
    -2.2665202958673762,
    -0.5685616697084787,
    -1.1908017682122747,
    1.9498535713136154,
    -0.4954405985458586,
    -0.18380106540437113,
    0.26244882703959005,
    -0.26674329375216943,
    1.4539949567724981,
    -0.9609489595025511,
    1.4698239425228619,
    -0.3321106866346951,
    -1.442702088069283,
    -0.08078097954363038,
    1.0243884701237658,
    0.2700898666991028,
    -0.23586884340434508,
    -1.6086411628852835,
    0.9358014811915046,
    -1.0821153849194118,
    1.0918636453820094,
    0.4414137937836276,
    -1.0368375610205787,
    0.06546658458369749,
    -0.3597225114595493,
    0.6686576014583223,
    1.6489894917098102,
    -1.4377156595179272,
    0.18601458819831787,
    -0.2910805495444228,
    1.1506016960912724,
    0.3562314917569475,
    -1.31725982157292,
    -0.566632276905658,
    -1.3936489764422229,
    1.852249745626816,
    0.02352410279186993,
    2.0300966222247507,
    0.37711706586255256,
    -0.1686484104845346,
    -0.8471692068658929,
    -1.0910276625450521,
    -0.9065036586080641,
    0.6532979991843437,
    0.8568593646676628,
    -0.9040221134357658,
    0.9334726900010668,
    -0.35034837584796436,
    0.23641621852015288,
    1.6015912494275002,
    0.9351504819617433,
    -0.1504943896421216,
    -0.7305585489930965,
    -1.9049401861574944,
    -0.5702891392697863,
    0.15992994259730858,
    -1.41955780548129,
    0.3224954600240992,
    0.7460579629064907,
    0.13199403285937505,
    -0.7333038990964166,
    0.9329035443137814,
    1.4891206040286626,
    -1.629639842152012,
    1.856337190125823,
    -0.8162397007831345,
    -0.6083184249580386,
    0.6121886301205736,
    -0.22878666520299804,
    1.0458186702920056,
    -0.13334353303641597,
    -1.7259998528230005,
    -0.0016563137348148836,
    -1.1428247460937193,
    0.7765664084056814,
    0.5592439213735434,
    0.2911930702593214,
    0.413165130214949,
    -2.2741530088439963,
    -0.2308602982110452,
    0.7524801700343738,
    0.8551893528608923,
    -1.1416442013779797,
    1.0257253716356913,
    -0.9890177873708816,
    0.7457526723733189,
    0.23328528842189228,
    -0.7811556003271384,
    1.5073275102389134,
    -1.2984868752130858,
    0.6982136216192694,
    0.9749146167134654,
    -1.684479694992206,
    1.5985202876778666,
    -1.0152183262491021,
    -0.15791799856939853,
    -0.20306619399584763,
    -0.831044134005836,
    0.6729260741628568,
    0.6453653692582025,
    -1.2672489677953034,
    1.4179426355814382,
    -1.1915714321943094,
    1.1788828196240968,
    1.2617014759567768,
    -0.6888790427542297,
    -0.09064279435328859,
    -0.7018422429315024,
    0.08165754886632139,
    -0.40476639729215513,
    0.6795995450450915,
    1.2086237177782768,
    1.2937374933087022,
    -0.6581223670735749,
    -0.3062564007915639,
    -1.7759609017320166,
    -0.9010785604535603,
    0.8642238712108006,
    2.1755107867972967,
    -1.454604477638929,
    -0.6370006261483556,
    0.08401932414540746,
    0.4745105216446515,
    -0.9135828846949503,
    0.6578037466249741,
    -0.4859015297096599,
    0.0992451389795651,
    0.6315292738989254,
    -0.25339972082376416,
    -0.9792403912377838,
    -0.44359675361203166,
    -0.40876942792690296,
    -0.8704402884752752,
    -0.6881393428425221,
    2.3565377032937094,
    0.6555189477256452,
    -0.2584447671426134,
    0.9485551801894823,
    -0.3050729001614108,
    1.5276738196228432,
    0.5504777912691963,
    -0.02958231303998448,
    0.6454323481963243,
    -1.809582257146317,
    -1.2694569017875204,
    -1.033763282742943,
    0.0324580772055923,
    1.3002237726499735,
    1.698030689414678,
    0.4273322848716054,
    0.3179029135150777,
    -1.5179829915472476,
    -0.5143568082862852,
    -0.7098446550804516,
    -0.3442206244812034,
    0.06629533753630004,
    -0.20932638647729537,
    -1.5760776174274593,
    0.896981619885558,
    -0.7540035652897924,
    0.43572096536551436,
    2.099566993890313,
    -0.6149367230019348,
    -1.8049534831803753,
    -0.3080867431907406,
    0.6169747524449205,
    1.188825600940894,
    -0.9374019839758447,
    0.2139519645865663,
    -0.4276783915316163,
    -0.1879951133103107,
    1.6463633972165066,
    -2.2499907010550118,
    0.3331515006674214,
    0.6477579779847187,
    1.5566288318810124,
    0.10412040766718325,
    0.4130125601515878,
    -0.615855210857803,
    0.35577762104134164,
    -0.5446029874804504,
    0.6501614646335565,
    -0.43665925459586846,
    0.38210108166764684,
    -0.06347183317894807,
    1.2033165966768806,
    -0.08773813940402188,
    -1.9754966259739573,
    1.3522979703595426,
    -1.024511260184831,
    -0.6779029375287008,
    -0.6362988043461673,
    0.7743235924736855,
    -1.7389724716499495,
    2.0368818248364744,
    0.5463575451761988,
    -0.04995327177780295,
    -0.24910084848329925,
    -0.005334628700439765,
    0.42762149335283844,
    0.7094199605999402,
    0.5059254509622142,
    -0.5523503703125892,
    -1.2039041274016702,
    -1.0992965474456564,
    -1.1983856143118194,
    1.818859957439508,
    0.5921097971172343,
    -2.4580384978799144,
    0.6409537719062437,
    0.24355931591975877,
    0.05962966564598289,
    -0.259042515636579,
    1.0444210759769479,
    0.8922532759203086,
    -0.5902522985801901,
    0.4265162067274417,
    -1.1493874757268678,
    -1.634723760078642,
    -0.7390259864452167,
    1.0325126911658278,
    1.1404526120628666,
    0.6169541122887207,
    0.8691748273214692,
    0.6206335792065533,
    -0.7565905997947105,
    -0.0948319908289762,
    0.5221473130247917,
    0.444928921051134,
    1.1726420258685264,
    0.3679293891664087,
    -0.22957488032646334,
    0.9737899657242699,
    -0.8624312655046635,
    -2.2945994781750274,
    0.5704050734028587,
    -0.41228236114132233,
    -0.29452185870205305,
    0.6017320876908325,
    -0.49253634310732325,
    0.32568637751372165,
    -2.3523917549143567,
    1.206056881506426,
    0.8478518977512158,
    -0.6103888841405911,
    1.1189316088756127,
    1.4449500509372253,
    -1.5363160967978122,
    -0.5467091848727629,
    -0.5542264778271877,
    -0.754248970539794,
    1.3183314320330144,
    0.11967652233229545,
    0.26498364533437907,
    -1.063701940432235,
    0.9524413377554419,
    -0.4796218416162238,
    0.5128286982053191,
    0.6789341564307652,
    1.5064517772849428,
    -0.5327601772032761,
    -1.8395556557591133,
    -0.29583863931986387,
    1.751857418980829,
    1.0405681424859703,
    -0.26314733958878705,
    -1.1514224152321637,
    0.49361151064916997,
    -1.7618193058586702,
    0.07465814548699605,
    0.11153248239651938,
    0.8497239016134396,
    2.2530440697820704,
    0.29829336104601245,
    -0.44602042521484603,
    -0.0468619208286033,
    -1.486557562990735,
    -0.5994029942653915,
    -0.3637087301832451,
    -0.4585096989587011,
    0.20340747919689028,
    -1.3563816057150202,
    1.7534372147502344,
    -0.04005233096334238,
    -0.055265605793875176,
    -0.5650654674313647,
    0.2079452127450513,
    1.2799000147274324,
    -1.4279249115160064,
    -0.699191852244922,
    -0.20376053875878467,
    -1.6606598401320936,
    -0.9244645101177076,
    -0.4449051436135287,
    1.44322274962756,
    0.5878987210261929,
    0.49147795393553345,
    1.4103824602777502,
    -0.09172390935660021,
    0.42413164656042596,
    -0.05834902733598616,
    0.30186878098610626,
    -0.5270011795045284,
    -2.3409299979119744,
    -0.0887014810169324,
    1.4329836848314594,
    0.9477214827480303,
    0.9485635021353671,
    1.3722925925454674,
    -0.4236366808768398,
    -0.2535740564271258,
    -1.5290934001816323,
    -1.057087031959826,
    0.401357513093715,
    1.3218233963763317,
    -0.7806458347054583,
    0.2678494231198321,
    0.8210790926600675,
    1.558378026563095,
    -0.9518183323007171,
    -1.9980000229754362,
    0.14467848983948348,
    -0.6779237831066921,
    0.1967179603892365,
    0.6390391458111301,
    -1.0279589082228313,
    1.556138902061223,
    0.029690139046282486,
    -0.005931799388747084,
    0.43032890703354126,
    -1.9575927031824467,
    0.9956400068989049,
    -0.5161009381683977,
    0.4957863939224717,
    -0.8051750073504783,
    -1.2404742395622852,
    0.9018238595662769,
    0.5030370757225731,
    -0.6517903914118205,
    -0.6225340464933922,
    1.1796278262007425,
    -0.9113615406235452,
    1.6468464639519291,
    -1.2857942965968865,
    1.1910147266479407,
    -0.3652428334781315,
    1.1343583962923798,
    -0.712050418596613,
    -0.09837156083274963,
    0.22947234490871138,
    -1.4492506331569868,
    1.355864274812336,
    -0.2699072553559935,
    -0.042815367376912265,
    -0.6538032442158106,
    -1.9048904988215531,
    -0.012836724162828836,
    2.0645978752531184,
    0.7656154809217355,
    0.12421565935121025,
    -0.07017592559296569,
    -0.505993208978936,
    0.3278243242766469,
    -2.4183323340588427,
    1.2292644289601913,
    0.5952390027456684,
    0.5996959780412282,
    0.1551602707183913,
    -0.5105214232289164,
    0.5276629615245692,
    0.8324205614964358,
    -0.25737560505629514,
    -0.5103497321001819,
    0.26790035297903547,
    1.9352953362189547,
    -1.2771324280313125,
    -1.540311571575147,
    0.34037778801802565,
    0.20917529805048524,
    0.5125723154035912,
    0.5896195444783506,
    0.07988648300603148,
    1.949084874168753,
    -1.4233821049260065,
    -0.5805762272110087,
    0.2107662645590288,
    -1.4695208732894691,
    0.13154972381072924,
    1.757390145095997,
    -0.1269808663175795,
    0.11401153864579264,
    -1.5983936807798396,
    -0.8589224792064573,
    -0.5819208282420634,
    -0.5158979450793063,
    1.321122362959146,
    0.48959175292430984,
    -1.029679191347161,
    0.36247206694730155,
    0.6205263474386744,
    1.2786150131031833,
    1.730094108223227,
    -0.9308893399347387,
    -0.7215107285000805,
    -1.179477856731507,
    -0.13015041919889922,
    0.35293327811425523,
    0.8772606394084242,
    -0.19286456693761564,
    -0.4383299495646156,
    0.03630920473279506,
    -0.9569400051408217,
    1.9865548579371928,
    -1.7344274129577804,
    0.06950395440816567,
    1.4977779035263958,
    -0.04345678772621277,
    -0.193880206442925,
    -0.32181144251444826,
    -0.1865077409065226,
    1.0004716553394104,
    -1.7389484865227576,
    1.1231901895911833,
    -1.1368350843441237,
    -0.14417549545074704,
    -0.3009843296919306,
    0.6806111970553366,
    -1.4282882362967468,
    0.5587258396224012,
    2.0652989673865227,
    -1.2016948649826704,
    0.29595073343216205,
    -0.5254438110743279,
    0.42919073004881875,
    -0.02514316652613568,
    -0.7630817829377843,
    0.4984289703884802,
    1.968951739913666,
    -0.2597738443960743,
    0.7574486443533586,
    -1.491136341569836,
    -1.1148849492744934,
    0.3605893332009933,
    1.6904351337874006,
    0.20707041515740332,
    -0.671867269460074,
    -0.26129834350099,
    -1.9039702179604467,
    0.5342405836906591,
    0.8994191828552099,
    -0.8546188177701554,
    -0.6976483176526175,
    0.20583017040441418,
    -0.6567388890210812,
    -0.20177459882588492,
    2.4572125989095834,
    -0.42385434680442,
    -0.5605134409455201,
    -0.9155620043101311,
    0.7930488282456575,
    -0.22908594902682222,
    -0.670252688454845,
    1.1868428691896982,
    1.2794763033494738,
    -0.6241244569760092,
    -1.8172672353055743,
    0.8911380783514689,
    -0.7034774233979735,
    0.6867505022705834,
    -1.871162481502688,
    1.2155050868610384,
    -1.052854764786185,
    1.041010676838245,
    0.2684642005108559,
    -0.7754974010526601,
    -0.18580675931969803,
    0.9930877619713634,
    0.367253680479728,
    0.3789330941947239,
    1.5545758163106482,
    -1.4357221082631009,
    1.251188301740275,
    -0.02650108477172163,
    -0.8737071460584855,
    -1.2381572514969452,
    -0.2743577425545153,
    0.6637481208991213,
    0.18262206744650455,
    1.5577970248942712,
    -0.9281447674399489,
    0.27951444883003934,
    -0.7613297979627127,
    0.5948135273050106,
    1.0339214125562761,
    -0.0634374485347702,
    -1.8957564670946698,
    0.020367270545733385,
    0.2737351782956039,
    0.23916600840116128,
    1.1251236745796538,
    -1.3328315925044927,
    0.5331627964354436,
    1.0790140976735314,
    -2.0867156066918273,
    0.14897817326519228,
    -0.3232797528191503,
    0.4099626614425322,
    1.1545543947824681,
    -0.293872022156745,
    -0.6208537662667979,
    0.6106404001424347,
    -1.3348059806392798,
    -1.332341103093241,
    1.7299951686077786,
    -0.9768943930392012,
    0.9868705304545757,
    0.7664644250270867,
    -1.6011647957119721,
    -0.4670710220583865,
    1.5578943367998155,
    -0.7955370072169239,
    -0.2364526596130291,
    0.7658905853580353,
    0.5446978296767316,
    -0.5754222928436638,
    -0.9498724015951919,
    1.236275084847753,
    1.5788601948170295,
    0.7562553789370324,
    -0.21083671061783577,
    -1.1779763744209637,
    -1.2019807088008905,
    0.409407278443671,
    0.2928948943178203,
    1.393159470729528,
    0.5525758927386957,
    -1.8573633977751363,
    1.0018774970041948,
    -1.2922138372432195,
    -0.6050082750216726,
    0.10467047680611895,
    0.9719829652310384,
    2.0195028436184193,
    -0.3337792145736909,
    -1.0763915305664875,
    -0.4016716093137544,
    -0.069671557366717,
    -1.2056295602430653,
    0.7835319138110842,
    -0.6878742505968277,
    0.514433745153993,
    0.7645851836813901,
    0.4011591529907166,
    1.0219282931422748,
    -1.144003605317095,
    -1.0563196732491344,
    -1.8622671093937648,
    0.42780522848550523,
    0.9326787845061146,
    0.22352532980087006,
    1.799974166164246,
    -0.37684090020792477,
    0.4968681045778178,
    -1.7840581297472753,
    -0.8711380697169531,
    0.5315866090826731,
    0.7305530368449266,
    -0.7504701467983796,
    -0.009852936144223903,
    -2.1240801977396577,
    -0.4271069093720122,
    1.3964149991943928,
    0.9356738093956724,
    0.8267090108511468,
    0.16757533038115782,
    0.10513921320790118,
    -0.8704723197743772,
    0.7927473696302708,
    0.5057722344557055,
    0.5791499777969905,
    -0.4723178568290203,
    -2.153036777553959,
    1.2041452989915014,
    -0.42357137675060774,
    -0.8201111516984013,
    0.7872222819575199,
    -0.7783336807024712,
    1.1128856569783028,
    0.5359517639213061,
    0.622653113142732,
    -2.0469319164564044,
    1.3108813926295846,
    0.07256667563699058,
    -0.7487198183596655,
    -0.08095318679037523,
    -1.2143840560361494,
    0.7436880501117125,
    -0.5450531810639071,
    -0.8347899115656016,
    -0.9868631966937511,
    1.3746368084200071,
    -0.18648078627213793,
    1.751967527690384,
    -0.10272125459055613,
    -1.7592175176654832,
    -1.1853716910280185,
    1.0993298205524957,
    -0.2523654296164735,
    -0.6334725458781012,
    0.05446772129159552,
    0.38640579196651387,
    0.9843216305521713,
    1.3059022198252999,
    0.038765792508474006,
    -1.6984613730480507,
    -0.05777262056317523,
    1.1535226966366185,
    -1.0471196289141655,
    -1.0352393994058973,
    1.3036566375249607,
    0.598106992541156,
    0.7445409027200801,
    -0.2316906247644588,
    0.3428864626017924,
    -0.4120165440079522,
    1.5621198282719992,
    1.7199380183593522,
    -1.415120980176642,
    -0.41775880027403706,
    -1.034685701590398,
    -0.11367165841965483,
    0.6973899451285397,
    -1.7366576610331592,
    -0.7963502475547379,
    -0.9426160259441101,
    1.215313223341131,
    0.9695883310031364,
    -0.4398105590048946,
    1.1610695305092538,
    -0.1279265364451584,
    -0.709664769696604,
    1.1343449537385721,
    0.8186612152645667,
    -1.6841641555492926,
    0.33447784137825753,
    0.31709498949049325,
    -1.540710998995596,
    0.32409244462645675,
    1.0058684797431459,
    -1.3402589142627908,
    -1.1014239357268458,
    1.1526750022797059,
    0.28353311576929385,
    0.6096577753174512,
    0.3640143959149715,
    0.42237919221234893,
    -1.577795521870333,
    1.1872188903661982,
    1.3184684731207357,
    -0.45770090097687544,
    -0.2216616339862081,
    -2.1103822995548027,
    0.48644388099237645,
    0.5598311388695206,
    -0.2454213271202662,
    1.261035286773375,
    -0.5906126181178555,
    1.2007254458367735,
    -1.8451720915591836,
    0.06994032812507574,
    -0.21998985405418825,
    0.5483954883289066,
    -0.595226308996884,
    -0.13754612440209188,
    1.7033690059596014,
    -0.7244958892380094,
    -1.5945058118758035,
    1.573799292179638,
    1.2262749620250926,
    -1.2977846670384852,
    0.5732481121095431,
    -0.552675908474535,
    0.17088455789115223,
    0.19990102055772493,
    -0.2991415573743273,
    -0.6589424610372793,
    -0.5397355646802079,
    -0.8282767354571376,
    -0.7203926628380448,
    0.2573623002268087,
    -0.5719831769710234,
    1.2154078445734064,
    2.245014565610877,
    -0.3984541094273987,
    -0.15899968531757544,
    0.2661244468169224,
    0.2209092343640743,
    -0.4259662228071707,
    0.6630192435169799,
    0.2376454472343165,
    -2.5715374239041955,
    0.8695924456245628,
    0.8992125144720856,
    -0.8526110187860793,
    -0.10208843098544423,
    0.502462453744819,
    -0.3336940318557884,
    0.86745456468361,
    2.076661370563457,
    -0.8738744985766803,
    -1.4312778363340086,
    0.1469674275461146,
    0.282385263296102,
    -0.5650284204372695,
    0.9334060852254129,
    -1.5506280470620322,
    0.2568996672814379,
    -0.8986758272466985,
    1.1701811327679426,
    1.413202333830943,
    -1.0417421876558386,
    -0.2737559861230165,
    1.7301671270367833,
    -0.04277181881839496,
    0.443182044405002,
    0.5438651037340515,
    -2.222176564680657,
    0.4880821852359162,
    -0.4730904598811532,
    -0.19350163090853212,
    1.4164004451683823,
    -2.0667799966476355,
    0.6031495565456768,
    -0.8057478256445779,
    -0.8067762632492953,
    0.5736946008610402,
    -0.007219185811180214,
    0.2902055185158049,
    0.8030731502617852,
    -0.17575608241270307,
    -0.3844041212419933,
    -0.7356414911314219,
    -0.5427302358729007,
    2.2606288866911495,
    0.9947444966148457,
    -0.9331455428207367,
    -0.9118918755246281,
    0.42819596569838847,
    0.9676563072515691,
    0.9696432433281762,
    -0.016854922987021053,
    0.14207357567668408,
    0.6984195565695104,
    0.4014458225386313,
    -2.4275625514569645,
    0.014017539328221569,
    -0.7488385702488075,
    -0.702796432568362,
    2.198849069059215,
    -0.5042588350979019,
    -1.2074688221916723,
    0.06812992777734952,
    -0.3852972854799218,
    -0.4499310123913366,
    -0.25708730090740994,
    1.2398606918000412,
    -1.3371734963215671,
    0.7142131795665341,
    -1.0757099886058632,
    0.8188978551933042,
    -1.0658723843258346,
    -0.42493290065203126,
    -0.2686013360298995,
    1.3562584988601212,
    1.282920572315236,
    -0.8965421989633987,
    0.2683627713132128,
    -0.4163603287199416,
    -0.9079951226133262,
    0.024794634365484996,
    -0.05712499888850638,
    2.3926067399104167,
    0.6069346622476179,
    -1.0146761586515602,
    -0.5019145684095737,
    0.6747989120689716,
    1.4664122482072195,
    -1.259513300575297,
    -1.477577689924441,
    1.3050733817892215,
    0.20611195526034537,
    -0.727084277970322,
    0.3136933395538761,
    -2.2053062305788917,
    0.43380416074674655,
    0.7582482467261292,
    1.3546943083170493,
    -0.5834623433532372,
    0.5161154146403494,
    -0.4949914480345855,
    0.6858111823758407,
    -0.46491329083939964,
    -0.2911711265288478,
    -1.154606322767052,
    1.264996860329497,
    1.5695715180775132,
    -0.036304254766562266,
    0.36456328592624304,
    -1.8197978648180897,
    -0.13188076717203523,
    0.2346286717193337,
    1.8061551327431011,
    -1.790640645624534,
    0.6916685639606752,
    0.24137199238905316,
    -0.4487622547882703,
    0.9753868284721056,
    -0.3606249119752694,
    -0.34419236415754134,
    -0.7703623410193199,
    1.3517205313000435,
    1.2101687328523625,
    -0.707798310736968,
    -1.4802321354956005,
    -0.2370379925538515,
    -0.9019857266377256,
    -0.08172476622144018,
    1.367166817916985,
    -0.5202771504238051,
    0.2644611049140679,
    0.35816230425685597,
    1.0925702738537495,
    -1.7834474427029774,
    -0.25946530004006824,
    0.5005647693193673,
    1.4193041885435844,
    -0.1528008454828839,
    -1.439349052661696,
    0.8897987929454582,
    -0.33145472657623665,
    -0.8708222300498657,
    -0.3207346011400908,
    0.10723365635715118,
    -0.3016620542176767,
    -1.8593463159686436,
    1.1596797006089723,
    1.5273077780409319,
    1.0060261311125986,
    -1.947123292615617,
    -0.4019023360334163,
    -0.08009721449507297,
    0.918997392005518,
    1.0337856455071082,
    -1.281112925744748,
    0.06600295826242387,
    0.6854236420012061,
    1.1044112332567837,
    0.03891156509539794,
    0.15881874164896304,
    -0.841323158731384,
    1.0400781643700785,
    -0.37908758874964743,
    -2.1813803630108834,
    1.030024450776927,
    0.029546955343764017,
    -1.2602982175959558,
    -1.316968357368242,
    -0.11035155281626409,
    0.14868939234315617,
    -0.26471533839902883,
    -0.0874447605605408,
    2.071600261022628,
    1.0945535845442755,
    -0.2750650111700288,
    1.162507761502934,
    -0.9134379765729242,
    0.5910136803511999,
    2.075407060602799,
    -0.056825042105623204,
    -0.7189831940275453,
    -0.5133221339570074,
    -0.9735015046404677,
    -0.6528586511533653,
    -0.4749124905144573,
    -1.5888762834440002,
    -0.059350770513438636,
    0.8949000693302461,
    -1.053116203144553,
    1.5589426331495861,
    0.47357119444598367,
    1.0329843391754105,
    -0.7841424884847775,
    1.1536944256214092,
    -1.160162340457293,
    1.1961593424008137,
    0.342150357170804,
    0.7955544113284173,
    -1.25961415329998,
    -0.9261398395740353,
    0.8478321466067936,
    -0.9894743497969289,
    0.5667409839025181,
    -1.6918674574897332,
    1.041783789101519,
    -1.5257558353592338,
    0.676680781638192,
    0.7671697812945674,
    -0.8646490778527859,
    0.7133628547858463,
    0.31653417997911004,
    -0.045014177832008076,
    -0.6157894615649544,
    -1.7751364449462466,
    1.034643834906216,
    -1.2917187549528164,
    0.7256220585149443,
    0.28963259726375284,
    1.4350295476801769,
    0.24273080093093494,
    -0.47393074969127935,
    0.8958150259166071,
    0.38368554700478036,
    0.3592903881853052,
    0.5568974343604717,
    -2.0305640599078982,
    0.9279743562694986,
    0.7417140056843493,
    -1.3608819478218346,
    -0.7025741403178813,
    -0.45662746839177487,
    -0.5709565970531163,
    -0.008427945723422831,
    1.3097531786777024,
    0.8898594831922034,
    -1.9854821633436668,
    0.33773210346321725,
    1.1867235494967392,
    -0.34792961957058327,
    0.6804038077188492,
    2.025804438265999,
    0.5821651628676273,
    -0.5487268514299787,
    0.6133857584903221,
    -0.7012171168640241,
    -0.8778965651105582,
    -1.4259890143676537,
    1.1829908695564675,
    -0.7806452952494896,
    1.1573962544014613,
    0.30618051884653313,
    -1.259531834262482,
    0.1971800811676494,
    -1.837219091724067,
    0.40976374972148605,
    0.6238847475424414,
    -0.9989729713279465,
    -0.33618730686977455,
    1.3585964656438414,
    -0.9187898767147002,
    -1.4309078166526108,
    0.9211601293766748,
    1.3664007587724538,
    -0.4471466562969213,
    0.4858472740689839,
    0.8197558913276047,
    -1.1253319152907484,
    -0.8852915455526434,
    0.7165248197756637,
    1.1404013134300923,
    0.09304537823530486,
    -1.2535105390592198,
    1.4223201459100043,
    -0.9279135487760587,
    -0.45586532352542636,
    0.1784683181254679,
    1.3131214574933212,
    0.6575250964943491,
    0.246377387248665,
    0.2917168151113854,
    -0.10132564437143551,
    0.3805276430703629,
    -2.5105457496466896,
    -0.5434474047850902,
    0.060432429389090485,
    -1.5026047524188433,
    0.22321106174564584,
    -0.44001521313060016,
    1.7602222787205744,
    1.5553971027554767,
    -0.7333892963805145,
    -0.379806205895739,
    0.034070915750429344,
    -0.5157008876331117,
    0.4255690907974716,
    -0.9619999082707674,
    -1.5039429220275269,
    1.0480801337605763,
    1.0580044759520164,
    -1.029003422021259,
    1.4449225236921712,
    -1.1028085564920764,
    0.695932362976281,
    1.8490442929935613,
    0.11289413864624098,
    1.105749029306943,
    -0.8687048897036835,
    -0.21819884342671003,
    -0.23729512301181968,
    -1.336612411288737,
    0.02050944564925553,
    -2.1636231117653577,
    -0.48001876084701445,
    -0.15160021954869043,
    -0.10591332242280124,
    -0.08253741324981666,
    0.20361844369645088,
    1.0652797636836067,
    1.6942851748043668,
    0.05753903763882718,
    -1.204700721903789,
    -0.8371456539698531,
    0.42830050476654274,
    0.7368419316513889,
    -0.21667559171172898,
    -1.4166170174688444,
    0.49919050982021773,
    1.95326700117724,
    1.4320774123914475,
    -0.19846899552917652,
    0.005870912355887138,
    -0.7209377583472455,
    0.5457188269776211,
    -0.6101979796904905,
    1.4010898789545014,
    -1.9365310879671738,
    0.08137879085462904,
    0.28169816306347684,
    0.1816447577712996,
    2.3224128670146698,
    0.3232411980609222,
    -0.8318240747657806,
    -0.05664397519781845,
    -1.4906332591741989,
    -0.04396206317684496,
    -0.6859336135957256,
    0.5133044995186886,
    -1.1459892464141592,
    -0.6557955052288892,
    -1.24341940146905,
    1.4460202612093485,
    -0.8874018150927833,
    1.5521585815936105,
    0.39863392200645004,
    0.022488703876784304,
    0.39884824589144435,
    0.423034997751823,
    -1.8171691929583984,
    -0.22609774379944797,
    0.8585952782784059,
    -0.004162461354815809,
    -1.3129765612436652,
    -0.007546952594111055,
    1.687474390028765,
    1.230976833087039,
    -0.08311059598743291,
    0.934362529112068,
    -0.38882141103606604,
    -1.7314906026603443,
    -0.9489935099481894,
    1.548227280954851,
    -0.29594051813135824,
    -0.2652100053905668,
    -0.6068314443475559,
    1.0941049946382586,
    0.8794189893282256,
    1.3369339247145107,
    -0.4981732502675441,
    -0.14727801138005425,
    -1.545910637391141,
    0.7644080619420968,
    -1.276672627236796,
    1.169838084570946,
    -1.0529073032779008,
    -0.19289516504946455,
    -0.6130529832639764,
    -0.22504767496544606,
    -0.10875365016870862,
    -0.1242241411884444,
    2.212738223740498,
    -1.0656953903975026,
    0.11190634008485417,
    1.585906813568844,
    -0.9724235496892549,
    -1.2749658977448892,
    -0.554686560409514,
    1.5294040564503206,
    0.07284203741490211,
    -0.9990507459146769,
    0.5010675062394143,
    -1.2749138188839888,
    0.9986541004337289,
    0.6509849496206934,
    -0.26220901528723173,
    -0.9387751467483737,
    -1.000080575978053,
    0.81186113335746,
    1.6966903522352583,
    -0.6822119787494931,
    1.3393739411574523,
    -2.155749248947955,
    -0.0927818430509068,
    0.6673131365553372,
    -0.5391315302127725,
    -0.5759622980542424,
    -0.2069718560127361,
    1.1111719746914102,
    0.45273772387441286,
    -1.1321105087031074,
    -1.0390324916522928,
    0.15983981316603138,
    1.0029050402627426,
    -1.5354266138647152,
    0.24468471935554945,
    0.22368420535749278,
    1.7399285324596783,
    0.3355273036186207,
    -0.0003510002694355413,
    -0.13988923645416193,
    -1.4512855950818226,
    0.22201387971275938,
    -0.09709273899537134,
    0.07196591810900381,
    2.044967760682132,
    -1.4244705716475201,
    0.7741415839444161,
    -0.12508523999668275,
    0.8072206298001793,
    0.26734156599680914,
    -0.3469611015164034,
    -0.5831234672136996,
    0.8756376743383261,
    -2.119740702248438,
    1.5586274753222744,
    -0.3339168344823654,
    -1.4416331323073843,
    -0.7202788417757141,
    1.0905541135113976,
    -0.810782436252254,
    0.13728340138686648,
    -1.0182831185049486,
    0.5610101518993997,
    0.4841985469560966,
    1.7179313150865407,
    -0.6454893850984623,
    0.8290125545159557,
    -0.16756804622100138,
    1.9245019037147255,
    -1.5943552701286259,
    0.9623653997095458,
    -0.6789074566447103,
    -0.45096185717025383,
    -0.17859784267717327,
    -0.16801117306138494,
    -0.6637943245376099,
    -0.218504804438375,
    1.6159842815275225,
    0.8185368905469035,
    0.6620594691410713,
    -1.1203435047032704,
    -1.7038974587833216,
    0.7779706243084654,
    0.8647064980955703,
    1.5068550836786214,
    -0.7282527181564877,
    -0.32525014470029034,
    -1.8427691665690915,
    -0.5006042064790759,
    0.9944266404689232,
    -0.5802768170634371,
    0.6111648307252675,
    0.18435312297299175,
    0.6029583771802904,
    -0.5943392362391937,
    0.40865095866414985,
    -2.0940193244622534,
    0.18728744923598378,
    -0.9870922056950452,
    1.320432666274646,
    0.9717681920684308,
    0.16114248797582864,
    1.1714616083722365,
    -1.1953474208877035,
    1.3883686847813623,
    0.607228633131468,
    -0.512725666353401,
    0.8021645303224292,
    -1.346154277089741,
    -1.076138580252479,
    -0.3327343802967572,
    -0.2365645188598988,
    -0.8738714517975793,
    1.8798929229495864,
    0.08973950716542836,
    0.8282504674624093,
    -0.2865431430894543,
    -1.7968246628019933,
    0.7286552592682592,
    -1.6549900058980342,
    -0.11454213992608184,
    -1.200497923930369,
    1.6032850942664165,
    0.7042996872118409,
    0.031168601166977075,
    0.998702666517995,
    -0.7643386640045122,
    0.39691268459576784,
    0.22872951224696586,
    0.3071668275399485,
    1.5389282407630567,
    0.8794435650243628,
    0.337344264767494,
    -2.036935025746395,
    -1.1881299680085573,
    -0.16525416842726373,
    0.09870675184038824,
    -1.3502676713369866,
    2.0084923174310174,
    1.1594971216665761,
    0.2924907832441646,
    -0.21018468697085074,
    -0.4797345917869239,
    -1.1812000163545255,
    -0.20502247479887048,
    -0.03407078109360107,
    -0.8157663422207623,
    0.6233406643340365,
    0.17640020178505575,
    -1.4239841094819454,
    -0.4675035310647965,
    -0.05951547112453466,
    2.0419690236536874,
    0.82640961888679,
    -0.9013500547675309,
    0.7599174291887862,
    -1.2673487898873719,
    1.354789847413688,
    -0.19438425019110095,
    0.1819765672462923,
    1.597169228244104,
    -1.0079854693385049,
    -1.1176116259109874,
    -0.3065229367649054,
    0.961914779440337,
    -1.0368276920189046,
    -2.062726967833036,
    -0.2020893133504285,
    0.5816298899659389,
    1.0884186977162067,
    -0.21146870892707903,
    -0.17104041621402163,
    1.0521897312209878,
    -1.3822913092214013,
    0.14813695513880326,
    0.7463146235197732,
    1.0137068254723738,
    0.02282182225325761,
    0.5851498697464448,
    -2.0214268714527655,
    -0.13055124912797272,
    1.0181393336714868,
    -1.6234296422340413,
    0.32959201496706186,
    1.0571153312620158,
    -0.4235241340818201,
    0.5386830750221947,
    -1.5867401480178844,
    -0.1685589481926066,
    1.3634827416216104,
    0.5133797096534694,
    -0.4902791490268711,
    0.27823226287122993,
    0.7430783868622681,
    -1.8774521604098515,
    1.164388096418806,
    -0.25304088573434874,
    0.46902035748913856,
    1.200572322995792,
    -1.2345192314661637,
    -0.48098344003880994,
    0.03480720648066149,
    -0.5720511584705648,
    2.5145265082414614,
    -0.6615331856680438,
    -0.2923907774727432,
    0.6388873124655677,
    -1.0847826637412605,
    -0.09647980179626856,
    0.3652237711217474,
    -0.42957191753827795,
    -0.13689385838585627,
    -0.6696942996544436,
    -1.8737034307488365,
    0.3702835056098026,
    2.122072529217404,
    -0.00026900435371694754,
    0.2525527047321774,
    0.09446292084092561,
    -1.8424801795825994,
    1.0913316132404465,
    -0.38965502752590647,
    1.0215781247717524,
    -1.3130461575959016,
    1.2054001159262386,
    0.17584069423250373,
    -0.04343210430745909,
    0.4959398517572713,
    -0.0713832071758659,
    1.6322331526458573,
    0.38582123137876756,
    -2.091820007278565,
    -1.0926379730748528,
    0.0023111432420116493,
    0.5852608084554087,
    0.1542750000499672,
    1.1587629067916896,
    -1.6248340725845098,
    0.2144840876712233,
    -1.5079409236565655,
    0.7554943709846852,
    0.0054586138461684,
    0.4568552217785143,
    -0.6701621814206371,
    1.2118819765894313,
    0.7378301617487466,
    0.14827880086967885,
    -0.76923413259376,
    0.1435346291475835,
    -1.5121564296751453,
    0.4982821592482925,
    1.5198442834731336,
    0.7749983179986802,
    -1.5413777902172103,
    1.058701244977651,
    -0.9152584508718956,
    1.3104010766878986,
    1.165104082779354,
    -1.6032562195093605,
    -0.7585430801812599,
    0.28971803250657757,
    0.26857629782198544,
    -0.81544298421095,
    0.2511095865445823,
    0.06946623647889363,
    -0.5193569614179799,
    -1.261124277337862,
    1.1226064138443237,
    1.9240530634958362,
    -0.9015102353060146,
    -1.071397157864451,
    0.3861533315626715,
    -0.3226327192684921,
    -0.05897467962435452,
    1.0011103162366581,
    -2.1934449680865944,
    1.6989284840288084,
    0.19677905918054056,
    -0.38710699511500146,
    0.0015191165901196737,
    0.06382238605831607,
    -1.9543046471457794,
    1.4209148325507024,
    -0.09986921916283807,
    0.3203687551088501,
    0.852416388160648,
    -1.2114548971525434,
    0.352246532091092,
    -0.42311329854370244,
    0.7427955540935705,
    -2.19967033232524,
    0.5148679315713021,
    -0.15934050824722298,
    1.2260587183091183,
    1.2766267070446553,
    -0.29961622723463716,
    -0.3057034197922136,
    0.499380729381931,
    -0.5526035987076932,
    1.1711560829129604,
    0.17812879300408657,
    -1.90253893335222,
    0.17352530281197145,
    -0.37064475907538574,
    -0.8566119573506097,
    -0.5337041626917157,
    0.570534668544901,
    1.5701549651960127,
    1.1506526070827543,
    -0.22016025847233875,
    1.3633791616027822,
    -0.00043816339995370225,
    -0.3514705430574203,
    -1.0367553017757092,
    -1.9272903443520557,
    0.1026560211299434,
    0.9194268212419991,
    0.5502267690506013,
    0.127733341201332,
    -0.5731682630706744,
    1.482774667463379,
    -1.0645144268978657,
    1.7047510930317296,
    -0.6478797471050333,
    -0.3174166529579754,
    -1.262506780715493,
    -0.824537896732928,
    0.9664591224230689,
    0.4089422308766386,
    0.9702305893121548,
    0.41684313055190025,
    -1.5549834538107004,
    -0.6176142063860229,
    -1.162669965254007,
    1.3973304490198957,
    -1.209605971223812,
    0.46104968590458034,
    0.46045524724822856,
    1.2090116376592066,
    -0.5805769857747876,
    0.31609965693355424,
    1.570262125155486,
    -0.746768618826484,
    -1.4799267770759728,
    -1.7144037504984606,
    0.7786614354772048,
    -1.7174232252681354,
    -0.26466413133891864,
    0.513848143429974,
    0.2714019488160678,
    0.5024360052181399,
    0.3070896987127243,
    1.323053875451404,
    -1.1137434841278953,
    -0.8384133899122546,
    -0.9340807724562074,
    0.6688220184260447,
    0.7390310521975096,
    0.28984334161721437,
    1.0221352325666757,
    -1.3394752281007711,
    1.5058812297896835,
    1.1935536706124126,
    0.49755629170732707,
    1.422037017067632,
    -1.6164117742318684,
    -0.6159365967299402,
    -0.8022642446810206,
    0.4850587600747177,
    -1.0804781803740207,
    0.5168850565547605,
    1.3949878802527302,
    0.5676344362072675,
    0.06356310537090125,
    -1.4943089630277953,
    -1.3215418906090048,
    1.2468516900315345,
    0.6707221627883464,
    -0.3318643711036519,
    -0.7960440499103287,
    -1.5067203135948561,
    -0.7373363067258587,
    1.665406135432506,
    -0.9062083859785933,
    0.2780822284838121,
    0.9370957288556214,
    -0.8856371571048234,
    0.2742396839366913,
    0.8810783866955006,
    -0.2523802352184355,
    2.1548315954417325,
    -1.6693609073384927,
    0.6294755840980667,
    -0.40856858880925156,
    0.38772775997333964,
    0.10905746618341522,
    -0.880885589148026,
    -0.06989708518234825,
    -2.085111414087494,
    0.7338855333884995,
    0.3844369327649724,
    0.7744471593381331,
    1.2548940098480756,
    0.4639979043732374,
    0.21254803396914024,
    -0.9662479798230822,
    -0.7728501797714817,
    0.7137492391082517,
    0.9701575527936386,
    -0.7499565638347102,
    -0.4580945725373653,
    -1.434638507523673,
    0.6993902390509122,
    0.17821319579038963,
    1.4888095668186325,
    -1.4076301496660761,
    -0.7122988180964802,
    0.09242899496439531,
    0.6404559807315809,
    -0.4979434084379849,
    -1.365839062216123,
    0.9506436186175745,
    0.7390189386423398,
    -1.4230299151910586,
    1.5765636709857562,
    1.2958206644377002,
    0.31063293042327694,
    0.25861216676296045,
    0.7098440272421053,
    -0.6366056657205356,
    0.21147239604270185,
    -1.8640985286542529,
    1.016458326984636,
    -1.3021363175185923,
    1.205609643293196,
    -0.33194987002542525,
    -0.23261813087567879,
    -0.5815211733430543,
    -0.29666163908974413,
    1.1344243402378298,
    -2.1413321123394584,
    1.015710760862818,
    0.22833818127951702,
    -0.9608948995658327,
    -0.8331002784781052,
    1.8368195539553087,
    -0.7071528164965702,
    -0.9088189641302448,
    1.3137634421615216,
    0.5387423959581593,
    -0.6997968429351387,
    0.42043840953090234,
    -1.4993854214473137,
    0.835533855571314,
    0.7922183752603488,
    0.21099056511588585,
    0.02395633535406327,
    1.5605981796798136,
    -0.37348186866124705,
    -1.6708024282866303,
    0.12037240741376552,
    1.4607602246204678,
    -1.2485922234330913,
    -0.6777694194822895,
    0.0019341013907443394,
    -0.4090384342608894,
    -1.2202336316892783,
    0.6182928487040945,
    1.6652139113075468,
    -0.19056737715730526,
    -0.8574899153010604,
    -1.6034815321804188,
    0.4867273617917356,
    1.4652401896273888,
    0.737968154092515,
    0.18552794600813416,
    -0.4933427910696256,
    -1.0750728560688452,
    1.1539234431001764,
    0.7374803934117112,
    -1.3974091001942812,
    1.3243184786644124,
    0.44261460736182273,
    1.1591831278650262,
    -1.2206790317281233,
    -1.241247920213261,
    -0.18499700013362969,
    0.3807364449663225,
    1.2151675525275953,
    0.19897687335735606,
    -0.6853093414515267,
    -1.4157409518967994,
    0.6872948963789262,
    -1.3582675957850434,
    1.05868457635634,
    -0.7241787186002595,
    1.0233727091134117,
    1.851112222067022,
    -0.20719405721459247,
    -1.1718616685580923,
    -0.721595789072983,
    1.2188966690884733,
    0.33303870371297833,
    -1.3595855430761026,
    -0.27943276445052356,
    0.3366222275038203,
    -1.0802489629063103,
    1.0579357796153346,
    -0.13054093830119085,
    -0.2740379640703032,
    -0.7154215566621076,
    -0.803488136636556,
    -0.4410946936659958,
    0.09320435010640865,
    2.2936921225207207,
    -0.547497683905202,
    0.11682108556847916,
    0.3271086171114192,
    0.07274440003266386,
    -0.12411510090428278,
    -1.1795123516821953,
    1.318867521121857,
    1.6552322587009562,
    -1.639648746043695,
    -1.2206983742168143,
    -0.49846689016059964,
    -1.1629651407847845,
    0.26409448551067743,
    -0.9336796457743368,
    1.8741697648566789,
    0.9284525909056632,
    -0.02062924353366473,
    0.76972245319718,
    1.604508613103465,
    -0.47383118252609163,
    -0.7878132345654631,
    0.32533282197809893,
    1.3004903781044839,
    0.4011522556246987,
    -1.7347005250417822,
    -0.7711441773198868,
    0.136005050642477,
    -0.6174006738965825,
    1.2438278118564785,
    -1.8081047048186492,
    -0.08920813057516887,
    0.8045306070721338,
    1.5154483410216761,
    -0.9161228206794166,
    -0.10207528355512438,
    -0.030895146425347162,
    0.17459803380145825,
    -0.08216545596904144,
    0.3843987146164723,
    -2.205003814841569,
    0.5990850821630955,
    0.11413909946271827,
    -0.19001692496191241,
    1.7896962661036808,
    -0.5847310003749023,
    -0.34757099760091814,
    2.225943054094515,
    -0.8086025828104393,
    -0.505594492222521,
    -0.07239281824493253,
    0.9891552075512127,
    0.3089416409701946,
    -1.3035719039041427,
    -0.48630710783296854,
    -0.8853529125829903,
    -0.28145565766271496,
    0.29160651987031183,
    0.2829058633871368,
    -2.2166196540957555,
    1.0184900439868545,
    0.09422188787622882,
    1.3836888137536378,
    0.312515095467291,
    0.4941542067061793,
    -0.191969880007764,
    0.7588669134548957,
    -0.13175861521649362,
    -0.8020890091809537,
    1.7599958653277785,
    0.26469681193691835,
    -0.0760995566435636,
    -2.0757967363769962,
    -1.4805661743275347,
    0.38328888758027396,
    0.20976276257796994,
    -0.6857749894328434,
    0.2044123646211228,
    1.9110281779366827,
    0.8580132539429428,
    -1.3069164739595889,
    -0.09324780893902562,
    -0.21454362578257194,
    0.12963946588941463,
    0.10826281256998761,
    0.05544761801179926,
    -0.5858662620138599,
    0.3441382552625753,
    -0.012983784727041248,
    -1.9669266759835957,
    2.1428321967732917,
    0.6227430216081057,
    -0.9292542050472234,
    -0.5106908355270865,
    -1.7717984498409203,
    1.265708529025966,
    1.479233826764357,
    -0.3646356550295077,
    0.5536331931112123,
    -0.3449394250649025,
    -2.00141081097411,
    -0.055170099788933995,
    1.0890277788798293,
    -0.14507353022262695,
    0.3513113089422939,
    0.6190870858881449,
    0.6412262023085755,
    0.9213819456524376,
    -1.4203798806856114,
    -0.2153922117619093,
    -0.6390491850583475,
    1.0497022267755467,
    -1.2519252753525232,
    1.180908006094456,
    1.354649260091684,
    0.09425868923598958,
    -1.6232730719246995,
    0.05012156189980371,
    0.23746648743063944,
    -0.8385053307459073,
    -0.27531131716063745,
    2.050105726402965,
    1.0663882784108993,
    -0.7406937311298616,
    -1.5058627873665191,
    -0.061346771419396005,
    0.06775944557781763,
    0.09553924122438881,
    -1.26894642824627,
    0.11577854161980944,
    1.9989837500793515,
    0.5179106057693162,
    -0.6244426412933716,
    -0.8031021403881303,
    -1.0326373198075092,
    1.0009163910424146,
    -0.7103521744820616,
    0.5289903872086257,
    0.5400014098835305,
    -0.479028185417665,
    -2.083510640476334,
    1.040828476687402,
    0.3332369755861315,
    1.3674923364087945,
    -0.5376585853984233,
    0.9068483717329301,
    -1.0253258920311679,
    1.3593287813808468,
    -1.827510530776626,
    0.18278681223893742,
    0.22024084726123944,
    -0.950514101774776,
    0.17322896899728837,
    0.9609167429713278,
    -1.2409586387931735,
    0.5974447781861866,
    -1.4278379813842699,
    -0.39518845161352417,
    1.358896801015095,
    -0.13568674914468326,
    -0.5359402459991366,
    0.12378895080051049,
    1.6554815369329954,
    -1.5817739714706103,
    -1.0258624133950491,
    0.7897771813618751,
    1.0464221378788818,
    -0.35062484546128947,
    -1.1596041961862382,
    1.216066058226793,
    0.858884416066399,
    0.20671563297923815,
    -1.2734310151010448,
    -0.3585921503916008,
    -0.49201275460136573,
    0.0966631110920888,
    1.4390695959651767,
    0.7540733814232493,
    -1.5909799223491468,
    1.3497815833996154,
    0.07542817056302896,
    0.5149283238079834,
    1.0921200711868377,
    -0.8169470658805642,
    -0.020363894290644967,
    -0.3873710843885281,
    -1.154816212902584,
    0.2628990047342948,
    1.8659414052960948,
    -1.3563905475628895,
    0.2191379523680399,
    0.9139651144972903,
    0.3795775261104605,
    0.13564652487117013,
    -1.0892309037883237,
    0.49287390945019116,
    -0.5290384812363861,
    -2.009065336331009,
    1.486133694058567,
    0.8328320139845695,
    -0.9331917282742849,
    -0.5876438711967151,
    1.0586326046371937,
    -0.596866269795539,
    0.72693919798841,
    -1.6132162650190829,
    1.5215330289848652,
    -0.4090187113094163,
    0.24581522462769975,
    -1.0864624559697647,
    0.3303536475009177,
    -0.6878053436010942,
    -0.511572271644988,
    -0.6727189285191307,
    -0.9009897271233086,
    2.0026839816773774,
    1.2806958730522915,
    1.7584206081905303,
    -1.0824757483588772,
    0.08718236916353103,
    -1.146295773803297,
    -0.6059896282022164,
    -0.8070248760621038,
    1.1431250866777825,
    -0.3353314864943704,
    0.9883894488890205,
    0.14594278446340048,
    1.6742025958879467,
    -1.727664369952925,
    0.7350403743490325,
    0.6336139351394624,
    -1.2725944897954256,
    0.5083442276384473,
    -0.09502958071553931,
    -0.6018554770143992,
    -0.7166171699639389,
    -0.618158579840405,
    1.9825704312659143,
    0.05791136568981966,
    0.7918911205141517,
    -0.6855877760235327,
    -0.675212333944941,
    1.0735318547313673,
    -1.2103289124284355,
    -0.8187569999021955,
    0.04301193596982731,
    0.19138142180928316,
    -0.36581255313514915,
    0.7370298495359082,
    1.3068270716748192,
    1.386976109837688,
    -1.913306643294848,
    -0.5673501924953334,
    1.0517340393040029,
    0.8047223034884204,
    -1.0615605962201473,
    0.3576656985095733,
    -1.5598100025144588,
    0.1070083850030037,
    1.630345193096693,
    -0.7117895590180016,
    -0.6183154616490857,
    1.065543006928033,
    -2.0375664864936818,
    -0.8133877214471693,
    0.8401056665885728,
    -0.815446951035413,
    -0.27963935654204103,
    1.0388491060805018,
    0.6048398700315798,
    0.3967028658896179,
    -0.2190661564288792,
    1.3316802048983656,
    0.25191869707037057,
    1.5235480022317032,
    -0.5641431718245259,
    0.12326344375939077,
    -1.6422252600069565,
    0.44593068418898135,
    -1.25090644388845,
    -1.8396276452440465,
    0.36403327796190027,
    0.2903139125576773,
    1.2055721426832693,
    -0.7433081811685822,
    0.6038575856091118,
    0.833011247972021,
    0.6628071732152205,
    -1.3766595135865713,
    0.13047654316964855,
    0.33195219903332074,
    -0.002902934436238755,
    -1.9668986449734374,
    0.14091364137039375,
    2.065871846815825,
    -0.34737882470832293,
    -0.6926240199135415,
    0.3405901936423526,
    -0.13529704721999034,
    1.11708702710168,
    -2.369108606216691,
    0.46076967514121486,
    0.2602444302775192,
    -0.7818978968380705,
    -0.097870061494314,
    0.8848103695980037,
    0.6612621096506482,
    -1.5230959097383414,
    1.1996127964627563,
    -0.027571227952802944,
    0.16321293163582606,
    0.16366074827246,
    -0.14622563677298006,
    1.7149103396958902,
    -0.0539628252809611,
    -1.490541216321847,
    -0.947394618474361,
    -0.3510985968706743,
    0.7436131066368467,
    0.09115436570323365,
    -1.4236246309839724,
    2.0524226375412913,
    -0.2613968988293352,
    0.7917315181766698,
    -0.695406882899698,
    -0.01881503362165119,
    0.5034142200842533,
    1.1495296126225214,
    0.8751561610344275,
    0.5592497665777684,
    -1.466282872636208,
    -1.9041494056440205,
    -0.3613019890641212,
    0.6631995406470311,
    -0.45299608399706914,
    1.0297537791372466,
    1.4758186641435225,
    -1.251537496265234,
    -1.160124087835955,
    -0.35819160813418266,
    0.1575763268173415,
    -0.8005115182557426,
    1.3602120243900726,
    0.2864091048180837,
    0.029484249423426586,
    -0.9560494148837633,
    -0.8758271867173381,
    0.1908470593611551,
    -1.4214335940293512,
    0.6795724254438545,
    -0.10251254067383367,
    2.169509897257766,
    1.642409123139737,
    -0.24306365349368403,
    -0.18617294490221456,
    0.6484323050438734,
    1.1843696131168113,
    -1.346293417644531,
    -1.4586526247926932,
    -0.5767681543762996,
    0.33573975390900024,
    0.6818314849038534,
    1.1523639497878089,
    -0.7115962792998095,
    -1.6285559649707086,
    0.9784434806546333,
    -0.40647487415949374,
    -1.384085144979966,
    0.392883029009278,
    0.9251903190544042,
    0.21977648087264867,
    -0.4050236391530115,
    0.15036362186855817,
    -0.2426502254518165,
    -2.061398735208065,
    -0.8829063838120359,
    1.4168209338103195,
    1.0454266391419251,
    0.7595913079314774,
    -0.6622558026265886,
    0.0581370463449652,
    -1.7087120662804927,
    0.37685932760821245,
    1.4839333077645276,
    -1.0863427948432525,
    -0.2999360829953131,
    0.510225617476572,
    1.3280914475513699,
    -0.4062580096034567,
    -0.6516336170600977,
    -1.9353686925276476,
    0.1484564082735843,
    2.097818421105977,
    0.32333882847434847,
    0.022043861460524807,
    0.36831007939005045,
    0.03329272048671739,
    -1.2842139128182217,
    0.8142192117658502,
    0.047943611617659865,
    -0.21899200643396352,
    -1.4924185696653842,
    1.4300780973561082,
    0.6108550678542558,
    -0.9506621225732581,
    1.0431906228969534,
    0.5634544879361716,
    0.21009470770568475,
    0.23779917660410163,
    -1.0186524398864056,
    1.7674148245835228,
    -1.0932871795323518,
    -0.3445323989225342,
    -1.39696669629765,
    1.074675517809463,
    0.3541302196374545,
    0.04406170181106859,
    -1.2144577161657353,
    -1.4423930264591773,
    1.4347556144501359,
    -0.34947658053302555,
    1.1745513704199417,
    -0.93787336891301,
    0.9367017857523485,
    2.2854055093598173,
    0.8814311204868114,
    -1.0736048384490982,
    0.23737433219092743,
    -0.7373524575195115,
    -0.2507461763016513,
    -0.9036609242779443,
    -0.587912362143933,
    0.149065796654582,
    -0.39798532415209487,
    -0.4297441325050468,
    -0.9552898217638306,
    -1.2538781175502562,
    -0.7137721329469605,
    1.2277704762250958,
    -0.25615571086992,
    1.7272101081579283,
    1.0518446554050849,
    -1.4230344559725825,
    1.197091452754974,
    1.352715308001366,
    -0.4496389111338803,
    0.9626075622426111,
    -0.3124500820993288,
    0.6404987111328384,
    -0.7199286591959405,
    -1.247860925730058,
    -0.18301679281064348,
    0.43191923833513485,
    -0.21829237732153953,
    -2.0846660635215177,
    -0.2235599635679196,
    1.3647459479016466,
    0.619033268542854,
    1.15874437007617,
    -0.864907627634184,
    1.1270473047264833,
    -1.3753164267176257,
    0.3978775835903835,
    1.1378897967954946,
    0.3907877173710204,
    -0.3376089871496123,
    -0.6848150547268115,
    0.9824936536533984,
    -1.6383555875427307,
    -1.0516327669520347,
    -0.31506083331735585,
    1.788539227381838,
    0.6849209664949242,
    -1.0489589008514593,
    -0.2028189434121484,
    -0.5939162946294556,
    -0.7167272955984983,
    1.4556548408841905,
    -1.368810120367264,
    1.5864091680060888,
    0.8124848944201585,
    1.07288712509662,
    -0.46772226047277204,
    -0.15738083231858963,
    -1.4296974449018105,
    -0.5289211271415625,
    0.48075059767913136,
    2.0267060650311506,
    -1.0672275224480816,
    -0.11241744131556747,
    0.16335480970937785,
    -1.4388162561925366,
    1.1194491898863113,
    -0.5739344749465003,
    0.10659136823038833,
    -0.22370573795454202,
    -1.1984764328693849,
    -0.15685605252066315,
    -0.4345588905968884,
    -0.6426028195433731,
    -1.1174191296104865,
    0.27797000798866245,
    2.0543084322436003,
    0.038783549715652704,
    1.1788513351928802,
    -0.9741181848862194,
    0.5649074295240072,
    -0.6829592412317725,
    -1.0603194610571278,
    -0.3270339584729943,
    1.5930610557033067,
    1.3525772626644978,
    0.6496574330693429,
    -1.1157723353130393,
    0.31521176488785013,
    0.8643397198439388,
    0.7252177344862222,
    -1.5015162314113992,
    -0.4501095755599072,
    0.46099313131026204,
    1.1230253110300252,
    -1.890038507060217,
    0.3528766524732244,
    -0.031101605037438786,
    0.6887645917818818,
    0.5290588586410054,
    0.4166961537033834,
    -0.9918452246712604,
    -2.1207691350770106,
    -0.5772967042557424,
    0.8436466161984341,
    1.2428464487167477,
    0.45820287767407264,
    0.13083240748026426,
    0.07297245802631076,
    -1.0163968391934595,
    -0.5203980855065733,
    1.5740707401112983,
    -1.4662726471073346,
    1.510867823347608,
    -0.7438787348321871,
    1.5640961070257644,
    -1.0536918246114106,
    0.8555484726205851,
    -0.41171644409098646,
    -1.0617899285500747,
    0.5035681698562988,
    1.2613719836291837,
    -0.5153562388551229,
    -1.1420302970242369,
    -0.2738487707149384,
    -0.2689258526348572,
    0.44086330927012524,
    0.8888670616966617,
    -0.2376427351133482,
    1.9002696490576227,
    0.07903846588775267,
    -0.558076772805995,
    -1.9705443546430235,
    -0.7573305406612009,
    -0.8527291038753396,
    0.8251069107389298,
    0.1809582170109314,
    -1.9434940169734036,
    -0.1945798170304783,
    0.4514523467696287,
    1.5597087003590628,
    0.7309073036618697,
    0.7031089498108454,
    -0.14407526446789748,
    0.25273339084812596,
    1.2938720681373113,
    -1.827976696578607,
    -0.6391706771498065,
    -1.1507127586934907,
    0.24166075981072674,
    1.2705602282827921,
    -0.3156885720545676,
    -2.1296842553845177,
    -0.12880600608673254,
    1.2121652320496317,
    0.8319903323735028,
    0.7212854933024374,
    0.004945172052065175,
    -1.0056047611934391,
    0.8093973649416204,
    -1.1184800880279493,
    2.1813887183377005,
    0.41731782288035996,
    -0.84119303223089,
    -0.8747964666590232,
    -0.3080062533752839,
    -0.468231760696981,
    1.0145941323890106,
    -0.0025930726169435233,
    -0.8282277364973651,
    1.404659342886449,
    -0.16319996036501727,
    0.4495337793616562,
    -0.7231391263068405,
    0.10402997986276057,
    0.059743364071179535,
    -1.8143646595211538,
    1.5109650165083317,
    1.344794032867051,
    -0.9531996190992432,
    -1.913158362364526,
    0.06078685078619471,
    -0.2943793370462282,
    0.07182498607914421,
    -0.15158564258876076,
    0.2768288013057819,
    1.5580882900605866,
    0.13549562530733775,
    -0.9315662066301578,
    0.6595154094907845,
    0.8429162882084431,
    1.8398525110543007,
    -0.980269564870599,
    -0.07901789888573565,
    -1.6125582075875138,
    0.12563204391313978,
    -0.010127741665641428,
    1.984069426330629,
    -0.192805795242948,
    -0.9307063612723999,
    0.051946948333720565,
    -1.1617054876642143,
    1.038185726232444,
    -1.2339936053909393,
    0.4551368903393493,
    -1.7818467067515518,
    -0.07733815710858838,
    1.8271146290168832,
    0.583070664960782,
    -0.6041515297984391,
    0.20303726425021273,
    0.2507731715497551,
    0.6916758022649476,
    -1.092335138384002,
    1.1120751668025832,
    -2.155394206641845,
    -0.09944248240232922,
    0.040901595537241514,
    1.1524701466571308,
    0.5472365217389227,
    -0.8681829550470497,
    -0.45137479981393525,
    0.7217110131692804,
    0.14510502602554456,
    -0.30757485410259094,
    -0.21859685560514436,
    0.8468922289156464,
    -0.2519635265657038,
    0.1369360755915196,
    2.1810315348356264,
    -1.072117357106638,
    -1.4597122719882598,
    0.7728684599171438,
    -0.801619618359908,
    -0.4135458146513788,
    -0.9120028647093529,
    -0.35062219963707764,
    1.6503803578414715,
    0.7928304737153552,
    0.8575390137766051,
    -1.5958278078928583,
    -0.6659887524101956,
    -2.2702515537252212,
    -0.3411558363625439,
    1.3373920887765098,
    0.9194319895157846,
    0.21757402347645938,
    0.4069129969001796,
    -0.22663291510157454,
    0.6227179589306017,
    0.30916194859731333,
    -1.8138313484229933,
    -0.10641406042378479,
    0.4576226562419654,
    -0.7435067715816551,
    0.2510656431118266,
    2.1353446086068066,
    -0.46651216362142134,
    -0.022930512508056767,
    -1.3593070177503765,
    -0.0813289681987354,
    0.3065518408194068,
    -0.06243516756334432,
    -1.75082692964722,
    -0.04642140929254735,
    1.6993787685340511,
    0.2903762279867087,
    1.0040126551120567,
    -0.21849712966736914,
